{"learner":{"attributes":{"best_iteration":"0","best_score":"0.00918035991077737","scikit_learn":"{\"_estimator_type\": \"regressor\"}"},"feature_names":[],"feature_types":[],"gradient_booster":{"model":{"gbtree_model_param":{"num_parallel_tree":"1","num_trees":"31"},"iteration_indptr":[0,1,2,3,4,5,6,7,8,9,10,11,12,13,14,15,16,17,18,19,20,21,22,23,24,25,26,27,28,29,30,31],"tree_info":[0,0,0,0,0,0,0,0,0,0,0,0,0,0,0,0,0,0,0,0,0,0,0,0,0,0,0,0,0,0,0],"trees":[{"base_weights":[2.6048108E-5,-1.9944356E-4,1.4659247E-2,-2.5496813E-3,1.0383899E-3,1.7881908E-2,-0E0,-1.8329469E-3,-2.3881959E-2,6.0438276E-3,4.40714E-4,-0E0,1.9673873E-2,-1.7186705E-4,-2.9200894E-5,-0E0,-9.4090146E-4,2.4554087E-4,-8.714502E-6,6.57411E-5,-1.1344717E-5,6.280127E-4,-0E0],"categories":[],"categories_nodes":[],"categories_segments":[],"categories_sizes":[],"default_left":[0,0,0,0,0,0,0,0,0,0,0,0,0,0,0,0,0,0,0,0,0,0,0],"id":0,"left_children":[1,3,5,7,9,11,-1,13,15,17,19,-1,21,-1,-1,-1,-1,-1,-1,-1,-1,-1,-1],"loss_changes":[1.7811941E-2,1.4344868E-2,3.8028248E-3,2.3545198E-2,8.826365E-3,1.7995816E-3,0E0,4.88672E-3,7.307742E-3,5.131296E-3,4.2663678E-3,0E0,8.785445E-4,0E0,0E0,0E0,0E0,0E0,0E0,0E0,0E0,0E0,0E0],"parents":[2147483647,0,0,1,1,2,2,3,3,4,4,5,5,7,7,8,8,9,9,10,10,12,12],"right_children":[2,4,6,8,10,12,-1,14,16,18,20,-1,22,-1,-1,-1,-1,-1,-1,-1,-1,-1,-1],"split_conditions":[1.140156E3,1.9975154E0,4.8626258E10,7.120015E2,4.385389E10,1.18404254E-1,-0E0,3.027E1,2.9244518E-1,2.635E-3,-8.6E-5,-0E0,7.7529097E0,-1.7186705E-4,-2.9200894E-5,-0E0,-9.4090146E-4,2.4554087E-4,-8.714502E-6,6.57411E-5,-1.1344717E-5,6.280127E-4,-0E0],"split_indices":[1,12,6,1,6,11,0,2,27,8,8,0,12,0,0,0,0,0,0,0,0,0,0],"split_type":[0,0,0,0,0,0,0,0,0,0,0,0,0,0,0,0,0,0,0,0,0,0,0],"sum_hessian":[4.958E3,4.877E3,8.1E1,1.71E3,3.167E3,6.6E1,1.5E1,1.66E3,5E1,3.19E2,2.848E3,7E0,5.9E1,2.78E2,1.382E3,1.4E1,3.6E1,2.5E2,6.9E1,9.46E2,1.902E3,5.4E1,5E0],"tree_param":{"num_deleted":"0","num_feature":"40","num_nodes":"23","size_leaf_vector":"1"}},{"base_weights":[-1.1749003E-4,1.5673989E-3,-1.1656078E-3,1.3307787E-2,9.2440285E-4,-1.5728557E-3,4.6584974E-3,1.1516976E-3,1.8664917E-2,5.1955343E-3,1.756234E-4,1.8339462E-3,-2.2421705E-3,8.36405E-3,-0E0,8.1381135E-5,-0E0,-0E0,6.448737E-4,2.6500455E-4,-3.640892E-5,5.712189E-5,-3.8409606E-5,-0E0,1.4570614E-4,-5.5274213E-5,-3.2273194E-4,3.0842295E-4,-0E0],"categories":[],"categories_nodes":[],"categories_segments":[],"categories_sizes":[],"default_left":[0,0,0,0,0,0,0,0,0,0,0,0,0,0,0,0,0,0,0,0,0,0,0,0,0,0,0,0,0],"id":1,"left_children":[1,3,5,7,9,11,13,15,17,19,21,23,25,27,-1,-1,-1,-1,-1,-1,-1,-1,-1,-1,-1,-1,-1,-1,-1],"loss_changes":[8.743777E-3,1.26887E-2,7.058627E-3,3.792677E-3,5.1642475E-3,6.696343E-3,2.797619E-3,1.3151253E-4,3.1321552E-3,6.5084957E-3,3.9352058E-3,2.9516197E-3,7.1033286E-3,2.1281848E-3,0E0,0E0,0E0,0E0,0E0,0E0,0E0,0E0,0E0,0E0,0E0,0E0,0E0,0E0,0E0],"parents":[2147483647,0,0,1,1,2,2,3,3,4,4,5,5,6,6,7,7,8,8,9,9,10,10,11,11,12,12,13,13],"right_children":[2,4,6,8,10,12,14,16,18,20,22,24,26,28,-1,-1,-1,-1,-1,-1,-1,-1,-1,-1,-1,-1,-1,-1,-1],"split_conditions":[-5.7612807E-1,-9.13E-3,9.841456E-1,-1.8316972E0,1.19605E-1,-1.6561731E0,1.4113113E-1,1.2869745E-1,-1.1307681E0,2.479E-3,1.65E0,2.13E0,6.807179E3,5.7424325E-1,-0E0,8.1381135E-5,-0E0,-0E0,6.448737E-4,2.6500455E-4,-3.640892E-5,5.712189E-5,-3.8409606E-5,-0E0,1.4570614E-4,-5.5274213E-5,-3.2273194E-4,3.0842295E-4,-0E0],"split_indices":[13,8,3,13,11,15,11,30,3,8,0,0,23,22,0,0,0,0,0,0,0,0,0,0,0,0,0,0,0],"split_type":[0,0,0,0,0,0,0,0,0,0,0,0,0,0,0,0,0,0,0,0,0,0,0,0,0,0,0,0,0],"sum_hessian":[4.972E3,1.87E3,3.102E3,8.8E1,1.782E3,2.916E3,1.86E2,3.3E1,5.5E1,2.45E2,1.537E3,4.54E2,2.462E3,9.7E1,8.9E1,2.3E1,1E1,7E0,4.8E1,1.66E2,7.9E1,7.34E2,8.03E2,2.65E2,1.89E2,2.364E3,9.8E1,8.4E1,1.3E1],"tree_param":{"num_deleted":"0","num_feature":"40","num_nodes":"29","size_leaf_vector":"1"}},{"base_weights":[-4.414084E-5,1.3871458E-3,-1.65108E-3,-0E0,5.2784244E-3,-4.428607E-3,-1.875274E-4,4.8936442E-3,-9.3014544E-4,1.5591778E-2,4.2387336E-3,-6.976384E-3,9.498394E-5,-0E0,-9.310837E-3,5.111403E-5,2.4607842E-4,6.635923E-4,-3.7132144E-5,5.99087E-4,-0E0,9.830609E-5,2.6128822E-4,-2.4625147E-4,2.6097108E-5,-3.1540134E-5,9.554461E-5,-2.5994706E-5,3.1071602E-5,-0E0,-4.6517412E-4],"categories":[],"categories_nodes":[],"categories_segments":[],"categories_sizes":[],"default_left":[0,0,0,0,0,0,0,0,0,0,0,0,0,0,0,0,0,0,0,0,0,0,0,0,0,0,0,0,0,0,0],"id":2,"left_children":[1,3,5,7,9,11,13,15,17,19,21,23,25,27,29,-1,-1,-1,-1,-1,-1,-1,-1,-1,-1,-1,-1,-1,-1,-1,-1],"loss_changes":[1.1475737E-2,1.3915286E-2,9.204261E-3,8.842406E-3,5.2315723E-3,9.8743085E-3,2.1983502E-3,2.2780183E-3,9.368222E-3,1.8705036E-3,1.4691446E-3,5.8062933E-3,1.18719E-3,1.3889759E-3,1.352466E-3,0E0,0E0,0E0,0E0,0E0,0E0,0E0,0E0,0E0,0E0,0E0,0E0,0E0,0E0,0E0,0E0],"parents":[2147483647,0,0,1,1,2,2,3,3,4,4,5,5,6,6,7,7,8,8,9,9,10,10,11,11,12,12,13,13,14,14],"right_children":[2,4,6,8,10,12,14,16,18,20,22,24,26,28,30,-1,-1,-1,-1,-1,-1,-1,-1,-1,-1,-1,-1,-1,-1,-1,-1],"split_conditions":[4.797618E10,4.633175E2,5.804428E10,-3.9125885E1,-8.532E-3,4.819131E1,7.598E1,6.787E1,4.29924E10,6.781E-3,9.2453046E2,5.255E1,1.599E-3,8.97144E2,-7.1935936E1,5.111403E-5,2.4607842E-4,6.635923E-4,-3.7132144E-5,5.99087E-4,-0E0,9.830609E-5,2.6128822E-4,-2.4625147E-4,2.6097108E-5,-3.1540134E-5,9.554461E-5,-2.5994706E-5,3.1071602E-5,-0E0,-4.6517412E-4],"split_indices":[6,7,6,4,8,10,9,9,6,17,7,2,8,16,10,0,0,0,0,0,0,0,0,0,0,0,0,0,0,0,0],"split_type":[0,0,0,0,0,0,0,0,0,0,0,0,0,0,0,0,0,0,0,0,0,0,0,0,0,0,0,0,0,0,0],"sum_hessian":[4.976E3,2.599E3,2.377E3,1.921E3,6.78E2,7.96E2,1.581E3,3.1E2,1.611E3,5.2E1,6.26E2,5.23E2,2.73E2,1.556E3,2.5E1,1.74E2,1.36E2,1.6E1,1.595E3,3.6E1,1.6E1,5.35E2,9.1E1,4.63E2,6E1,1.76E2,9.7E1,8.76E2,6.8E2,1.1E1,1.4E1],"tree_param":{"num_deleted":"0","num_feature":"40","num_nodes":"31","size_leaf_vector":"1"}},{"base_weights":[1.2731667E-6,1.3424203E-3,-1.2694919E-3,1.6403152E-2,8.930485E-4,-6.970006E-4,-7.134398E-3,7.5633574E-4,8.59848E-3,5.986149E-4,1.6168352E-2,6.317211E-4,-1.8453884E-3,-4.3748175E-3,-2.7993692E-2,3.4143947E-4,-0E0,-9.2364835E-6,1.0934176E-4,-0E0,5.7184265E-4,-2.8562007E-4,2.7572982E-5,-1.1785404E-4,2.8935501E-5,-2.3370437E-4,4.9364706E-5,-0E0,-1.0381507E-3],"categories":[],"categories_nodes":[],"categories_segments":[],"categories_sizes":[],"default_left":[0,0,0,0,0,0,0,0,0,0,0,0,0,0,0,0,0,0,0,0,0,0,0,0,0,0,0,0,0],"id":3,"left_children":[1,3,5,7,9,11,13,-1,15,17,19,21,23,25,27,-1,-1,-1,-1,-1,-1,-1,-1,-1,-1,-1,-1,-1,-1],"loss_changes":[8.518482E-3,1.4958831E-2,7.6932046E-3,8.7060593E-4,9.125766E-3,3.659541E-3,8.6713275E-3,0E0,1.0398768E-3,6.8680234E-3,7.049246E-4,2.1682854E-3,7.815765E-3,4.5339363E-3,2.2896808E-3,0E0,0E0,0E0,0E0,0E0,0E0,0E0,0E0,0E0,0E0,0E0,0E0,0E0,0E0],"parents":[2147483647,0,0,1,1,2,2,3,3,4,4,5,5,6,6,8,8,9,9,10,10,11,11,12,12,13,13,14,14],"right_children":[2,4,6,8,10,12,14,-1,16,18,20,22,24,26,28,-1,-1,-1,-1,-1,-1,-1,-1,-1,-1,-1,-1,-1,-1],"split_conditions":[5.938898E9,-1.0374041E2,5.489401E3,5.433E-3,2.5844693E0,-3.0917016E-1,8.151E-3,7.5633574E-4,-2.5378876E1,4.633175E2,5.1428347E9,2.402E1,4.095E1,5.072E-3,-7.586E-3,3.4143947E-4,-0E0,-9.2364835E-6,1.0934176E-4,-0E0,5.7184265E-4,-2.8562007E-4,2.7572982E-5,-1.1785404E-4,2.8935501E-5,-2.3370437E-4,4.9364706E-5,-0E0,-1.0381507E-3],"split_indices":[5,4,23,17,3,3,17,0,10,7,5,2,2,17,36,0,0,0,0,0,0,0,0,0,0,0,0,0,0],"split_type":[0,0,0,0,0,0,0,0,0,0,0,0,0,0,0,0,0,0,0,0,0,0,0,0,0,0,0,0,0],"sum_hessian":[4.992E3,2.467E3,2.525E3,6.4E1,2.403E3,2.317E3,2.08E2,2.3E1,4.1E1,2.365E3,3.8E1,1.034E3,1.283E3,1.89E2,1.9E1,3.1E1,1E1,1.798E3,5.67E2,9E0,2.9E1,1.8E1,1.016E3,7.57E2,5.26E2,1.31E2,5.8E1,5E0,1.4E1],"tree_param":{"num_deleted":"0","num_feature":"40","num_nodes":"29","size_leaf_vector":"1"}},{"base_weights":[2.8053219E-5,-1.3350195E-4,1.9920196E-2,-2.5610602E-3,1.1366006E-3,9.3628664E-4,2.7501353E-4,-1.7591162E-3,-1.9481072E-2,6.0437275E-3,5.6883635E-4,-0E0,-1.0279996E-4,-0E0,-8.344024E-4,2.5693089E-4,-8.908577E-6,3.1405775E-6,9.918838E-5],"categories":[],"categories_nodes":[],"categories_segments":[],"categories_sizes":[],"default_left":[0,0,0,0,0,0,0,0,0,0,0,0,0,0,0,0,0,0,0],"id":4,"left_children":[1,3,5,7,9,-1,-1,11,13,15,17,-1,-1,-1,-1,-1,-1,-1,-1],"loss_changes":[1.7940456E-2,1.5321104E-2,1.1390205E-3,2.1153089E-2,8.264729E-3,0E0,0E0,4.5553283E-3,1.3675183E-2,5.8478015E-3,3.33309E-3,0E0,0E0,0E0,0E0,0E0,0E0,0E0,0E0],"parents":[2147483647,0,0,1,1,2,2,3,3,4,4,7,7,8,8,9,9,10,10],"right_children":[2,4,6,8,10,-1,-1,12,14,16,18,-1,-1,-1,-1,-1,-1,-1,-1],"split_conditions":[1.3510117E3,1.9738102E0,-8.942111E-1,7.120015E2,4.385389E10,9.3628664E-4,2.7501353E-4,4.9678296E-1,-1.7319435E0,2.635E-3,6.968592E2,-0E0,-1.0279996E-4,-0E0,-8.344024E-4,2.5693089E-4,-8.908577E-6,3.1405775E-6,9.918838E-5],"split_indices":[1,12,3,1,6,0,0,13,13,8,1,0,0,0,0,0,0,0,0],"split_type":[0,0,0,0,0,0,0,0,0,0,0,0,0,0,0,0,0,0,0],"sum_hessian":[4.965E3,4.921E3,4.4E1,1.717E3,3.204E3,1.6E1,2.8E1,1.646E3,7.1E1,3.13E2,2.891E3,8.25E2,8.21E2,1.9E1,5.2E1,2.35E2,7.8E1,2.504E3,3.87E2],"tree_param":{"num_deleted":"0","num_feature":"40","num_nodes":"19","size_leaf_vector":"1"}},{"base_weights":[-6.896344E-5,-2.366948E-3,1.2579947E-3,-1.647443E-3,-1.8469326E-2,6.2750635E-4,5.5090953E-3,-1.3919455E-3,-6.635908E-4,-8.4602606E-4,-4.9063275E-3,3.81686E-3,-2.0041947E-5,7.857625E-3,-0E0,7.824955E-5,-6.108216E-5,-0E0,-4.7135318E-4,2.562094E-4,5.241931E-5,-4.2199954E-5,3.407818E-5,3.051301E-4,-0E0,1.423014E-4,-5.3637785E-5],"categories":[],"categories_nodes":[],"categories_segments":[],"categories_sizes":[],"default_left":[0,0,0,0,0,0,0,0,0,0,0,0,0,0,0,0,0,0,0,0,0,0,0,0,0,0,0],"id":5,"left_children":[1,3,5,7,9,11,13,15,-1,-1,17,19,21,23,25,-1,-1,-1,-1,-1,-1,-1,-1,-1,-1,-1,-1],"loss_changes":[1.52751375E-2,1.9368341E-2,7.758725E-3,6.907611E-3,6.186107E-3,6.044768E-3,4.4906326E-3,4.4830367E-3,0E0,0E0,2.5894435E-3,3.736496E-3,3.6432338E-3,3.954431E-3,1.2264163E-3,0E0,0E0,0E0,0E0,0E0,0E0,0E0,0E0,0E0,0E0,0E0,0E0],"parents":[2147483647,0,0,1,1,2,2,3,3,4,4,5,5,6,6,7,7,10,10,11,11,12,12,13,13,14,14],"right_children":[2,4,6,8,10,12,14,16,-1,-1,18,20,22,24,26,-1,-1,-1,-1,-1,-1,-1,-1,-1,-1,-1,-1],"split_conditions":[2.1232665E0,2.73E0,4.507E-3,1.5338306E-1,1.3098458E0,4.4380795E10,3.326E1,-3.8351593E1,-6.635908E-4,-8.4602606E-4,-1.6348095E-1,1.1973318E-1,-1.584849E1,1.3882057E-1,3.5476263E0,7.824955E-5,-6.108216E-5,-0E0,-4.7135318E-4,2.562094E-4,5.241931E-5,-4.2199954E-5,3.407818E-5,3.051301E-4,-0E0,1.423014E-4,-5.3637785E-5],"split_indices":[12,0,17,11,12,6,2,4,0,0,3,11,4,11,12,0,0,0,0,0,0,0,0,0,0,0,0],"split_type":[0,0,0,0,0,0,0,0,0,0,0,0,0,0,0,0,0,0,0,0,0,0,0,0,0,0,0],"sum_hessian":[4.971E3,1.847E3,3.124E3,1.775E3,7.2E1,2.742E3,3.82E2,1.759E3,1.6E1,3.7E1,3.5E1,4.88E2,2.254E3,2.6E2,1.22E2,2.22E2,1.537E3,2.2E1,1.3E1,1.33E2,3.55E2,1.064E3,1.19E3,1.93E2,6.7E1,4.2E1,8E1],"tree_param":{"num_deleted":"0","num_feature":"40","num_nodes":"27","size_leaf_vector":"1"}},{"base_weights":[-0E0,4.5889984E-3,-4.2189358E-4,9.060571E-3,5.4045266E-4,7.3786586E-4,-1.4956235E-3,4.9080146E-3,1.9123022E-2,-2.2063234E-3,1.9169691E-3,1.1729591E-4,3.2580018E-3,1.2706565E-3,-2.304582E-3,-2.5809593E-5,3.8169857E-4,8.34304E-4,-0E0,1.4332589E-4,-2.3811511E-4,9.4045594E-5,-0E0,-2.8119245E-4,8.912081E-6,2.3685227E-4,-1.1751584E-5,-1.4566996E-5,1.0142852E-4,-5.098549E-5,-1.8404171E-4],"categories":[],"categories_nodes":[],"categories_segments":[],"categories_sizes":[],"default_left":[0,0,0,0,0,0,0,0,0,0,0,0,0,0,0,0,0,0,0,0,0,0,0,0,0,0,0,0,0,0,0],"id":6,"left_children":[1,3,5,7,9,11,13,15,17,19,21,23,25,27,29,-1,-1,-1,-1,-1,-1,-1,-1,-1,-1,-1,-1,-1,-1,-1,-1],"loss_changes":[9.879499E-3,6.8375524E-3,5.6955297E-3,5.5675246E-3,8.7894883E-4,2.9854195E-3,5.450201E-3,7.7340007E-3,6.0567018E-3,2.5951941E-3,6.407012E-4,2.0604164E-3,7.319951E-3,2.1924337E-3,3.5537547E-3,0E0,0E0,0E0,0E0,0E0,0E0,0E0,0E0,0E0,0E0,0E0,0E0,0E0,0E0,0E0,0E0],"parents":[2147483647,0,0,1,1,2,2,3,3,4,4,5,5,6,6,7,7,8,8,9,9,10,10,11,11,12,12,13,13,14,14],"right_children":[2,4,6,8,10,12,14,16,18,20,22,24,26,28,30,-1,-1,-1,-1,-1,-1,-1,-1,-1,-1,-1,-1,-1,-1,-1,-1],"split_conditions":[4.385389E10,4.5655057E-1,-1.3693173E-1,1.2065472E-1,8.912517E-1,2.3178394E7,-1.2600918E0,1.98E0,1.7E0,1.1934322E-1,2.60605E1,1.1636137E-1,4.839884E10,2.07E0,2.62E0,-2.5809593E-5,3.8169857E-4,8.34304E-4,-0E0,1.4332589E-4,-2.3811511E-4,9.4045594E-5,-0E0,-2.8119245E-4,8.912081E-6,2.3685227E-4,-1.1751584E-5,-1.4566996E-5,1.0142852E-4,-5.098549E-5,-1.8404171E-4],"split_indices":[6,13,13,11,13,34,15,0,0,11,10,11,6,0,0,0,0,0,0,0,0,0,0,0,0,0,0,0,0,0,0],"split_type":[0,0,0,0,0,0,0,0,0,0,0,0,0,0,0,0,0,0,0,0,0,0,0,0,0,0,0,0,0,0,0],"sum_hessian":[4.941E3,4.3E2,4.511E3,1.92E2,2.38E2,2.124E3,2.387E3,1.44E2,4.8E1,5.5E1,1.83E2,1.737E3,3.87E2,5.12E2,1.875E3,7.6E1,6.8E1,3E1,1.8E1,1.7E1,3.8E1,1.33E2,5E1,2.1E1,1.716E3,1.82E2,2.05E2,2.54E2,2.58E2,1.643E3,2.32E2],"tree_param":{"num_deleted":"0","num_feature":"40","num_nodes":"31","size_leaf_vector":"1"}},{"base_weights":[-2.4272062E-5,-2.1010593E-3,1.1784697E-3,-1.3890851E-3,-1.8374978E-2,5.221913E-3,1.3013315E-4,-1.1938538E-3,-7.246303E-4,-8.873947E-4,-1.7111914E-3,8.1053755E-4,1.0254714E-2,-7.082689E-5,1.0269977E-2,-3.8478365E-6,-8.929711E-5,-0E0,-3.8926385E-4,1.0939667E-4,-3.3932243E-5,1.940464E-4,4.392609E-4,-4.0127747E-5,4.3315962E-5,4.2579175E-4,-0E0],"categories":[],"categories_nodes":[],"categories_segments":[],"categories_sizes":[],"default_left":[0,0,0,0,0,0,0,0,0,0,0,0,0,0,0,0,0,0,0,0,0,0,0,0,0,0,0],"id":7,"left_children":[1,3,5,7,9,11,13,15,-1,-1,17,19,21,23,25,-1,-1,-1,-1,-1,-1,-1,-1,-1,-1,-1,-1],"loss_changes":[1.2716315E-2,1.9827241E-2,1.29013965E-2,5.4897647E-3,1.0450488E-2,1.2938758E-2,6.1923335E-3,3.1123033E-3,0E0,0E0,1.7524308E-3,2.1774229E-3,2.5288537E-3,4.749826E-3,1.633401E-3,0E0,0E0,0E0,0E0,0E0,0E0,0E0,0E0,0E0,0E0,0E0,0E0],"parents":[2147483647,0,0,1,1,2,2,3,3,4,4,5,5,6,6,7,7,10,10,11,11,12,12,13,13,14,14],"right_children":[2,4,6,8,10,12,14,16,-1,-1,18,20,22,24,26,-1,-1,-1,-1,-1,-1,-1,-1,-1,-1,-1,-1],"split_conditions":[2.1232665E0,7.333E1,-2.815E-3,1.5367801E-1,1.108E-3,6.614E1,2.8812373E0,2.541E-3,-7.246303E-4,-8.873947E-4,-1.6348095E-1,3.7700386E0,5.772794E2,2.449E-3,1.3935341E-1,-3.8478365E-6,-8.929711E-5,-0E0,-3.8926385E-4,1.0939667E-4,-3.3932243E-5,1.940464E-4,4.392609E-4,-4.0127747E-5,4.3315962E-5,4.2579175E-4,-0E0],"split_indices":[12,9,8,11,8,9,3,17,0,0,3,12,7,17,11,0,0,0,0,0,0,0,0,0,0,0,0],"split_type":[0,0,0,0,0,0,0,0,0,0,0,0,0,0,0,0,0,0,0,0,0,0,0,0,0,0,0],"sum_hessian":[5.052E3,1.883E3,3.169E3,1.811E3,7.2E1,6.32E2,2.537E3,1.801E3,1E1,3.9E1,3.3E1,3.48E2,2.84E2,2.479E3,5.8E1,1.163E3,6.38E2,2.3E1,1E1,1.62E2,1.86E2,1.66E2,1.18E2,1.386E3,1.093E3,3.8E1,2E1],"tree_param":{"num_deleted":"0","num_feature":"40","num_nodes":"27","size_leaf_vector":"1"}},{"base_weights":[1.1081781E-4,-9.7540535E-5,1.4669954E-2,4.5243525E-3,-5.9866015E-4,1.8328395E-2,-0E0,-3.1373696E-3,6.358781E-3,1.2600408E-3,-1.2733358E-3,7.2446733E-4,1.6070122E-3,-0E0,-2.3262227E-4,2.528539E-4,-0E0,1.3828402E-5,1.4722226E-4,-1.7485436E-4,-2.5513127E-5,-0E0,1.1006687E-4],"categories":[],"categories_nodes":[],"categories_segments":[],"categories_sizes":[],"default_left":[0,0,0,0,0,0,0,0,0,0,0,0,0,0,0,0,0,0,0,0,0,0,0],"id":8,"left_children":[1,3,5,7,9,11,-1,13,15,17,19,-1,21,-1,-1,-1,-1,-1,-1,-1,-1,-1,-1],"loss_changes":[1.6556488E-2,1.096145E-2,3.5848245E-3,6.8073347E-3,5.573292E-3,3.225224E-3,0E0,1.6875494E-3,5.65276E-3,2.7951929E-3,5.6822198E-3,0E0,9.38365E-5,0E0,0E0,0E0,0E0,0E0,0E0,0E0,0E0,0E0,0E0],"parents":[2147483647,0,0,1,1,2,2,3,3,4,4,5,5,7,7,8,8,9,9,10,10,12,12],"right_children":[2,4,6,8,10,12,-1,14,16,18,20,-1,22,-1,-1,-1,-1,-1,-1,-1,-1,-1,-1],"split_conditions":[1.140156E3,4.385389E10,6.057436E9,3.5342053E2,-1.0750325E0,2.3623962E0,-0E0,-5.219557E-1,2.635E-3,6.5188385E2,2.775E1,7.2446733E-4,2.0017384E5,-0E0,-2.3262227E-4,2.528539E-4,-0E0,1.3828402E-5,1.4722226E-4,-1.7485436E-4,-2.5513127E-5,-0E0,1.1006687E-4],"split_indices":[1,6,5,1,15,15,0,3,8,7,2,0,18,0,0,0,0,0,0,0,0,0,0],"split_type":[0,0,0,0,0,0,0,0,0,0,0,0,0,0,0,0,0,0,0,0,0,0,0],"sum_hessian":[4.976E3,4.9E3,7.6E1,4.59E2,4.441E3,5.9E1,1.7E1,7.8E1,3.81E2,1.143E3,3.298E3,3.9E1,2E1,3.8E1,4E1,2.96E2,8.5E1,9.61E2,1.82E2,2.59E2,3.039E3,1E1,1E1],"tree_param":{"num_deleted":"0","num_feature":"40","num_nodes":"23","size_leaf_vector":"1"}},{"base_weights":[8.3131104E-5,-2.207311E-3,1.3097413E-3,-1.6106855E-2,-1.5448567E-3,4.0545614E-4,3.5188748E-3,-9.0918667E-4,-6.0836417E-3,-3.9207335E-3,-4.8763232E-4,1.5476572E-3,-5.847682E-4,1.1408625E-2,2.5622598E-3,-5.047123E-4,-0E0,2.7443628E-5,-1.8687017E-4,5.290437E-5,-5.1070052E-5,-1.4932357E-5,7.8571014E-5,-1.0437474E-5,-3.2439604E-4,-0E0,4.102313E-4,1.0644453E-4,-0E0],"categories":[],"categories_nodes":[],"categories_segments":[],"categories_sizes":[],"default_left":[0,0,0,0,0,0,0,0,0,0,0,0,0,0,0,0,0,0,0,0,0,0,0,0,0,0,0,0,0],"id":9,"left_children":[1,3,5,7,9,11,13,-1,15,17,19,21,23,25,27,-1,-1,-1,-1,-1,-1,-1,-1,-1,-1,-1,-1,-1,-1],"loss_changes":[1.3946486E-2,1.3992138E-2,6.162548E-3,6.2815975E-3,3.686708E-3,2.7686993E-3,5.524884E-3,0E0,3.3551874E-3,5.861251E-3,3.190703E-3,2.72039E-3,1.8333107E-3,2.0093853E-3,2.2041635E-3,0E0,0E0,0E0,0E0,0E0,0E0,0E0,0E0,0E0,0E0,0E0,0E0,0E0,0E0],"parents":[2147483647,0,0,1,1,2,2,3,3,4,4,5,5,6,6,8,8,9,9,10,10,11,11,12,12,13,13,14,14],"right_children":[2,4,6,8,10,12,14,-1,16,18,20,22,24,26,28,-1,-1,-1,-1,-1,-1,-1,-1,-1,-1,-1,-1,-1,-1],"split_conditions":[1.9738102E0,2.667E1,4.7138794E2,4.5655057E-1,1.7745648E2,-1.9514179E-2,-1.2439125E2,-9.0918667E-4,5.772794E2,-9.209245E-1,1.921E-3,3.077E1,4.935E1,2.180901E3,4.393E1,-5.047123E-4,-0E0,2.7443628E-5,-1.8687017E-4,5.290437E-5,-5.1070052E-5,-1.4932357E-5,7.8571014E-5,-1.0437474E-5,-3.2439604E-4,-0E0,4.102313E-4,1.0644453E-4,-0E0],"split_indices":[12,2,7,13,7,13,4,0,7,14,17,2,2,23,2,0,0,0,0,0,0,0,0,0,0,0,0,0,0],"split_type":[0,0,0,0,0,0,0,0,0,0,0,0,0,0,0,0,0,0,0,0,0,0,0,0,0,0,0,0,0],"sum_hessian":[4.994E3,1.713E3,3.281E3,7E1,1.643E3,2.361E3,9.2E2,2.4E1,4.6E1,4.76E2,1.167E3,1.143E3,1.218E3,8.7E1,8.33E2,1.7E1,2.9E1,1.4E2,3.36E2,3.8E2,7.87E2,3.61E2,7.82E2,1.201E3,1.7E1,1.6E1,7.1E1,6.09E2,2.24E2],"tree_param":{"num_deleted":"0","num_feature":"40","num_nodes":"29","size_leaf_vector":"1"}},{"base_weights":[-2.1314822E-4,-3.7329292E-4,1.8371841E-2,-2.2582756E-3,6.4385036E-4,6.943908E-4,2.5363074E-6,-1.4835201E-3,-1.899097E-2,5.44243E-3,7.359949E-5,-1.9434037E-5,-1.6330327E-4,-6.984048E-4,7.526827E-5,-0E0,2.4944308E-4,6.897782E-5,-1.0716291E-5],"categories":[],"categories_nodes":[],"categories_segments":[],"categories_sizes":[],"default_left":[0,0,0,0,0,0,0,0,0,0,0,0,0,0,0,0,0,0,0],"id":10,"left_children":[1,3,5,7,9,-1,-1,11,13,15,17,-1,-1,-1,-1,-1,-1,-1,-1],"loss_changes":[1.2948555E-2,9.590248E-3,9.0553705E-4,2.0714637E-2,8.095003E-3,0E0,0E0,4.9702767E-3,8.775173E-3,4.5757974E-3,2.921954E-3,0E0,0E0,0E0,0E0,0E0,0E0,0E0,0E0],"parents":[2147483647,0,0,1,1,2,2,3,3,4,4,7,7,8,8,9,9,10,10],"right_children":[2,4,6,8,10,-1,-1,12,14,16,18,-1,-1,-1,-1,-1,-1,-1,-1],"split_conditions":[1.3510117E3,1.9975154E0,2.4774013E0,7.120015E2,4.385389E10,6.943908E-4,2.5363074E-6,2.31E0,1.113367E3,2.5944022E2,-2.815E-3,-1.9434037E-5,-1.6330327E-4,-6.984048E-4,7.526827E-5,-0E0,2.4944308E-4,6.897782E-5,-1.0716291E-5],"split_indices":[1,12,15,1,6,0,0,0,1,7,8,0,0,0,0,0,0,0,0],"split_type":[0,0,0,0,0,0,0,0,0,0,0,0,0,0,0,0,0,0,0],"sum_hessian":[4.952E3,4.916E3,3.6E1,1.757E3,3.159E3,2.4E1,1.2E1,1.686E3,7.1E1,3.16E2,2.843E3,1.414E3,2.72E2,6.3E1,8E0,1.15E2,2.01E2,4.98E2,2.345E3],"tree_param":{"num_deleted":"0","num_feature":"40","num_nodes":"19","size_leaf_vector":"1"}},{"base_weights":[-0E0,-2.0441946E-3,1.0883322E-3,-1.2810309E-3,-1.782609E-2,-1.4465382E-4,2.3824503E-3,-2.108908E-3,4.052302E-4,-0E0,-2.0873535E-2,-7.3436473E-4,5.0811903E-3,-4.362256E-4,3.1602664E-3,-4.256556E-5,-2.044925E-4,1.414209E-4,-8.072671E-6,-8.4672973E-4,-2.0529237E-4,9.604044E-5,-3.345964E-5,4.2281064E-4,-0E0,1.2393828E-4,-9.0464564E-5,1.17243166E-4,-0E0],"categories":[],"categories_nodes":[],"categories_segments":[],"categories_sizes":[],"default_left":[0,0,0,0,0,0,0,0,0,0,0,0,0,0,0,0,0,0,0,0,0,0,0,0,0,0,0,0,0],"id":11,"left_children":[1,3,5,7,9,11,13,15,17,-1,19,21,23,25,27,-1,-1,-1,-1,-1,-1,-1,-1,-1,-1,-1,-1,-1,-1],"loss_changes":[1.1090208E-2,1.8987177E-2,5.385986E-3,2.4941948E-3,4.3701436E-3,4.5552994E-3,3.8211038E-3,2.922004E-3,1.9246652E-3,0E0,2.9007532E-3,2.0019908E-3,5.540388E-3,3.7060692E-3,3.0323435E-3,0E0,0E0,0E0,0E0,0E0,0E0,0E0,0E0,0E0,0E0,0E0,0E0,0E0,0E0],"parents":[2147483647,0,0,1,1,2,2,3,3,4,4,5,5,6,6,7,7,8,8,10,10,11,11,12,12,13,13,14,14],"right_children":[2,4,6,8,10,12,14,16,18,-1,20,22,24,26,28,-1,-1,-1,-1,-1,-1,-1,-1,-1,-1,-1,-1,-1,-1],"split_conditions":[1.9975154E0,2.73E0,2.461E-3,1.848522E3,-1.7583898E-1,1.6848618E1,1.28E0,2.34E0,1.887E-3,-0E0,1.3098458E0,2.3782337E0,-1.6487789E-1,-1.5590746E0,8.866545E0,-4.256556E-5,-2.044925E-4,1.414209E-4,-8.072671E-6,-8.4672973E-4,-2.0529237E-4,9.604044E-5,-3.345964E-5,4.2281064E-4,-0E0,1.2393828E-4,-9.0464564E-5,1.17243166E-4,-0E0],"split_indices":[12,0,17,16,30,12,0,0,17,0,12,12,13,15,12,0,0,0,0,0,0,0,0,0,0,0,0,0,0],"split_type":[0,0,0,0,0,0,0,0,0,0,0,0,0,0,0,0,0,0,0,0,0,0,0,0,0,0,0,0,0],"sum_hessian":[4.97E3,1.736E3,3.234E3,1.663E3,7.3E1,1.617E3,1.617E3,1.155E3,5.08E2,1E1,6.3E1,1.471E3,1.46E2,3.22E2,1.295E3,1.027E3,1.28E2,8.8E1,4.2E2,3.6E1,2.7E1,1.06E2,1.365E3,4.6E1,1E2,1.02E2,2.2E2,1.045E3,2.5E2],"tree_param":{"num_deleted":"0","num_feature":"40","num_nodes":"29","size_leaf_vector":"1"}},{"base_weights":[1.3046346E-4,1.2943469E-3,-1.0729501E-3,5.865533E-3,2.9832448E-4,-3.5201749E-3,1.0509216E-4,1.3600959E-2,1.0360628E-3,-0E0,1.571138E-2,-1.9016021E-3,-1.083996E-2,4.638463E-3,-3.440494E-4,4.4285491E-4,-0E0,-2.4823203E-5,1.529689E-4,4.7002788E-5,-8.4399915E-5,-0E0,5.744232E-4,-2.0198018E-5,-2.239108E-4,-0E0,-4.9622904E-4,-0E0,2.4018754E-4,2.3711998E-5,-5.8131052E-5],"categories":[],"categories_nodes":[],"categories_segments":[],"categories_sizes":[],"default_left":[0,0,0,0,0,0,0,0,0,0,0,0,0,0,0,0,0,0,0,0,0,0,0,0,0,0,0,0,0,0,0],"id":12,"left_children":[1,3,5,7,9,11,13,15,17,19,21,23,25,27,29,-1,-1,-1,-1,-1,-1,-1,-1,-1,-1,-1,-1,-1,-1,-1,-1],"loss_changes":[7.0364987E-3,1.1165038E-2,7.318579E-3,1.514652E-2,9.929935E-3,8.349182E-3,3.7030906E-3,2.9698368E-3,2.574029E-3,9.284129E-3,1.2446111E-3,3.8202817E-3,8.643685E-3,2.411275E-3,2.7250876E-3,0E0,0E0,0E0,0E0,0E0,0E0,0E0,0E0,0E0,0E0,0E0,0E0,0E0,0E0,0E0,0E0],"parents":[2147483647,0,0,1,1,2,2,3,3,4,4,5,5,6,6,7,7,8,8,9,9,10,10,11,11,12,12,13,13,14,14],"right_children":[2,4,6,8,10,12,14,16,18,20,22,24,26,28,30,-1,-1,-1,-1,-1,-1,-1,-1,-1,-1,-1,-1,-1,-1,-1,-1],"split_conditions":[4.797618E10,-3.9125885E1,5.804428E10,3.8397512E-1,2.5844693E0,1.3657439E-1,1.4156212E-1,1.2693237E-1,6.816E1,1.19407445E-1,5.8816887E1,5.880069E3,-2.6984033E-1,5.262E1,-3.0917016E-1,4.4285491E-4,-0E0,-2.4823203E-5,1.529689E-4,4.7002788E-5,-8.4399915E-5,-0E0,5.744232E-4,-2.0198018E-5,-2.239108E-4,-0E0,-4.9622904E-4,-0E0,2.4018754E-4,2.3711998E-5,-5.8131052E-5],"split_indices":[6,4,6,13,3,11,11,11,9,15,4,16,3,9,3,0,0,0,0,0,0,0,0,0,0,0,0,0,0,0,0],"split_type":[0,0,0,0,0,0,0,0,0,0,0,0,0,0,0,0,0,0,0,0,0,0,0,0,0,0,0,0,0,0,0],"sum_hessian":[5.006E3,2.587E3,2.419E3,4.44E2,2.143E3,8.13E2,1.606E3,1.62E2,2.82E2,2.103E3,4E1,6.78E2,1.35E2,1.64E2,1.442E3,1.51E2,1.1E1,1.77E2,1.05E2,1.35E3,7.53E2,1E1,3E1,5.71E2,1.07E2,4.6E1,8.9E1,7.2E1,9.2E1,8.06E2,6.36E2],"tree_param":{"num_deleted":"0","num_feature":"40","num_nodes":"31","size_leaf_vector":"1"}},{"base_weights":[-6.1083585E-5,1.0341877E-3,-1.2612027E-3,-1.2746792E-4,4.320051E-3,-4.038204E-3,6.931307E-5,1.608424E-2,-3.7147122E-4,5.0924723E-3,-0E0,-2.5757083E-3,-1.0977888E-2,4.281149E-3,-3.9365122E-4,9.861155E-4,-0E0,5.2409072E-5,-4.111889E-5,1.6591106E-4,-0E0,5.5364566E-5,-3.8549177E-5,-4.8050268E-5,-3.1455E-4,-2.2573702E-5,-5.0123094E-4,-0E0,2.2747535E-4,2.163512E-5,-6.0606E-5],"categories":[],"categories_nodes":[],"categories_segments":[],"categories_sizes":[],"default_left":[0,0,0,0,0,0,0,0,0,0,0,0,0,0,0,0,0,0,0,0,0,0,0,0,0,0,0,0,0,0,0],"id":13,"left_children":[1,3,5,7,9,11,13,15,17,19,21,23,25,27,29,-1,-1,-1,-1,-1,-1,-1,-1,-1,-1,-1,-1,-1,-1,-1,-1],"loss_changes":[6.6436063E-3,1.0305947E-2,9.438453E-3,5.918901E-3,1.8403735E-3,6.908308E-3,3.57077E-3,6.1937193E-3,3.925027E-3,1.4160937E-3,3.553336E-4,4.0748287E-3,5.8580805E-3,2.5103702E-3,2.7588494E-3,0E0,0E0,0E0,0E0,0E0,0E0,0E0,0E0,0E0,0E0,0E0,0E0,0E0,0E0,0E0,0E0],"parents":[2147483647,0,0,1,1,2,2,3,3,4,4,5,5,6,6,7,7,8,8,9,9,10,10,11,11,12,12,13,13,14,14],"right_children":[2,4,6,8,10,12,14,16,18,20,22,24,26,28,30,-1,-1,-1,-1,-1,-1,-1,-1,-1,-1,-1,-1,-1,-1,-1,-1],"split_conditions":[4.797618E10,4.633175E2,5.804428E10,4.29924E10,9.332928E-1,1.3657439E-1,1.4164479E-1,2.3454308E2,-7.238282E-1,6.826E-3,-8.648574E6,2.79E0,-1.6348095E-1,1.12E0,-3.0917016E-1,9.861155E-4,-0E0,5.2409072E-5,-4.111889E-5,1.6591106E-4,-0E0,5.5364566E-5,-3.8549177E-5,-4.8050268E-5,-3.1455E-4,-2.2573702E-5,-5.0123094E-4,-0E0,2.2747535E-4,2.163512E-5,-6.0606E-5],"split_indices":[6,7,6,6,27,11,11,7,13,36,34,0,3,0,3,0,0,0,0,0,0,0,0,0,0,0,0,0,0,0,0],"split_type":[0,0,0,0,0,0,0,0,0,0,0,0,0,0,0,0,0,0,0,0,0,0,0,0,0,0,0,0,0,0,0],"sum_hessian":[5.035E3,2.589E3,2.446E3,1.891E3,6.98E2,8.16E2,1.63E3,2.1E1,1.87E3,5.73E2,1.25E2,6.87E2,1.29E2,1.82E2,1.448E3,1E1,1.1E1,5.67E2,1.303E3,5.32E2,4.1E1,8.2E1,4.3E1,6.24E2,6.3E1,5.3E1,7.6E1,8.1E1,1.01E2,8.23E2,6.25E2],"tree_param":{"num_deleted":"0","num_feature":"40","num_nodes":"31","size_leaf_vector":"1"}},{"base_weights":[-0E0,-1.8979744E-3,1.0121055E-3,-1.2435878E-3,-1.582972E-2,2.2962564E-3,-6.365253E-4,-1.0104746E-3,-7.370488E-4,-0E0,-2.0849274E-2,1.3972931E-2,1.7226923E-3,-4.654175E-3,1.6029093E-4,8.561757E-6,-7.613393E-5,-2.1850326E-5,1.915471E-4,-6.854445E-4,-0E0,-0E0,5.3991773E-4,4.1343603E-5,4.2275604E-4,-4.641036E-5,-5.495852E-4,-1.9726202E-5,7.508378E-5],"categories":[],"categories_nodes":[],"categories_segments":[],"categories_sizes":[],"default_left":[0,0,0,0,0,0,0,0,0,0,0,0,0,0,0,0,0,0,0,0,0,0,0,0,0,0,0,0,0],"id":14,"left_children":[1,3,5,7,9,11,13,15,-1,17,19,21,23,25,27,-1,-1,-1,-1,-1,-1,-1,-1,-1,-1,-1,-1,-1,-1],"loss_changes":[9.552189E-3,1.3908204E-2,7.141132E-3,6.3670874E-3,6.802162E-3,1.1037511E-2,4.960806E-3,3.4619686E-3,0E0,4.1085278E-4,1.7591361E-3,2.8429488E-3,6.1351466E-3,8.769952E-3,2.4008017E-3,0E0,0E0,0E0,0E0,0E0,0E0,0E0,0E0,0E0,0E0,0E0,0E0,0E0,0E0],"parents":[2147483647,0,0,1,1,2,2,3,3,4,4,5,5,6,6,7,7,9,9,10,10,11,11,12,12,13,13,14,14],"right_children":[2,4,6,8,10,12,14,16,-1,18,20,22,24,26,28,-1,-1,-1,-1,-1,-1,-1,-1,-1,-1,-1,-1,-1,-1],"split_conditions":[1.9256737E0,2.73E0,1.3340852E-1,1.5367801E-1,-3.7618018E2,-9.0590645E1,8.3170217E9,3.0277109E-2,-7.370488E-4,-2.0035463E2,1.4204815E-1,1.1866706E-1,2.5844693E0,1.4173709E-1,8.8593596E-1,8.561757E-6,-7.613393E-5,-2.1850326E-5,1.915471E-4,-6.854445E-4,-0E0,-0E0,5.3991773E-4,4.1343603E-5,4.2275604E-4,-4.641036E-5,-5.495852E-4,-1.9726202E-5,7.508378E-5],"split_indices":[12,0,11,11,10,4,5,14,0,4,11,11,3,11,14,0,0,0,0,0,0,0,0,0,0,0,0,0,0],"split_type":[0,0,0,0,0,0,0,0,0,0,0,0,0,0,0,0,0,0,0,0,0,0,0,0,0,0,0,0,0],"sum_hessian":[5.007E3,1.714E3,3.293E3,1.645E3,6.9E1,1.885E3,1.408E3,1.634E3,1.1E1,1.4E1,5.5E1,7.9E1,1.806E3,2.53E2,1.155E3,8.49E2,7.85E2,5E0,9E0,4.9E1,6E0,2.3E1,5.6E1,1.766E3,4E1,2.13E2,4E1,8.25E2,3.3E2],"tree_param":{"num_deleted":"0","num_feature":"40","num_nodes":"29","size_leaf_vector":"1"}},{"base_weights":[-0E0,-1.9588637E-4,1.1717021E-2,-0E0,-4.8520244E-3,1.444439E-2,-0E0,-1.3375674E-4,6.2985322E-3,-2.0330042E-2,-2.568084E-3,2.3564096E-3,6.3008757E-4,-1.0413912E-5,1.6440972E-4,2.8671572E-4,-0E0,-8.656554E-4,-0E0,-0E0,-2.2158594E-4,-0E0,1.5498958E-4],"categories":[],"categories_nodes":[],"categories_segments":[],"categories_sizes":[],"default_left":[0,0,0,0,0,0,0,0,0,0,0,0,0,0,0,0,0,0,0,0,0,0,0],"id":15,"left_children":[1,3,5,7,9,11,-1,13,15,17,19,21,-1,-1,-1,-1,-1,-1,-1,-1,-1,-1,-1],"loss_changes":[1.1309011E-2,4.8964685E-3,2.2326093E-3,4.485674E-3,5.2937665E-3,2.6884545E-3,0E0,4.9881283E-3,2.4469541E-3,5.0617326E-3,2.5328794E-3,3.1940814E-4,0E0,0E0,0E0,0E0,0E0,0E0,0E0,0E0,0E0,0E0,0E0],"parents":[2147483647,0,0,1,1,2,2,3,3,4,4,5,5,7,7,8,8,9,9,10,10,11,11],"right_children":[2,4,6,8,10,12,-1,14,16,18,20,22,-1,-1,-1,-1,-1,-1,-1,-1,-1,-1,-1],"split_conditions":[1.140156E3,6.567401E3,6.057436E9,2.5844693E0,-1.2954683E2,-1.858138E0,-0E0,9.2453046E2,6.4505566E2,6.584946E9,6.8408653E9,1.1839978E3,6.3008757E-4,-1.0413912E-5,1.6440972E-4,2.8671572E-4,-0E0,-8.656554E-4,-0E0,-0E0,-2.2158594E-4,-0E0,1.5498958E-4],"split_indices":[1,23,5,3,4,13,0,7,1,5,5,7,0,0,0,0,0,0,0,0,0,0,0],"split_type":[0,0,0,0,0,0,0,0,0,0,0,0,0,0,0,0,0,0,0,0,0,0,0],"sum_hessian":[4.995E3,4.915E3,8E1,4.7E3,2.15E2,6.3E1,1.7E1,4.59E3,1.1E2,2.1E1,1.94E2,2.8E1,3.5E1,4.44E3,1.5E2,7.4E1,3.6E1,1.6E1,5E0,1.25E2,6.9E1,1.1E1,1.7E1],"tree_param":{"num_deleted":"0","num_feature":"40","num_nodes":"23","size_leaf_vector":"1"}},{"base_weights":[8.887117E-5,-9.451793E-5,1.2852762E-2,-1.596669E-3,6.8376656E-4,-0E0,1.4448076E-2,-9.31249E-4,-1.9134797E-2,3.2171863E-3,7.993996E-5,1.6409041E-2,-0E0,-1.3235821E-4,-4.5813867E-6,-0E0,-6.8988936E-4,2.0507742E-4,-0E0,-2.346129E-6,2.487788E-4,-0E0,5.749679E-4],"categories":[],"categories_nodes":[],"categories_segments":[],"categories_sizes":[],"default_left":[0,0,0,0,0,0,0,0,0,0,0,0,0,0,0,0,0,0,0,0,0,0,0],"id":16,"left_children":[1,3,5,7,9,-1,11,13,15,17,19,21,-1,-1,-1,-1,-1,-1,-1,-1,-1,-1,-1],"loss_changes":[1.2889541E-2,5.8022705E-3,1.5184432E-3,1.7943325E-2,4.5254445E-3,0E0,1.4826078E-3,4.027653E-3,5.0426815E-3,6.43729E-3,4.1937474E-3,1.7452221E-3,0E0,0E0,0E0,0E0,0E0,0E0,0E0,0E0,0E0,0E0,0E0],"parents":[2147483647,0,0,1,1,2,2,3,3,4,4,6,6,7,7,8,8,9,9,10,10,11,11],"right_children":[2,4,6,8,10,-1,12,14,16,18,20,22,-1,-1,-1,-1,-1,-1,-1,-1,-1,-1,-1],"split_conditions":[1.140156E3,1.9738102E0,1.18404254E-1,7.120015E2,-2.815E-3,-0E0,1.2758078E-1,3.027E1,-7.615E-3,3.427E1,2.8812373E0,-1.6523E-2,-0E0,-1.3235821E-4,-4.5813867E-6,-0E0,-6.8988936E-4,2.0507742E-4,-0E0,-2.346129E-6,2.487788E-4,-0E0,5.749679E-4],"split_indices":[1,12,11,1,8,0,11,2,8,2,3,8,0,0,0,0,0,0,0,0,0,0,0],"split_type":[0,0,0,0,0,0,0,0,0,0,0,0,0,0,0,0,0,0,0,0,0,0,0],"sum_hessian":[4.96E3,4.883E3,7.7E1,1.71E3,3.173E3,9E0,6.8E1,1.654E3,5.6E1,5.78E2,2.595E3,5.8E1,1E1,2.78E2,1.376E3,8E0,4.8E1,2.65E2,3.13E2,2.535E3,6E1,1.1E1,4.7E1],"tree_param":{"num_deleted":"0","num_feature":"40","num_nodes":"23","size_leaf_vector":"1"}},{"base_weights":[-0E0,-1.9492354E-4,1.2200142E-2,1.6516384E-3,-8.447397E-4,1.4816368E-2,-0E0,4.0916186E-3,-1.9812419E-3,-1.5289948E-3,6.816352E-4,1.9482125E-2,2.2560912E-3,2.5805068E-5,2.2208512E-4,-7.940866E-4,-3.2377426E-5,-3.1359803E-5,-2.2434213E-4,-3.932658E-5,1.1843183E-4,-0E0,6.607801E-4,-0E0,1.529283E-4],"categories":[],"categories_nodes":[],"categories_segments":[],"categories_sizes":[],"default_left":[0,0,0,0,0,0,0,0,0,0,0,0,0,0,0,0,0,0,0,0,0,0,0,0,0],"id":17,"left_children":[1,3,5,7,9,11,-1,13,15,17,19,21,23,-1,-1,-1,-1,-1,-1,-1,-1,-1,-1,-1,-1],"loss_changes":[1.179498E-2,5.7691443E-3,2.2202693E-3,1.1113192E-2,3.8937689E-3,1.4742259E-3,0E0,7.21376E-3,7.774767E-3,6.514563E-3,7.32327E-3,8.2765054E-4,2.9361137E-4,0E0,0E0,0E0,0E0,0E0,0E0,0E0,0E0,0E0,0E0,0E0,0E0],"parents":[2147483647,0,0,1,1,2,2,3,3,4,4,5,5,7,7,8,8,9,9,10,10,11,11,12,12],"right_children":[2,4,6,8,10,12,-1,14,16,18,20,22,24,-1,-1,-1,-1,-1,-1,-1,-1,-1,-1,-1,-1],"split_conditions":[1.140156E3,5.4657935E9,6.057436E9,2.112E-3,7.286859E-1,2.3623962E0,-0E0,4.1551282E2,1.7695229E2,5.274098E3,3.83E1,-1.2800817E8,2.0017384E5,2.5805068E-5,2.2208512E-4,-7.940866E-4,-3.2377426E-5,-3.1359803E-5,-2.2434213E-4,-3.932658E-5,1.1843183E-4,-0E0,6.607801E-4,-0E0,1.529283E-4],"split_indices":[1,5,5,8,14,15,0,1,1,16,2,25,18,0,0,0,0,0,0,0,0,0,0,0,0],"split_type":[0,0,0,0,0,0,0,0,0,0,0,0,0,0,0,0,0,0,0,0,0,0,0,0,0],"sum_hessian":[4.95E3,4.873E3,7.7E1,1.228E3,3.645E3,6.2E1,1.5E1,7.51E2,4.77E2,2.562E3,1.083E3,3.9E1,2.3E1,3.96E2,3.55E2,1.2E1,4.65E2,2.386E3,1.76E2,6.54E2,4.29E2,7E0,3.2E1,8E0,1.5E1],"tree_param":{"num_deleted":"0","num_feature":"40","num_nodes":"25","size_leaf_vector":"1"}},{"base_weights":[-5.2931297E-5,-1.9506665E-3,8.949785E-4,-1.252183E-3,-1.7730469E-2,3.8850715E-3,1.18679614E-4,6.8346723E-3,-1.4851636E-3,-2.3824288E-2,-9.540122E-4,-0E0,8.113293E-3,-7.783881E-4,2.011151E-3,-0E0,9.614703E-4,5.3095453E-5,-6.0964736E-5,-0E0,-7.6271035E-4,-2.37113E-4,-0E0,2.6764168E-4,-1.093259E-5,-0E0,2.6704127E-4,-3.833104E-5,1.3146628E-4,-2.6513686E-7,1.2297298E-4],"categories":[],"categories_nodes":[],"categories_segments":[],"categories_sizes":[],"default_left":[0,0,0,0,0,0,0,0,0,0,0,0,0,0,0,0,0,0,0,0,0,0,0,0,0,0,0,0,0,0,0],"id":18,"left_children":[1,3,5,7,9,11,13,15,17,19,21,23,25,27,29,-1,-1,-1,-1,-1,-1,-1,-1,-1,-1,-1,-1,-1,-1,-1,-1],"loss_changes":[9.107119E-3,1.6838863E-2,7.263786E-3,2.5594397E-3,4.2467955E-3,1.02712745E-2,4.621983E-3,8.683157E-3,2.885707E-3,2.3392402E-4,6.037621E-4,1.6356482E-3,1.963811E-3,4.23539E-3,4.15432E-3,0E0,0E0,0E0,0E0,0E0,0E0,0E0,0E0,0E0,0E0,0E0,0E0,0E0,0E0,0E0,0E0],"parents":[2147483647,0,0,1,1,2,2,3,3,4,4,5,5,6,6,7,7,8,8,9,9,10,10,11,11,12,12,13,13,14,14],"right_children":[2,4,6,8,10,12,14,16,18,20,22,24,26,28,30,-1,-1,-1,-1,-1,-1,-1,-1,-1,-1,-1,-1,-1,-1,-1,-1],"split_conditions":[1.9256737E0,2.68E0,-2.815E-3,4.29924E10,1.108E-3,1.92E0,8.481093E0,-1.485E-3,-3.9125885E1,-1.3510623E0,5.707611E2,1.4169319E2,2.6761184E0,4.771E-3,1.25E0,-0E0,9.614703E-4,5.3095453E-5,-6.0964736E-5,-0E0,-7.6271035E-4,-2.37113E-4,-0E0,2.6764168E-4,-1.093259E-5,-0E0,2.6704127E-4,-3.833104E-5,1.3146628E-4,-2.6513686E-7,1.2297298E-4],"split_indices":[12,0,8,6,8,0,4,8,4,15,7,7,12,17,0,0,0,0,0,0,0,0,0,0,0,0,0,0,0,0,0],"split_type":[0,0,0,0,0,0,0,0,0,0,0,0,0,0,0,0,0,0,0,0,0,0,0,0,0,0,0,0,0,0,0],"sum_hessian":[5.002E3,1.701E3,3.301E3,1.636E3,6.5E1,6.53E2,2.648E3,3.3E1,1.603E3,4.3E1,2.2E1,3.48E2,3.05E2,1.761E3,8.87E2,2.4E1,9E0,2.04E2,1.399E3,5E0,3.8E1,9E0,1.3E1,1.9E1,3.29E2,2.7E1,2.78E2,1.624E3,1.37E2,4.27E2,4.6E2],"tree_param":{"num_deleted":"0","num_feature":"40","num_nodes":"31","size_leaf_vector":"1"}},{"base_weights":[-7.582814E-5,-1.8085835E-3,8.694426E-4,-1.3231213E-2,-1.278801E-3,4.263754E-3,8.653169E-6,-2.2152057E-2,-0E0,-7.7880634E-4,-5.783491E-3,7.768233E-3,5.967075E-4,-7.699389E-4,1.7070385E-3,-0E0,-7.095743E-4,1.2458138E-4,-1.4886631E-4,-2.0391737E-7,-1.0797083E-4,-4.3987497E-5,-4.8195143E-4,2.651364E-4,-0E0,1.04657E-4,-3.56441E-5,-6.0163617E-5,4.550178E-6,-0E0,1.1792473E-4],"categories":[],"categories_nodes":[],"categories_segments":[],"categories_sizes":[],"default_left":[0,0,0,0,0,0,0,0,0,0,0,0,0,0,0,0,0,0,0,0,0,0,0,0,0,0,0,0,0,0,0],"id":19,"left_children":[1,3,5,7,9,11,13,15,17,19,21,23,25,27,29,-1,-1,-1,-1,-1,-1,-1,-1,-1,-1,-1,-1,-1,-1,-1,-1],"loss_changes":[8.240878E-3,9.382436E-3,8.8669285E-3,7.689642E-3,3.2200145E-3,7.1265427E-3,3.482883E-3,2.0571053E-5,6.8465393E-4,3.0620089E-3,4.970284E-3,2.1015517E-3,1.8755508E-3,2.1407697E-3,2.8964016E-3,0E0,0E0,0E0,0E0,0E0,0E0,0E0,0E0,0E0,0E0,0E0,0E0,0E0,0E0,0E0,0E0],"parents":[2147483647,0,0,1,1,2,2,3,3,4,4,5,5,6,6,7,7,8,8,9,9,10,10,11,11,12,12,13,13,14,14],"right_children":[2,4,6,8,10,12,14,16,18,20,22,24,26,28,30,-1,-1,-1,-1,-1,-1,-1,-1,-1,-1,-1,-1,-1,-1,-1,-1],"split_conditions":[2.0560033E0,2.667E1,-2.815E-3,1.108E-3,7.2791695E1,3.427E1,8.481093E0,-1.3510623E0,-9.0590645E1,5.09E-3,1.6296219E0,7.0022543E9,3.5888114E0,8.3170217E9,8.508981E-1,-0E0,-7.095743E-4,1.2458138E-4,-1.4886631E-4,-2.0391737E-7,-1.0797083E-4,-4.3987497E-5,-4.8195143E-4,2.651364E-4,-0E0,1.04657E-4,-3.56441E-5,-6.0163617E-5,4.550178E-6,-0E0,1.1792473E-4],"split_indices":[12,2,8,8,4,2,4,15,4,8,14,5,12,5,14,0,0,0,0,0,0,0,0,0,0,0,0,0,0,0,0],"split_type":[0,0,0,0,0,0,0,0,0,0,0,0,0,0,0,0,0,0,0,0,0,0,0,0,0,0,0,0,0,0,0],"sum_hessian":[4.972E3,1.792E3,3.18E3,7E1,1.722E3,6.19E2,2.561E3,4E1,3E1,1.571E3,1.51E2,3.02E2,3.17E2,1.716E3,8.45E2,5E0,3.5E1,1.3E1,1.7E1,1.262E3,3.09E2,1.14E2,3.7E1,2.6E2,4.2E1,1.42E2,1.75E2,7.79E2,9.37E2,4.99E2,3.46E2],"tree_param":{"num_deleted":"0","num_feature":"40","num_nodes":"31","size_leaf_vector":"1"}},{"base_weights":[-1.7111769E-6,-1.5701154E-3,7.941611E-4,-1.27026485E-2,-1.0638701E-3,3.872567E-3,-0E0,-6.1037485E-4,-1.9112733E-4,-8.3996437E-4,-6.978299E-4,7.978644E-3,2.663418E-4,-1.4691301E-4,7.4217785E-3,4.2623633E-6,-2.9702345E-4,-7.908085E-5,-2.831426E-6,2.6629426E-4,-0E0,6.908296E-5,-3.5896956E-5,-2.2033285E-4,-0E0,3.0745793E-4,-0E0],"categories":[],"categories_nodes":[],"categories_segments":[],"categories_sizes":[],"default_left":[0,0,0,0,0,0,0,0,0,0,0,0,0,0,0,0,0,0,0,0,0,0,0,0,0,0,0],"id":20,"left_children":[1,3,5,7,9,11,13,-1,15,17,-1,19,21,23,25,-1,-1,-1,-1,-1,-1,-1,-1,-1,-1,-1,-1],"loss_changes":[6.287636E-3,8.286489E-3,7.663117E-3,4.2538512E-3,5.7809125E-3,8.768595E-3,3.41511E-3,0E0,1.0775719E-3,1.9241988E-3,0E0,2.1036249E-3,1.1828718E-3,2.7498535E-3,7.3626544E-4,0E0,0E0,0E0,0E0,0E0,0E0,0E0,0E0,0E0,0E0,0E0,0E0],"parents":[2147483647,0,0,1,1,2,2,3,3,4,4,5,5,6,6,8,8,9,9,11,11,12,12,13,13,14,14],"right_children":[2,4,6,8,10,12,14,-1,16,18,-1,20,22,24,26,-1,-1,-1,-1,-1,-1,-1,-1,-1,-1,-1,-1],"split_conditions":[1.9738102E0,2.687E1,-2.815E-3,1.108E-3,1.5367801E-1,3.369E1,2.8812373E0,-6.1037485E-4,-1.6348095E-1,1.7172078E2,-6.978299E-4,1.3378786E-1,3.7700386E0,1.1679829E-1,1.3935341E-1,4.2623633E-6,-2.9702345E-4,-7.908085E-5,-2.831426E-6,2.6629426E-4,-0E0,6.908296E-5,-3.5896956E-5,-2.2033285E-4,-0E0,3.0745793E-4,-0E0],"split_indices":[12,2,8,8,11,2,3,0,3,7,0,11,12,11,11,0,0,0,0,0,0,0,0,0,0,0,0],"split_type":[0,0,0,0,0,0,0,0,0,0,0,0,0,0,0,0,0,0,0,0,0,0,0,0,0,0,0],"sum_hessian":[4.973E3,1.716E3,3.257E3,6.5E1,1.651E3,6.47E2,2.61E3,3.5E1,3E1,1.64E3,1.1E1,2.89E2,3.58E2,2.55E3,6E1,2E1,1E1,4.41E2,1.199E3,2.6E2,2.9E1,1.78E2,1.8E2,5.1E1,2.499E3,3.8E1,2.2E1],"tree_param":{"num_deleted":"0","num_feature":"40","num_nodes":"27","size_leaf_vector":"1"}},{"base_weights":[-9.581674E-5,7.8629155E-4,-1.1842113E-3,5.70012E-4,1.3967329E-2,-4.5058983E-3,5.6855763E-5,7.0354907E-4,-5.2727683E-4,-0E0,5.4136466E-4,-5.6912703E-3,2.6276626E-3,2.0446547E-3,-1.0325002E-3,-1.0734636E-5,7.744128E-5,-0E0,-2.0235752E-4,-0E0,2.5662617E-4,2.2522017E-5,1.6453478E-4,-2.264147E-5,-3.9059028E-4],"categories":[],"categories_nodes":[],"categories_segments":[],"categories_sizes":[],"default_left":[0,0,0,0,0,0,0,0,0,0,0,0,0,0,0,0,0,0,0,0,0,0,0,0,0],"id":21,"left_children":[1,3,5,7,9,11,13,15,-1,-1,-1,17,19,21,23,-1,-1,-1,-1,-1,-1,-1,-1,-1,-1],"loss_changes":[4.81233E-3,6.22118E-3,9.827826E-3,4.770715E-3,1.117886E-3,5.7415636E-3,3.6459547E-3,5.4989336E-3,0E0,0E0,0E0,3.4992471E-3,1.3501667E-3,2.096298E-3,2.025833E-3,0E0,0E0,0E0,0E0,0E0,0E0,0E0,0E0,0E0,0E0],"parents":[2147483647,0,0,1,1,2,2,3,3,4,4,5,5,6,6,7,7,11,11,12,12,13,13,14,14],"right_children":[2,4,6,8,10,12,14,16,-1,-1,-1,18,20,22,24,-1,-1,-1,-1,-1,-1,-1,-1,-1,-1],"split_conditions":[6.4012314E9,2.5844693E0,8.3170217E9,2.75E0,5.150072E9,9.481371E-1,8.859134E9,3.8972983E2,-5.2727683E-4,-0E0,5.4136466E-4,-4.583518E-1,2.31E0,6.322179E4,3.22E0,-1.0734636E-5,7.744128E-5,-0E0,-2.0235752E-4,-0E0,2.5662617E-4,2.2522017E-5,1.6453478E-4,-2.264147E-5,-3.9059028E-4],"split_indices":[5,3,5,0,5,3,5,7,0,0,0,3,0,20,0,0,0,0,0,0,0,0,0,0,0],"split_type":[0,0,0,0,0,0,0,0,0,0,0,0,0,0,0,0,0,0,0,0,0,0,0,0,0],"sum_hessian":[4.969E3,2.694E3,2.275E3,2.659E3,3.5E1,6.4E2,1.635E3,2.646E3,1.3E1,1.1E1,2.4E1,5.61E2,7.9E1,6.11E2,1.024E3,1.657E3,9.89E2,8.5E1,4.76E2,5.4E1,2.5E1,4.66E2,1.45E2,1.01E3,1.4E1],"tree_param":{"num_deleted":"0","num_feature":"40","num_nodes":"25","size_leaf_vector":"1"}},{"base_weights":[-1.4289007E-5,-1.6511426E-3,8.1015774E-4,-7.01873E-4,-5.5769915E-3,3.6439562E-4,4.0463265E-3,-1.5135694E-4,-5.0939936E-3,-7.624196E-3,2.7644655E-3,1.5691718E-3,-4.2638567E-4,6.542444E-3,-0E0,-3.1933563E-5,5.533047E-5,-0E0,-4.1422376E-4,-4.6045898E-4,-1.4263183E-4,1.3548108E-4,-0E0,2.827539E-4,2.1482756E-5,-7.2005224E-7,-1.6149717E-4,2.3270797E-4,-0E0,-6.515358E-5,1.6435081E-4],"categories":[],"categories_nodes":[],"categories_segments":[],"categories_sizes":[],"default_left":[0,0,0,0,0,0,0,0,0,0,0,0,0,0,0,0,0,0,0,0,0,0,0,0,0,0,0,0,0,0,0],"id":22,"left_children":[1,3,5,7,9,11,13,15,17,19,21,23,25,27,29,-1,-1,-1,-1,-1,-1,-1,-1,-1,-1,-1,-1,-1,-1,-1,-1],"loss_changes":[6.741163E-3,5.6774844E-3,4.2313524E-3,2.823531E-3,5.7837404E-3,2.8549545E-3,4.253997E-3,2.2054552E-3,4.911285E-3,3.6359644E-3,5.407528E-4,6.954222E-3,2.8239663E-3,2.3454772E-3,1.2361263E-3,0E0,0E0,0E0,0E0,0E0,0E0,0E0,0E0,0E0,0E0,0E0,0E0,0E0,0E0,0E0,0E0],"parents":[2147483647,0,0,1,1,2,2,3,3,4,4,5,5,6,6,7,7,8,8,9,9,10,10,11,11,12,12,13,13,14,14],"right_children":[2,4,6,8,10,12,14,16,18,20,22,24,26,28,30,-1,-1,-1,-1,-1,-1,-1,-1,-1,-1,-1,-1,-1,-1,-1,-1],"split_conditions":[1.9256737E0,2.31E0,4.547E-3,7.665961E1,1.6041312E0,1.2569284E-1,2.836E0,3.6358292E2,1.59E0,2.38E0,1.725086E7,-4.311901E1,4.999337E3,1.4675014E-1,1.1839978E3,-3.1933563E-5,5.533047E-5,-0E0,-4.1422376E-4,-4.6045898E-4,-1.4263183E-4,1.3548108E-4,-0E0,2.827539E-4,2.1482756E-5,-7.2005224E-7,-1.6149717E-4,2.3270797E-4,-0E0,-6.515358E-5,1.6435081E-4],"split_indices":[12,0,17,4,13,11,4,7,0,0,34,4,16,11,7,0,0,0,0,0,0,0,0,0,0,0,0,0,0,0,0],"split_type":[0,0,0,0,0,0,0,0,0,0,0,0,0,0,0,0,0,0,0,0,0,0,0,0,0,0,0,0,0,0,0],"sum_hessian":[4.931E3,1.692E3,3.239E3,1.384E3,3.08E2,2.875E3,3.64E2,1.251E3,1.33E2,2.57E2,5.1E1,1.189E3,1.686E3,2.38E2,1.26E2,8.93E2,3.58E2,9E1,4.3E1,5.9E1,1.98E2,4.5E1,6E0,1.04E2,1.085E3,1.579E3,1.07E2,2.08E2,3E1,1.02E2,2.4E1],"tree_param":{"num_deleted":"0","num_feature":"40","num_nodes":"31","size_leaf_vector":"1"}},{"base_weights":[-3.6765516E-5,-1.6969597E-3,9.274139E-4,-1.0343906E-3,-1.2242923E-2,4.8405235E-3,2.6707895E-4,-8.4057596E-4,-1.5168116E-2,-1.8711302E-2,-0E0,-0E0,9.216583E-3,1.8363964E-5,5.2161897E-3,-1.3680447E-5,-1.355303E-4,-0E0,-6.328174E-4,-0E0,-6.241402E-4,1.5332807E-4,-1.96065E-4,1.2563066E-4,-3.6070844E-5,-0E0,3.0665525E-4,-6.4448714E-6,9.233799E-5,3.5680077E-4,-0E0],"categories":[],"categories_nodes":[],"categories_segments":[],"categories_sizes":[],"default_left":[0,0,0,0,0,0,0,0,0,0,0,0,0,0,0,0,0,0,0,0,0,0,0,0,0,0,0,0,0,0,0],"id":23,"left_children":[1,3,5,7,9,11,13,15,17,19,21,23,25,27,29,-1,-1,-1,-1,-1,-1,-1,-1,-1,-1,-1,-1,-1,-1,-1,-1],"loss_changes":[8.093358E-3,1.1781996E-2,7.575751E-3,3.2541598E-3,6.768413E-3,8.27302E-3,2.8011582E-3,1.9907472E-3,1.4282186E-3,3.0472912E-3,1.4691744E-3,1.3581845E-3,2.131056E-3,2.1362863E-3,3.938198E-3,0E0,0E0,0E0,0E0,0E0,0E0,0E0,0E0,0E0,0E0,0E0,0E0,0E0,0E0,0E0,0E0],"parents":[2147483647,0,0,1,1,2,2,3,3,4,4,5,5,6,6,7,7,8,8,9,9,10,10,11,11,12,12,13,13,14,14],"right_children":[2,4,6,8,10,12,14,16,18,20,22,24,26,28,30,-1,-1,-1,-1,-1,-1,-1,-1,-1,-1,-1,-1,-1,-1,-1,-1],"split_conditions":[2.1232665E0,2.58E0,-4.035E-3,1.5338306E-1,1.108E-3,1.96E0,2.5844693E0,5.126E1,2.33E0,-2.4014533E0,-2.9627005E2,3.3062344E0,2.7342248E0,7.713E-3,1.3935341E-1,-1.3680447E-5,-1.355303E-4,-0E0,-6.328174E-4,-0E0,-6.241402E-4,1.5332807E-4,-1.96065E-4,1.2563066E-4,-3.6070844E-5,-0E0,3.0665525E-4,-6.4448714E-6,9.233799E-5,3.5680077E-4,-0E0],"split_indices":[12,0,8,11,8,0,3,2,0,37,10,12,12,8,11,0,0,0,0,0,0,0,0,0,0,0,0,0,0,0,0],"split_type":[0,0,0,0,0,0,0,0,0,0,0,0,0,0,0,0,0,0,0,0,0,0,0,0,0,0,0,0,0,0,0],"sum_hessian":[5.006E3,1.877E3,3.129E3,1.776E3,1.01E2,4.29E2,2.7E3,1.76E3,1.6E1,6.2E1,3.9E1,2.14E2,2.15E2,2.591E3,1.09E2,1.619E3,1.41E2,5E0,1.1E1,5E0,5.7E1,1.6E1,2.3E1,6.4E1,1.5E2,2E1,1.95E2,2.378E3,2.13E2,4.8E1,6.1E1],"tree_param":{"num_deleted":"0","num_feature":"40","num_nodes":"31","size_leaf_vector":"1"}},{"base_weights":[-1.8238776E-5,-2.2310093E-4,1.122602E-2,3.8128311E-3,-6.3551165E-4,1.7060973E-2,3.1596103E-3,1.9145013E-3,1.1976013E-2,9.3992363E-4,-1.2289166E-3,6.8775997E-3,8.283435E-4,-0E0,1.4644045E-4,1.7644242E-4,-3.5298854E-5,1.0262466E-3,1.4036993E-4,6.637166E-5,-5.84231E-5,-1.61546E-4,-2.6114583E-5,2.5194755E-4,-0E0],"categories":[],"categories_nodes":[],"categories_segments":[],"categories_sizes":[],"default_left":[0,0,0,0,0,0,0,0,0,0,0,0,0,0,0,0,0,0,0,0,0,0,0,0,0],"id":24,"left_children":[1,3,5,7,9,11,13,15,17,19,21,23,-1,-1,-1,-1,-1,-1,-1,-1,-1,-1,-1,-1,-1],"loss_changes":[1.0323079E-2,7.8055994E-3,1.6894042E-3,5.251479E-3,4.1902303E-3,5.5133365E-4,1.763973E-4,4.8918063E-3,7.4694576E-3,4.3368083E-3,4.2542373E-3,1.8077658E-4,0E0,0E0,0E0,0E0,0E0,0E0,0E0,0E0,0E0,0E0,0E0,0E0,0E0],"parents":[2147483647,0,0,1,1,2,2,3,3,4,4,5,5,6,6,7,7,8,8,9,9,10,10,11,11],"right_children":[2,4,6,8,10,12,14,16,18,20,22,24,-1,-1,-1,-1,-1,-1,-1,-1,-1,-1,-1,-1,-1],"split_conditions":[1.140156E3,4.3837686E10,4.747055E10,3.723E1,-1.0490944E0,4.651384E0,2.88095E3,3.292E1,1.3865757E0,5.315042E2,2.775E1,-2.1267082E2,8.283435E-4,-0E0,1.4644045E-4,1.7644242E-4,-3.5298854E-5,1.0262466E-3,1.4036993E-4,6.637166E-5,-5.84231E-5,-1.61546E-4,-2.6114583E-5,2.5194755E-4,-0E0],"split_indices":[1,6,6,2,15,12,23,2,12,1,2,4,0,0,0,0,0,0,0,0,0,0,0,0,0],"split_type":[0,0,0,0,0,0,0,0,0,0,0,0,0,0,0,0,0,0,0,0,0,0,0,0,0],"sum_hessian":[4.957E3,4.878E3,7.9E1,4.29E2,4.449E3,3.8E1,4.1E1,3.59E2,7E1,1.171E3,3.278E3,2.5E1,1.3E1,1.7E1,2.4E1,1.71E2,1.88E2,1.3E1,5.7E1,8.37E2,3.34E2,2.37E2,3.041E3,1.9E1,6E0],"tree_param":{"num_deleted":"0","num_feature":"40","num_nodes":"25","size_leaf_vector":"1"}},{"base_weights":[5.1748375E-5,-9.208819E-5,1.1050071E-2,-1.5835608E-3,7.292119E-4,-0E0,1.288776E-2,-9.36375E-4,-1.6614094E-2,4.8442054E-4,5.8989436E-3,4.0862482E-4,-0E0,1.8098592E-5,-6.818428E-5,-0E0,-5.723926E-4,7.030403E-5,-0E0,2.7293467E-4,-0E0],"categories":[],"categories_nodes":[],"categories_segments":[],"categories_sizes":[],"default_left":[0,0,0,0,0,0,0,0,0,0,0,0,0,0,0,0,0,0,0,0,0],"id":25,"left_children":[1,3,5,7,9,-1,11,13,15,17,19,-1,-1,-1,-1,-1,-1,-1,-1,-1,-1],"loss_changes":[8.941759E-3,6.0729035E-3,1.2181606E-3,1.5534705E-2,3.2932628E-3,0E0,2.5775097E-4,3.6930898E-3,3.3483338E-3,2.8300793E-3,2.3763315E-3,0E0,0E0,0E0,0E0,0E0,0E0,0E0,0E0,0E0,0E0],"parents":[2147483647,0,0,1,1,2,2,3,3,4,4,6,6,7,7,8,8,9,9,10,10],"right_children":[2,4,6,8,10,-1,12,14,16,18,20,-1,-1,-1,-1,-1,-1,-1,-1,-1,-1],"split_conditions":[1.140156E3,2.0560033E0,8.120263E4,7.120015E2,2.5844693E0,-0E0,9.7587436E-1,1.5386492E-1,-7.887E-3,-2.234E-3,6.4505566E2,4.0862482E-4,-0E0,1.8098592E-5,-6.818428E-5,-0E0,-5.723926E-4,7.030403E-5,-0E0,2.7293467E-4,-0E0],"split_indices":[1,12,18,1,3,0,33,13,8,8,1,0,0,0,0,0,0,0,0,0,0],"split_type":[0,0,0,0,0,0,0,0,0,0,0,0,0,0,0,0,0,0,0,0,0],"sum_hessian":[4.958E3,4.886E3,7.2E1,1.778E3,3.108E3,1.2E1,6E1,1.712E3,6.6E1,2.987E3,1.21E2,5.5E1,5E0,7.61E2,9.51E2,7E0,5.9E1,6.42E2,2.345E3,7.9E1,4.2E1],"tree_param":{"num_deleted":"0","num_feature":"40","num_nodes":"21","size_leaf_vector":"1"}},{"base_weights":[2.9836483E-5,-5.4622255E-3,2.0393095E-4,-6.0695235E-4,-3.1824156E-3,2.0656209E-3,-2.4596692E-4,-0E0,-8.846966E-3,6.7700697E-3,-2.7332737E-4,-1.6524667E-4,-5.79342E-4,2.197232E-5,-0E0,-3.1775743E-4,-0E0,2.5922662E-4,3.5249635E-5,-5.4192984E-5,6.383264E-5,-6.4574735E-5,8.3504465E-6],"categories":[],"categories_nodes":[],"categories_segments":[],"categories_sizes":[],"default_left":[0,0,0,0,0,0,0,0,0,0,0,0,0,0,0,0,0,0,0,0,0,0,0],"id":26,"left_children":[1,3,5,-1,7,9,11,13,15,17,19,21,-1,-1,-1,-1,-1,-1,-1,-1,-1,-1,-1],"loss_changes":[4.2244196E-3,2.139878E-3,4.2304504E-3,0E0,2.8141337E-3,1.1478932E-2,3.974165E-3,2.8430548E-5,1.0907007E-3,2.5776383E-3,2.3423478E-3,3.5730945E-3,0E0,0E0,0E0,0E0,0E0,0E0,0E0,0E0,0E0,0E0,0E0],"parents":[2147483647,0,0,1,1,2,2,4,4,5,5,6,6,7,7,8,8,9,9,10,10,11,11],"right_children":[2,4,6,-1,8,10,12,14,16,18,20,22,-1,-1,-1,-1,-1,-1,-1,-1,-1,-1,-1],"split_conditions":[2.595E1,6.584946E9,-3.9125885E1,-6.0695235E-4,3.225E-3,1.2468099E-1,1.5367801E-1,7.9526573E-1,1.494708E-1,3.32E1,1.445335E-1,-2.0008312E1,-5.79342E-4,2.197232E-5,-0E0,-3.1775743E-4,-0E0,2.5922662E-4,3.5249635E-5,-5.4192984E-5,6.383264E-5,-6.4574735E-5,8.3504465E-6],"split_indices":[2,5,4,0,8,11,11,19,11,2,11,4,0,0,0,0,0,0,0,0,0,0,0],"split_type":[0,0,0,0,0,0,0,0,0,0,0,0,0,0,0,0,0,0,0,0,0,0,0],"sum_hessian":[4.966E3,1.34E2,4.832E3,1.1E1,1.23E2,9.83E2,3.849E3,7.2E1,5.1E1,3.4E2,6.43E2,3.839E3,1E1,5.2E1,2E1,4.5E1,6E0,2.41E2,9.9E1,4.18E2,2.25E2,7.41E2,3.098E3],"tree_param":{"num_deleted":"0","num_feature":"40","num_nodes":"23","size_leaf_vector":"1"}},{"base_weights":[-7.372406E-6,-1.5360594E-3,7.727961E-4,-4.6998594E-4,-6.113878E-3,3.1269186E-3,1.3558111E-4,7.132461E-3,-7.647747E-4,-0E0,-8.830947E-3,9.79849E-5,6.639582E-3,-1.5446797E-4,3.4067857E-3,-5.1869596E-5,1.021319E-3,-8.4105695E-6,-1.291425E-4,1.0108047E-4,-1.6494576E-4,-5.828938E-4,-1.5906701E-4,-3.557684E-5,1.0769546E-4,2.0967168E-4,-0E0,6.694689E-5,-1.7415956E-5,3.219287E-4,6.158119E-5],"categories":[],"categories_nodes":[],"categories_segments":[],"categories_sizes":[],"default_left":[0,0,0,0,0,0,0,0,0,0,0,0,0,0,0,0,0,0,0,0,0,0,0,0,0,0,0,0,0,0,0],"id":27,"left_children":[1,3,5,7,9,11,13,15,17,19,21,23,25,27,29,-1,-1,-1,-1,-1,-1,-1,-1,-1,-1,-1,-1,-1,-1,-1,-1],"loss_changes":[6.0860007E-3,7.859728E-3,4.613097E-3,2.5846877E-3,4.402632E-3,6.432862E-3,2.8173325E-3,1.30678285E-2,1.932489E-3,2.1888288E-3,5.1282346E-3,1.9258274E-3,1.0095043E-3,2.2607874E-3,1.0996433E-3,0E0,0E0,0E0,0E0,0E0,0E0,0E0,0E0,0E0,0E0,0E0,0E0,0E0,0E0,0E0,0E0],"parents":[2147483647,0,0,1,1,2,2,3,3,4,4,5,5,6,6,7,7,8,8,9,9,10,10,11,11,12,12,13,13,14,14],"right_children":[2,4,6,8,10,12,14,16,18,20,22,24,26,28,30,-1,-1,-1,-1,-1,-1,-1,-1,-1,-1,-1,-1,-1,-1,-1,-1],"split_conditions":[1.9738102E0,2.31E0,-2.815E-3,4.3169243E10,-3.5144547E-1,1.95E0,7.713E-3,-1.158E-3,1.6801752E0,2.446E-3,-3.46E-4,-2.5562057E-1,-1.7747596E-2,4.402533E10,1.15E0,-5.1869596E-5,1.021319E-3,-8.4105695E-6,-1.291425E-4,1.0108047E-4,-1.6494576E-4,-5.828938E-4,-1.5906701E-4,-3.557684E-5,1.0769546E-4,2.0967168E-4,-0E0,6.694689E-5,-1.7415956E-5,3.219287E-4,6.158119E-5],"split_indices":[12,0,8,6,3,0,8,8,14,8,8,14,14,6,0,0,0,0,0,0,0,0,0,0,0,0,0,0,0,0,0],"split_type":[0,0,0,0,0,0,0,0,0,0,0,0,0,0,0,0,0,0,0,0,0,0,0,0,0,0,0,0,0,0,0],"sum_hessian":[5.037E3,1.745E3,3.292E3,1.434E3,3.11E2,6.67E2,2.625E3,4E1,1.394E3,1.06E2,2.05E2,3.74E2,2.93E2,2.384E3,2.41E2,2.8E1,1.2E1,1.252E3,1.42E2,5.6E1,5E1,4.3E1,1.62E2,2.53E2,1.21E2,2.85E2,8E0,3.25E2,2.059E3,2.5E1,2.16E2],"tree_param":{"num_deleted":"0","num_feature":"40","num_nodes":"31","size_leaf_vector":"1"}},{"base_weights":[9.395627E-5,-3.1363616E-5,9.281202E-3,9.449384E-5,-4.016586E-3,2.9062382E-3,1.5229394E-2,1.6680609E-3,-2.585964E-4,-5.44934E-4,-1.5359825E-3,4.2983377E-3,-0E0,5.648217E-4,-0E0,1.8067048E-4,2.0290673E-7,-6.775273E-5,6.109069E-6,2.6012845E-5,-1.9699364E-4,1.5225282E-4,-0E0],"categories":[],"categories_nodes":[],"categories_segments":[],"categories_sizes":[],"default_left":[0,0,0,0,0,0,0,0,0,0,0,0,0,0,0,0,0,0,0,0,0,0,0],"id":28,"left_children":[1,3,5,7,9,11,13,15,17,-1,19,21,-1,-1,-1,-1,-1,-1,-1,-1,-1,-1,-1],"loss_changes":[6.6796946E-3,2.8608146E-3,1.0998985E-3,2.7788642E-3,4.14373E-3,3.605316E-4,1.0853941E-3,6.066582E-3,3.742634E-3,0E0,2.4614534E-3,1.6973313E-4,0E0,0E0,0E0,0E0,0E0,0E0,0E0,0E0,0E0,0E0,0E0],"parents":[2147483647,0,0,1,1,2,2,3,3,4,4,5,5,6,6,7,7,8,8,10,10,11,11],"right_children":[2,4,6,8,10,12,14,16,18,-1,20,22,-1,-1,-1,-1,-1,-1,-1,-1,-1,-1,-1],"split_conditions":[1.140156E3,2.82E0,-1.274578E0,-3.9125885E1,6.612037E9,-1.4121178E0,6.057436E9,5.3369856E9,-1.9531322E1,-5.44934E-4,3.53E-3,5.98167E9,-0E0,5.648217E-4,-0E0,1.8067048E-4,2.0290673E-7,-6.775273E-5,6.109069E-6,2.6012845E-5,-1.9699364E-4,1.5225282E-4,-0E0],"split_indices":[1,0,14,4,5,14,5,5,4,0,8,5,0,0,0,0,0,0,0,0,0,0,0],"split_type":[0,0,0,0,0,0,0,0,0,0,0,0,0,0,0,0,0,0,0,0,0,0,0],"sum_hessian":[4.997E3,4.92E3,7.7E1,4.746E3,1.74E2,4.6E1,3.1E1,9.21E2,3.825E3,1.9E1,1.55E2,4E1,6E0,2.3E1,8E0,2.37E2,6.84E2,7.58E2,3.067E3,9.2E1,6.3E1,3.5E1,5E0],"tree_param":{"num_deleted":"0","num_feature":"40","num_nodes":"23","size_leaf_vector":"1"}},{"base_weights":[-6.5858385E-6,-1.97119E-4,1.0574496E-2,-1.6726566E-3,5.71384E-4,1.30913835E-2,-0E0,-1.0913365E-3,-1.5198344E-2,-2.018459E-5,1.9256562E-3,4.040005E-3,6.6977466E-4,9.72644E-6,-7.7050994E-5,-0E0,-5.2523694E-4,4.6222405E-5,-1.7239876E-5,8.52147E-5,-2.826552E-5,1.4438808E-4,-0E0],"categories":[],"categories_nodes":[],"categories_segments":[],"categories_sizes":[],"default_left":[0,0,0,0,0,0,0,0,0,0,0,0,0,0,0,0,0,0,0,0,0,0,0],"id":29,"left_children":[1,3,5,7,9,11,-1,13,15,17,19,21,-1,-1,-1,-1,-1,-1,-1,-1,-1,-1,-1],"loss_changes":[9.024424E-3,5.68107E-3,1.792049E-3,1.1933422E-2,2.743034E-3,2.4554534E-3,0E0,3.704358E-3,2.9951949E-3,1.7798198E-3,2.8685755E-3,1.4420116E-4,0E0,0E0,0E0,0E0,0E0,0E0,0E0,0E0,0E0,0E0,0E0],"parents":[2147483647,0,0,1,1,2,2,3,3,4,4,5,5,7,7,8,8,9,9,10,10,11,11],"right_children":[2,4,6,8,10,12,-1,14,16,18,20,22,-1,-1,-1,-1,-1,-1,-1,-1,-1,-1,-1],"split_conditions":[1.140156E3,1.9975154E0,6.057436E9,7.120015E2,3.181E-3,-1.4121178E0,-0E0,4.3033364E-1,-1.8097454E0,-7.6E-4,8.702827E0,1.4743085E-1,6.6977466E-4,9.72644E-6,-7.7050994E-5,-0E0,-5.2523694E-4,4.6222405E-5,-1.7239876E-5,8.52147E-5,-2.826552E-5,1.4438808E-4,-0E0],"split_indices":[1,12,5,1,17,14,0,13,13,8,12,30,0,0,0,0,0,0,0,0,0,0,0],"split_type":[0,0,0,0,0,0,0,0,0,0,0,0,0,0,0,0,0,0,0,0,0,0,0],"sum_hessian":[4.989E3,4.911E3,7.8E1,1.726E3,3.185E3,6.1E1,1.7E1,1.663E3,6.3E1,2.166E3,1.019E3,3.7E1,2.4E1,8.15E2,8.48E2,6E0,5.7E1,5.2E2,1.646E3,7.99E2,2.2E2,3.2E1,5E0],"tree_param":{"num_deleted":"0","num_feature":"40","num_nodes":"23","size_leaf_vector":"1"}},{"base_weights":[2.1278356E-5,-2.7577693E-4,2.4836902E-3,5.405153E-4,-1.3238535E-3,3.8388427E-3,-2.5954763E-3,2.7353037E-3,-5.9382513E-5,-2.3696965E-3,5.239772E-4,1.0395513E-3,7.3438054E-3,-5.5781635E-4,5.8756786E-4,3.218923E-4,3.3065626E-5,4.1495692E-5,-3.0060242E-5,-1.790733E-4,-4.5930527E-5,-0E0,1.2199579E-4,1.10541485E-4,-2.9530447E-5,2.8126314E-4,-0E0,9.0448295E-5,-1.53664E-5],"categories":[],"categories_nodes":[],"categories_segments":[],"categories_sizes":[],"default_left":[0,0,0,0,0,0,0,0,0,0,0,0,0,0,0,0,0,0,0,0,0,0,0,0,0,0,0,0,0],"id":30,"left_children":[1,3,5,7,9,11,13,15,17,19,21,23,25,-1,27,-1,-1,-1,-1,-1,-1,-1,-1,-1,-1,-1,-1,-1,-1],"loss_changes":[3.908829E-3,3.8973098E-3,4.1195834E-3,3.5014441E-3,4.0663546E-3,3.7948275E-3,7.260384E-3,6.155423E-3,2.5387397E-3,3.216545E-3,1.3313806E-3,1.7726575E-3,2.194726E-3,0E0,4.7873176E-4,0E0,0E0,0E0,0E0,0E0,0E0,0E0,0E0,0E0,0E0,0E0,0E0,0E0,0E0],"parents":[2147483647,0,0,1,1,2,2,3,3,4,4,5,5,6,6,7,7,8,8,9,9,10,10,11,11,12,12,14,14],"right_children":[2,4,6,8,10,12,14,16,18,20,22,24,26,-1,28,-1,-1,-1,-1,-1,-1,-1,-1,-1,-1,-1,-1,-1,-1],"split_conditions":[6.7820825E2,4.0729642E-1,2.73E0,5.4580357E9,1.6041312E0,2.01E0,6.527699E9,-3.9125885E1,1.62E0,-2.650786E7,1.3972928E8,-2.1777819E-1,1.526E-3,-5.5781635E-4,3.666E-3,3.218923E-4,3.3065626E-5,4.1495692E-5,-3.0060242E-5,-1.790733E-4,-4.5930527E-5,-0E0,1.2199579E-4,1.10541485E-4,-2.9530447E-5,2.8126314E-4,-0E0,9.0448295E-5,-1.53664E-5],"split_indices":[7,13,0,5,13,0,5,4,0,25,26,15,8,0,8,0,0,0,0,0,0,0,0,0,0,0,0,0,0],"split_type":[0,0,0,0,0,0,0,0,0,0,0,0,0,0,0,0,0,0,0,0,0,0,0,0,0,0,0,0,0],"sum_hessian":[5.04E3,4.462E3,5.78E2,2.455E3,2.007E3,4.72E2,1.06E2,5.62E2,1.893E3,1.316E3,6.91E2,2.79E2,1.93E2,2.2E1,8.4E1,8.4E1,4.78E2,7.06E2,1.187E3,2.25E2,1.091E3,6E2,9.1E1,1.42E2,1.37E2,1.43E2,5E1,5.4E1,3E1],"tree_param":{"num_deleted":"0","num_feature":"40","num_nodes":"29","size_leaf_vector":"1"}}]},"name":"gbtree"},"learner_model_param":{"base_score":"-5.1796186E-4","boost_from_average":"1","num_class":"0","num_feature":"40","num_target":"1"},"objective":{"name":"reg:squarederror","reg_loss_param":{"scale_pos_weight":"1"}}},"version":[3,0,0]}