{"learner":{"attributes":{"scikit_learn":"{\"_estimator_type\": \"regressor\"}"},"feature_names":[],"feature_types":[],"gradient_booster":{"model":{"gbtree_model_param":{"num_parallel_tree":"1","num_trees":"500"},"iteration_indptr":[0,1,2,3,4,5,6,7,8,9,10,11,12,13,14,15,16,17,18,19,20,21,22,23,24,25,26,27,28,29,30,31,32,33,34,35,36,37,38,39,40,41,42,43,44,45,46,47,48,49,50,51,52,53,54,55,56,57,58,59,60,61,62,63,64,65,66,67,68,69,70,71,72,73,74,75,76,77,78,79,80,81,82,83,84,85,86,87,88,89,90,91,92,93,94,95,96,97,98,99,100,101,102,103,104,105,106,107,108,109,110,111,112,113,114,115,116,117,118,119,120,121,122,123,124,125,126,127,128,129,130,131,132,133,134,135,136,137,138,139,140,141,142,143,144,145,146,147,148,149,150,151,152,153,154,155,156,157,158,159,160,161,162,163,164,165,166,167,168,169,170,171,172,173,174,175,176,177,178,179,180,181,182,183,184,185,186,187,188,189,190,191,192,193,194,195,196,197,198,199,200,201,202,203,204,205,206,207,208,209,210,211,212,213,214,215,216,217,218,219,220,221,222,223,224,225,226,227,228,229,230,231,232,233,234,235,236,237,238,239,240,241,242,243,244,245,246,247,248,249,250,251,252,253,254,255,256,257,258,259,260,261,262,263,264,265,266,267,268,269,270,271,272,273,274,275,276,277,278,279,280,281,282,283,284,285,286,287,288,289,290,291,292,293,294,295,296,297,298,299,300,301,302,303,304,305,306,307,308,309,310,311,312,313,314,315,316,317,318,319,320,321,322,323,324,325,326,327,328,329,330,331,332,333,334,335,336,337,338,339,340,341,342,343,344,345,346,347,348,349,350,351,352,353,354,355,356,357,358,359,360,361,362,363,364,365,366,367,368,369,370,371,372,373,374,375,376,377,378,379,380,381,382,383,384,385,386,387,388,389,390,391,392,393,394,395,396,397,398,399,400,401,402,403,404,405,406,407,408,409,410,411,412,413,414,415,416,417,418,419,420,421,422,423,424,425,426,427,428,429,430,431,432,433,434,435,436,437,438,439,440,441,442,443,444,445,446,447,448,449,450,451,452,453,454,455,456,457,458,459,460,461,462,463,464,465,466,467,468,469,470,471,472,473,474,475,476,477,478,479,480,481,482,483,484,485,486,487,488,489,490,491,492,493,494,495,496,497,498,499,500],"tree_info":[0,0,0,0,0,0,0,0,0,0,0,0,0,0,0,0,0,0,0,0,0,0,0,0,0,0,0,0,0,0,0,0,0,0,0,0,0,0,0,0,0,0,0,0,0,0,0,0,0,0,0,0,0,0,0,0,0,0,0,0,0,0,0,0,0,0,0,0,0,0,0,0,0,0,0,0,0,0,0,0,0,0,0,0,0,0,0,0,0,0,0,0,0,0,0,0,0,0,0,0,0,0,0,0,0,0,0,0,0,0,0,0,0,0,0,0,0,0,0,0,0,0,0,0,0,0,0,0,0,0,0,0,0,0,0,0,0,0,0,0,0,0,0,0,0,0,0,0,0,0,0,0,0,0,0,0,0,0,0,0,0,0,0,0,0,0,0,0,0,0,0,0,0,0,0,0,0,0,0,0,0,0,0,0,0,0,0,0,0,0,0,0,0,0,0,0,0,0,0,0,0,0,0,0,0,0,0,0,0,0,0,0,0,0,0,0,0,0,0,0,0,0,0,0,0,0,0,0,0,0,0,0,0,0,0,0,0,0,0,0,0,0,0,0,0,0,0,0,0,0,0,0,0,0,0,0,0,0,0,0,0,0,0,0,0,0,0,0,0,0,0,0,0,0,0,0,0,0,0,0,0,0,0,0,0,0,0,0,0,0,0,0,0,0,0,0,0,0,0,0,0,0,0,0,0,0,0,0,0,0,0,0,0,0,0,0,0,0,0,0,0,0,0,0,0,0,0,0,0,0,0,0,0,0,0,0,0,0,0,0,0,0,0,0,0,0,0,0,0,0,0,0,0,0,0,0,0,0,0,0,0,0,0,0,0,0,0,0,0,0,0,0,0,0,0,0,0,0,0,0,0,0,0,0,0,0,0,0,0,0,0,0,0,0,0,0,0,0,0,0,0,0,0,0,0,0,0,0,0,0,0,0,0,0,0,0,0,0,0,0,0,0,0,0,0,0,0,0,0,0,0,0,0,0,0,0,0,0,0,0,0,0,0,0,0,0,0,0,0,0,0,0,0,0,0,0,0,0,0,0,0,0,0,0,0,0,0,0,0,0,0,0,0,0,0,0,0,0,0,0,0,0,0,0,0,0,0,0,0,0,0,0,0,0,0,0,0,0,0,0],"trees":[{"base_weights":[3.104559E-3,1.1850845E0,-2.3354068E-1,2.9835396E0,3.0600533E-1,2.1639262E-1,-4.5503747E-1,2.3775804E0,1.7916311E-1,9.255021E-2,-9.879946E-2,-1.4168E-1,9.3399376E-1,-5.893374E-1,4.7422256E-2,1.18205644E-1,4.699552E-2,4.048837E-2,-7.792245E-3,5.2179437E-2,-7.0857047E-3,3.7360653E-2,-2.6036946E-2,-2.2898061E-2,-8.145196E-3,2.574252E-2,-1.6075008E-2],"categories":[],"categories_nodes":[],"categories_segments":[],"categories_sizes":[],"default_left":[0,0,0,0,0,0,0,0,0,0,0,0,0,0,0,0,0,0,0,0,0,0,0,0,0,0,0],"id":0,"left_children":[1,3,5,7,9,11,13,15,-1,-1,17,19,21,23,25,-1,-1,-1,-1,-1,-1,-1,-1,-1,-1,-1,-1],"loss_changes":[5.063672E2,4.762154E2,1.5040778E2,1.6424963E2,2.3009387E2,1.2817432E2,6.830473E1,9.97363E1,0E0,0E0,4.1968315E1,5.9458942E1,9.4251144E1,4.3803345E1,1.01676186E2,0E0,0E0,0E0,0E0,0E0,0E0,0E0,0E0,0E0,0E0,0E0,0E0],"parents":[2147483647,0,0,1,1,2,2,3,3,4,4,5,5,6,6,7,7,10,10,11,11,12,12,13,13,14,14],"right_children":[2,4,6,8,10,12,14,16,-1,-1,18,20,22,24,26,-1,-1,-1,-1,-1,-1,-1,-1,-1,-1,-1,-1],"split_conditions":[2.672E-3,5.5277E-2,3.485E-3,-3.60446E-1,1.718E-3,1.6186E-5,2.5952901E8,1.11312E-5,1.7916311E-1,9.255021E-2,-2.00173E-1,-6.444E-3,1.5566E0,3.9455E-2,4.9087E-6,1.18205644E-1,4.699552E-2,4.048837E-2,-7.792245E-3,5.2179437E-2,-7.0857047E-3,3.7360653E-2,-2.6036946E-2,-2.2898061E-2,-8.145196E-3,2.574252E-2,-1.6075008E-2],"split_indices":[2,15,2,15,2,13,3,13,0,0,32,21,14,8,13,0,0,0,0,0,0,0,0,0,0,0,0],"split_type":[0,0,0,0,0,0,0,0,0,0,0,0,0,0,0,0,0,0,0,0,0,0,0,0,0,0,0],"sum_hessian":[1.808E3,3.01E2,1.507E3,9.8E1,2.03E2,4.97E2,1.01E3,8.3E1,1.5E1,2.5E1,1.78E2,3.32E2,1.65E2,7.97E2,2.13E2,2.7E1,5.6E1,1.7E1,1.61E2,1.5E1,3.17E2,1.41E2,2.4E1,5.14E2,2.83E2,8.9E1,1.24E2],"tree_param":{"num_deleted":"0","num_feature":"40","num_nodes":"27","size_leaf_vector":"1"}},{"base_weights":[-7.417808E-4,5.6486964E-1,-4.4734645E-1,1.3217816E-1,4.5426133E-1,-5.840067E-1,1.6282804E-1,-1.3575508E-1,1.0894427E0,-7.647609E-1,-2.2914061E-1,1.5565263E0,-4.1215312E-1,7.57854E-2,-7.822972E-3,1.3020642E-1,2.6451303E-2,-1.5624359E-2,-2.7809499E-2,-1.4664194E-2,2.1028876E-2,5.821566E-3,6.2190447E-2,-2.061361E-3,-2.9503446E-2],"categories":[],"categories_nodes":[],"categories_segments":[],"categories_sizes":[],"default_left":[0,0,0,0,0,0,0,0,0,0,0,0,0,0,0,0,0,0,0,0,0,0,0,0,0],"id":1,"left_children":[1,3,5,-1,7,9,11,13,15,17,19,21,23,-1,-1,-1,-1,-1,-1,-1,-1,-1,-1,-1,-1],"loss_changes":[4.5290854E2,3.3357208E2,8.369061E1,0E0,2.888142E2,5.225891E1,1.482044E2,1.3354027E2,2.4618402E2,2.0821533E1,6.7462875E1,3.737094E1,2.5530222E1,0E0,0E0,0E0,0E0,0E0,0E0,0E0,0E0,0E0,0E0,0E0,0E0],"parents":[2147483647,0,0,1,1,2,2,4,4,5,5,6,6,7,7,8,8,9,9,10,10,11,11,12,12],"right_children":[2,4,6,-1,8,10,12,14,16,18,20,22,24,-1,-1,-1,-1,-1,-1,-1,-1,-1,-1,-1,-1],"split_conditions":[3.485E-3,1.643E-3,5.775791E3,1.3217816E-1,7.32E-7,1.3961E-1,-8.5893E-6,-8.562336E7,-1.6E-7,4.125E-3,6.178E-5,-1.941113E0,5.547E-3,7.57854E-2,-7.822972E-3,1.3020642E-1,2.6451303E-2,-1.5624359E-2,-2.7809499E-2,-1.4664194E-2,2.1028876E-2,5.821566E-3,6.2190447E-2,-2.061361E-3,-2.9503446E-2],"split_indices":[2,2,0,0,13,8,13,5,12,2,12,8,2,0,0,0,0,0,0,0,0,0,0,0,0],"split_type":[0,0,0,0,0,0,0,0,0,0,0,0,0,0,0,0,0,0,0,0,0,0,0,0,0],"sum_hessian":[1.791E3,7.9E2,1.001E3,2.1E1,7.69E2,8.18E2,1.83E2,3.99E2,3.7E2,5.41E2,2.77E2,5.3E1,1.3E2,1.7E1,3.82E2,2.1E1,3.49E2,2.18E2,3.23E2,2.17E2,6E1,1.5E1,3.8E1,8.2E1,4.8E1],"tree_param":{"num_deleted":"0","num_feature":"40","num_nodes":"25","size_leaf_vector":"1"}},{"base_weights":[1.1628836E-2,6.007395E-1,-4.346327E-1,1.2251378E0,1.5695462E-1,-5.711379E-1,2.2016436E-1,3.7346168E0,7.3143727E-1,7.558922E-2,5.537398E-3,-7.234277E-1,-2.7642417E-1,5.6143552E-2,5.3034604E-2,3.2090206E-2,1.7423576E-1,1.465868E-2,6.819441E-2,-3.2946453E-3,6.671484E-2,-1.4580938E-2,-2.660119E-2,-3.844737E-2,-4.742601E-3,-2.7953344E-3,3.0900618E-2],"categories":[],"categories_nodes":[],"categories_segments":[],"categories_sizes":[],"default_left":[0,0,0,0,0,0,0,0,0,0,0,0,0,0,0,0,0,0,0,0,0,0,0,0,0,0,0],"id":2,"left_children":[1,3,5,7,9,11,13,15,17,-1,19,21,23,-1,25,-1,-1,-1,-1,-1,-1,-1,-1,-1,-1,-1,-1],"loss_changes":[4.6718353E2,2.1192697E2,9.052728E1,3.9080194E2,1.6036388E2,3.7266174E1,4.800467E1,2.8040344E2,9.856447E1,0E0,1.0870115E2,2.078952E1,3.379136E1,0E0,2.3045256E1,0E0,0E0,0E0,0E0,0E0,0E0,0E0,0E0,0E0,0E0,0E0,0E0],"parents":[2147483647,0,0,1,1,2,2,3,3,4,4,5,5,6,6,7,7,8,8,10,10,11,11,12,12,14,14],"right_children":[2,4,6,8,10,12,14,16,18,-1,20,22,24,-1,26,-1,-1,-1,-1,-1,-1,-1,-1,-1,-1,-1,-1],"split_conditions":[3.485E-3,5.5277E-2,3.1652435E8,2.406E-3,1.718E-3,6.1201E-2,1.0984032E8,-1.248E-3,3.13472E8,7.558922E-2,6.00073E3,4.137E-3,-1.85764E0,5.6143552E-2,1.19009E-1,3.2090206E-2,1.7423576E-1,1.465868E-2,6.819441E-2,-3.2946453E-3,6.671484E-2,-1.4580938E-2,-2.660119E-2,-3.844737E-2,-4.742601E-3,-2.7953344E-3,3.0900618E-2],"split_indices":[2,15,4,2,2,8,10,19,4,0,0,2,15,0,37,0,0,0,0,0,0,0,0,0,0,0,0],"split_type":[0,0,0,0,0,0,0,0,0,0,0,0,0,0,0,0,0,0,0,0,0,0,0,0,0,0,0],"sum_hessian":[1.775E3,7.65E2,1.01E3,3.17E2,4.48E2,8.36E2,1.74E2,5.1E1,2.66E2,2.6E1,4.22E2,5.5E2,2.86E2,1.5E1,1.59E2,2.3E1,2.8E1,2.31E2,3.5E1,4.02E2,2E1,2.26E2,3.24E2,2.9E1,2.57E2,1.39E2,2E1],"tree_param":{"num_deleted":"0","num_feature":"40","num_nodes":"27","size_leaf_vector":"1"}},{"base_weights":[1.4472331E-2,7.983663E-1,-2.8618336E-1,3.556953E0,4.6754503E-1,-4.6296966E-1,1.0251248E-1,1.7405138E0,2.220634E-1,-1.3163103E-1,1.2000277E0,-5.7699156E-1,2.2839491E-1,1.0150439E0,-4.6165414E-2,8.89281E-2,-3.6350416E-3,-8.2639E-3,5.948649E-2,5.038291E-2,8.892259E-3,-2.025574E-2,-9.3753217E-4,4.663022E-2,1.1824984E-3,1.0721952E-1,1.1084642E-3,1.48257045E-2,-1.2740119E-2],"categories":[],"categories_nodes":[],"categories_segments":[],"categories_sizes":[],"default_left":[0,0,0,0,0,0,0,0,0,0,0,0,0,0,0,0,0,0,0,0,0,0,0,0,0,0,0,0,0],"id":3,"left_children":[1,3,5,7,9,11,13,15,-1,17,19,21,23,25,27,-1,-1,-1,-1,-1,-1,-1,-1,-1,-1,-1,-1,-1,-1],"loss_changes":[4.30164E2,4.5970978E2,9.072004E1,3.6336517E2,1.9908023E2,7.166611E1,5.61768E1,8.72168E1,0E0,7.640933E1,8.767685E1,4.1656097E1,3.2103527E1,1.4467427E2,7.301469E1,0E0,0E0,0E0,0E0,0E0,0E0,0E0,0E0,0E0,0E0,0E0,0E0,0E0,0E0],"parents":[2147483647,0,0,1,1,2,2,3,3,4,4,5,5,6,6,7,7,9,9,10,10,11,11,12,12,13,13,14,14],"right_children":[2,4,6,8,10,12,14,16,-1,18,20,22,24,26,28,-1,-1,-1,-1,-1,-1,-1,-1,-1,-1,-1,-1,-1,-1],"split_conditions":[3.035E-3,-1.6E-7,1.8434346E8,-5.61054E-1,2.218E-1,2.1649394E8,3.485E-3,3.05E-4,2.220634E-1,1.2869016E8,-4.972258E7,6.193E-5,3.214E-3,-2.229E-3,3.097E-5,8.89281E-2,-3.6350416E-3,-8.2639E-3,5.948649E-2,5.038291E-2,8.892259E-3,-2.025574E-2,-9.3753217E-4,4.663022E-2,1.1824984E-3,1.0721952E-1,1.1084642E-3,1.48257045E-2,-1.2740119E-2],"split_indices":[2,12,4,8,14,7,2,23,0,9,7,12,2,21,12,0,0,0,0,0,0,0,0,0,0,0,0,0,0],"split_type":[0,0,0,0,0,0,0,0,0,0,0,0,0,0,0,0,0,0,0,0,0,0,0,0,0,0,0,0,0],"sum_hessian":[1.823E3,5.05E2,1.318E3,5.3E1,4.52E2,9.06E2,4.12E2,3.7E1,1.6E1,2.49E2,2.03E2,7.78E2,1.28E2,5.7E1,3.55E2,2.2E1,1.5E1,2.34E2,1.5E1,1.32E2,7.1E1,6.59E2,1.19E2,1.5E1,1.13E2,1.5E1,4.2E1,1.46E2,2.09E2],"tree_param":{"num_deleted":"0","num_feature":"40","num_nodes":"29","size_leaf_vector":"1"}},{"base_weights":[2.8331278E-2,5.3873426E-1,-3.7436128E-1,2.4206986E0,3.4549654E-1,-5.5392E-1,1.2460652E-2,4.877221E0,4.3055746E-1,-8.533218E-2,1.0495962E0,-6.91107E-1,-2.8320032E-1,1.0721444E0,-2.2001706E-1,2.5841904E-1,3.8374662E-2,8.1566095E-2,-2.8131675E-2,-7.5775925E-3,3.9558034E-2,1.19854786E-1,1.7663354E-2,-1.3724234E-2,-2.652093E-2,-1.691885E-2,1.0648697E-2,-1.5345373E-2,5.070006E-2,-1.4236345E-2,7.5603905E-3],"categories":[],"categories_nodes":[],"categories_segments":[],"categories_sizes":[],"default_left":[0,0,0,0,0,0,0,0,0,0,0,0,0,0,0,0,0,0,0,0,0,0,0,0,0,0,0,0,0,0,0],"id":4,"left_children":[1,3,5,7,9,11,13,15,17,19,21,23,25,27,29,-1,-1,-1,-1,-1,-1,-1,-1,-1,-1,-1,-1,-1,-1,-1,-1],"loss_changes":[3.714152E2,2.8872925E2,7.0212845E1,3.5914246E2,2.1980875E2,2.5332916E1,7.940037E1,4.3167902E2,1.3423186E2,1.0589268E2,3.7046555E2,2.0059937E1,4.214681E1,5.7733833E1,3.1860065E1,0E0,0E0,0E0,0E0,0E0,0E0,0E0,0E0,0E0,0E0,0E0,0E0,0E0,0E0,0E0,0E0],"parents":[2147483647,0,0,1,1,2,2,3,3,4,4,5,5,6,6,7,7,8,8,9,9,10,10,11,11,12,12,13,13,14,14],"right_children":[2,4,6,8,10,12,14,16,18,20,22,24,26,28,30,-1,-1,-1,-1,-1,-1,-1,-1,-1,-1,-1,-1,-1,-1,-1,-1],"split_conditions":[3.485E-3,-1.6E-7,3.61603E3,3.78176E-1,3.972E-5,1.00226E-1,-2.19293E-5,3.01E-3,-3.41872E-5,1.1067E0,4.165E-5,3.422E-5,5.689E-5,-1.6823E0,1.66638E-1,2.5841904E-1,3.8374662E-2,8.1566095E-2,-2.8131675E-2,-7.5775925E-3,3.9558034E-2,1.19854786E-1,1.7663354E-2,-1.3724234E-2,-2.652093E-2,-1.691885E-2,1.0648697E-2,-1.5345373E-2,5.070006E-2,-1.4236345E-2,7.5603905E-3],"split_indices":[2,12,0,15,12,8,13,2,13,14,12,12,12,14,8,0,0,0,0,0,0,0,0,0,0,0,0,0,0,0,0],"split_type":[0,0,0,0,0,0,0,0,0,0,0,0,0,0,0,0,0,0,0,0,0,0,0,0,0,0,0,0,0,0,0],"sum_hessian":[1.805E3,7.96E2,1.009E3,7.3E1,7.23E2,6.89E2,3.2E2,3.2E1,4.1E1,4.49E2,2.74E2,4.56E2,2.33E2,5.7E1,2.63E2,1.5E1,1.7E1,1.5E1,2.6E1,4.02E2,4.7E1,3.6E1,2.38E2,2.08E2,2.48E2,1.62E2,7.1E1,1.6E1,4.1E1,1.71E2,9.2E1],"tree_param":{"num_deleted":"0","num_feature":"40","num_nodes":"31","size_leaf_vector":"1"}},{"base_weights":[-1.2875183E-2,1.2379281E-1,-6.340278E-2,4.0296987E-1,-3.9878178E-1,-1.5329443E-1,1.0473708E0,-5.3350043E-1,1.6545579E-1,-7.7245776E-3,3.619877E-2,1.12922885E-1,2.6130343E-2,-2.133151E-2,-5.5634524E-3,3.2714155E-2,-1.5688084E-2],"categories":[],"categories_nodes":[],"categories_segments":[],"categories_sizes":[],"default_left":[0,0,0,0,0,0,0,0,0,0,0,0,0,0,0,0,0],"id":5,"left_children":[1,-1,3,5,7,9,11,13,15,-1,-1,-1,-1,-1,-1,-1,-1],"loss_changes":[3.8155225E2,0E0,2.823268E2,2.7088522E2,7.993909E1,5.774278E1,1.6394989E2,5.218199E1,1.2989204E2,0E0,0E0,0E0,0E0,0E0,0E0,0E0,0E0],"parents":[2147483647,0,0,2,2,3,3,4,4,5,5,6,6,7,7,8,8],"right_children":[2,-1,4,6,8,10,12,14,16,-1,-1,-1,-1,-1,-1,-1,-1],"split_conditions":[1.643E-3,1.2379281E-1,3.437E-3,7.32E-7,5.620768E3,1.07411576E8,-1.6E-7,1.00226E-1,4.9087E-6,-7.7245776E-3,3.619877E-2,1.12922885E-1,2.6130343E-2,-2.133151E-2,-5.5634524E-3,3.2714155E-2,-1.5688084E-2],"split_indices":[2,0,2,13,0,10,12,8,13,0,0,0,0,0,0,0,0],"split_type":[0,0,0,0,0,0,0,0,0,0,0,0,0,0,0,0,0],"sum_hessian":[1.824E3,2.1E1,1.803E3,7.54E2,1.049E3,4.05E2,3.49E2,8.47E2,2.02E2,3.77E2,2.8E1,2E1,3.29E2,5.6E2,2.87E2,8.6E1,1.16E2],"tree_param":{"num_deleted":"0","num_feature":"40","num_nodes":"17","size_leaf_vector":"1"}},{"base_weights":[2.918295E-2,5.363032E-1,-3.6103135E-1,5.662135E-2,1.1903372E0,-4.675846E-1,1.4852774E-1,9.9480435E-2,-1.2477553E-1,1.2585789E-1,9.632287E-1,-1.0468924E0,-4.045822E-1,1.0752954E0,-5.424808E-1,-8.6122705E-3,5.9263643E-2,6.69614E-2,2.1307673E-2,-2.3607561E-2,-4.1634843E-2,-2.0318951E-2,-4.8478595E-3,-6.551503E-3,4.36034E-2,1.059301E-2,-2.1431077E-2],"categories":[],"categories_nodes":[],"categories_segments":[],"categories_sizes":[],"default_left":[0,0,0,0,0,0,0,0,0,0,0,0,0,0,0,0,0,0,0,0,0,0,0,0,0,0,0],"id":6,"left_children":[1,3,5,7,9,11,13,-1,15,-1,17,19,21,23,25,-1,-1,-1,-1,-1,-1,-1,-1,-1,-1,-1,-1],"loss_changes":[3.5719675E2,2.4608455E2,5.5482437E1,2.6915756E2,2.2201462E2,3.0235413E1,1.13988205E2,0E0,1.4731227E2,0E0,9.76232E1,5.9584274E0,5.036799E1,3.7620598E1,1.5990248E1,0E0,0E0,0E0,0E0,0E0,0E0,0E0,0E0,0E0,0E0,0E0,0E0],"parents":[2147483647,0,0,1,1,2,2,3,3,4,4,5,5,6,6,8,8,10,10,11,11,12,12,13,13,14,14],"right_children":[2,4,6,8,10,12,14,-1,16,-1,18,20,22,24,26,-1,-1,-1,-1,-1,-1,-1,-1,-1,-1,-1,-1],"split_conditions":[3.485E-3,3.496E-1,5.620768E3,1.718E-3,-1.6E-7,-4.1813E-5,4.9087E-6,9.9480435E-2,3.381E-3,1.2585789E-1,2.433E-3,4.474E-3,5.5277E-2,1.104E-5,8.48E-6,-8.6122705E-3,5.9263643E-2,6.69614E-2,2.1307673E-2,-2.3607561E-2,-4.1634843E-2,-2.0318951E-2,-4.8478595E-3,-6.551503E-3,4.36034E-2,1.059301E-2,-2.1431077E-2],"split_indices":[2,14,0,2,12,13,13,0,2,0,2,2,15,12,12,0,0,0,0,0,0,0,0,0,0,0,0],"split_type":[0,0,0,0,0,0,0,0,0,0,0,0,0,0,0,0,0,0,0,0,0,0,0,0,0,0,0],"sum_hessian":[1.803E3,7.84E2,1.019E3,4.53E2,3.31E2,8.43E2,1.76E2,2.3E1,4.3E2,2.2E1,3.09E2,8.1E1,7.62E2,7.5E1,1.01E2,4E2,3E1,5E1,2.59E2,4.8E1,3.3E1,3.58E2,4.04E2,1.7E1,5.8E1,1.6E1,8.5E1],"tree_param":{"num_deleted":"0","num_feature":"40","num_nodes":"27","size_leaf_vector":"1"}},{"base_weights":[6.207685E-3,1.2365427E-1,-4.873699E-2,4.4757068E-1,-3.0765045E-1,2.021997E0,2.9864842E-1,-5.1072127E-1,9.441065E-2,5.4680565E-3,1.7703864E-1,-6.342547E-3,2.0572314E-2,-1.8199723E-2,1.9285601E-3,4.2673793E-2,-1.3727036E-3],"categories":[],"categories_nodes":[],"categories_segments":[],"categories_sizes":[],"default_left":[0,0,0,0,0,0,0,0,0,0,0,0,0,0,0,0,0],"id":7,"left_children":[1,-1,3,5,7,9,11,13,15,-1,-1,-1,-1,-1,-1,-1,-1],"loss_changes":[4.1193933E2,0E0,2.3091104E2,1.4359583E2,9.651483E1,3.7656863E2,1.1155109E2,4.339688E1,7.410401E1,0E0,0E0,0E0,0E0,0E0,0E0,0E0,0E0],"parents":[2147483647,0,0,2,2,3,3,4,4,5,5,6,6,7,7,8,8],"right_children":[2,-1,4,6,8,10,12,14,16,-1,-1,-1,-1,-1,-1,-1,-1],"split_conditions":[1.643E-3,1.2365427E-1,3.183E-3,-1.6E-7,1.7735133E8,-3.3E-7,3.369E-5,2.1649394E8,3.485E-3,5.4680565E-3,1.7703864E-1,-6.342547E-3,2.0572314E-2,-1.8199723E-2,1.9285601E-3,4.2673793E-2,-1.3727036E-3],"split_indices":[2,0,2,12,3,12,12,7,2,0,0,0,0,0,0,0,0],"split_type":[0,0,0,0,0,0,0,0,0,0,0,0,0,0,0,0,0],"sum_hessian":[1.818E3,2.3E1,1.795E3,6.15E2,1.18E3,5.2E1,5.63E2,7.84E2,3.96E2,3.6E1,1.6E1,2.43E2,3.2E2,6.72E2,1.12E2,3.7E1,3.59E2],"tree_param":{"num_deleted":"0","num_feature":"40","num_nodes":"17","size_leaf_vector":"1"}},{"base_weights":[-1.7194891E-2,7.0149904E-1,-2.7432021E-1,2.884054E0,4.9394447E-1,-4.23027E-1,4.349576E-2,1.7200643E-2,1.9357309E-1,-1.3134685E-2,1.1244558E0,-0E0,-5.588001E-1,-2.068753E-1,9.021268E-1,-4.43771E-3,5.681265E-2,6.6608503E-3,4.9282536E-2,-6.7084627E-3,5.050069E-2,-7.886788E-3,-2.2169154E-2,-9.261491E-3,4.1310154E-2,3.899821E-2,-2.6651857E-2],"categories":[],"categories_nodes":[],"categories_segments":[],"categories_sizes":[],"default_left":[0,0,0,0,0,0,0,0,0,0,0,0,0,0,0,0,0,0,0,0,0,0,0,0,0,0,0],"id":8,"left_children":[1,3,5,7,9,11,13,-1,-1,15,17,19,21,23,25,-1,-1,-1,-1,-1,-1,-1,-1,-1,-1,-1,-1],"loss_changes":[3.3314923E2,2.134123E2,6.281949E1,3.336617E2,1.3920375E2,5.1945007E1,9.140613E1,0E0,0E0,6.2306267E1,9.0187225E1,8.347666E1,3.6225693E1,5.338732E1,6.957625E1,0E0,0E0,0E0,0E0,0E0,0E0,0E0,0E0,0E0,0E0,0E0,0E0],"parents":[2147483647,0,0,1,1,2,2,3,3,4,4,5,5,6,6,9,9,10,10,11,11,12,12,13,13,14,14],"right_children":[2,4,6,8,10,12,14,-1,-1,16,18,20,22,24,26,-1,-1,-1,-1,-1,-1,-1,-1,-1,-1,-1,-1],"split_conditions":[3.01E-3,-1.6E-7,1.3961E-1,-7.54901E-1,1.89E-1,3.429E-3,6.178E-5,1.7200643E-2,1.9357309E-1,3.13472E8,-1.194E-3,3.381E-3,3.097E-5,8.637E-3,3.1443952E8,-4.43771E-3,5.681265E-2,6.6608503E-3,4.9282536E-2,-6.7084627E-3,5.050069E-2,-7.886788E-3,-2.2169154E-2,-9.261491E-3,4.1310154E-2,3.899821E-2,-2.6651857E-2],"split_indices":[2,12,8,8,14,2,12,0,0,4,25,2,12,2,7,0,0,0,0,0,0,0,0,0,0,0,0],"split_type":[0,0,0,0,0,0,0,0,0,0,0,0,0,0,0,0,0,0,0,0,0,0,0,0,0,0,0],"sum_hessian":[1.801E3,4.74E2,1.327E3,4E1,4.34E2,9.04E2,4.23E2,2.5E1,1.5E1,2.41E2,1.93E2,2.2E2,6.84E2,3.28E2,9.5E1,2.26E2,1.5E1,7.1E1,1.22E2,1.95E2,2.5E1,2.6E2,4.24E2,3.09E2,1.9E1,7.8E1,1.7E1],"tree_param":{"num_deleted":"0","num_feature":"40","num_nodes":"27","size_leaf_vector":"1"}},{"base_weights":[-5.0793488E-2,9.649834E-2,-9.5200345E-2,2.689321E-1,-3.684847E-1,-1.7070036E-1,7.6350725E-1,-4.6531168E-1,1.2601693E-1,-8.712597E-3,4.3056346E-2,9.455947E-2,1.8363245E-2,-3.090365E-2,-1.2019654E-2,2.6732529E-2,-1.3202555E-2],"categories":[],"categories_nodes":[],"categories_segments":[],"categories_sizes":[],"default_left":[0,0,0,0,0,0,0,0,0,0,0,0,0,0,0,0,0],"id":9,"left_children":[1,-1,3,5,7,9,11,13,15,-1,-1,-1,-1,-1,-1,-1,-1],"loss_changes":[2.5971448E2,0E0,1.7594621E2,1.650025E2,4.845247E1,7.759048E1,1.2679004E2,3.0302475E1,7.233289E1,0E0,0E0,0E0,0E0,0E0,0E0,0E0,0E0],"parents":[2147483647,0,0,2,2,3,3,4,4,5,5,6,6,7,7,8,8],"right_children":[2,-1,4,6,8,10,12,14,16,-1,-1,-1,-1,-1,-1,-1,-1],"split_conditions":[1.643E-3,9.649834E-2,3.485E-3,7.32E-7,3.1652435E8,2.7032016E8,-1.6E-7,-4.0936E-5,4.9087E-6,-8.712597E-3,4.3056346E-2,9.455947E-2,1.8363245E-2,-3.090365E-2,-1.2019654E-2,2.6732529E-2,-1.3202555E-2],"split_indices":[2,0,2,13,4,4,12,13,13,0,0,0,0,0,0,0,0],"split_type":[0,0,0,0,0,0,0,0,0,0,0,0,0,0,0,0,0],"sum_hessian":[1.789E3,2.3E1,1.766E3,7.57E2,1.009E3,4.01E2,3.56E2,8.44E2,1.65E2,3.74E2,2.7E1,2E1,3.36E2,8.5E1,7.59E2,7E1,9.5E1],"tree_param":{"num_deleted":"0","num_feature":"40","num_nodes":"17","size_leaf_vector":"1"}},{"base_weights":[2.6260883E-2,6.876118E-1,-2.0924005E-1,1.7226999E-1,5.09308E-1,-3.6175445E-1,1.1542407E-1,1.6543338E0,-9.8920085E-2,-2.5677598E-1,-7.9395646E-1,-1.5520892E-1,1.0711126E0,1.0773226E-1,2.8503533E-2,5.099164E-2,-6.197671E-3,1.267255E-2,-1.2193088E-2,-4.038474E-2,-1.8786134E-2,-7.732624E-3,4.927199E-2,4.3228373E-2,-2.048679E-2],"categories":[],"categories_nodes":[],"categories_segments":[],"categories_sizes":[],"default_left":[0,0,0,0,0,0,0,0,0,0,0,0,0,0,0,0,0,0,0,0,0,0,0,0,0],"id":10,"left_children":[1,3,5,-1,7,9,11,13,15,17,19,21,23,-1,-1,-1,-1,-1,-1,-1,-1,-1,-1,-1,-1],"loss_changes":[2.805395E2,4.2275385E2,6.582358E1,0E0,3.1928723E2,4.070726E1,1.101802E2,2.1299158E2,5.8299183E1,7.427181E1,1.5263184E1,6.148448E1,6.2036613E1,0E0,0E0,0E0,0E0,0E0,0E0,0E0,0E0,0E0,0E0,0E0,0E0],"parents":[2147483647,0,0,1,1,2,2,4,4,5,5,6,6,7,7,8,8,9,9,10,10,11,11,12,12],"right_children":[2,4,6,-1,8,10,12,14,16,18,20,22,24,-1,-1,-1,-1,-1,-1,-1,-1,-1,-1,-1,-1],"split_conditions":[2.995E-3,-3.98E-6,1.3961E-1,1.7226999E-1,-3.9175E-2,5.187E-3,6.178E-5,2.419E-3,-3.9E-3,-6.3698944E8,-1.0904E0,8.637E-3,3.1443952E8,1.0773226E-1,2.8503533E-2,5.099164E-2,-6.197671E-3,1.267255E-2,-1.2193088E-2,-4.038474E-2,-1.8786134E-2,-7.732624E-3,4.927199E-2,4.3228373E-2,-2.048679E-2],"split_indices":[2,12,8,0,15,2,12,2,1,7,14,2,7,0,0,0,0,0,0,0,0,0,0,0,0],"split_type":[0,0,0,0,0,0,0,0,0,0,0,0,0,0,0,0,0,0,0,0,0,0,0,0,0],"sum_hessian":[1.799E3,4.72E2,1.327E3,1.5E1,4.57E2,9.03E2,4.24E2,1.58E2,2.99E2,7.28E2,1.75E2,3.31E2,9.3E1,4.1E1,1.17E2,1.6E1,2.83E2,1.31E2,5.97E2,3.9E1,1.36E2,3.14E2,1.7E1,7.7E1,1.6E1],"tree_param":{"num_deleted":"0","num_feature":"40","num_nodes":"25","size_leaf_vector":"1"}},{"base_weights":[-2.9329564E-2,-8.0456984E-1,5.1400978E-2,-9.1513306E-1,6.9583245E-3,7.317253E-2,1.09129725E-2,-7.3305976E-1,-4.0417347E-2,4.9495128E-1,-8.531906E-2,-2.990635E-2,-1.31747285E-2,3.757514E-3,5.1829055E-2,-5.685327E-3,1.1250412E-2],"categories":[],"categories_nodes":[],"categories_segments":[],"categories_sizes":[],"default_left":[0,0,0,0,0,0,0,0,0,0,0,0,0,0,0,0,0],"id":11,"left_children":[1,3,5,7,-1,-1,9,11,-1,13,15,-1,-1,-1,-1,-1,-1],"loss_changes":[1.12144844E2,1.9648033E1,1.5653127E2,1.0841782E1,0E0,0E0,7.442486E1,7.9476585E0,0E0,1.2036524E2,6.393914E1,0E0,0E0,0E0,0E0,0E0,0E0],"parents":[2147483647,0,0,1,1,2,2,3,3,6,6,7,7,9,9,10,10],"right_children":[2,4,6,8,-1,-1,10,12,-1,14,16,-1,-1,-1,-1,-1,-1],"split_conditions":[-3.84218E-5,-1.0796E0,-3.71547E-5,-1.3316E0,6.9583245E-3,7.317253E-2,9.9671E2,1.3767E-2,-4.0417347E-2,2.67702E-5,5.38035E3,-2.990635E-2,-1.31747285E-2,3.757514E-3,5.1829055E-2,-5.685327E-3,1.1250412E-2],"split_indices":[13,14,13,14,0,0,0,18,0,13,0,0,0,0,0,0,0],"split_type":[0,0,0,0,0,0,0,0,0,0,0,0,0,0,0,0,0],"sum_hessian":[1.789E3,1.68E2,1.621E3,1.52E2,1.6E1,2.6E1,1.595E3,1.09E2,4.3E1,2.64E2,1.331E3,5.6E1,5.3E1,2.04E2,6E1,1.086E3,2.45E2],"tree_param":{"num_deleted":"0","num_feature":"40","num_nodes":"17","size_leaf_vector":"1"}},{"base_weights":[1.9330824E-2,-9.7595507E-1,7.671982E-2,-7.480825E-1,-4.034533E-2,2.0978037E-1,-3.1561583E-1,-5.6842314E-3,-9.6509296E-1,1.0943916E0,1.1651561E-1,9.301142E-2,-4.667072E-1,-3.542505E-2,-1.894121E-2,1.408227E-2,1.5480754E-1,5.038791E-3,-2.7894601E-2,3.8184967E-2,-1.0377314E-2,-1.6858151E-2,1.7906887E-3],"categories":[],"categories_nodes":[],"categories_segments":[],"categories_sizes":[],"default_left":[0,0,0,0,0,0,0,0,0,0,0,0,0,0,0,0,0,0,0,0,0,0,0],"id":12,"left_children":[1,3,5,7,-1,9,11,-1,13,15,17,19,21,-1,-1,-1,-1,-1,-1,-1,-1,-1,-1],"loss_changes":[1.02683945E2,7.0225143E0,8.885531E1,7.3387833E0,0E0,1.0461278E2,2.6690735E1,0E0,2.3131104E0,3.0448685E2,6.2035767E1,6.1121334E1,1.5874542E1,0E0,0E0,0E0,0E0,0E0,0E0,0E0,0E0,0E0,0E0],"parents":[2147483647,0,0,1,1,2,2,3,3,5,5,6,6,8,8,9,9,10,10,11,11,12,12],"right_children":[2,4,6,8,-1,10,12,-1,14,16,18,20,22,-1,-1,-1,-1,-1,-1,-1,-1,-1,-1],"split_conditions":[-4.32363E-5,-1.413E0,8.85882E6,6.77236E-1,-4.034533E-2,-1.6E-7,-2.552E-3,-5.6842314E-3,5.1E-4,1.52147E-1,6.8645E-5,-1.243E-5,1.08242264E8,-3.542505E-2,-1.894121E-2,1.408227E-2,1.5480754E-1,5.038791E-3,-2.7894601E-2,3.8184967E-2,-1.0377314E-2,-1.6858151E-2,1.7906887E-3],"split_indices":[13,14,11,15,0,12,21,0,26,36,13,13,10,0,0,0,0,0,0,0,0,0,0],"split_type":[0,0,0,0,0,0,0,0,0,0,0,0,0,0,0,0,0,0,0,0,0,0,0],"sum_hessian":[1.797E3,9.7E1,1.7E3,6.2E1,3.5E1,1.27E3,4.3E2,1.8E1,4.4E1,1.2E2,1.15E3,1.16E2,3.14E2,2.5E1,1.9E1,1.05E2,1.5E1,1.097E3,5.3E1,3.1E1,8.5E1,2.66E2,4.8E1],"tree_param":{"num_deleted":"0","num_feature":"40","num_nodes":"23","size_leaf_vector":"1"}},{"base_weights":[9.9929795E-3,1.0397278E-1,-3.4212265E-2,4.564481E-1,-2.395128E-1,-1.23371646E-1,1.1797124E0,-3.3850786E-1,1.6415307E-1,-8.702814E-3,8.387181E-2,5.012589E-2,7.5900843E-3,-2.9362492E-2,-8.189141E-3,2.1114802E-2,-8.561601E-3],"categories":[],"categories_nodes":[],"categories_segments":[],"categories_sizes":[],"default_left":[0,0,0,0,0,0,0,0,0,0,0,0,0,0,0,0,0],"id":13,"left_children":[1,-1,3,5,7,9,11,13,15,-1,-1,-1,-1,-1,-1,-1,-1],"loss_changes":[2.781848E2,0E0,1.8100381E2,2.2251352E2,5.070349E1,1.441306E2,1.0680121E2,4.232212E1,6.0893898E1,0E0,0E0,0E0,0E0,0E0,0E0,0E0,0E0],"parents":[2147483647,0,0,2,2,3,3,4,4,5,5,6,6,7,7,8,8],"right_children":[2,-1,4,6,8,10,12,14,16,-1,-1,-1,-1,-1,-1,-1,-1],"split_conditions":[1.643E-3,1.0397278E-1,3.054E-3,2.218E-1,2.5952901E8,1.2815547E8,-1.0155435E8,-2.151927E0,4.9087E-6,-8.702814E-3,8.387181E-2,5.012589E-2,7.5900843E-3,-2.9362492E-2,-8.189141E-3,2.1114802E-2,-8.561601E-3],"split_indices":[2,0,2,14,3,10,7,15,13,0,0,0,0,0,0,0,0],"split_type":[0,0,0,0,0,0,0,0,0,0,0,0,0,0,0,0,0],"sum_hessian":[1.817E3,2.2E1,1.795E3,5.29E2,1.266E3,2.94E2,2.35E2,1.017E3,2.49E2,2.79E2,1.5E1,1.53E2,8.2E1,9.3E1,9.24E2,1.13E2,1.36E2],"tree_param":{"num_deleted":"0","num_feature":"40","num_nodes":"17","size_leaf_vector":"1"}},{"base_weights":[8.5437234E-4,6.067209E-1,-2.2300775E-1,1.4601611E0,7.310013E-2,-3.4201568E-1,2.5985268E-1,1.5566407E-1,1.0825619E0,8.668796E-2,-8.3823495E-2,-4.4897914E-1,9.882932E-2,7.8023076E-1,-2.7376375E-1,8.12112E-2,1.8957388E-2,3.9258584E-2,-5.4670386E-3,-6.356972E-4,-1.5744729E-2,-2.0482827E-2,1.6088858E-2,4.300184E-2,7.6401588E-3,9.596002E-3,-1.7789349E-2],"categories":[],"categories_nodes":[],"categories_segments":[],"categories_sizes":[],"default_left":[0,0,0,0,0,0,0,0,0,0,0,0,0,0,0,0,0,0,0,0,0,0,0,0,0,0,0],"id":14,"left_children":[1,3,5,7,9,11,13,-1,15,-1,17,19,21,23,25,-1,-1,-1,-1,-1,-1,-1,-1,-1,-1,-1,-1],"loss_changes":[2.4580061E2,2.2243712E2,7.612226E1,2.5844687E2,1.3399931E2,5.015725E1,7.301701E1,0E0,1.238714E2,0E0,3.9453995E1,2.76754E1,7.147069E1,4.5121864E1,2.4851402E1,0E0,0E0,0E0,0E0,0E0,0E0,0E0,0E0,0E0,0E0,0E0,0E0],"parents":[2147483647,0,0,1,1,2,2,3,3,4,4,5,5,6,6,8,8,10,10,11,11,12,12,13,13,14,14],"right_children":[2,4,6,8,10,12,14,-1,16,-1,18,20,22,24,26,-1,-1,-1,-1,-1,-1,-1,-1,-1,-1,-1,-1],"split_conditions":[2.995E-3,5.5277E-2,2.5208437E8,1.276E-5,-3.4312156E7,6.178E-5,4.165E-5,1.5566407E-1,6.154576E7,8.668796E-2,1.643E-3,3.19E-3,-3.25102E-1,1.3756808E8,3.927E-3,8.12112E-2,1.8957388E-2,3.9258584E-2,-5.4670386E-3,-6.356972E-4,-1.5744729E-2,-2.0482827E-2,1.6088858E-2,4.300184E-2,7.6401588E-3,9.596002E-3,-1.7789349E-2],"split_indices":[2,15,3,12,11,12,12,0,4,0,2,2,15,10,2,0,0,0,0,0,0,0,0,0,0,0,0],"split_type":[0,0,0,0,0,0,0,0,0,0,0,0,0,0,0,0,0,0,0,0,0,0,0,0,0,0,0],"sum_hessian":[1.81E3,4.88E2,1.322E3,1.87E2,3.01E2,1.061E3,2.61E2,1.6E1,1.71E2,1.5E1,2.86E2,8.54E2,2.07E2,1.32E2,1.29E2,3.6E1,1.35E2,1.8E1,2.68E2,1.29E2,7.25E2,7.4E1,1.33E2,5.8E1,7.4E1,4.5E1,8.4E1],"tree_param":{"num_deleted":"0","num_feature":"40","num_nodes":"27","size_leaf_vector":"1"}},{"base_weights":[3.4472372E-3,4.06195E-1,-2.9707003E-1,1.2888975E-1,1.2499173E0,-4.0511867E-1,2.1457234E-1,7.15109E-2,2.3980893E-2,2.173449E0,-6.894532E-2,-5.5825186E-1,-1.2853496E-1,1.0813826E0,-3.7495553E-1,6.2203802E-2,-1.3107904E-3,-3.8390774E-3,1.1629396E-1,-2.188823E-2,4.2290885E-2,-1.0912539E-2,-2.2346174E-2,-1.841963E-2,1.9468982E-3,6.895401E-2,1.9420413E-2,-2.414944E-2,-1.398109E-3],"categories":[],"categories_nodes":[],"categories_segments":[],"categories_sizes":[],"default_left":[0,0,0,0,0,0,0,0,0,0,0,0,0,0,0,0,0,0,0,0,0,0,0,0,0,0,0,0,0],"id":15,"left_children":[1,3,5,7,9,11,13,-1,15,17,19,21,23,25,27,-1,-1,-1,-1,-1,-1,-1,-1,-1,-1,-1,-1,-1,-1],"loss_changes":[2.2004791E2,1.8149461E2,5.765483E1,1.3831992E2,2.3421848E2,3.6284134E1,9.347972E1,0E0,7.810217E1,4.4375775E2,7.911114E1,1.9690887E1,2.9016535E1,3.73086E1,1.5268103E1,0E0,0E0,0E0,0E0,0E0,0E0,0E0,0E0,0E0,0E0,0E0,0E0,0E0,0E0],"parents":[2147483647,0,0,1,1,2,2,3,3,4,4,5,5,6,6,8,8,9,9,10,10,11,11,12,12,13,13,14,14],"right_children":[2,4,6,8,10,12,14,-1,16,18,20,22,24,26,28,-1,-1,-1,-1,-1,-1,-1,-1,-1,-1,-1,-1,-1,-1],"split_conditions":[3.437E-3,2.11475E-5,3.1652435E8,1.718E-3,3.84067E-5,3.9455E-2,4.9087E-6,7.15109E-2,-6.034E-3,-4.025871E8,1.3961E-1,-4.49E-3,-5.73E-6,-3.406E-3,-3.6341984E8,6.2203802E-2,-1.3107904E-3,-3.8390774E-3,1.1629396E-1,-2.188823E-2,4.2290885E-2,-1.0912539E-2,-2.2346174E-2,-1.841963E-2,1.9468982E-3,6.895401E-2,1.9420413E-2,-2.414944E-2,-1.398109E-3],"split_indices":[2,13,4,2,13,8,13,0,20,7,8,32,13,26,7,0,0,0,0,0,0,0,0,0,0,0,0,0,0],"split_type":[0,0,0,0,0,0,0,0,0,0,0,0,0,0,0,0,0,0,0,0,0,0,0,0,0,0,0,0,0],"sum_hessian":[1.816E3,7.76E2,1.04E3,5.85E2,1.91E2,8.59E2,1.81E2,2.5E1,5.6E2,1.12E2,7.9E1,5.52E2,3.07E2,7.3E1,1.08E2,1.7E1,5.43E2,4.8E1,6.4E1,5.5E1,2.4E1,2.72E2,2.8E2,8.7E1,2.2E2,1.8E1,5.5E1,4.6E1,6.2E1],"tree_param":{"num_deleted":"0","num_feature":"40","num_nodes":"29","size_leaf_vector":"1"}},{"base_weights":[1.5599043E-2,8.5709095E-1,-1.4790516E-1,2.054887E0,2.0559736E-1,1.8698698E-1,-3.036372E-1,1.4677953E0,1.5337555E-1,6.200458E-2,-3.8762655E-2,2.9553825E-2,1.8918979E0,-4.5618105E-1,1.0281094E-2,1.2933186E-1,2.44255E-2,4.7905352E-2,-6.3062054E-3,-3.327879E-3,2.7332664E-2,4.367494E-3,9.928614E-2,-1.6008852E-2,1.085569E-3,1.3781027E-2,-8.659905E-3],"categories":[],"categories_nodes":[],"categories_segments":[],"categories_sizes":[],"default_left":[0,0,0,0,0,0,0,0,0,0,0,0,0,0,0,0,0,0,0,0,0,0,0,0,0,0,0],"id":16,"left_children":[1,3,5,7,9,11,13,15,-1,-1,17,19,21,23,25,-1,-1,-1,-1,-1,-1,-1,-1,-1,-1,-1,-1],"loss_changes":[2.4524095E2,2.2565485E2,7.788137E1,1.7493906E2,8.6241684E1,1.2697806E2,4.884543E1,1.5765767E2,0E0,0E0,4.73068E1,5.4051826E1,9.819852E1,2.6227951E1,4.4989834E1,0E0,0E0,0E0,0E0,0E0,0E0,0E0,0E0,0E0,0E0,0E0,0E0],"parents":[2147483647,0,0,1,1,2,2,3,3,4,4,5,5,6,6,7,7,10,10,11,11,12,12,13,13,14,14],"right_children":[2,4,6,8,10,12,14,16,-1,-1,18,20,22,24,26,-1,-1,-1,-1,-1,-1,-1,-1,-1,-1,-1,-1],"split_conditions":[2.672E-3,5.5277E-2,3.485E-3,4.214E1,1.718E-3,2.7825408E8,3.61603E3,7.883E-1,1.5337555E-1,6.200458E-2,-1.91337E-1,6.178E-5,-1.5921E-2,2.1649394E8,3.097E-5,1.2933186E-1,2.44255E-2,4.7905352E-2,-6.3062054E-3,-3.327879E-3,2.7332664E-2,4.367494E-3,9.928614E-2,-1.6008852E-2,1.085569E-3,1.3781027E-2,-8.659905E-3],"split_indices":[2,15,2,39,2,4,0,14,0,0,32,12,37,7,12,0,0,0,0,0,0,0,0,0,0,0,0],"split_type":[0,0,0,0,0,0,0,0,0,0,0,0,0,0,0,0,0,0,0,0,0,0,0,0,0,0,0],"sum_hessian":[1.78E3,2.89E2,1.491E3,1.01E2,1.88E2,4.73E2,1.018E3,8.6E1,1.5E1,2.1E1,1.67E2,4.34E2,3.9E1,6.85E2,3.33E2,1.5E1,7.1E1,1.5E1,1.52E2,3.75E2,5.9E1,1.8E1,2.1E1,5.92E2,9.3E1,1.33E2,2E2],"tree_param":{"num_deleted":"0","num_feature":"40","num_nodes":"27","size_leaf_vector":"1"}},{"base_weights":[-1.8359E-2,1.1269823E-1,-5.8881577E-2,2.6994857E-1,-3.0733556E-1,-1.449321E-1,7.1828014E-1,-4.5149413E-1,-1.2600283E-2,-7.476075E-3,7.041996E-2,5.3790174E-2,8.410327E-3,-4.169293E-3,-1.742491E-2,3.765872E-2,-3.4638993E-3],"categories":[],"categories_nodes":[],"categories_segments":[],"categories_sizes":[],"default_left":[0,0,0,0,0,0,0,0,0,0,0,0,0,0,0,0,0],"id":17,"left_children":[1,-1,3,5,7,9,11,13,15,-1,-1,-1,-1,-1,-1,-1,-1],"loss_changes":[2.7367014E2,0E0,1.4485762E2,1.4208258E2,4.2861412E1,1.035433E2,1.720226E2,2.7251953E1,4.346052E1,0E0,0E0,0E0,0E0,0E0,0E0,0E0,0E0],"parents":[2147483647,0,0,2,2,3,3,4,4,5,5,6,6,7,7,8,8],"right_children":[2,-1,4,6,8,10,12,14,16,-1,-1,-1,-1,-1,-1,-1,-1],"split_conditions":[1.643E-3,1.1269823E-1,3.485E-3,7.32E-7,1.66638E-1,1.6284763E8,2.664E-3,-6.618434E8,-4.3898694E8,-7.476075E-3,7.041996E-2,5.3790174E-2,8.410327E-3,-4.169293E-3,-1.742491E-2,3.765872E-2,-3.4638993E-3],"split_indices":[2,0,2,13,8,9,2,7,7,0,0,0,0,0,0,0,0],"split_type":[0,0,0,0,0,0,0,0,0,0,0,0,0,0,0,0,0],"sum_hessian":[1.789E3,1.8E1,1.771E3,7.62E2,1.009E3,3.96E2,3.66E2,6.77E2,3.32E2,3.81E2,1.5E1,1.05E2,2.61E2,1.99E2,4.78E2,2.4E1,3.08E2],"tree_param":{"num_deleted":"0","num_feature":"40","num_nodes":"17","size_leaf_vector":"1"}},{"base_weights":[1.0167948E-3,1.5468986E-1,-2.89803E-1,3.2648078E-1,-3.2377148E-1,-4.9924386E-1,6.30436E-2,1.2254068E0,1.9717304E-1,1.5367635E-1,-4.8738638E-1,-4.1405034E-1,-8.943023E-1,-6.28487E-1,2.885814E-1,1.0321848E-2,1.1371889E-1,9.775575E-4,1.8930757E-2,3.665709E-2,-3.7959542E-3,-1.7681459E-2,8.523912E-3,-1.3936258E-2,1.5843665E-2,-3.248226E-2,-1.7283963E-2,-2.9132303E-2,-4.0027597E-3,2.4895055E-2,-7.462612E-3],"categories":[],"categories_nodes":[],"categories_segments":[],"categories_sizes":[],"default_left":[0,0,0,0,0,0,0,0,0,0,0,0,0,0,0,0,0,0,0,0,0,0,0,0,0,0,0,0,0,0,0],"id":18,"left_children":[1,3,5,7,9,11,13,15,17,19,21,23,25,27,29,-1,-1,-1,-1,-1,-1,-1,-1,-1,-1,-1,-1,-1,-1,-1,-1],"loss_changes":[8.1324554E1,9.800059E1,4.655851E1,1.0155692E2,2.471531E1,1.2793167E1,3.6799458E1,2.4697545E2,5.4753487E1,2.4509539E1,1.8690445E1,1.5794952E1,3.3472633E0,9.59696E0,5.20331E1,0E0,0E0,0E0,0E0,0E0,0E0,0E0,0E0,0E0,0E0,0E0,0E0,0E0,0E0,0E0,0E0],"parents":[2147483647,0,0,1,1,2,2,3,3,4,4,5,5,6,6,7,7,8,8,9,9,10,10,11,11,12,12,13,13,14,14],"right_children":[2,4,6,8,10,12,14,16,18,20,22,24,26,28,30,-1,-1,-1,-1,-1,-1,-1,-1,-1,-1,-1,-1,-1,-1,-1,-1],"split_conditions":[-1.1885485E6,1.592E-3,2.1649394E8,-1.6E-7,-1.03667E-1,1.7206474E8,4.48E-6,-5.61054E-1,4.1E-5,-5.607E-3,3.2307677E8,3.927389E8,1.18872E-1,4.225649E8,3.998874E8,1.0321848E-2,1.1371889E-1,9.775575E-4,1.8930757E-2,3.665709E-2,-3.7959542E-3,-1.7681459E-2,8.523912E-3,-1.3936258E-2,1.5843665E-2,-3.248226E-2,-1.7283963E-2,-2.9132303E-2,-4.0027597E-3,2.4895055E-2,-7.462612E-3],"split_indices":[7,20,7,12,32,7,12,8,20,21,4,4,8,7,7,0,0,0,0,0,0,0,0,0,0,0,0,0,0,0,0],"split_type":[0,0,0,0,0,0,0,0,0,0,0,0,0,0,0,0,0,0,0,0,0,0,0,0,0,0,0,0,0,0,0],"sum_hessian":[1.818E3,1.19E3,6.28E2,8.76E2,3.14E2,3.94E2,2.34E2,1.09E2,7.67E2,8E1,2.34E2,3.26E2,6.8E1,5.7E1,1.77E2,8.2E1,2.7E1,5.57E2,2.1E2,1.6E1,6.4E1,2.07E2,2.7E1,3.1E2,1.6E1,4.1E1,2.7E1,3.3E1,2.4E1,8.8E1,8.9E1],"tree_param":{"num_deleted":"0","num_feature":"40","num_nodes":"31","size_leaf_vector":"1"}},{"base_weights":[-1.7321013E-2,8.1599844E-1,-1.7424223E-1,3.4065788E0,4.2737404E-1,-2.6895058E-1,2.4930719E-1,2.1256028E-1,1.7151728E-2,1.3296183E0,-1.4677681E-1,-8.760993E-1,-2.0946847E-1,1.1321425E0,-7.7599026E-2,5.852562E-2,-5.726835E-3,-2.3224512E-2,6.6710487E-3,-3.1056382E-2,-1.1776011E-2,-1.1210632E-2,3.2202408E-3,1.0949611E-2,6.445431E-2,1.964616E-2,-1.3564171E-2],"categories":[],"categories_nodes":[],"categories_segments":[],"categories_sizes":[],"default_left":[0,0,0,0,0,0,0,0,0,0,0,0,0,0,0,0,0,0,0,0,0,0,0,0,0,0,0],"id":19,"left_children":[1,3,5,7,9,11,13,-1,-1,15,17,19,21,23,25,-1,-1,-1,-1,-1,-1,-1,-1,-1,-1,-1,-1],"loss_changes":[2.3519438E2,2.8508813E2,6.08011E1,3.8104752E2,1.2930148E2,4.441768E1,8.013672E1,0E0,0E0,9.217432E1,3.566089E1,7.914467E0,5.8804405E1,5.744098E1,5.596678E1,0E0,0E0,0E0,0E0,0E0,0E0,0E0,0E0,0E0,0E0,0E0,0E0],"parents":[2147483647,0,0,1,1,2,2,3,3,4,4,5,5,6,6,9,9,10,10,11,11,12,12,13,13,14,14],"right_children":[2,4,6,8,10,12,14,-1,-1,16,18,20,22,24,26,-1,-1,-1,-1,-1,-1,-1,-1,-1,-1,-1,-1],"split_conditions":[2.664E-3,-1.6E-7,2.5208437E8,5.49216E-1,-2.814292E8,-2.151927E0,-1.03033E-5,2.1256028E-1,1.7151728E-2,7.7795E-2,2.262E-3,5.646E-5,1.66087E-5,-1.0604E0,3.996E-3,5.852562E-2,-5.726835E-3,-2.3224512E-2,6.6710487E-3,-3.1056382E-2,-1.1776011E-2,-1.1210632E-2,3.2202408E-3,1.0949611E-2,6.445431E-2,1.964616E-2,-1.3564171E-2],"split_indices":[2,12,3,15,7,15,13,0,0,36,2,12,13,14,2,0,0,0,0,0,0,0,0,0,0,0,0],"split_type":[0,0,0,0,0,0,0,0,0,0,0,0,0,0,0,0,0,0,0,0,0,0,0,0,0,0,0],"sum_hessian":[1.797E3,2.84E2,1.513E3,3.6E1,2.48E2,1.237E3,2.76E2,1.5E1,2.1E1,9.6E1,1.52E2,1.09E2,1.128E3,7.4E1,2.02E2,6.8E1,2.8E1,5.6E1,9.6E1,8.1E1,2.8E1,7.43E2,3.85E2,4.3E1,3.1E1,6.8E1,1.34E2],"tree_param":{"num_deleted":"0","num_feature":"40","num_nodes":"27","size_leaf_vector":"1"}},{"base_weights":[1.1940168E-2,3.9995867E-1,-2.7157092E-1,1.8427658E-1,1.4187481E0,-3.9336297E-1,-2.0247297E-2,8.137254E-2,7.264125E-2,3.578441E0,1.8491253E-1,-4.706527E-1,6.797077E-2,4.4696966E-1,-3.351037E-1,4.2153664E-2,-4.671958E-3,3.94119E-2,1.8231246E-1,-2.5802746E-2,6.0330484E-2,-1.7724449E-2,9.083125E-4,1.05750635E-2,-2.4896014E-2,5.730813E-3,7.237006E-2,-3.2200668E-2,-7.244256E-3],"categories":[],"categories_nodes":[],"categories_segments":[],"categories_sizes":[],"default_left":[0,0,0,0,0,0,0,0,0,0,0,0,0,0,0,0,0,0,0,0,0,0,0,0,0,0,0,0,0],"id":20,"left_children":[1,3,5,7,9,11,13,-1,15,17,19,21,23,25,27,-1,-1,-1,-1,-1,-1,-1,-1,-1,-1,-1,-1,-1,-1],"loss_changes":[2.0165529E2,1.6965285E2,3.236583E1,1.8015157E2,3.5869724E2,2.5495247E1,5.1184464E1,0E0,1.8718575E2,2.6855353E2,1.6786562E2,3.685176E1,2.6557487E1,6.9701744E1,1.3986582E1,0E0,0E0,0E0,0E0,0E0,0E0,0E0,0E0,0E0,0E0,0E0,0E0,0E0,0E0],"parents":[2147483647,0,0,1,1,2,2,3,3,4,4,5,5,6,6,8,8,9,9,10,10,11,11,12,12,13,13,14,14],"right_children":[2,4,6,8,10,12,14,-1,16,18,20,22,24,26,28,-1,-1,-1,-1,-1,-1,-1,-1,-1,-1,-1,-1,-1,-1],"split_conditions":[3.437E-3,2.67702E-5,2.0032251E8,-3.98E-6,3.84067E-5,2.1649394E8,3.097E-5,8.137254E-2,3.636E1,-6.5897E-1,1.3961E-1,6.193E-5,7.223E-5,2.929E-5,-7.1288E-6,4.2153664E-2,-4.671958E-3,3.94119E-2,1.8231246E-1,-2.5802746E-2,6.0330484E-2,-1.7724449E-2,9.083125E-4,1.05750635E-2,-2.4896014E-2,5.730813E-3,7.237006E-2,-3.2200668E-2,-7.244256E-3],"split_indices":[2,13,3,12,13,7,12,0,39,8,8,12,12,12,13,0,0,0,0,0,0,0,0,0,0,0,0,0,0],"split_type":[0,0,0,0,0,0,0,0,0,0,0,0,0,0,0,0,0,0,0,0,0,0,0,0,0,0,0,0,0],"sum_hessian":[1.831E3,7.73E2,1.058E3,6.39E2,1.34E2,7.12E2,3.46E2,2.6E1,6.13E2,4.8E1,8.6E1,6.1E2,1.02E2,1.39E2,2.07E2,8.9E1,5.24E2,2.6E1,2.2E1,5.5E1,3.1E1,4.92E2,1.18E2,7.8E1,2.4E1,1.24E2,1.5E1,2.2E1,1.85E2],"tree_param":{"num_deleted":"0","num_feature":"40","num_nodes":"29","size_leaf_vector":"1"}},{"base_weights":[1.698038E-2,9.5529073E-1,-1.6838664E-1,2.0893786E0,-3.5293557E-2,-2.4225336E-1,4.4199988E-1,1.3645711E0,1.4022078E-1,4.943904E-2,-2.2147901E-1,1.1556306E-1,-3.5314947E-1,6.3966796E-2,1.3410302E-1,1.9043857E-2,1.0132718E-1,3.5866167E-2,-1.3756986E-2,-4.851616E-3,3.48716E-2,-2.728543E-2,-8.783192E-3,3.2082565E-2,-6.8218866E-3],"categories":[],"categories_nodes":[],"categories_segments":[],"categories_sizes":[],"default_left":[0,0,0,0,0,0,0,0,0,0,0,0,0,0,0,0,0,0,0,0,0,0,0,0,0],"id":21,"left_children":[1,3,5,7,9,11,13,15,-1,-1,17,19,21,-1,23,-1,-1,-1,-1,-1,-1,-1,-1,-1,-1],"loss_changes":[3.1418643E2,3.350552E2,6.807869E1,2.5341675E2,5.0366154E1,5.3474457E1,8.4315155E1,1.5904909E2,0E0,0E0,4.9188267E1,9.288323E1,3.414534E1,0E0,4.7325512E1,0E0,0E0,0E0,0E0,0E0,0E0,0E0,0E0,0E0,0E0],"parents":[2147483647,0,0,1,1,2,2,3,3,4,4,5,5,6,6,7,7,10,10,11,11,12,12,14,14],"right_children":[2,4,6,8,10,12,14,16,-1,-1,18,20,22,-1,24,-1,-1,-1,-1,-1,-1,-1,-1,-1,-1],"split_conditions":[2.672E-3,5.83328E-1,3.7422912E8,9.04E-4,-5.3957024E7,3.19E-3,3.485E-3,9.04E-4,1.4022078E-1,4.943904E-2,3.8408188E7,2.67702E-5,-2.151927E0,6.3966796E-2,-8.5893E-6,1.9043857E-2,1.0132718E-1,3.5866167E-2,-1.3756986E-2,-4.851616E-3,3.48716E-2,-2.728543E-2,-8.783192E-3,3.2082565E-2,-6.8218866E-3],"split_indices":[2,15,3,24,5,2,2,25,0,0,3,13,15,0,13,0,0,0,0,0,0,0,0,0,0],"split_type":[0,0,0,0,0,0,0,0,0,0,0,0,0,0,0,0,0,0,0,0,0,0,0,0,0],"sum_hessian":[1.804E3,2.97E2,1.507E3,1.38E2,1.59E2,1.345E3,1.62E2,1.09E2,2.9E1,1.5E1,1.44E2,3.18E2,1.027E3,2.4E1,1.38E2,8.1E1,2.8E1,2E1,1.24E2,2.52E2,6.6E1,9.9E1,9.28E2,3.8E1,1E2],"tree_param":{"num_deleted":"0","num_feature":"40","num_nodes":"25","size_leaf_vector":"1"}},{"base_weights":[-1.4078385E-2,-8.3191514E-1,3.09866E-2,-1.03374E0,-4.5930344E-1,1.6441563E-1,-2.4984208E-1,-2.429826E-2,-3.4447942E-2,-3.8087228E-3,-2.1816859E-2,1.2210909E0,6.310065E-2,-5.2214336E-1,1.2127099E-1,1.1273789E-2,1.1315295E-1,1.41626345E-2,-7.945468E-4,5.534531E-3,-1.7828539E-2,-3.4669181E-3,2.0275125E-2],"categories":[],"categories_nodes":[],"categories_segments":[],"categories_sizes":[],"default_left":[0,0,0,0,0,0,0,0,0,0,0,0,0,0,0,0,0,0,0,0,0,0,0],"id":22,"left_children":[1,3,5,7,9,11,13,-1,-1,-1,-1,15,17,19,21,-1,-1,-1,-1,-1,-1,-1,-1],"loss_changes":[6.633575E1,6.444916E0,6.388261E1,4.1197968E-1,2.9387884E0,1.23552475E2,5.558236E1,0E0,0E0,0E0,0E0,2.1593185E2,3.8748207E1,1.631034E1,3.0736519E1,0E0,0E0,0E0,0E0,0E0,0E0,0E0,0E0],"parents":[2147483647,0,0,1,1,2,2,3,3,4,4,5,5,6,6,11,11,12,12,13,13,14,14],"right_children":[2,4,6,8,10,12,14,-1,-1,-1,-1,16,18,20,22,-1,-1,-1,-1,-1,-1,-1,-1],"split_conditions":[-4.32363E-5,5.39E1,2.3236892E7,-9.3988E-2,-7.83E-4,-1.6E-7,2.1649394E8,-2.429826E-2,-3.4447942E-2,-3.8087228E-3,-2.1816859E-2,-3.3E-7,5.8173056E7,-1.61915E-1,2.88787E-5,1.1273789E-2,1.1315295E-1,1.41626345E-2,-7.945468E-4,5.534531E-3,-1.7828539E-2,-3.4669181E-3,2.0275125E-2],"split_indices":[13,39,7,36,28,12,7,0,0,0,0,12,4,36,13,0,0,0,0,0,0,0,0],"split_type":[0,0,0,0,0,0,0,0,0,0,0,0,0,0,0,0,0,0,0,0,0,0,0],"sum_hessian":[1.796E3,9.3E1,1.703E3,5.9E1,3.4E1,1.155E3,5.48E2,2.3E1,3.6E1,1.6E1,1.8E1,1E2,1.055E3,3.16E2,2.32E2,7.6E1,2.4E1,1.89E2,8.66E2,2.9E1,2.87E2,1.63E2,6.9E1],"tree_param":{"num_deleted":"0","num_feature":"40","num_nodes":"23","size_leaf_vector":"1"}},{"base_weights":[1.715772E-2,6.275059E-1,-1.911818E-1,2.8341444E0,3.6521003E-1,-2.7461925E-1,2.2900656E-1,8.2707703E-1,1.9672859E-1,1.1778331E0,-6.597718E-2,-3.627882E-1,7.041543E-2,8.5464597E-1,-1.7088673E-1,8.139158E-2,-3.3050034E-2,1.166767E-2,7.1201466E-2,1.0460526E-2,-1.1888798E-2,-1.3245847E-2,5.0528822E-3,-9.47382E-3,2.4999324E-2,6.1670665E-2,1.4780465E-2,6.473524E-3,-2.228167E-2],"categories":[],"categories_nodes":[],"categories_segments":[],"categories_sizes":[],"default_left":[0,0,0,0,0,0,0,0,0,0,0,0,0,0,0,0,0,0,0,0,0,0,0,0,0,0,0,0,0],"id":23,"left_children":[1,3,5,7,9,11,13,15,-1,17,19,21,23,25,27,-1,-1,-1,-1,-1,-1,-1,-1,-1,-1,-1,-1,-1,-1],"loss_changes":[2.3133983E2,2.6662576E2,4.760806E1,3.6002792E2,1.4560184E2,3.4491745E1,5.6506947E1,1.2318972E2,0E0,1.3461888E2,3.73986E1,3.783062E1,6.8376144E1,3.698896E1,3.072644E1,0E0,0E0,0E0,0E0,0E0,0E0,0E0,0E0,0E0,0E0,0E0,0E0,0E0,0E0],"parents":[2147483647,0,0,1,1,2,2,3,3,4,4,5,5,6,6,7,7,9,9,10,10,11,11,12,12,13,13,14,14],"right_children":[2,4,6,8,10,12,14,16,-1,18,20,22,24,26,28,-1,-1,-1,-1,-1,-1,-1,-1,-1,-1,-1,-1,-1,-1],"split_conditions":[2.995E-3,-1.6E-7,5.517698E3,8.62E-4,-2.814292E8,6.193E-5,1.89E-1,-8.93E-4,1.9672859E-1,3.972E-5,2.2412718E7,2.0945298E8,1.97701E-1,-3.406E-3,5.562E-3,8.139158E-2,-3.3050034E-2,1.166767E-2,7.1201466E-2,1.0460526E-2,-1.1888798E-2,-1.3245847E-2,5.0528822E-3,-9.47382E-3,2.4999324E-2,6.1670665E-2,1.4780465E-2,6.473524E-3,-2.228167E-2],"split_indices":[2,12,0,26,7,12,14,26,0,12,10,7,8,26,2,0,0,0,0,0,0,0,0,0,0,0,0,0,0],"split_type":[0,0,0,0,0,0,0,0,0,0,0,0,0,0,0,0,0,0,0,0,0,0,0,0,0,0,0,0,0],"sum_hessian":[1.817E3,4.62E2,1.355E3,4.8E1,4.14E2,1.131E3,2.24E2,3.2E1,1.6E1,1.43E2,2.71E2,9.01E2,2.3E2,8.7E1,1.37E2,1.6E1,1.6E1,8.7E1,5.6E1,1.2E2,1.51E2,7.85E2,1.16E2,1.53E2,7.7E1,1.9E1,6.8E1,8.2E1,5.5E1],"tree_param":{"num_deleted":"0","num_feature":"40","num_nodes":"29","size_leaf_vector":"1"}},{"base_weights":[1.5116452E-3,1.0480109E-1,-4.1397966E-2,2.5841424E-1,-2.6087195E-1,1.2547646E-2,1.2266822E0,-3.9656472E-1,-2.244981E-2,7.541888E-2,-1.7887035E-3,7.4179925E-2,8.09835E-4,-2.881507E-3,-1.7230839E-2,-5.026987E-3,1.7424248E-2],"categories":[],"categories_nodes":[],"categories_segments":[],"categories_sizes":[],"default_left":[0,0,0,0,0,0,0,0,0,0,0,0,0,0,0,0,0],"id":24,"left_children":[1,-1,3,5,7,9,11,13,15,-1,-1,-1,-1,-1,-1,-1,-1],"loss_changes":[2.7154E2,0E0,1.17719795E2,1.7983763E2,3.336898E1,1.0943536E2,2.2838603E2,3.503504E1,3.2972034E1,0E0,0E0,0E0,0E0,0E0,0E0,0E0,0E0],"parents":[2147483647,0,0,2,2,3,3,4,4,5,5,6,6,7,7,8,8],"right_children":[2,-1,4,6,8,10,12,14,16,-1,-1,-1,-1,-1,-1,-1,-1],"split_conditions":[1.643E-3,1.0480109E-1,3.485E-3,2.39327E-5,3.9455E-2,-6.444E-3,3.84067E-5,3.097E-5,6.4E-5,7.541888E-2,-1.7887035E-3,7.4179925E-2,8.09835E-4,-2.881507E-3,-1.7230839E-2,-5.026987E-3,1.7424248E-2],"split_indices":[2,0,2,13,8,1,13,12,12,0,0,0,0,0,0,0,0],"split_type":[0,0,0,0,0,0,0,0,0,0,0,0,0,0,0,0,0],"sum_hessian":[1.808E3,2.1E1,1.787E3,7.55E2,1.032E3,6.03E2,1.52E2,6.57E2,3.75E2,1.6E1,5.87E2,7.4E1,7.8E1,2.45E2,4.12E2,3.03E2,7.2E1],"tree_param":{"num_deleted":"0","num_feature":"40","num_nodes":"17","size_leaf_vector":"1"}},{"base_weights":[-4.9824347E-3,6.390846E-1,-1.4052607E-1,1.3472277E-1,4.3257505E-1,-2.2603133E-1,3.2754147E-1,1.7863495E0,-2.4595857E-1,2.6906577E-1,-3.088097E-1,7.6753587E-1,-1.705208E-1,8.448749E-2,1.6230354E-2,1.0432071E-2,-1.5547925E-2,4.8217516E-2,1.7951713E-4,-1.326381E-2,9.515043E-5,-1.8220432E-3,4.1642588E-2,-1.5165982E-2,1.5042271E-2],"categories":[],"categories_nodes":[],"categories_segments":[],"categories_sizes":[],"default_left":[0,0,0,0,0,0,0,0,0,0,0,0,0,0,0,0,0,0,0,0,0,0,0,0,0],"id":25,"left_children":[1,3,5,-1,7,9,11,13,15,17,19,21,23,-1,-1,-1,-1,-1,-1,-1,-1,-1,-1,-1,-1],"loss_changes":[1.5918637E2,2.4970924E2,6.0377388E1,0E0,2.78005E2,5.2340813E1,5.125128E1,1.276806E2,3.2853855E1,6.425461E1,4.550592E1,6.395102E1,2.5015388E1,0E0,0E0,0E0,0E0,0E0,0E0,0E0,0E0,0E0,0E0,0E0,0E0],"parents":[2147483647,0,0,1,1,2,2,4,4,5,5,6,6,7,7,8,8,9,9,10,10,11,11,12,12],"right_children":[2,4,6,-1,8,10,12,14,16,18,20,22,24,-1,-1,-1,-1,-1,-1,-1,-1,-1,-1,-1,-1],"split_conditions":[2.708E-3,-1.39E-6,5.38035E3,1.3472277E-1,-3.9175E-2,5.0738972E7,4.165E-5,2.442959E3,-8.2461E-2,-3.541562E8,6.1201E-2,-1.135E-3,-1.3553E-1,8.448749E-2,1.6230354E-2,1.0432071E-2,-1.5547925E-2,4.8217516E-2,1.7951713E-4,-1.326381E-2,9.515043E-5,-1.8220432E-3,4.1642588E-2,-1.5165982E-2,1.5042271E-2],"split_indices":[2,12,0,0,15,3,12,0,31,7,8,27,15,0,0,0,0,0,0,0,0,0,0,0,0],"split_type":[0,0,0,0,0,0,0,0,0,0,0,0,0,0,0,0,0,0,0,0,0,0,0,0,0],"sum_hessian":[1.822E3,3.16E2,1.506E3,1.5E1,3.01E2,1.274E3,2.32E2,1E2,2.01E2,1.82E2,1.092E3,1.23E2,1.09E2,5.4E1,4.6E1,6.3E1,1.38E2,2.9E1,1.53E2,7.65E2,3.27E2,5.3E1,7E1,7.3E1,3.6E1],"tree_param":{"num_deleted":"0","num_feature":"40","num_nodes":"25","size_leaf_vector":"1"}},{"base_weights":[1.33889355E-2,8.8338815E-2,-2.2995602E-2,2.4805294E-1,-2.291876E-1,-1.796679E-1,7.1024E-1,-3.7579834E-1,9.78113E-2,-8.147959E-3,6.07771E-2,3.5500888E-2,-1.5116301E-3,-1.4174333E-2,4.086391E-3,1.5539576E-2,-6.138301E-3],"categories":[],"categories_nodes":[],"categories_segments":[],"categories_sizes":[],"default_left":[0,0,0,0,0,0,0,0,0,0,0,0,0,0,0,0,0],"id":26,"left_children":[1,-1,3,5,7,9,11,13,15,-1,-1,-1,-1,-1,-1,-1,-1],"loss_changes":[1.9137317E2,0E0,9.897679E1,1.5141125E2,4.829376E1,8.1073204E1,1.3260524E2,3.450116E1,3.9783085E1,0E0,0E0,0E0,0E0,0E0,0E0,0E0,0E0],"parents":[2147483647,0,0,2,2,3,3,4,4,5,5,6,6,7,7,8,8],"right_children":[2,-1,4,6,8,10,12,14,16,-1,-1,-1,-1,-1,-1,-1,-1],"split_conditions":[1.643E-3,8.8338815E-2,3.485E-3,7.32E-7,2.0132075E8,1.6284763E8,-3.87997E7,2.034158E0,4.9087E-6,-8.147959E-3,6.07771E-2,3.5500888E-2,-1.5116301E-3,-1.4174333E-2,4.086391E-3,1.5539576E-2,-6.138301E-3],"split_indices":[2,0,2,13,3,9,7,15,13,0,0,0,0,0,0,0,0],"split_type":[0,0,0,0,0,0,0,0,0,0,0,0,0,0,0,0,0],"sum_hessian":[1.79E3,2.1E1,1.769E3,7.64E2,1.005E3,3.97E2,3.67E2,6.94E2,3.11E2,3.82E2,1.5E1,2.26E2,1.41E2,5.84E2,1.1E2,1.3E2,1.81E2],"tree_param":{"num_deleted":"0","num_feature":"40","num_nodes":"17","size_leaf_vector":"1"}},{"base_weights":[-1.6686574E-2,2.723546E-1,-2.4043289E-1,1.3952206E-1,1.5992184E0,-3.7828454E-1,1.2740409E-2,-5.4597374E-2,1.048116E0,9.2640907E-1,1.12654634E-1,-1.1179911E-1,-5.372929E-1,-1.2756202E-1,6.560524E-1,4.4717707E-2,-2.9804513E-3,9.961098E-2,-1.4142282E-3,-1.9375201E-2,5.807969E-2,-1.21625485E-2,8.513015E-2,-3.0932467E-2,-1.1089139E-2,-6.2613236E-3,3.2605473E-2,5.1104957E-3,4.8455067E-2],"categories":[],"categories_nodes":[],"categories_segments":[],"categories_sizes":[],"default_left":[0,0,0,0,0,0,0,0,0,0,0,0,0,0,0,0,0,0,0,0,0,0,0,0,0,0,0,0,0],"id":27,"left_children":[1,3,5,7,9,11,13,15,17,19,-1,21,23,25,27,-1,-1,-1,-1,-1,-1,-1,-1,-1,-1,-1,-1,-1,-1],"loss_changes":[1.1918793E2,1.4130853E2,3.6302845E1,1.2926363E2,1.01942E2,2.8392326E1,3.326131E1,4.177478E1,3.215258E2,9.1856155E1,0E0,2.2001057E2,3.4331802E1,2.9900509E1,3.0292099E1,0E0,0E0,0E0,0E0,0E0,0E0,0E0,0E0,0E0,0E0,0E0,0E0,0E0,0E0],"parents":[2147483647,0,0,1,1,2,2,3,3,4,4,5,5,6,6,7,7,8,8,9,9,11,11,12,12,13,13,14,14],"right_children":[2,4,6,8,10,12,14,16,18,20,-1,22,24,26,28,-1,-1,-1,-1,-1,-1,-1,-1,-1,-1,-1,-1,-1,-1],"split_conditions":[3.485E-3,3.052489E8,1.3961E-1,2.59315E-5,1.09062E-1,3.097E-5,6.4E-5,-6.162E-3,3.84067E-5,-6.6817E-2,1.12654634E-1,3.016E-5,-6.5692E-6,8.637E-3,5.131E-3,4.4717707E-2,-2.9804513E-3,9.961098E-2,-1.4142282E-3,-1.9375201E-2,5.807969E-2,-1.21625485E-2,8.513015E-2,-3.0932467E-2,-1.1089139E-2,-6.2613236E-3,3.2605473E-2,5.1104957E-3,4.8455067E-2],"split_indices":[2,4,8,13,36,12,12,22,13,37,0,12,13,2,2,0,0,0,0,0,0,0,0,0,0,0,0,0,0],"split_type":[0,0,0,0,0,0,0,0,0,0,0,0,0,0,0,0,0,0,0,0,0,0,0,0,0,0,0,0,0],"sum_hessian":[1.841E3,8.03E2,1.038E3,7.31E2,7.2E1,6.72E2,3.66E2,6.03E2,1.28E2,5.6E1,1.6E1,2.52E2,4.2E2,3.01E2,6.5E1,1.6E1,5.87E2,4.1E1,8.7E1,2.2E1,3.4E1,2.3E2,2.2E1,1.05E2,3.15E2,2.83E2,1.8E1,4.4E1,2.1E1],"tree_param":{"num_deleted":"0","num_feature":"40","num_nodes":"29","size_leaf_vector":"1"}},{"base_weights":[-1.394263E-3,1.4910947E-1,-2.5119382E-1,-2.4717762E-1,3.5387173E-1,-7.0771986E-1,-1.4635058E-1,9.727151E-2,-6.938739E-1,1.641119E0,2.1486327E-1,-4.6306034E-3,-8.632291E-1,-3.3313665E-1,2.2848865E-1,-2.1448072E-2,1.1751411E-2,-2.732866E-2,6.365487E-3,1.421019E-1,1.5590386E-2,2.4734795E-4,3.8318735E-2,-7.931656E-3,-2.9011892E-2,-5.842667E-3,-2.4192499E-2,-1.2197025E-4,3.6644366E-2],"categories":[],"categories_nodes":[],"categories_segments":[],"categories_sizes":[],"default_left":[0,0,0,0,0,0,0,0,0,0,0,0,0,0,0,0,0,0,0,0,0,0,0,0,0,0,0,0,0],"id":28,"left_children":[1,3,5,7,9,11,13,15,17,19,21,-1,23,25,27,-1,-1,-1,-1,-1,-1,-1,-1,-1,-1,-1,-1,-1,-1],"loss_changes":[6.768245E1,9.122357E1,3.2214725E1,5.905712E1,1.3205505E2,1.060775E1,3.8734726E1,5.214286E1,3.3110092E1,2.4696371E2,1.469374E2,0E0,5.714821E0,2.390974E1,4.2616753E1,0E0,0E0,0E0,0E0,0E0,0E0,0E0,0E0,0E0,0E0,0E0,0E0,0E0,0E0],"parents":[2147483647,0,0,1,1,2,2,3,3,4,4,5,5,6,6,7,7,8,8,9,9,10,10,12,12,13,13,14,14],"right_children":[2,4,6,8,10,12,14,16,18,20,22,-1,24,26,28,-1,-1,-1,-1,-1,-1,-1,-1,-1,-1,-1,-1,-1,-1],"split_conditions":[-2.3641322E7,-4.9816755E8,4.48E-6,-1.246948E0,-1.6E-7,-1.064E-5,6.58812E-1,1.276E-5,3.13472E8,-2.2616595E8,6.156E-5,-4.6306034E-3,-8.5936E-2,5.937E-5,6.753E-5,-2.1448072E-2,1.1751411E-2,-2.732866E-2,6.365487E-3,1.421019E-1,1.5590386E-2,2.4734795E-4,3.8318735E-2,-7.931656E-3,-2.9011892E-2,-5.842667E-3,-2.4192499E-2,-1.2197025E-4,3.6644366E-2],"split_indices":[7,7,12,8,12,12,15,12,4,7,12,0,31,12,12,0,0,0,0,0,0,0,0,0,0,0,0,0,0],"split_type":[0,0,0,0,0,0,0,0,0,0,0,0,0,0,0,0,0,0,0,0,0,0,0,0,0,0,0,0,0],"sum_hessian":[1.798E3,1.122E3,6.76E2,3.82E2,7.4E2,1.25E2,5.51E2,2.16E2,1.66E2,7.1E1,6.69E2,2.8E1,9.7E1,3.68E2,1.83E2,5.7E1,1.59E2,1.34E2,3.2E1,1.8E1,5.3E1,5.61E2,1.08E2,1.5E1,8.2E1,2.86E2,8.2E1,1.49E2,3.4E1],"tree_param":{"num_deleted":"0","num_feature":"40","num_nodes":"29","size_leaf_vector":"1"}},{"base_weights":[1.07153095E-2,3.525171E-1,-2.4309015E-1,1.42582E-1,1.1379635E0,-2.682752E-1,2.4965601E-2,6.169921E-2,4.3672334E-2,2.329191E0,-6.5922126E-2,-7.773064E-1,-2.1681008E-1,-7.2077205E-3,2.2589512E-2,-4.216468E-3,1.1055291E-1,-2.3144083E-2,5.6664575E-2,-2.9702494E-2,-1.2303889E-2,1.0050307E-2,-9.029411E-3],"categories":[],"categories_nodes":[],"categories_segments":[],"categories_sizes":[],"default_left":[0,0,0,0,0,0,0,0,0,0,0,0,0,0,0,0,0,0,0,0,0,0,0],"id":29,"left_children":[1,3,5,7,9,11,-1,-1,13,15,17,19,21,-1,-1,-1,-1,-1,-1,-1,-1,-1,-1],"loss_changes":[1.5755E2,1.2733669E2,2.838515E1,1.1556329E2,2.3413847E2,2.6427162E1,0E0,0E0,1.1764522E2,2.7546866E2,1.14436775E2,6.719696E0,4.3153683E1,0E0,0E0,0E0,0E0,0E0,0E0,0E0,0E0,0E0,0E0],"parents":[2147483647,0,0,1,1,2,2,3,3,4,4,5,5,8,8,9,9,10,10,11,11,12,12],"right_children":[2,4,6,8,10,12,-1,-1,14,16,18,20,22,-1,-1,-1,-1,-1,-1,-1,-1,-1,-1],"split_conditions":[3.437E-3,2.39327E-5,8.097115E8,1.718E-3,3.84067E-5,-4.1124E-5,2.4965601E-2,6.169921E-2,3.784E-5,-4.025871E8,1.97701E-1,5.343E1,-2.49447E-5,-7.2077205E-3,2.2589512E-2,-4.216468E-3,1.1055291E-1,-2.3144083E-2,5.6664575E-2,-2.9702494E-2,-1.2303889E-2,1.0050307E-2,-9.029411E-3],"split_indices":[2,13,3,2,13,13,0,0,12,7,8,39,13,0,0,0,0,0,0,0,0,0,0],"split_type":[0,0,0,0,0,0,0,0,0,0,0,0,0,0,0,0,0,0,0,0,0,0,0],"sum_hessian":[1.814E3,7.73E2,1.041E3,6.11E2,1.62E2,1.018E3,2.3E1,2.9E1,5.82E2,8.1E1,8.1E1,9.2E1,9.26E2,4.16E2,1.66E2,2.9E1,5.2E1,6E1,2.1E1,5.7E1,3.5E1,1.22E2,8.04E2],"tree_param":{"num_deleted":"0","num_feature":"40","num_nodes":"23","size_leaf_vector":"1"}},{"base_weights":[-1.2970318E-2,-7.8102916E-1,3.281359E-2,-6.011314E-1,-3.248935E-2,1.8798488E-1,-2.3326297E-1,-8.71876E-1,2.2113654E-3,-1.7535903E-1,3.6804312E-1,-3.8006145E-1,5.7526816E-2,-1.04867E-2,-3.287013E-2,2.2568624E-3,-2.1248654E-2,6.0832556E-2,8.290775E-3,1.7441612E-2,-1.2512366E-2,5.236834E-3,-3.2443024E-2],"categories":[],"categories_nodes":[],"categories_segments":[],"categories_sizes":[],"default_left":[0,0,0,0,0,0,0,0,0,0,0,0,0,0,0,0,0,0,0,0,0,0,0],"id":30,"left_children":[1,3,5,7,-1,9,11,13,-1,15,17,19,21,-1,-1,-1,-1,-1,-1,-1,-1,-1,-1],"loss_changes":[6.4381584E1,4.775532E0,7.130145E1,1.2385672E1,0E0,7.146036E1,2.7203365E1,5.083313E0,0E0,4.84601E1,1.1029232E2,1.5280769E1,2.8623758E1,0E0,0E0,0E0,0E0,0E0,0E0,0E0,0E0,0E0,0E0],"parents":[2147483647,0,0,1,1,2,2,3,3,5,5,6,6,7,7,9,9,10,10,11,11,12,12],"right_children":[2,4,6,8,-1,10,12,14,-1,16,18,20,22,-1,-1,-1,-1,-1,-1,-1,-1,-1,-1],"split_conditions":[-4.32363E-5,-1.4638E0,-1.8732562E7,-2.181198E7,-3.248935E-2,-4.9816755E8,2.2867789E8,-1.0813197E9,2.2113654E-3,-1.017827E0,-3.71547E-5,-2.47074E-1,1.9807E0,-1.04867E-2,-3.287013E-2,2.2568624E-3,-2.1248654E-2,6.0832556E-2,8.290775E-3,1.7441612E-2,-1.2512366E-2,5.236834E-3,-3.2443024E-2],"split_indices":[13,14,7,7,0,7,7,7,0,8,13,37,14,0,0,0,0,0,0,0,0,0,0],"split_type":[0,0,0,0,0,0,0,0,0,0,0,0,0,0,0,0,0,0,0,0,0,0,0],"sum_hessian":[1.827E3,1.02E2,1.725E3,6.6E1,3.6E1,1.09E3,6.35E2,4.7E1,1.9E1,3.61E2,7.29E2,4.22E2,2.13E2,1.5E1,3.2E1,2.46E2,1.15E2,3.7E1,6.92E2,1.5E1,4.07E2,1.94E2,1.9E1],"tree_param":{"num_deleted":"0","num_feature":"40","num_nodes":"23","size_leaf_vector":"1"}},{"base_weights":[1.3863445E-2,7.35331E-2,-1.8405959E-2,2.4985701E-1,-2.1826036E-1,-8.90137E-2,6.272051E-1,-3.3680177E-1,3.0111287E-2,-5.5242E-3,5.589001E-2,2.9237738E-2,-1.0027215E-3,-1.7732679E-3,-1.33380275E-2,4.069054E-2,-1.6002809E-3],"categories":[],"categories_nodes":[],"categories_segments":[],"categories_sizes":[],"default_left":[0,0,0,0,0,0,0,0,0,0,0,0,0,0,0,0,0],"id":31,"left_children":[1,-1,3,5,7,9,11,13,15,-1,-1,-1,-1,-1,-1,-1,-1],"loss_changes":[1.4445067E2,0E0,9.709187E1,9.8954865E1,3.060194E1,7.5935814E1,8.412128E1,2.0967697E1,3.7391136E1,0E0,0E0,0E0,0E0,0E0,0E0,0E0,0E0],"parents":[2147483647,0,0,2,2,3,3,4,4,5,5,6,6,7,7,8,8],"right_children":[2,-1,4,6,8,10,12,14,16,-1,-1,-1,-1,-1,-1,-1,-1],"split_conditions":[1.643E-3,7.35331E-2,3.485E-3,7.32E-7,1.66638E-1,6.00073E3,-1.1885485E6,-6.618434E8,-4.5593062E8,-5.5242E-3,5.589001E-2,2.9237738E-2,-1.0027215E-3,-1.7732679E-3,-1.33380275E-2,4.069054E-2,-1.6002809E-3],"split_indices":[2,0,2,13,8,0,7,7,7,0,0,0,0,0,0,0,0],"split_type":[0,0,0,0,0,0,0,0,0,0,0,0,0,0,0,0,0],"sum_hessian":[1.832E3,2.3E1,1.809E3,7.72E2,1.037E3,4.07E2,3.65E2,7.02E2,3.35E2,3.89E2,1.8E1,2.39E2,1.26E2,1.97E2,5.05E2,1.9E1,3.16E2],"tree_param":{"num_deleted":"0","num_feature":"40","num_nodes":"17","size_leaf_vector":"1"}},{"base_weights":[-3.4642816E-2,7.740678E-2,-6.973902E-2,1.7266174E-1,-2.4360865E-1,7.622821E-2,1.0731437E-1,-7.5190103E-1,-1.9704121E-1,-1.2684565E-3,2.4731055E-2,-2.7806511E-2,-1.0995779E-2,1.1056507E-2,-8.571738E-3],"categories":[],"categories_nodes":[],"categories_segments":[],"categories_sizes":[],"default_left":[0,0,0,0,0,0,0,0,0,0,0,0,0,0,0],"id":32,"left_children":[1,-1,3,5,7,-1,9,11,13,-1,-1,-1,-1,-1,-1],"loss_changes":[1.663115E2,0E0,7.549074E1,1.15223526E2,2.4444637E1,0E0,7.831188E1,5.397682E0,4.8098766E1,0E0,0E0,0E0,0E0,0E0,0E0],"parents":[2147483647,0,0,2,2,3,3,4,4,6,6,7,7,8,8],"right_children":[2,-1,4,6,8,-1,10,12,14,-1,-1,-1,-1,-1,-1],"split_conditions":[1.643E-3,7.740678E-2,3.451E-3,-6.444E-3,-4.1813E-5,7.622821E-2,2.85077E-5,5.48E1,-2.57977E-5,-1.2684565E-3,2.4731055E-2,-2.7806511E-2,-1.0995779E-2,1.1056507E-2,-8.571738E-3],"split_indices":[2,0,2,1,13,0,13,39,13,0,0,0,0,0,0],"split_type":[0,0,0,0,0,0,0,0,0,0,0,0,0,0,0],"sum_hessian":[1.812E3,2.3E1,1.789E3,7.47E2,1.042E3,1.9E1,7.28E2,8.6E1,9.56E2,6.03E2,1.25E2,5.8E1,2.8E1,1.29E2,8.27E2],"tree_param":{"num_deleted":"0","num_feature":"40","num_nodes":"15","size_leaf_vector":"1"}},{"base_weights":[1.946834E-2,8.7658845E-2,-1.5883278E-2,2.3501906E-1,-2.0993462E-1,-1.270259E-1,6.2141615E-1,-3.4207517E-1,2.4123654E-2,-2.7349232E-2,1.7553149E-3,1.0302499E-1,1.2418923E-2,-1.2671487E-2,3.7050864E-4,2.6265899E-2,-3.5530617E-3],"categories":[],"categories_nodes":[],"categories_segments":[],"categories_sizes":[],"default_left":[0,0,0,0,0,0,0,0,0,0,0,0,0,0,0,0,0],"id":33,"left_children":[1,-1,3,5,7,9,11,13,15,-1,-1,-1,-1,-1,-1,-1,-1],"loss_changes":[1.8759631E2,0E0,8.787987E1,1.1022426E2,3.1525349E1,5.938754E1,2.2051118E2,1.8575699E1,4.4845657E1,0E0,0E0,0E0,0E0,0E0,0E0,0E0,0E0],"parents":[2147483647,0,0,2,2,3,3,4,4,5,5,6,6,7,7,8,8],"right_children":[2,-1,4,6,8,10,12,14,16,-1,-1,-1,-1,-1,-1,-1,-1],"split_conditions":[1.643E-3,8.7658845E-2,3.485E-3,4.09E-2,3.420785E3,-4.6819034E8,-1.6E-7,6.225E-5,-8.85727E8,-2.7349232E-2,1.7553149E-3,1.0302499E-1,1.2418923E-2,-1.2671487E-2,3.7050864E-4,2.6265899E-2,-3.5530617E-3],"split_indices":[2,0,2,14,0,7,12,12,7,0,0,0,0,0,0,0,0],"split_type":[0,0,0,0,0,0,0,0,0,0,0,0,0,0,0,0,0],"sum_hessian":[1.824E3,2.1E1,1.803E3,7.86E2,1.017E3,4.06E2,3.8E2,6.5E2,3.67E2,7.7E1,3.29E2,2.5E1,3.55E2,5.3E2,1.2E2,5.2E1,3.15E2],"tree_param":{"num_deleted":"0","num_feature":"40","num_nodes":"17","size_leaf_vector":"1"}},{"base_weights":[4.1750856E-2,4.7148174E-1,-1.13179706E-1,1.1965063E-1,3.4139916E-1,-1.8783116E-1,2.7045882E-1,1.0237036E0,-5.2611485E-2,-8.2875323E-1,-1.2377111E-1,8.89703E-1,-2.0920506E-1,7.043011E-2,1.35496035E-2,5.012173E-2,-5.734633E-3,-2.7694387E-2,-1.2613185E-2,-7.562234E-3,3.3940682E-3,5.981696E-2,1.6441626E-2,-1.3959066E-2,1.1877623E-2],"categories":[],"categories_nodes":[],"categories_segments":[],"categories_sizes":[],"default_left":[0,0,0,0,0,0,0,0,0,0,0,0,0,0,0,0,0,0,0,0,0,0,0,0,0],"id":34,"left_children":[1,3,5,-1,7,9,11,13,15,17,19,21,23,-1,-1,-1,-1,-1,-1,-1,-1,-1,-1,-1,-1],"loss_changes":[1.2059618E2,2.1779767E2,3.8161278E1,0E0,1.2489048E2,4.5581287E1,6.470948E1,1.2741356E2,7.060445E1,3.3702545E0,3.0894283E1,3.4491516E1,1.9252592E1,0E0,0E0,0E0,0E0,0E0,0E0,0E0,0E0,0E0,0E0,0E0,0E0],"parents":[2147483647,0,0,1,1,2,2,4,4,5,5,6,6,7,7,8,8,9,9,10,10,11,11,12,12],"right_children":[2,4,6,-1,8,10,12,14,16,18,20,22,24,-1,-1,-1,-1,-1,-1,-1,-1,-1,-1,-1,-1],"split_conditions":[3.01E-3,-5.261E-3,3.052489E8,1.1965063E-1,6.0909E-2,-2.151927E0,4.9087E-6,6.241599E7,1.643E-3,2.5404178E7,1.6186E-5,-3.22E-3,3.2235E-2,7.043011E-2,1.35496035E-2,5.012173E-2,-5.734633E-3,-2.7694387E-2,-1.2613185E-2,-7.562234E-3,3.3940682E-3,5.981696E-2,1.6441626E-2,-1.3959066E-2,1.1877623E-2],"split_indices":[2,1,4,0,15,15,13,4,2,5,13,25,29,0,0,0,0,0,0,0,0,0,0,0,0],"split_type":[0,0,0,0,0,0,0,0,0,0,0,0,0,0,0,0,0,0,0,0,0,0,0,0,0],"sum_hessian":[1.809E3,4.79E2,1.33E3,1.6E1,4.63E2,1.114E3,2.16E2,1.69E2,2.94E2,1E2,1.014E3,9.4E1,1.22E2,5E1,1.19E2,2.1E1,2.73E2,8E1,2E1,6.58E2,3.56E2,2.1E1,7.3E1,8.6E1,3.6E1],"tree_param":{"num_deleted":"0","num_feature":"40","num_nodes":"25","size_leaf_vector":"1"}},{"base_weights":[3.390469E-2,8.4630884E-2,-2.751863E-3,3.1748754E-1,-1.6176915E-1,-1.04640454E-1,9.829854E-1,-2.3787048E-1,2.5369245E-1,5.1655717E-2,-5.925003E-3,1.2811108E-1,2.2169406E-2,-1.6404938E-2,-5.0325366E-3,-1.9159269E-3,2.5860416E-2],"categories":[],"categories_nodes":[],"categories_segments":[],"categories_sizes":[],"default_left":[0,0,0,0,0,0,0,0,0,0,0,0,0,0,0,0,0],"id":35,"left_children":[1,-1,3,5,7,9,11,13,15,-1,-1,-1,-1,-1,-1,-1,-1],"loss_changes":[1.8888875E2,0E0,9.286952E1,1.7015048E2,3.8600105E1,6.311219E1,1.8484592E2,2.2172504E1,3.6645233E1,0E0,0E0,0E0,0E0,0E0,0E0,0E0,0E0],"parents":[2147483647,0,0,2,2,3,3,4,4,5,5,6,6,7,7,8,8],"right_children":[2,-1,4,6,8,10,12,14,16,-1,-1,-1,-1,-1,-1,-1,-1],"split_conditions":[1.643E-3,8.4630884E-2,3.183E-3,3.726E-1,3.1652435E8,-4.336E-3,-1.6E-7,6.6E-6,4.876E1,5.1655717E-2,-5.925003E-3,1.2811108E-1,2.2169406E-2,-1.6404938E-2,-5.0325366E-3,-1.9159269E-3,2.5860416E-2],"split_indices":[2,0,2,14,4,1,12,12,39,0,0,0,0,0,0,0,0],"split_type":[0,0,0,0,0,0,0,0,0,0,0,0,0,0,0,0,0],"sum_hessian":[1.845E3,2.3E1,1.822E3,6.04E2,1.218E3,3.7E2,2.34E2,1.03E3,1.88E2,1.7E1,3.53E2,1.5E1,2.19E2,1.89E2,8.41E2,1.24E2,6.4E1],"tree_param":{"num_deleted":"0","num_feature":"40","num_nodes":"17","size_leaf_vector":"1"}},{"base_weights":[-2.9821448E-2,1.1258768E0,-6.338845E-2,7.546349E-2,-1.6141098E-2,-9.136935E-2,1.2028885E0,-5.54431E-1,-4.0192746E-2,7.835928E-2,1.6447731E-3,1.6557805E-2,-1.9949717E-2,3.1766724E-3,-6.9173397E-3],"categories":[],"categories_nodes":[],"categories_segments":[],"categories_sizes":[],"default_left":[0,0,0,0,0,0,0,0,0,0,0,0,0,0,0],"id":36,"left_children":[1,3,5,-1,-1,7,9,11,13,-1,-1,-1,-1,-1,-1],"loss_changes":[7.0103455E1,1.19469734E2,6.2287453E1,0E0,0E0,4.070238E1,6.106352E1,2.1294788E1,4.3173027E1,0E0,0E0,0E0,0E0,0E0,0E0],"parents":[2147483647,0,0,1,1,2,2,5,5,6,6,7,7,8,8],"right_children":[2,4,6,-1,-1,8,10,12,14,-1,-1,-1,-1,-1,-1],"split_conditions":[1.898E-3,-8.3926E-2,7.541345E8,7.546349E-2,-1.6141098E-2,-3.84218E-5,4.689E-3,-1.91337E-1,3.945E-3,7.835928E-2,1.6447731E-3,1.6557805E-2,-1.9949717E-2,3.1766724E-3,-6.9173397E-3],"split_indices":[2,16,4,0,0,13,2,32,2,0,0,0,0,0,0],"split_type":[0,0,0,0,0,0,0,0,0,0,0,0,0,0,0],"sum_hessian":[1.807E3,5E1,1.757E3,2.7E1,2.3E1,1.72E3,3.7E1,1.7E2,1.55E3,1.6E1,2.1E1,1.5E1,1.55E2,8.77E2,6.73E2],"tree_param":{"num_deleted":"0","num_feature":"40","num_nodes":"15","size_leaf_vector":"1"}},{"base_weights":[-2.1121146E-3,5.283461E-1,-1.0623628E-1,1.6306498E0,1.3684065E-3,-7.4963075E-1,-5.817766E-2,6.8145084E-1,3.1231172E0,5.125407E-2,-2.378388E-1,-9.514473E-1,4.5198533E-3,-1.561E-1,2.1028358E-1,-9.62459E-3,4.0839616E-2,1.5920976E-2,1.458602E-1,-1.7487822E-2,3.3802781E-3,-9.758233E-3,-3.3328347E-2,6.5154065E-3,-9.316107E-3,8.0762943E-4,3.3665143E-2],"categories":[],"categories_nodes":[],"categories_segments":[],"categories_sizes":[],"default_left":[0,0,0,0,0,0,0,0,0,0,0,0,0,0,0,0,0,0,0,0,0,0,0,0,0,0,0],"id":37,"left_children":[1,3,5,7,9,11,13,15,17,-1,19,21,-1,23,25,-1,-1,-1,-1,-1,-1,-1,-1,-1,-1,-1,-1],"loss_changes":[9.99866E1,1.7235876E2,4.6689476E1,1.3348958E2,8.304026E1,1.9301281E1,3.709399E1,4.1425602E1,1.6367383E2,0E0,2.1643349E1,8.084106E0,0E0,5.968505E1,6.2891594E1,0E0,0E0,0E0,0E0,0E0,0E0,0E0,0E0,0E0,0E0,0E0,0E0],"parents":[2147483647,0,0,1,1,2,2,3,3,4,4,5,5,6,6,7,7,8,8,10,10,11,11,13,13,14,14],"right_children":[2,4,6,8,10,12,14,16,18,-1,20,22,-1,24,26,-1,-1,-1,-1,-1,-1,-1,-1,-1,-1,-1,-1],"split_conditions":[2.672E-3,3.4528E-2,-6.69E-6,5E-6,1.718E-3,3.998874E8,1.3961E-1,-1.064E-3,-1.135E-3,5.125407E-2,2.371E-3,-1.5565E0,4.5198533E-3,-1.95203E-5,4.87772E-5,-9.62459E-3,4.0839616E-2,1.5920976E-2,1.458602E-1,-1.7487822E-2,3.3802781E-3,-9.758233E-3,-3.3328347E-2,6.5154065E-3,-9.316107E-3,8.0762943E-4,3.3665143E-2],"split_indices":[2,15,12,24,2,7,8,25,20,0,2,14,0,13,13,0,0,0,0,0,0,0,0,0,0,0,0],"split_type":[0,0,0,0,0,0,0,0,0,0,0,0,0,0,0,0,0,0,0,0,0,0,0,0,0,0,0],"sum_hessian":[1.809E3,2.96E2,1.513E3,9.5E1,2.01E2,1.04E2,1.409E3,5.9E1,3.6E1,2.4E1,1.77E2,8.5E1,1.9E1,1.033E3,3.76E2,2.4E1,3.5E1,1.5E1,2.1E1,8.9E1,8.8E1,1.8E1,6.7E1,3.02E2,7.31E2,3.14E2,6.2E1],"tree_param":{"num_deleted":"0","num_feature":"40","num_nodes":"27","size_leaf_vector":"1"}},{"base_weights":[2.605566E-3,6.840257E-2,-2.539397E-2,1.9140705E-1,-1.9225436E-1,7.2751544E-2,1.2297628E-1,-3.069916E-1,2.8533282E-2,-4.9073477E-3,1.4965336E-2,-1.47011E-2,-3.7475184E-3,-1.6215127E-2,3.4719976E-3],"categories":[],"categories_nodes":[],"categories_segments":[],"categories_sizes":[],"default_left":[0,0,0,0,0,0,0,0,0,0,0,0,0,0,0],"id":38,"left_children":[1,-1,3,5,7,-1,9,11,13,-1,-1,-1,-1,-1,-1],"loss_changes":[1.1551286E2,0E0,6.464633E1,1.182114E2,2.5622498E1,0E0,8.143373E1,2.2040272E1,1.7188616E1,0E0,0E0,0E0,0E0,0E0,0E0],"parents":[2147483647,0,0,2,2,3,3,4,4,6,6,7,7,8,8],"right_children":[2,-1,4,6,8,-1,10,12,14,-1,-1,-1,-1,-1,-1],"split_conditions":[1.643E-3,6.840257E-2,3.485E-3,-6.444E-3,3.491886E3,7.2751544E-2,3.496E-1,-6.6480656E7,-2.844748E0,-4.9073477E-3,1.4965336E-2,-1.47011E-2,-3.7475184E-3,-1.6215127E-2,3.4719976E-3],"split_indices":[2,0,2,1,0,0,14,7,15,0,0,0,0,0,0],"split_type":[0,0,0,0,0,0,0,0,0,0,0,0,0,0,0],"sum_hessian":[1.806E3,2.1E1,1.785E3,7.76E2,1.009E3,2.2E1,7.54E2,6.64E2,3.45E2,4.28E2,3.26E2,3.3E2,3.34E2,4.5E1,3E2],"tree_param":{"num_deleted":"0","num_feature":"40","num_nodes":"15","size_leaf_vector":"1"}},{"base_weights":[-1.4492899E-2,-3.8982853E-2,4.4788763E-2,3.6476505E-1,-1.1412129E-1,2.4410653E-1,6.1247103E-2,-1.8819714E-1,3.095757E-1,1.3702817E-2,-9.270797E-3,-6.9276607E-3,1.4915842E-2,4.3147378E-2,-2.4562676E-3],"categories":[],"categories_nodes":[],"categories_segments":[],"categories_sizes":[],"default_left":[0,0,0,0,0,0,0,0,0,0,0,0,0,0,0],"id":39,"left_children":[1,3,-1,5,7,9,-1,11,13,-1,-1,-1,-1,-1,-1],"loss_changes":[6.466596E1,5.240853E1,0E0,5.410201E1,4.57751E1,3.0032925E1,0E0,3.642876E1,9.61282E1,0E0,0E0,0E0,0E0,0E0,0E0],"parents":[2147483647,0,0,1,1,3,3,4,4,5,5,7,7,8,8],"right_children":[2,4,-1,6,8,10,-1,12,14,-1,-1,-1,-1,-1,-1],"split_conditions":[7.541345E8,5.1604172E7,4.4788763E-2,1.7586988E7,1.34661E-1,1.406E-3,6.1247103E-2,5.892E-3,1.416E-3,1.3702817E-2,-9.270797E-3,-6.9276607E-3,1.4915842E-2,4.3147378E-2,-2.4562676E-3],"split_indices":[4,3,0,9,35,20,0,19,25,0,0,0,0,0,0],"split_type":[0,0,0,0,0,0,0,0,0,0,0,0,0,0,0],"sum_hessian":[1.753E3,1.726E3,2.7E1,2.7E2,1.456E3,2.53E2,1.7E1,1.24E3,2.16E2,1.83E2,7E1,1.168E3,7.2E1,5.5E1,1.61E2],"tree_param":{"num_deleted":"0","num_feature":"40","num_nodes":"15","size_leaf_vector":"1"}},{"base_weights":[2.6789631E-3,-6.5801114E-1,4.939276E-2,-1.7137502E-4,-7.7436775E-1,4.989888E-2,3.0751768E-2,-7.301329E-3,-9.028231E-1,6.648586E-2,-6.534524E-1,-3.1094652E-2,-1.8419957E-2,1.2749551E-3,3.347406E-2,-2.415529E-2,4.944782E-4],"categories":[],"categories_nodes":[],"categories_segments":[],"categories_sizes":[],"default_left":[0,0,0,0,0,0,0,0,0,0,0,0,0,0,0,0,0],"id":40,"left_children":[1,3,5,-1,7,-1,9,-1,11,13,15,-1,-1,-1,-1,-1,-1],"loss_changes":[5.5155296E1,8.873684E0,5.0051075E1,0E0,6.486511E0,0E0,4.039963E1,0E0,2.2870102E0,3.9404495E1,8.427044E0,0E0,0E0,0E0,0E0,0E0,0E0],"parents":[2147483647,0,0,1,1,2,2,4,4,6,6,8,8,9,9,10,10],"right_children":[2,4,6,-1,8,-1,10,-1,12,14,16,-1,-1,-1,-1,-1,-1],"split_conditions":[-4.1813E-5,-1.4312435E9,4.85098E2,-1.7137502E-4,-3.00821E-1,4.989888E-2,6.748E-5,-7.301329E-3,2.3236892E7,7.541345E8,1.97701E-1,-3.1094652E-2,-1.8419957E-2,1.2749551E-3,3.347406E-2,-2.415529E-2,4.944782E-4],"split_indices":[13,7,0,0,15,0,13,0,7,4,8,0,0,0,0,0,0],"split_type":[0,0,0,0,0,0,0,0,0,0,0,0,0,0,0,0,0],"sum_hessian":[1.787E3,1.17E2,1.67E3,1.8E1,9.9E1,1.8E1,1.652E3,2E1,7.9E1,1.571E3,8.1E1,5.2E1,2.7E1,1.537E3,3.4E1,6.6E1,1.5E1],"tree_param":{"num_deleted":"0","num_feature":"40","num_nodes":"17","size_leaf_vector":"1"}},{"base_weights":[-9.0753386E-4,8.116203E-2,-2.829959E-2,2.853521E-1,-1.2500201E-1,8.849038E-2,1.7228548E-1,-1.7858903E-1,3.1213364E-1,2.4439322E-2,-5.4718866E-3,-2.1331312E-2,-3.79313E-3,3.4373343E-2,-7.379592E-3],"categories":[],"categories_nodes":[],"categories_segments":[],"categories_sizes":[],"default_left":[0,0,0,0,0,0,0,0,0,0,0,0,0,0,0],"id":41,"left_children":[1,-1,3,5,7,-1,9,11,13,-1,-1,-1,-1,-1,-1],"loss_changes":[1.3317114E2,0E0,5.4069263E1,1.2570313E2,3.197038E1,0E0,9.225627E1,3.356476E1,6.969761E1,0E0,0E0,0E0,0E0,0E0,0E0],"parents":[2147483647,0,0,2,2,3,3,4,4,6,6,7,7,8,8],"right_children":[2,-1,4,6,8,-1,10,12,14,-1,-1,-1,-1,-1,-1],"split_conditions":[1.643E-3,8.116203E-2,2.952E-3,-2.79397E-1,3.8406275E8,8.849038E-2,-3.9175E-2,-2.151927E0,1.89E-1,2.4439322E-2,-5.4718866E-3,-2.1331312E-2,-3.79313E-3,3.4373343E-2,-7.379592E-3],"split_indices":[2,0,2,32,3,0,15,15,14,0,0,0,0,0,0],"split_type":[0,0,0,0,0,0,0,0,0,0,0,0,0,0,0],"sum_hessian":[1.798E3,1.7E1,1.781E3,4.19E2,1.362E3,1.6E1,4.03E2,1.214E3,1.48E2,1.43E2,2.6E2,1.07E2,1.107E3,5.9E1,8.9E1],"tree_param":{"num_deleted":"0","num_feature":"40","num_nodes":"15","size_leaf_vector":"1"}},{"base_weights":[1.4652475E-3,6.298059E-2,-2.4379307E-2,-9.673286E-2,3.7727728E-1,-1.7974882E-1,2.9035178E-1,8.1639504E-1,-2.018797E-1,1.0816301E-2,-7.761187E-3,5.6278847E-2,2.6653456E-3,1.5732259E-2,9.449722E-2,-1.8493447E-2,2.394808E-3],"categories":[],"categories_nodes":[],"categories_segments":[],"categories_sizes":[],"default_left":[0,0,0,0,0,0,0,0,0,0,0,0,0,0,0,0,0],"id":42,"left_children":[1,-1,3,5,7,9,11,13,15,-1,-1,-1,-1,-1,-1,-1,-1],"loss_changes":[9.80155E1,0E0,5.1795643E1,4.8595913E1,6.940079E1,5.319488E1,8.4946396E1,1.0359056E2,1.3883704E1,0E0,0E0,0E0,0E0,0E0,0E0,0E0,0E0],"parents":[2147483647,0,0,2,2,3,3,4,4,5,5,6,6,7,7,8,8],"right_children":[2,-1,4,6,8,10,12,14,16,-1,-1,-1,-1,-1,-1,-1,-1],"split_conditions":[1.643E-3,6.298059E-2,2.8505344E8,6.178E-5,4.165E-5,4.603774E7,6.7928E-6,3.64E-5,-7.29572E-1,1.0816301E-2,-7.761187E-3,5.6278847E-2,2.6653456E-3,1.5732259E-2,9.449722E-2,-1.8493447E-2,2.394808E-3],"split_indices":[2,0,3,12,12,4,13,12,15,0,0,0,0,0,0,0,0],"split_type":[0,0,0,0,0,0,0,0,0,0,0,0,0,0,0,0,0],"sum_hessian":[1.802E3,2.1E1,1.781E3,1.51E3,2.71E2,1.244E3,2.66E2,1.54E2,1.17E2,1.58E2,1.086E3,2.9E1,2.37E2,1.38E2,1.6E1,4.7E1,7E1],"tree_param":{"num_deleted":"0","num_feature":"40","num_nodes":"17","size_leaf_vector":"1"}},{"base_weights":[1.3273425E-3,7.694088E-2,-3.140837E-2,1.8556294E-1,-1.8308671E-1,5.9848838E-2,1.1146446E-1,-2.0460631E-1,2.8202603E-2,-2.6826467E-3,2.539976E-2,-9.229083E-3,1.8833908E-4],"categories":[],"categories_nodes":[],"categories_segments":[],"categories_sizes":[],"default_left":[0,0,0,0,0,0,0,0,0,0,0,0,0],"id":43,"left_children":[1,-1,3,5,7,-1,9,11,-1,-1,-1,-1,-1],"loss_changes":[1.5305681E2,0E0,5.920563E1,9.87815E1,2.5715084E1,0E0,1.0530689E2,2.2628529E1,0E0,0E0,0E0,0E0,0E0],"parents":[2147483647,0,0,2,2,3,3,4,4,6,6,7,7],"right_children":[2,-1,4,6,8,-1,10,12,-1,-1,-1,-1,-1],"split_conditions":[1.643E-3,7.694088E-2,3.429E-3,-6.034E-3,8.097115E8,5.9848838E-2,2.39327E-5,1.66638E-1,2.8202603E-2,-2.6826467E-3,2.539976E-2,-9.229083E-3,1.8833908E-4],"split_indices":[2,0,2,20,3,0,13,8,0,0,0,0,0],"split_type":[0,0,0,0,0,0,0,0,0,0,0,0,0],"sum_hessian":[1.819E3,2.2E1,1.797E3,7.39E2,1.058E3,2.8E1,7.11E2,1.039E3,1.9E1,5.59E2,1.52E2,6.98E2,3.41E2],"tree_param":{"num_deleted":"0","num_feature":"40","num_nodes":"13","size_leaf_vector":"1"}},{"base_weights":[-1.6149916E-2,-5.6008345E-1,3.3673007E-2,-6.504428E-1,1.5076902E-3,4.5816743E-1,-7.231805E-2,-4.914694E-1,-2.9433155E-2,3.4734255E-1,6.1235618E-2,-4.1928458E-1,4.2599615E-2,-2.2954376E-2,-7.0193596E-3,1.9860227E-2,-7.205615E-3,-6.944724E-3,-3.4040403E-2,4.8522293E-3,-1.2292182E-2],"categories":[],"categories_nodes":[],"categories_segments":[],"categories_sizes":[],"default_left":[0,0,0,0,0,0,0,0,0,0,0,0,0,0,0,0,0,0,0,0,0],"id":44,"left_children":[1,3,5,7,-1,9,11,13,-1,15,-1,17,19,-1,-1,-1,-1,-1,-1,-1,-1],"loss_changes":[4.8120438E1,8.310043E0,7.318471E1,6.2042046E0,0E0,5.6069496E1,5.192976E1,6.063284E0,0E0,5.6588078E1,0E0,4.3129093E1,5.274813E1,0E0,0E0,0E0,0E0,0E0,0E0,0E0,0E0],"parents":[2147483647,0,0,1,1,2,2,3,3,5,5,6,6,7,7,9,9,11,11,12,12],"right_children":[2,4,6,8,-1,10,12,14,-1,16,-1,18,20,-1,-1,-1,-1,-1,-1,-1,-1],"split_conditions":[-3.92733E-5,-1.0796E0,-2.08618E-5,-1.3496E0,1.5076902E-3,1.657162E8,-2.773E-1,2.8E-3,-2.9433155E-2,3.097E-5,6.1235618E-2,5.127E-5,1.5024E0,-2.2954376E-2,-7.0193596E-3,1.9860227E-2,-7.205615E-3,-6.944724E-3,-3.4040403E-2,4.8522293E-3,-1.2292182E-2],"split_indices":[13,14,13,14,0,9,14,18,0,12,0,12,14,0,0,0,0,0,0,0,0],"split_type":[0,0,0,0,0,0,0,0,0,0,0,0,0,0,0,0,0,0,0,0,0],"sum_hessian":[1.772E3,1.48E2,1.624E3,1.29E2,1.9E1,3.24E2,1.3E3,8.9E1,4E1,3.04E2,2E1,3.23E2,9.77E2,4.2E1,4.7E1,1.98E2,1.06E2,2.57E2,6.6E1,7.74E2,2.03E2],"tree_param":{"num_deleted":"0","num_feature":"40","num_nodes":"21","size_leaf_vector":"1"}},{"base_weights":[1.59246E-2,4.5924717E-1,-5.3077523E-2,1.6030383E-1,1.4528562E0,4.9713966E-2,-3.007324E-1,5.0432805E-2,1.8148111E-2,1.39728E-1,5.2018736E-2,6.038013E-1,-2.3544475E-2,-5.12382E-1,8.1202686E-2,7.7985995E-3,-2.2927439E-2,-1.9976102E-2,3.2049935E-2,5.906574E-2,6.146579E-3,-4.2026336E-3,9.547748E-3,3.527592E-3,-1.7535606E-2,-2.6027616E-2,5.709369E-3],"categories":[],"categories_nodes":[],"categories_segments":[],"categories_sizes":[],"default_left":[0,0,0,0,0,0,0,0,0,0,0,0,0,0,0,0,0,0,0,0,0,0,0,0,0,0,0],"id":45,"left_children":[1,3,5,7,9,11,13,-1,15,-1,17,19,21,23,25,-1,-1,-1,-1,-1,-1,-1,-1,-1,-1,-1,-1],"loss_changes":[5.5188534E1,7.178475E1,3.975268E1,4.0443092E1,2.5068895E2,4.484475E1,3.7107796E1,0E0,3.2877666E1,0E0,2.9935589E1,6.962517E1,3.8865715E1,1.3521645E1,1.707501E1,0E0,0E0,0E0,0E0,0E0,0E0,0E0,0E0,0E0,0E0,0E0,0E0],"parents":[2147483647,0,0,1,1,2,2,3,3,4,4,5,5,6,6,8,8,10,10,11,11,12,12,13,13,14,14],"right_children":[2,4,6,8,10,12,14,-1,16,-1,18,20,22,24,26,-1,-1,-1,-1,-1,-1,-1,-1,-1,-1,-1,-1],"split_conditions":[5.0588972E7,2.6287E-5,1.559E-3,-2.25124E-1,3.58918E-5,-5.3957024E7,1.1114E-2,5.0432805E-2,3.946E-5,1.39728E-1,1.3961E-1,-1.95203E-5,5E-6,-1.5565E0,5.824525E7,7.7985995E-3,-2.2927439E-2,-1.9976102E-2,3.2049935E-2,5.906574E-2,6.146579E-3,-4.2026336E-3,9.547748E-3,3.527592E-3,-1.7535606E-2,-2.6027616E-2,5.709369E-3],"split_indices":[4,13,22,36,13,5,8,0,12,0,8,13,22,14,3,0,0,0,0,0,0,0,0,0,0,0,0],"split_type":[0,0,0,0,0,0,0,0,0,0,0,0,0,0,0,0,0,0,0,0,0,0,0,0,0,0,0],"sum_hessian":[1.801E3,2.42E2,1.559E3,1.87E2,5.5E1,1.102E3,4.57E2,1.5E1,1.72E2,1.6E1,3.9E1,1.28E2,9.74E2,2.94E2,1.63E2,1.32E2,4E1,2.3E1,1.6E1,2.8E1,1E2,7.27E2,2.47E2,3E1,2.64E2,1.6E1,1.47E2],"tree_param":{"num_deleted":"0","num_feature":"40","num_nodes":"27","size_leaf_vector":"1"}},{"base_weights":[-1.5162427E-2,-5.5183077E-1,3.4105256E-2,-6.4127815E-1,5.709806E-3,1.2098696E0,-1.7269739E-3,-4.866952E-1,-2.8534893E-2,1.1113227E-1,-1.0882848E-1,9.343579E-2,-2.4511471E-1,-2.3855006E-2,-8.812785E-3,1.6185904E-2,-2.0539703E-2,6.1476463E-3,-6.1257794E-3,-1.0971894E-2,7.4945376E-3],"categories":[],"categories_nodes":[],"categories_segments":[],"categories_sizes":[],"default_left":[0,0,0,0,0,0,0,0,0,0,0,0,0,0,0,0,0,0,0,0,0],"id":46,"left_children":[1,3,5,7,-1,9,11,13,-1,-1,15,17,19,-1,-1,-1,-1,-1,-1,-1,-1],"loss_changes":[4.7795525E1,1.025753E1,6.980636E1,5.9080887E0,0E0,1.6195038E2,3.7235355E1,5.1924324E0,0E0,0E0,1.2704231E1,3.8366352E1,2.7085705E1,0E0,0E0,0E0,0E0,0E0,0E0,0E0,0E0],"parents":[2147483647,0,0,1,1,2,2,3,3,5,5,6,6,7,7,10,10,11,11,12,12],"right_children":[2,4,6,8,-1,10,12,14,-1,-1,16,18,20,-1,-1,-1,-1,-1,-1,-1,-1],"split_conditions":[-3.97602E-5,-1.0604E0,-3.71547E-5,-1.3316E0,5.709806E-3,5.83328E-1,1.559E-3,-3.8765E-2,-2.8534893E-2,1.1113227E-1,-1.9766E0,1.559E-3,5.892E-3,-2.3855006E-2,-8.812785E-3,1.6185904E-2,-2.0539703E-2,6.1476463E-3,-6.1257794E-3,-1.0971894E-2,7.4945376E-3],"split_indices":[13,14,13,14,0,15,19,31,0,0,14,22,19,0,0,0,0,0,0,0,0],"split_type":[0,0,0,0,0,0,0,0,0,0,0,0,0,0,0,0,0,0,0,0,0],"sum_hessian":[1.804E3,1.51E2,1.653E3,1.35E2,1.6E1,4.8E1,1.605E3,9.2E1,4.3E1,1.6E1,3.2E1,1.154E3,4.51E2,3.4E1,5.8E1,1.5E1,1.7E1,8.4E2,3.14E2,3.63E2,8.8E1],"tree_param":{"num_deleted":"0","num_feature":"40","num_nodes":"21","size_leaf_vector":"1"}},{"base_weights":[2.4389766E-2,1.3438058E-1,-2.0489533E-1,-2.088038E-1,3.07415E-1,-4.1183177E-1,8.798548E-2,8.2628205E-2,-5.645832E-1,1.4893886E0,1.7191125E-1,-4.6793276E-1,1.8552806E-2,-5.060537E-1,3.1419367E-1,-1.5681611E-2,1.3849213E-2,1.5934192E-2,-1.9967135E-2,1.5706007E-1,1.331055E-2,4.0938566E-4,2.9632704E-2,-1.1545434E-2,-2.9223949E-2,-2.4281902E-2,-6.8925857E-4,1.462165E-2,-1.731247E-2],"categories":[],"categories_nodes":[],"categories_segments":[],"categories_sizes":[],"default_left":[0,0,0,0,0,0,0,0,0,0,0,0,0,0,0,0,0,0,0,0,0,0,0,0,0,0,0,0,0],"id":47,"left_children":[1,3,5,7,9,11,13,15,17,19,21,23,-1,25,27,-1,-1,-1,-1,-1,-1,-1,-1,-1,-1,-1,-1,-1,-1],"loss_changes":[4.5364697E1,7.228343E1,3.5402912E1,4.239853E1,1.2914877E2,2.004144E1,3.2658936E1,5.1857964E1,2.0727459E1,3.2223273E2,9.3756516E1,1.3157898E1,0E0,9.716242E0,2.7440409E1,0E0,0E0,0E0,0E0,0E0,0E0,0E0,0E0,0E0,0E0,0E0,0E0,0E0,0E0],"parents":[2147483647,0,0,1,1,2,2,3,3,4,4,5,5,6,6,7,7,8,8,9,9,10,10,11,11,13,13,14,14],"right_children":[2,4,6,8,10,12,14,16,18,20,22,24,-1,26,28,-1,-1,-1,-1,-1,-1,-1,-1,-1,-1,-1,-1,-1,-1],"split_conditions":[1.9447298E7,-4.9816755E8,2.1649394E8,-1.246948E0,-1.6E-7,7.574E-5,1.86E-5,2.314E-5,-1.73354E-1,-2.2616595E8,6.156E-5,5.969E-5,1.8552806E-2,4.225649E8,7.223E-5,-1.5681611E-2,1.3849213E-2,1.5934192E-2,-1.9967135E-2,1.5706007E-1,1.331055E-2,4.0938566E-4,2.9632704E-2,-1.1545434E-2,-2.9223949E-2,-2.4281902E-2,-6.8925857E-4,1.462165E-2,-1.731247E-2],"split_indices":[7,7,7,8,12,12,12,12,18,7,12,12,0,7,12,0,0,0,0,0,0,0,0,0,0,0,0,0,0],"split_type":[0,0,0,0,0,0,0,0,0,0,0,0,0,0,0,0,0,0,0,0,0,0,0,0,0,0,0,0,0],"sum_hessian":[1.797E3,1.215E3,5.82E2,4.07E2,8.08E2,3.41E2,2.41E2,2.24E2,1.83E2,8.2E1,7.26E2,3.24E2,1.7E1,6.6E1,1.75E2,8.6E1,1.38E2,1.5E1,1.68E2,1.7E1,6.5E1,6.09E2,1.17E2,2.8E2,4.4E1,4E1,2.6E1,1.47E2,2.8E1],"tree_param":{"num_deleted":"0","num_feature":"40","num_nodes":"29","size_leaf_vector":"1"}},{"base_weights":[7.1414593E-3,5.412154E-2,-5.074831E-1,-6.487898E-2,3.4702712E-1,-8.7384266E-1,-3.7242234E-1,4.3671492E-1,-1.1562931E-1,6.4633155E-1,-1.4906219E-2,-3.698315E-2,-1.8155228E-2,-2.9899733E-2,-2.2638616E-1,-7.564019E-3,3.769798E-2,-4.2849616E-3,5.077891E-2,-3.2881552E-3,3.7761893E-2,-1.0656787E-2,1.637405E-2,-1.558831E-3,-2.0100648E-2],"categories":[],"categories_nodes":[],"categories_segments":[],"categories_sizes":[],"default_left":[0,0,0,0,0,0,0,0,0,0,0,0,0,0,0,0,0,0,0,0,0,0,0,0,0],"id":48,"left_children":[1,3,5,7,9,11,13,15,17,19,21,-1,-1,-1,23,-1,-1,-1,-1,-1,-1,-1,-1,-1,-1],"loss_changes":[4.39361E1,5.8155537E1,7.071018E0,3.020927E1,5.2287E1,2.9274788E0,9.953256E0,6.197791E1,5.3113224E1,1.22467545E2,4.196443E1,0E0,0E0,0E0,7.0894356E0,0E0,0E0,0E0,0E0,0E0,0E0,0E0,0E0,0E0,0E0],"parents":[2147483647,0,0,1,1,2,2,3,3,4,4,5,5,6,6,7,7,8,8,9,9,10,10,14,14],"right_children":[2,4,6,8,10,12,14,16,18,20,22,-1,-1,-1,24,-1,-1,-1,-1,-1,-1,-1,-1,-1,-1],"split_conditions":[1.7339E0,9.591E-1,-1.321339E0,3.627E1,-4.972258E7,-6.55E-4,-1.51681E-1,1.133E-3,7.1292666E8,-3.8978355E8,8.00477E-1,-3.698315E-2,-1.8155228E-2,-2.9899733E-2,1.4472256E8,-7.564019E-3,3.769798E-2,-4.2849616E-3,5.077891E-2,-3.2881552E-3,3.7761893E-2,-1.0656787E-2,1.637405E-2,-1.558831E-3,-2.0100648E-2],"split_indices":[14,14,8,39,7,24,30,36,4,7,8,0,0,0,7,0,0,0,0,0,0,0,0,0,0],"split_type":[0,0,0,0,0,0,0,0,0,0,0,0,0,0,0,0,0,0,0,0,0,0,0,0,0],"sum_hessian":[1.817E3,1.666E3,1.51E2,1.185E3,4.81E2,3.9E1,1.12E2,1.08E2,1.077E3,2.63E2,2.18E2,1.5E1,2.4E1,2E1,9.2E1,5.9E1,4.9E1,1.062E3,1.5E1,1.18E2,1.45E2,1.36E2,8.2E1,6.7E1,2.5E1],"tree_param":{"num_deleted":"0","num_feature":"40","num_nodes":"25","size_leaf_vector":"1"}},{"base_weights":[9.714987E-3,6.1631076E-2,-1.8727638E-2,3.8828403E-1,-9.94778E-2,7.7519226E-1,-4.949938E-1,-2.907901E-1,4.9395695E-2,6.1448165E-3,4.7707427E-2,-1.7724087E-3,-2.5013026E-2,-1.499294E-3,-1.307561E-2,-2.068198E-3,2.1536341E-2],"categories":[],"categories_nodes":[],"categories_segments":[],"categories_sizes":[],"default_left":[0,0,0,0,0,0,0,0,0,0,0,0,0,0,0,0,0],"id":49,"left_children":[1,-1,3,5,7,9,11,13,15,-1,-1,-1,-1,-1,-1,-1,-1],"loss_changes":[1.0596843E2,0E0,5.8971806E1,1.0191072E2,4.270354E1,9.572474E1,1.3299973E1,2.2845867E1,6.680014E1,0E0,0E0,0E0,0E0,0E0,0E0,0E0,0E0],"parents":[2147483647,0,0,2,2,3,3,4,4,5,5,6,6,7,7,8,8],"right_children":[2,-1,4,6,8,10,12,14,16,-1,-1,-1,-1,-1,-1,-1,-1],"split_conditions":[1.643E-3,6.1631076E-2,2.708E-3,-1.8732562E7,4.453E1,1.89E-1,2.4414036E7,6.221E-6,6.178E-5,6.1448165E-3,4.7707427E-2,-1.7724087E-3,-2.5013026E-2,-1.499294E-3,-1.307561E-2,-2.068198E-3,2.1536341E-2],"split_indices":[2,0,2,7,39,14,9,13,12,0,0,0,0,0,0,0,0],"split_type":[0,0,0,0,0,0,0,0,0,0,0,0,0,0,0,0,0],"sum_hessian":[1.817E3,2.4E1,1.793E3,2.96E2,1.497E3,2.06E2,9E1,6.55E2,8.42E2,1.22E2,8.4E1,4E1,5E1,2.47E2,4.08E2,7.16E2,1.26E2],"tree_param":{"num_deleted":"0","num_feature":"40","num_nodes":"17","size_leaf_vector":"1"}},{"base_weights":[1.1730808E-2,1.912184E0,-2.1504095E-2,1.08627684E-1,2.330509E-3,-5.353033E-1,2.8426498E-2,-5.9287196E-1,8.474533E-5,4.8821864E-1,-5.733076E-2,-3.2328993E-2,-1.4221996E-2,6.5887533E-3,6.650328E-2,-7.648467E-3,1.9512918E-3],"categories":[],"categories_nodes":[],"categories_segments":[],"categories_sizes":[],"default_left":[0,0,0,0,0,0,0,0,0,0,0,0,0,0,0,0,0],"id":50,"left_children":[1,3,5,-1,-1,7,9,11,-1,13,15,-1,-1,-1,-1,-1,-1],"loss_changes":[1.1392066E2,9.6524E1,4.5474014E1,0E0,0E0,4.924431E0,6.3711933E1,7.5120583E0,0E0,1.1719645E2,3.2949028E1,0E0,0E0,0E0,0E0,0E0,0E0],"parents":[2147483647,0,0,1,1,2,2,5,5,6,6,7,7,9,9,10,10],"right_children":[2,4,6,-1,-1,8,10,12,-1,14,16,-1,-1,-1,-1,-1,-1],"split_conditions":[1.718E-3,4.48E-6,-3.92733E-5,1.08627684E-1,2.330509E-3,-1.0904E0,2.708E-3,2.681E-3,8.474533E-5,2.59315E-5,4.292E1,-3.2328993E-2,-1.4221996E-2,6.5887533E-3,6.650328E-2,-7.648467E-3,1.9512918E-3],"split_indices":[2,12,13,0,0,14,2,2,0,13,39,0,0,0,0,0,0],"split_type":[0,0,0,0,0,0,0,0,0,0,0,0,0,0,0,0,0],"sum_hessian":[1.799E3,3E1,1.769E3,1.5E1,1.5E1,1.56E2,1.613E3,1.41E2,1.5E1,2.53E2,1.36E3,2.6E1,1.15E2,2.2E2,3.3E1,5.2E2,8.4E2],"tree_param":{"num_deleted":"0","num_feature":"40","num_nodes":"17","size_leaf_vector":"1"}},{"base_weights":[-1.6724658E-3,4.201247E-1,-1.4402762E-1,7.966945E-1,-2.7581927E-1,-2.659769E-1,-1.1273752E-3,3.170953E-1,1.8567159E0,-4.443655E-1,3.5396445E-1,-1.8120411E-1,-6.718491E-1,2.2632618E-1,-1.6880071E-1,-3.214982E-2,1.9634776E-2,2.9256143E-2,1.2818402E-1,7.302165E-3,-1.8798599E-2,-1.5843736E-2,3.250229E-2,1.1898085E-2,-9.549756E-3,-2.529608E-2,-5.122392E-3,2.4391089E-2,-6.517898E-4,-1.1451062E-2,4.2885076E-3],"categories":[],"categories_nodes":[],"categories_segments":[],"categories_sizes":[],"default_left":[0,0,0,0,0,0,0,0,0,0,0,0,0,0,0,0,0,0,0,0,0,0,0,0,0,0,0,0,0,0,0],"id":51,"left_children":[1,3,5,7,9,11,13,15,17,19,21,23,25,27,29,-1,-1,-1,-1,-1,-1,-1,-1,-1,-1,-1,-1,-1,-1,-1,-1],"loss_changes":[1.0733333E2,1.1846608E2,2.327233E1,1.4815079E2,1.7043808E1,2.4600338E1,2.3563534E1,9.577786E1,1.891207E2,1.5984863E1,2.2504517E1,4.749766E1,1.0401981E1,3.8226944E1,2.3706944E1,0E0,0E0,0E0,0E0,0E0,0E0,0E0,0E0,0E0,0E0,0E0,0E0,0E0,0E0,0E0,0E0],"parents":[2147483647,0,0,1,1,2,2,3,3,4,4,5,5,6,6,7,7,8,8,9,9,10,10,11,11,12,12,13,13,14,14],"right_children":[2,4,6,8,10,12,14,16,18,20,22,24,26,28,30,-1,-1,-1,-1,-1,-1,-1,-1,-1,-1,-1,-1,-1,-1,-1,-1],"split_conditions":[2.966E-3,-1.8732562E7,-4.09529E-1,7.306E-1,2.825E-3,5.443E-3,-5.6465135E6,-4.9816755E8,1.125E-3,-8.2853E-2,-1.054E-3,-6.999527E8,-3.127169E8,3.82E-3,2.2867789E8,-3.214982E-2,1.9634776E-2,2.9256143E-2,1.2818402E-1,7.302165E-3,-1.8798599E-2,-1.5843736E-2,3.250229E-2,1.1898085E-2,-9.549756E-3,-2.529608E-2,-5.122392E-3,2.4391089E-2,-6.517898E-4,-1.1451062E-2,4.2885076E-3],"split_indices":[2,7,8,14,2,2,7,7,27,32,22,7,7,2,7,0,0,0,0,0,0,0,0,0,0,0,0,0,0,0,0],"split_type":[0,0,0,0,0,0,0,0,0,0,0,0,0,0,0,0,0,0,0,0,0,0,0,0,0,0,0,0,0,0,0],"sum_hessian":[1.786E3,4.5E2,1.336E3,2.92E2,1.58E2,7.2E2,6.16E2,2.02E2,9E1,1.25E2,3.3E1,5.97E2,1.23E2,2.61E2,3.55E2,3.9E1,1.63E2,6.7E1,2.3E1,2.6E1,9.9E1,1.5E1,1.8E1,1.14E2,4.83E2,9.1E1,3.2E1,7.7E1,1.84E2,2.11E2,1.44E2],"tree_param":{"num_deleted":"0","num_feature":"40","num_nodes":"31","size_leaf_vector":"1"}},{"base_weights":[1.0087911E-2,4.4147614E-1,-7.681667E-2,1.0556865E0,-1.17286265E-1,-6.226585E-1,-3.960674E-2,1.282288E-1,6.506604E-1,2.6284862E-2,-3.2630333E-1,-1.2114772E0,-2.6331207E-1,-5.7488066E-1,1.9615127E-3,4.5362793E-2,-6.095123E-4,2.2935052E-3,-2.0099273E-2,-4.5359254E-2,-2.7602252E-2,8.191631E-3,-1.4370692E-2,-3.0806862E-2,-1.8890653E-3,-2.97691E-3,9.5667625E-3],"categories":[],"categories_nodes":[],"categories_segments":[],"categories_sizes":[],"default_left":[0,0,0,0,0,0,0,0,0,0,0,0,0,0,0,0,0,0,0,0,0,0,0,0,0,0,0],"id":52,"left_children":[1,3,5,7,9,11,13,-1,15,-1,17,19,21,23,25,-1,-1,-1,-1,-1,-1,-1,-1,-1,-1,-1,-1],"loss_changes":[6.7964066E1,1.0454976E2,3.05377E1,1.857513E2,3.3454533E1,1.9846157E1,3.1498234E1,0E0,7.532017E1,0E0,1.8519802E1,1.5180283E0,7.2091045E0,2.342831E1,4.213049E1,0E0,0E0,0E0,0E0,0E0,0E0,0E0,0E0,0E0,0E0,0E0,0E0],"parents":[2147483647,0,0,1,1,2,2,3,3,4,4,5,5,6,6,8,8,10,10,11,11,12,12,13,13,14,14],"right_children":[2,4,6,8,10,12,14,-1,16,-1,18,20,22,24,26,-1,-1,-1,-1,-1,-1,-1,-1,-1,-1,-1,-1],"split_conditions":[2.708E-3,5.83328E-1,-6.69E-6,-1.6E-7,-2.11E-3,-9.4841E-2,-2.654617E0,1.282288E-1,-1.724793E0,2.6284862E-2,-3.3812E-2,3.892E-3,-7.6898E-2,5.448E-5,3.61603E3,4.5362793E-2,-6.095123E-4,2.2935052E-3,-2.0099273E-2,-4.5359254E-2,-2.7602252E-2,8.191631E-3,-1.4370692E-2,-3.0806862E-2,-1.8890653E-3,-2.97691E-3,9.5667625E-3],"split_indices":[2,15,12,12,27,8,15,0,8,0,30,2,36,12,0,0,0,0,0,0,0,0,0,0,0,0,0],"split_type":[0,0,0,0,0,0,0,0,0,0,0,0,0,0,0,0,0,0,0,0,0,0,0,0,0,0,0],"sum_hessian":[1.81E3,3.03E2,1.507E3,1.44E2,1.59E2,9.5E1,1.412E3,1.5E1,1.29E2,2.7E1,1.32E2,3.5E1,6E1,1.01E2,1.311E3,5.6E1,7.3E1,6.1E1,7.1E1,1.5E1,2E1,1.7E1,4.3E1,5.3E1,4.8E1,9.94E2,3.17E2],"tree_param":{"num_deleted":"0","num_feature":"40","num_nodes":"27","size_leaf_vector":"1"}},{"base_weights":[-9.500793E-3,5.2774444E-2,-3.227701E-2,1.4402084E-1,-1.617073E-1,-1.7074276E-2,8.5597694E-1,-2.7960694E-1,3.7198067E-2,6.407313E-2,-2.3371682E-3,7.504336E-2,-4.309031E-3,-1.0422063E-2,4.1646864E-3,2.5732815E-2,-1.4106963E-3],"categories":[],"categories_nodes":[],"categories_segments":[],"categories_sizes":[],"default_left":[0,0,0,0,0,0,0,0,0,0,0,0,0,0,0,0,0],"id":53,"left_children":[1,-1,3,5,7,9,11,13,15,-1,-1,-1,-1,-1,-1,-1,-1],"loss_changes":[7.287713E1,0E0,4.086978E1,8.703554E1,2.4259388E1,8.102512E1,2.3087112E2,1.847961E1,2.6728306E1,0E0,0E0,0E0,0E0,0E0,0E0,0E0,0E0],"parents":[2147483647,0,0,2,2,3,3,4,4,5,5,6,6,7,7,8,8],"right_children":[2,-1,4,6,8,10,12,14,16,-1,-1,-1,-1,-1,-1,-1,-1],"split_conditions":[1.643E-3,5.2774444E-2,3.429E-3,2.59315E-5,1.7456267E8,-6.219E-3,3.84067E-5,2.1649394E8,-1.0099071E9,6.407313E-2,-2.3371682E-3,7.504336E-2,-4.309031E-3,-1.0422063E-2,4.1646864E-3,2.5732815E-2,-1.4106963E-3],"split_indices":[2,0,2,13,4,19,13,7,7,0,0,0,0,0,0,0,0],"split_type":[0,0,0,0,0,0,0,0,0,0,0,0,0,0,0,0,0],"sum_hessian":[1.811E3,2.2E1,1.789E3,7.57E2,1.032E3,6.18E2,1.39E2,6.48E2,3.84E2,1.6E1,6.02E2,5.2E1,8.7E1,5.58E2,9E1,3.5E1,3.49E2],"tree_param":{"num_deleted":"0","num_feature":"40","num_nodes":"17","size_leaf_vector":"1"}},{"base_weights":[-5.7906792E-3,3.741971E-2,-2.1944782E-2,6.119603E-2,-2.3978022E-1,7.462597E-1,1.7826278E-2,-3.3651602E-1,1.9228329E-1,4.1147217E-2,-1.3764747E-2,-1.4365607E-2,2.3125303E-3,-1.14890635E-2,1.0545173E-2,3.555049E-2,-1.0189995E-3],"categories":[],"categories_nodes":[],"categories_segments":[],"categories_sizes":[],"default_left":[0,0,0,0,0,0,0,0,0,0,0,0,0,0,0,0,0],"id":54,"left_children":[1,-1,3,5,7,9,11,13,15,-1,-1,-1,-1,-1,-1,-1,-1],"loss_changes":[3.6585037E1,0E0,3.245125E1,3.8415794E1,2.0768158E1,5.8744446E1,3.590413E1,1.3081768E1,2.0594484E1,0E0,0E0,0E0,0E0,0E0,0E0,0E0,0E0],"parents":[2147483647,0,0,2,2,3,3,4,4,5,5,6,6,7,7,8,8],"right_children":[2,-1,4,6,8,10,12,14,16,-1,-1,-1,-1,-1,-1,-1,-1],"split_conditions":[4.85098E2,3.741971E-2,1.545E-3,-6.444E-3,5.923E-3,1.406E-3,-2.098245E0,5.402E-3,6.417E-3,4.1147217E-2,-1.3764747E-2,-1.4365607E-2,2.3125303E-3,-1.14890635E-2,1.0545173E-2,3.555049E-2,-1.0189995E-3],"split_indices":[0,0,20,1,20,22,15,1,20,0,0,0,0,0,0,0,0],"split_type":[0,0,0,0,0,0,0,0,0,0,0,0,0,0,0,0,0],"sum_hessian":[1.811E3,2.2E1,1.789E3,1.295E3,4.94E2,7.6E1,1.219E3,4.04E2,9E1,5E1,2.6E1,1.29E2,1.09E3,3.79E2,2.5E1,1.6E1,7.4E1],"tree_param":{"num_deleted":"0","num_feature":"40","num_nodes":"17","size_leaf_vector":"1"}},{"base_weights":[3.181692E-2,4.9306694E-1,-5.516544E-2,1.301425E-1,2.58677E-1,-7.4506074E-1,-2.143808E-2,1.5448637E0,-3.255425E-1,-9.9971366E-1,-3.318888E-3,-1.1599117E-1,2.1300924E-1,2.2337956E-2,1.0103084E-1,-3.5784014E-2,-3.7838123E-3,-3.9548315E-2,-2.358467E-2,-1.1493324E-3,-1.6019948E-2,-2.114148E-2,9.793965E-3],"categories":[],"categories_nodes":[],"categories_segments":[],"categories_sizes":[],"default_left":[0,0,0,0,0,0,0,0,0,0,0,0,0,0,0,0,0,0,0,0,0,0,0],"id":55,"left_children":[1,3,5,-1,7,9,11,13,15,17,-1,19,21,-1,-1,-1,-1,-1,-1,-1,-1,-1,-1],"loss_changes":[7.0803635E1,2.507634E2,3.4437603E1,0E0,1.9974992E2,1.0925987E1,3.1404493E1,1.1815727E2,3.1366537E1,2.0867424E0,0E0,3.2717846E1,4.256977E1,0E0,0E0,0E0,0E0,0E0,0E0,0E0,0E0,0E0,0E0],"parents":[2147483647,0,0,1,1,2,2,4,4,5,5,6,6,7,7,8,8,9,9,11,11,12,12],"right_children":[2,4,6,-1,8,10,12,14,16,18,-1,20,22,-1,-1,-1,-1,-1,-1,-1,-1,-1,-1],"split_conditions":[2.664E-3,-1.39E-6,-3.171847E0,1.301425E-1,-1.3553E-1,5.689E-5,1.792543E8,2.96E-4,3.95E-6,3.485E-3,-3.318888E-3,4.4717276E7,-4.18E-6,2.2337956E-2,1.0103084E-1,-3.5784014E-2,-3.7838123E-3,-3.9548315E-2,-2.358467E-2,-1.1493324E-3,-1.6019948E-2,-2.114148E-2,9.793965E-3],"split_indices":[2,12,15,0,15,12,3,24,12,2,0,9,12,0,0,0,0,0,0,0,0,0,0],"split_type":[0,0,0,0,0,0,0,0,0,0,0,0,0,0,0,0,0,0,0,0,0,0,0],"sum_hessian":[1.762E3,2.79E2,1.483E3,1.5E1,2.64E2,6.8E1,1.415E3,8.2E1,1.82E2,4.8E1,2E1,1.009E3,4.06E2,5.8E1,2.4E1,3.3E1,1.49E2,1.7E1,3.1E1,8.52E2,1.57E2,4.4E1,3.62E2],"tree_param":{"num_deleted":"0","num_feature":"40","num_nodes":"23","size_leaf_vector":"1"}},{"base_weights":[5.4948763E-3,4.337205E-1,-7.8598596E-2,1.2711178E-1,2.1369493E-1,-2.7851117E-1,3.0629048E-2,1.1678995E0,-2.4633847E-1,2.8756145E-1,-4.3320775E-1,-1.11349784E-1,7.0797676E-1,1.3072059E-2,1.2322407E-1,-3.7044358E-2,-1.7650527E-3,-1.1161591E-2,4.2887054E-2,-2.2234002E-2,-8.802938E-3,4.406203E-3,-7.9447115E-3,1.2773405E-1,8.38404E-3],"categories":[],"categories_nodes":[],"categories_segments":[],"categories_sizes":[],"default_left":[0,0,0,0,0,0,0,0,0,0,0,0,0,0,0,0,0,0,0,0,0,0,0,0,0],"id":56,"left_children":[1,3,5,-1,7,9,11,13,15,17,19,21,23,-1,-1,-1,-1,-1,-1,-1,-1,-1,-1,-1,-1],"loss_changes":[6.449325E1,2.4467807E2,3.2699944E1,0E0,1.22851364E2,4.64634E1,9.3230125E1,1.9361044E2,3.4827644E1,8.651205E1,1.758403E1,3.1794754E1,2.5390634E2,0E0,0E0,0E0,0E0,0E0,0E0,0E0,0E0,0E0,0E0,0E0,0E0],"parents":[2147483647,0,0,1,1,2,2,4,4,5,5,6,6,7,7,8,8,9,9,10,10,11,11,12,12],"right_children":[2,4,6,-1,8,10,12,14,16,18,20,22,24,-1,-1,-1,-1,-1,-1,-1,-1,-1,-1,-1,-1],"split_conditions":[2.672E-3,-1.39E-6,-3.00821E-1,1.2711178E-1,-3.9175E-2,1.395E-5,6.178E-5,9.22E-4,3.95E-6,4.431625E3,3.512E-3,-1.95203E-5,6.225E-5,1.3072059E-2,1.2322407E-1,-3.7044358E-2,-1.7650527E-3,-1.1161591E-2,4.2887054E-2,-2.2234002E-2,-8.802938E-3,4.406203E-3,-7.9447115E-3,1.2773405E-1,8.38404E-3],"split_indices":[2,12,15,0,15,12,12,23,12,0,2,13,12,0,0,0,0,0,0,0,0,0,0,0,0],"split_type":[0,0,0,0,0,0,0,0,0,0,0,0,0,0,0,0,0,0,0,0,0,0,0,0,0],"sum_hessian":[1.788E3,2.93E2,1.495E3,1.5E1,2.78E2,5.28E2,9.67E2,9E1,1.88E2,1.13E2,4.15E2,8E2,1.67E2,7.3E1,1.7E1,2.9E1,1.59E2,7.2E1,4.1E1,1.28E2,2.87E2,2.98E2,5.02E2,1.7E1,1.5E2],"tree_param":{"num_deleted":"0","num_feature":"40","num_nodes":"25","size_leaf_vector":"1"}},{"base_weights":[2.8725352E-2,1.2985249E-1,-2.4770875E-1,9.0987825E-1,7.741343E-2,-4.0879664E-1,4.0135812E-2,-2.7264473E-1,1.779898E0,-5.094039E-1,1.426356E-1,-5.852659E-1,-1.158529E-1,3.1255037E-2,-6.028756E-2,-2.2316195E-2,1.0698986E-2,9.070074E-2,5.0515067E-3,-5.820499E-3,-1.9204637E-2,7.014998E-2,3.1325957E-3,-2.5035234E-2,-1.11564975E-2,2.9839473E-2,-9.023434E-3,1.5862845E-2,-6.4098076E-3],"categories":[],"categories_nodes":[],"categories_segments":[],"categories_sizes":[],"default_left":[0,0,0,0,0,0,0,0,0,0,0,0,0,0,0,0,0,0,0,0,0,0,0,0,0,0,0,0,0],"id":57,"left_children":[1,3,5,7,9,11,13,15,17,19,21,23,25,-1,27,-1,-1,-1,-1,-1,-1,-1,-1,-1,-1,-1,-1,-1,-1],"loss_changes":[5.042322E1,5.3864777E1,2.2449148E1,8.602794E1,4.745684E1,1.5887714E1,1.7664314E1,1.097922E1,9.535672E1,4.9057846E0,9.315532E1,9.833511E0,2.446264E1,0E0,1.4446167E1,0E0,0E0,0E0,0E0,0E0,0E0,0E0,0E0,0E0,0E0,0E0,0E0,0E0,0E0],"parents":[2147483647,0,0,1,1,2,2,3,3,4,4,5,5,6,6,7,7,8,8,9,9,10,10,11,11,12,12,14,14],"right_children":[2,4,6,8,10,12,14,16,18,20,22,24,26,-1,28,-1,-1,-1,-1,-1,-1,-1,-1,-1,-1,-1,-1,-1,-1],"split_conditions":[1.56E-3,-6.291E-3,-1.16305E-1,-1.121E-3,-3.79403E-5,7.971E-2,-2.3426E-1,-2.609E-3,5.26E-4,-3.35E-6,-3.71547E-5,4.3917E-2,-5.872E-3,3.1255037E-2,-3.493E-3,-2.2316195E-2,1.0698986E-2,9.070074E-2,5.0515067E-3,-5.820499E-3,-1.9204637E-2,7.014998E-2,3.1325957E-3,-2.5035234E-2,-1.11564975E-2,2.9839473E-2,-9.023434E-3,1.5862845E-2,-6.4098076E-3],"split_indices":[21,1,8,23,13,16,17,21,23,12,13,17,23,0,25,0,0,0,0,0,0,0,0,0,0,0,0,0,0],"split_type":[0,0,0,0,0,0,0,0,0,0,0,0,0,0,0,0,0,0,0,0,0,0,0,0,0,0,0,0,0],"sum_hessian":[1.802E3,1.32E3,4.82E2,8.2E1,1.238E3,3.09E2,1.73E2,3.5E1,4.7E1,1.23E2,1.115E3,1.92E2,1.17E2,1.5E1,1.58E2,2E1,1.5E1,2.6E1,2.1E1,3.7E1,8.6E1,1.8E1,1.097E3,8.7E1,1.05E2,1.6E1,1.01E2,3.2E1,1.26E2],"tree_param":{"num_deleted":"0","num_feature":"40","num_nodes":"29","size_leaf_vector":"1"}},{"base_weights":[-3.5257027E-2,1.1729516E0,-6.154443E-2,7.5386204E-2,-1.8725397E-2,-4.3536076E-1,-1.5373519E-2,-5.888929E-1,-1.3181618E-1,3.345801E-1,-8.6780764E-2,4.7918982E-4,-2.0313766E-2,2.3576707E-2,-1.6502323E-2,5.110606E-3,7.314028E-2,-1.1801401E-2,4.244279E-4],"categories":[],"categories_nodes":[],"categories_segments":[],"categories_sizes":[],"default_left":[0,0,0,0,0,0,0,0,0,0,0,0,0,0,0,0,0,0,0],"id":58,"left_children":[1,3,5,-1,-1,7,9,11,13,15,17,-1,-1,-1,-1,-1,-1,-1,-1],"loss_changes":[5.66856E1,9.326197E1,3.0134995E1,0E0,0E0,8.798241E0,3.8937466E1,6.854786E0,2.5742228E1,9.0519714E1,4.01167E1,0E0,0E0,0E0,0E0,0E0,0E0,0E0,0E0],"parents":[2147483647,0,0,1,1,2,2,5,5,6,6,7,7,8,8,9,9,10,10],"right_children":[2,4,6,-1,-1,8,10,12,14,16,18,-1,-1,-1,-1,-1,-1,-1,-1],"split_conditions":[1.791E-3,-2.7345E-2,-3.6932E-5,7.5386204E-2,-1.8725397E-2,1.104E-5,-2.08618E-5,-1.4312435E9,3.097E-5,4.1914496E8,-2.118E-1,4.7918982E-4,-2.0313766E-2,2.3576707E-2,-1.6502323E-2,5.110606E-3,7.314028E-2,-1.1801401E-2,4.244279E-4],"split_indices":[2,6,13,0,0,12,13,7,12,3,14,0,0,0,0,0,0,0,0],"split_type":[0,0,0,0,0,0,0,0,0,0,0,0,0,0,0,0,0,0,0],"sum_hessian":[1.785E3,3.7E1,1.748E3,2.1E1,1.6E1,1.91E2,1.557E3,1.26E2,6.5E1,2.63E2,1.294E3,1.6E1,1.1E2,2E1,4.5E1,2.45E2,1.8E1,3.2E2,9.74E2],"tree_param":{"num_deleted":"0","num_feature":"40","num_nodes":"19","size_leaf_vector":"1"}},{"base_weights":[1.4278725E-2,5.165999E-2,-9.537543E-3,1.7348038E-1,-1.4374377E-1,-8.5268386E-2,6.328931E-1,1.4948872E-2,-2.504952E-1,2.8739186E-2,-7.3055993E-3,9.998655E-2,5.046717E-3,-4.3656933E-3,7.0080824E-2,-2.7882122E-2,-2.9948389E-3],"categories":[],"categories_nodes":[],"categories_segments":[],"categories_sizes":[],"default_left":[0,0,0,0,0,0,0,0,0,0,0,0,0,0,0,0,0],"id":59,"left_children":[1,-1,3,5,7,9,11,13,15,-1,-1,-1,-1,-1,-1,-1,-1],"loss_changes":[7.392517E1,0E0,4.396364E1,9.0095184E1,1.7527008E1,8.023271E1,3.4159592E2,1.5550574E2,6.3019104E1,0E0,0E0,0E0,0E0,0E0,0E0,0E0,0E0],"parents":[2147483647,0,0,2,2,3,3,4,4,5,5,6,6,7,7,8,8],"right_children":[2,-1,4,6,8,10,12,14,16,-1,-1,-1,-1,-1,-1,-1,-1],"split_conditions":[1.643E-3,5.165999E-2,3.485E-3,3.972E-5,3.097E-5,-1.6E-7,4.165E-5,3.016E-5,-6.5692E-6,2.8739186E-2,-7.3055993E-3,9.998655E-2,5.046717E-3,-4.3656933E-3,7.0080824E-2,-2.7882122E-2,-2.9948389E-3],"split_indices":[2,0,2,12,12,12,12,12,13,0,0,0,0,0,0,0,0],"split_type":[0,0,0,0,0,0,0,0,0,0,0,0,0,0,0,0,0],"sum_hessian":[1.812E3,2.4E1,1.788E3,7.56E2,1.032E3,4.84E2,2.72E2,4.15E2,6.17E2,6.3E1,4.21E2,3.9E1,2.33E2,3.89E2,2.6E1,1.11E2,5.06E2],"tree_param":{"num_deleted":"0","num_feature":"40","num_nodes":"17","size_leaf_vector":"1"}},{"base_weights":[3.1470727E-2,2.3528938E-1,-1.2589687E-1,6.2045015E-2,1.8316297E-1,-9.29003E-2,-5.526915E-1,-6.293402E-1,3.437914E-1,-1.4343381E-1,5.735917E-1,-4.560802E-3,-6.769762E-1,9.975387E-3,-2.934405E-2,4.8959076E-2,1.853261E-3,-5.1002773E-3,3.0761987E-2,-2.360251E-3,2.7328292E-2,-2.6692163E-2,-1.2865973E-2],"categories":[],"categories_nodes":[],"categories_segments":[],"categories_sizes":[],"default_left":[0,0,0,0,0,0,0,0,0,0,0,0,0,0,0,0,0,0,0,0,0,0,0],"id":60,"left_children":[1,3,5,-1,7,9,11,13,15,17,19,-1,21,-1,-1,-1,-1,-1,-1,-1,-1,-1,-1],"loss_changes":[5.896133E1,7.592465E1,1.4487921E1,0E0,1.0198647E2,3.250695E1,3.4991207E0,4.3667934E1,2.3659277E2,2.795163E1,1.5117825E1,0E0,2.4427242E0,0E0,0E0,0E0,0E0,0E0,0E0,0E0,0E0,0E0,0E0],"parents":[2147483647,0,0,1,1,2,2,4,4,5,5,6,6,7,7,8,8,9,9,10,10,12,12],"right_children":[2,4,6,-1,8,10,12,14,16,18,20,-1,22,-1,-1,-1,-1,-1,-1,-1,-1,-1,-1],"split_conditions":[3.485E-3,-6.219E-3,6.748E-5,6.2045015E-2,-4.9816755E8,4.9722E-5,1.4785E0,-1.678473E0,-3.2336077E8,8.637E-3,-1.3821325E8,-4.560802E-3,7.7956E-5,9.975387E-3,-2.934405E-2,4.8959076E-2,1.853261E-3,-5.1002773E-3,3.0761987E-2,-2.360251E-3,2.7328292E-2,-2.6692163E-2,-1.2865973E-2],"split_indices":[2,19,13,0,7,13,14,15,7,2,7,0,13,0,0,0,0,0,0,0,0,0,0],"split_type":[0,0,0,0,0,0,0,0,0,0,0,0,0,0,0,0,0,0,0,0,0,0,0],"sum_hessian":[1.836E3,8E2,1.036E3,2.1E1,7.79E2,9.63E2,7.3E1,1.28E2,6.51E2,8.96E2,6.7E1,1.8E1,5.5E1,3.4E1,9.4E1,1.16E2,5.35E2,8.77E2,1.9E1,2.3E1,4.4E1,2.8E1,2.7E1],"tree_param":{"num_deleted":"0","num_feature":"40","num_nodes":"23","size_leaf_vector":"1"}},{"base_weights":[1.5620936E-2,-5.390194E-1,4.9807113E-2,-7.1338964E-1,8.475569E-3,1.5817173E0,8.2392655E-3,-3.7216744E-1,-9.683749E-1,-8.390252E-3,1.493766E-1,-5.858795E-1,4.4293504E-2,-2.3158383E-2,3.947141E-3,-3.4870505E-2,-1.6925273E-2,-1.3912717E-2,-3.339129E-2,-3.9252512E-2,1.8273316E-3],"categories":[],"categories_nodes":[],"categories_segments":[],"categories_sizes":[],"default_left":[0,0,0,0,0,0,0,0,0,0,0,0,0,0,0,0,0,0,0,0,0],"id":61,"left_children":[1,3,5,7,-1,9,11,13,15,-1,-1,17,19,-1,-1,-1,-1,-1,-1,-1,-1],"loss_changes":[3.4297394E1,1.52860775E1,1.0846299E2,7.075123E0,0E0,2.864464E2,3.5572662E1,8.019581E0,3.0134087E0,0E0,0E0,5.4420853E0,3.520161E1,0E0,0E0,0E0,0E0,0E0,0E0,0E0,0E0],"parents":[2147483647,0,0,1,1,2,2,3,3,5,5,6,6,7,7,8,8,11,11,12,12],"right_children":[2,4,6,8,-1,10,12,14,16,-1,-1,18,20,-1,-1,-1,-1,-1,-1,-1,-1],"split_conditions":[-6.69E-6,3.998874E8,-3.98E-6,-4.32363E-5,8.475569E-3,-1.0099071E9,-3.92733E-5,-6.914402E7,9.88E-4,-8.390252E-3,1.493766E-1,1.18769E-1,-6.8E-7,-2.3158383E-2,3.947141E-3,-3.4870505E-2,-1.6925273E-2,-1.3912717E-2,-3.339129E-2,-3.9252512E-2,1.8273316E-3],"split_indices":[12,7,12,13,0,7,13,7,19,0,0,38,12,0,0,0,0,0,0,0,0],"split_type":[0,0,0,0,0,0,0,0,0,0,0,0,0,0,0,0,0,0,0,0,0],"sum_hessian":[1.809E3,1.04E2,1.705E3,8.6E1,1.8E1,4.4E1,1.661E3,3.8E1,4.8E1,2.9E1,1.5E1,9.4E1,1.567E3,2.1E1,1.7E1,3.1E1,1.7E1,7.8E1,1.6E1,1.8E1,1.549E3],"tree_param":{"num_deleted":"0","num_feature":"40","num_nodes":"21","size_leaf_vector":"1"}},{"base_weights":[1.6899566E-3,4.2682338E-1,-7.705651E-2,1.285357E-1,1.9260925E0,-1.1407002E-1,5.4545057E-1,1.3891367E0,-2.664247E-1,1.7869146E-1,-1.4611766E-1,-1.7774418E-1,2.7208143E-1,6.726214E-2,2.936303E-2,6.9352356E-4,7.84335E-2,-1.6765634E-2,5.295082E-3,1.1350415E-2,-2.1014374E-2,-6.0175485E-3,2.345658E-2,4.2966194E-3,4.791868E-2,-1.6900154E-2,1.2642045E-2],"categories":[],"categories_nodes":[],"categories_segments":[],"categories_sizes":[],"default_left":[0,0,0,0,0,0,0,0,0,0,0,0,0,0,0,0,0,0,0,0,0,0,0,0,0,0,0],"id":62,"left_children":[1,3,5,7,9,11,13,15,17,-1,19,21,23,-1,25,-1,-1,-1,-1,-1,-1,-1,-1,-1,-1,-1,-1],"loss_changes":[6.0829994E1,1.265556E2,3.531816E1,1.1897958E2,3.9397687E2,3.561757E1,7.500904E1,