{"learner":{"attributes":{"scikit_learn":"{\"_estimator_type\": \"regressor\"}"},"feature_names":[],"feature_types":[],"gradient_booster":{"model":{"gbtree_model_param":{"num_parallel_tree":"1","num_trees":"600"},"iteration_indptr":[0,1,2,3,4,5,6,7,8,9,10,11,12,13,14,15,16,17,18,19,20,21,22,23,24,25,26,27,28,29,30,31,32,33,34,35,36,37,38,39,40,41,42,43,44,45,46,47,48,49,50,51,52,53,54,55,56,57,58,59,60,61,62,63,64,65,66,67,68,69,70,71,72,73,74,75,76,77,78,79,80,81,82,83,84,85,86,87,88,89,90,91,92,93,94,95,96,97,98,99,100,101,102,103,104,105,106,107,108,109,110,111,112,113,114,115,116,117,118,119,120,121,122,123,124,125,126,127,128,129,130,131,132,133,134,135,136,137,138,139,140,141,142,143,144,145,146,147,148,149,150,151,152,153,154,155,156,157,158,159,160,161,162,163,164,165,166,167,168,169,170,171,172,173,174,175,176,177,178,179,180,181,182,183,184,185,186,187,188,189,190,191,192,193,194,195,196,197,198,199,200,201,202,203,204,205,206,207,208,209,210,211,212,213,214,215,216,217,218,219,220,221,222,223,224,225,226,227,228,229,230,231,232,233,234,235,236,237,238,239,240,241,242,243,244,245,246,247,248,249,250,251,252,253,254,255,256,257,258,259,260,261,262,263,264,265,266,267,268,269,270,271,272,273,274,275,276,277,278,279,280,281,282,283,284,285,286,287,288,289,290,291,292,293,294,295,296,297,298,299,300,301,302,303,304,305,306,307,308,309,310,311,312,313,314,315,316,317,318,319,320,321,322,323,324,325,326,327,328,329,330,331,332,333,334,335,336,337,338,339,340,341,342,343,344,345,346,347,348,349,350,351,352,353,354,355,356,357,358,359,360,361,362,363,364,365,366,367,368,369,370,371,372,373,374,375,376,377,378,379,380,381,382,383,384,385,386,387,388,389,390,391,392,393,394,395,396,397,398,399,400,401,402,403,404,405,406,407,408,409,410,411,412,413,414,415,416,417,418,419,420,421,422,423,424,425,426,427,428,429,430,431,432,433,434,435,436,437,438,439,440,441,442,443,444,445,446,447,448,449,450,451,452,453,454,455,456,457,458,459,460,461,462,463,464,465,466,467,468,469,470,471,472,473,474,475,476,477,478,479,480,481,482,483,484,485,486,487,488,489,490,491,492,493,494,495,496,497,498,499,500,501,502,503,504,505,506,507,508,509,510,511,512,513,514,515,516,517,518,519,520,521,522,523,524,525,526,527,528,529,530,531,532,533,534,535,536,537,538,539,540,541,542,543,544,545,546,547,548,549,550,551,552,553,554,555,556,557,558,559,560,561,562,563,564,565,566,567,568,569,570,571,572,573,574,575,576,577,578,579,580,581,582,583,584,585,586,587,588,589,590,591,592,593,594,595,596,597,598,599,600],"tree_info":[0,0,0,0,0,0,0,0,0,0,0,0,0,0,0,0,0,0,0,0,0,0,0,0,0,0,0,0,0,0,0,0,0,0,0,0,0,0,0,0,0,0,0,0,0,0,0,0,0,0,0,0,0,0,0,0,0,0,0,0,0,0,0,0,0,0,0,0,0,0,0,0,0,0,0,0,0,0,0,0,0,0,0,0,0,0,0,0,0,0,0,0,0,0,0,0,0,0,0,0,0,0,0,0,0,0,0,0,0,0,0,0,0,0,0,0,0,0,0,0,0,0,0,0,0,0,0,0,0,0,0,0,0,0,0,0,0,0,0,0,0,0,0,0,0,0,0,0,0,0,0,0,0,0,0,0,0,0,0,0,0,0,0,0,0,0,0,0,0,0,0,0,0,0,0,0,0,0,0,0,0,0,0,0,0,0,0,0,0,0,0,0,0,0,0,0,0,0,0,0,0,0,0,0,0,0,0,0,0,0,0,0,0,0,0,0,0,0,0,0,0,0,0,0,0,0,0,0,0,0,0,0,0,0,0,0,0,0,0,0,0,0,0,0,0,0,0,0,0,0,0,0,0,0,0,0,0,0,0,0,0,0,0,0,0,0,0,0,0,0,0,0,0,0,0,0,0,0,0,0,0,0,0,0,0,0,0,0,0,0,0,0,0,0,0,0,0,0,0,0,0,0,0,0,0,0,0,0,0,0,0,0,0,0,0,0,0,0,0,0,0,0,0,0,0,0,0,0,0,0,0,0,0,0,0,0,0,0,0,0,0,0,0,0,0,0,0,0,0,0,0,0,0,0,0,0,0,0,0,0,0,0,0,0,0,0,0,0,0,0,0,0,0,0,0,0,0,0,0,0,0,0,0,0,0,0,0,0,0,0,0,0,0,0,0,0,0,0,0,0,0,0,0,0,0,0,0,0,0,0,0,0,0,0,0,0,0,0,0,0,0,0,0,0,0,0,0,0,0,0,0,0,0,0,0,0,0,0,0,0,0,0,0,0,0,0,0,0,0,0,0,0,0,0,0,0,0,0,0,0,0,0,0,0,0,0,0,0,0,0,0,0,0,0,0,0,0,0,0,0,0,0,0,0,0,0,0,0,0,0,0,0,0,0,0,0,0,0,0,0,0,0,0,0,0,0,0,0,0,0,0,0,0,0,0,0,0,0,0,0,0,0,0,0,0,0,0,0,0,0,0,0,0,0,0,0,0,0,0,0,0,0,0,0,0,0,0,0,0,0,0,0,0,0,0,0,0,0,0,0,0,0,0,0,0,0,0,0,0,0,0,0,0,0,0,0,0,0,0,0,0,0,0,0,0,0,0,0,0,0,0,0,0,0,0,0,0,0,0,0],"trees":[{"base_weights":[-6.304769E-2,-3.8854855E-1,2.3747505E-1,1.0962201E0,-4.6644816E-1,7.559052E-1,6.669934E-2,6.3055955E-2,-8.481022E-2,2.060366E-2,-5.556891E-1,1.8394024E0,3.4557408E-1,5.951735E-1,-1.7185041E-1,-1.4041483E-2,1.0710619E-2,3.1668637E-2,-2.8483713E-1,2.7768645E-1,-6.0219675E-1,-8.559891E-4,2.3728433E0,3.4711998E-2,1.4176643E-1,2.447993E-1,1.5772042E0,-7.5957794E-3,-6.139586E-1,-1.3647536E-2,1.4010059E-2,-9.515608E-3,1.824969E-2,-8.907035E-3,-1.6723132E-2,6.338842E-2,2.0402214E-2,1.1305798E-2,-5.090951E-3,-7.1333027E-3,1.1109362E-2,5.221541E-2,-8.135341E-3,-2.2859268E-3,2.125843E-2,-1.4374095E-2,-0E0],"categories":[],"categories_nodes":[],"categories_segments":[],"categories_sizes":[],"default_left":[0,0,0,0,0,0,0,0,0,0,0,0,0,0,0,0,0,0,0,0,0,0,0,0,0,0,0,0,0,0,0,0,0,0,0,0,0,0,0,0,0,0,0,0,0,0,0],"id":0,"left_children":[1,3,5,7,9,11,13,-1,15,17,19,21,23,25,27,-1,-1,-1,29,31,33,-1,35,-1,37,39,41,43,45,-1,-1,-1,-1,-1,-1,-1,-1,-1,-1,-1,-1,-1,-1,-1,-1,-1,-1],"loss_changes":[6.3742897E1,3.6556942E1,2.9914284E1,3.874363E1,1.2979774E1,3.6639095E1,3.235103E1,0E0,4.4445868E0,2.2765795E1,9.909355E0,2.308995E1,1.72171E1,2.7057468E1,1.28041115E1,0E0,0E0,0E0,1.5971628E1,6.969679E0,8.400879E0,0E0,1.6384499E1,0E0,9.328739E0,1.1342438E1,4.361154E1,1.4876139E1,3.056713E0,0E0,0E0,0E0,0E0,0E0,0E0,0E0,0E0,0E0,0E0,0E0,0E0,0E0,0E0,0E0,0E0,0E0,0E0],"parents":[2147483647,0,0,1,1,2,2,3,3,4,4,5,5,6,6,8,8,9,9,10,10,11,11,12,12,13,13,14,14,18,18,19,19,20,20,22,22,24,24,25,25,26,26,27,27,28,28],"right_children":[2,4,6,8,10,12,14,-1,16,18,20,22,24,26,28,-1,-1,-1,30,32,34,-1,36,-1,38,40,42,44,46,-1,-1,-1,-1,-1,-1,-1,-1,-1,-1,-1,-1,-1,-1,-1,-1,-1,-1],"split_conditions":[3.34583E3,-9.659258E-1,9.446283E-1,5.61754E9,8.3928615E-1,7.833739E2,-1.7812755E-3,6.3055955E-2,1.2988469E6,-4.9838823E-1,-9.668148E-3,4.611155E3,-1.260466E0,-4.0411335E-1,2.752E1,-1.4041483E-2,1.0710619E-2,3.1668637E-2,4.53E-4,6.576E1,1.325998E-1,-8.559891E-4,1.5630936E6,3.4711998E-2,-2.5884673E-1,4.5154175E6,4.294143E0,9.749279E-1,1.07502E7,-1.3647536E-2,1.4010059E-2,-9.515608E-3,1.824969E-2,-8.907035E-3,-1.6723132E-2,6.338842E-2,2.0402214E-2,1.1305798E-2,-5.090951E-3,-7.1333027E-3,1.1109362E-2,5.221541E-2,-8.135341E-3,-2.2859268E-3,2.125843E-2,-1.4374095E-2,-0E0],"split_indices":[72,74,100,58,99,93,20,0,40,56,20,66,51,60,52,0,0,0,22,26,57,0,43,0,73,36,99,102,36,0,0,0,0,0,0,0,0,0,0,0,0,0,0,0,0,0,0],"split_type":[0,0,0,0,0,0,0,0,0,0,0,0,0,0,0,0,0,0,0,0,0,0,0,0,0,0,0,0,0,0,0,0,0,0,0,0,0,0,0,0,0,0,0,0,0,0,0],"sum_hessian":[6.5E2,3.12E2,3.38E2,1.5E1,2.97E2,8.3E1,2.55E2,5E0,1E1,4.6E1,2.51E2,2.2E1,6.1E1,7.9E1,1.76E2,5E0,5E0,7E0,3.9E1,1.3E1,2.38E2,5E0,1.7E1,7E0,5.4E1,5.9E1,2E1,1.29E2,4.7E1,2.8E1,1.1E1,6E0,7E0,1.44E2,9.4E1,1E1,7E0,2.6E1,2.8E1,2E1,3.9E1,1.3E1,7E0,1.18E2,1.1E1,4E1,7E0],"tree_param":{"num_deleted":"0","num_feature":"103","num_nodes":"47","size_leaf_vector":"1"}},{"base_weights":[1.2410162E-2,1.0764121E0,-1.2581329E-1,2.67746E0,5.952922E-1,6.4785644E-2,-1.7252707E-1,1.0440398E-1,1.241879E0,1.4732274E-1,5.5445995E-2,-4.3133223E-1,1.2417961E-1,4.037127E-2,8.519127E-3,1.1205847E0,-2.685432E-1,7.336943E-2,-5.1397836E-1,7.5467515E-1,1.0880392E-2,3.0019373E-2,6.293659E-3,7.021655E-3,-1.3064445E-2,2.8553536E-2,-2.693288E-3,-1.209357E-2,-3.6992333E-4,3.2906324E-2,1.11230295E-2,1.0885228E-2,-3.3248677E-3],"categories":[],"categories_nodes":[],"categories_segments":[],"categories_sizes":[],"default_left":[0,0,0,0,0,0,0,0,0,0,0,0,0,0,0,0,0,0,0,0,0,0,0,0,0,0,0,0,0,0,0,0,0],"id":1,"left_children":[1,3,5,7,9,-1,11,-1,13,15,-1,17,19,-1,-1,21,23,25,27,29,31,-1,-1,-1,-1,-1,-1,-1,-1,-1,-1,-1,-1],"loss_changes":[9.439833E1,5.540911E1,8.954985E1,5.5815765E1,5.5895737E1,0E0,4.3121605E1,0E0,6.6677475E0,2.0034973E1,0E0,1.2557346E1,1.8656744E1,0E0,0E0,4.068321E0,8.493403E0,1.2277003E1,1.1545494E1,6.1950607E0,2.1140198E1,0E0,0E0,0E0,0E0,0E0,0E0,0E0,0E0,0E0,0E0,0E0,0E0],"parents":[2147483647,0,0,1,1,2,2,3,3,4,4,6,6,8,8,9,9,11,11,12,12,15,15,16,16,17,17,18,18,19,19,20,20],"right_children":[2,4,6,8,10,-1,12,-1,14,16,-1,18,20,-1,-1,22,24,26,28,30,32,-1,-1,-1,-1,-1,-1,-1,-1,-1,-1,-1,-1],"split_conditions":[-8.660254E-1,-1.0230179E0,5.481534E-2,6.617E1,4.5269373E-1,6.4785644E-2,7.614491E-5,1.0440398E-1,-3.7941846E2,-1.7020348E-1,5.5445995E-2,8.582729E-1,-1.5250609E0,4.037127E-2,8.519127E-3,6.1936644E5,9.573066E-1,-1.2187647E0,1.3117076E0,-9.9083245E-1,9.446283E-1,3.0019373E-2,6.293659E-3,7.021655E-3,-1.3064445E-2,2.8553536E-2,-2.693288E-3,-1.209357E-2,-3.6992333E-4,3.2906324E-2,1.11230295E-2,1.0885228E-2,-3.3248677E-3],"split_indices":[74,51,47,26,73,0,46,0,91,79,0,100,24,0,0,38,100,51,94,13,100,0,0,0,0,0,0,0,0,0,0,0,0],"split_type":[0,0,0,0,0,0,0,0,0,0,0,0,0,0,0,0,0,0,0,0,0,0,0,0,0,0,0,0,0,0,0,0,0],"sum_hessian":[6.4E2,7.3E1,5.67E2,1.6E1,5.7E1,7E0,5.6E2,5E0,1.1E1,4.8E1,9E0,2.99E2,2.61E2,5E0,6E0,1.4E1,3.4E1,4.2E1,2.57E2,3.9E1,2.22E2,9E0,5E0,1.3E1,2.1E1,5E0,3.7E1,2.17E2,4E1,6E0,3.3E1,5.5E1,1.67E2],"tree_param":{"num_deleted":"0","num_feature":"103","num_nodes":"33","size_leaf_vector":"1"}},{"base_weights":[-2.7566865E-2,8.321933E-1,-1.4542049E-1,2.4890347E0,4.36629E-1,-3.3989313E-1,2.7547663E-1,7.326855E-2,2.105892E-2,7.409263E-2,1.629535E0,-5.272263E-1,-1.3479099E-1,9.360767E-1,1.4853627E-2,4.994276E-1,-6.458502E-1,4.2349666E-2,1.5980188E-2,3.3075225E-1,-5.925139E-1,6.301474E-2,-4.6779504E-1,1.767376E-1,1.8602041E0,3.2547876E-2,-1.013388E-1,3.2076493E-2,1.0027582E-4,-1.9924939E-2,-8.62229E-4,1.6115228E-2,-1.0176993E-2,-1.5722348E-3,-1.333338E-2,-1.6096109E-3,1.4003351E-2,-4.547402E-3,-1.4956059E-2,-7.418028E-3,1.776748E-2,1.25434445E-2,4.535462E-2,-4.0931306E-3,2.8465392E-2],"categories":[],"categories_nodes":[],"categories_segments":[],"categories_sizes":[],"default_left":[0,0,0,0,0,0,0,0,0,0,0,0,0,0,0,0,0,0,0,0,0,0,0,0,0,0,0,0,0,0,0,0,0,0,0,0,0,0,0,0,0,0,0,0,0],"id":2,"left_children":[1,3,5,7,9,11,13,-1,-1,15,17,19,21,23,25,27,29,-1,-1,31,33,35,37,39,41,-1,43,-1,-1,-1,-1,-1,-1,-1,-1,-1,-1,-1,-1,-1,-1,-1,-1,-1,-1],"loss_changes":[6.5397385E1,4.9973427E1,4.655425E1,2.1638939E1,2.7409927E1,1.4848686E1,3.0897058E1,0E0,0E0,1.5500323E1,4.4984207E0,1.1529789E1,1.2348357E1,3.528283E1,2.452821E1,1.7276852E1,3.8841877E0,0E0,0E0,6.24537E0,7.115692E0,1.08463335E1,4.5142174E0,1.1513405E1,1.0174301E1,0E0,1.9357916E1,0E0,0E0,0E0,0E0,0E0,0E0,0E0,0E0,0E0,0E0,0E0,0E0,0E0,0E0,0E0,0E0,0E0,0E0],"parents":[2147483647,0,0,1,1,2,2,3,3,4,4,5,5,6,6,9,9,10,10,11,11,12,12,13,13,14,14,15,15,16,16,19,19,20,20,21,21,22,22,23,23,24,24,26,26],"right_children":[2,4,6,8,10,12,14,-1,-1,16,18,20,22,24,26,28,30,-1,-1,32,34,36,38,40,42,-1,44,-1,-1,-1,-1,-1,-1,-1,-1,-1,-1,-1,-1,-1,-1,-1,-1,-1,-1],"split_conditions":[-8.660254E-1,2.369871E3,1.3701353E0,6.606E1,7.3E1,4.881284E-5,3.1743902E-1,7.326855E-2,2.105892E-2,1.0044305E3,6.198188E-3,-1.4224685E8,1.6177392E-2,-1.1817994E-1,-8.2902896E-1,-5.0022584E-1,5.140315E3,4.2349666E-2,1.5980188E-2,-6.300114E-1,4.9384534E-3,9.754632E-1,1.2246469E-16,2.6427402E0,5.79522E3,3.2547876E-2,8.051E1,3.2076493E-2,1.0027582E-4,-1.9924939E-2,-8.62229E-4,1.6115228E-2,-1.0176993E-2,-1.5722348E-3,-1.333338E-2,-1.6096109E-3,1.4003351E-2,-4.547402E-3,-1.4956059E-2,-7.418028E-3,1.776748E-2,1.25434445E-2,4.535462E-2,-4.0931306E-3,2.8465392E-2],"split_indices":[74,15,97,26,26,46,79,0,0,93,78,0,20,3,48,44,66,0,0,44,78,96,75,99,66,0,49,0,0,0,0,0,0,0,0,0,0,0,0,0,0,0,0,0,0],"split_type":[0,0,0,0,0,0,0,0,0,0,0,0,0,0,0,0,0,0,0,0,0,0,0,0,0,0,0,0,0,0,0,0,0,0,0,0,0,0,0,0,0,0,0,0,0],"sum_hessian":[6.44E2,7.7E1,5.67E2,1.4E1,6.3E1,3.88E2,1.79E2,7E0,7E0,4.9E1,1.4E1,2.02E2,1.86E2,5E1,1.29E2,3.1E1,1.8E1,8E0,6E0,1.4E1,1.88E2,1.17E2,6.9E1,2.8E1,2.2E1,8E0,1.21E2,9E0,2.2E1,1.1E1,7E0,9E0,5E0,2.4E1,1.64E2,9.6E1,2.1E1,3.8E1,3.1E1,1.6E1,1.2E1,6E0,1.6E1,1.14E2,7E0],"tree_param":{"num_deleted":"0","num_feature":"103","num_nodes":"45","size_leaf_vector":"1"}},{"base_weights":[-1.0594199E-2,8.86837E-1,-1.3229348E-1,2.8874583E0,4.97937E-1,-3.1594262E-1,3.038249E-1,7.636303E-3,8.896138E-2,1.7168702E0,-1.573969E-1,4.220035E-2,-3.4978306E-1,1.0411736E0,-1.0839634E-1,1.6033305E-2,2.226702E0,-5.5773187E-1,2.6255958E-2,-4.729834E-1,-9.5269114E-2,5.630064E-1,2.2219105E0,-1.905667E-1,2.8503392E-2,6.1524242E-2,3.074114E-2,-1.6114088E-2,5.41314E-3,-1.2264025E-2,-4.7085998E-3,-1.2789723E-2,7.805061E-4,2.0175703E-2,-1.2118672E-3,2.2491529E-3,6.565303E-2,1.1303167E-2,-6.3626277E-3],"categories":[],"categories_nodes":[],"categories_segments":[],"categories_sizes":[],"default_left":[0,0,0,0,0,0,0,0,0,0,0,0,0,0,0,0,0,0,0,0,0,0,0,0,0,0,0,0,0,0,0,0,0,0,0,0,0,0,0],"id":3,"left_children":[1,3,5,7,9,11,13,-1,-1,15,17,-1,19,21,23,-1,25,27,-1,29,31,33,35,37,-1,-1,-1,-1,-1,-1,-1,-1,-1,-1,-1,-1,-1,-1,-1],"loss_changes":[7.2991066E1,6.076824E1,4.7236015E1,4.8452103E1,5.4453354E1,3.4555668E1,5.3267517E1,0E0,0E0,9.5256195E0,2.6915953E1,0E0,1.2785313E1,3.4316223E1,1.4369884E1,0E0,4.6574173E0,7.5551605E0,0E0,9.028755E0,9.90189E0,1.2828139E1,3.9363914E1,1.0523815E1,0E0,0E0,0E0,0E0,0E0,0E0,0E0,0E0,0E0,0E0,0E0,0E0,0E0,0E0,0E0],"parents":[2147483647,0,0,1,1,2,2,3,3,4,4,5,5,6,6,9,9,10,10,12,12,13,13,14,14,16,16,17,17,19,19,20,20,21,21,22,22,23,23],"right_children":[2,4,6,8,10,12,14,-1,-1,16,18,-1,20,22,24,-1,26,28,-1,30,32,34,36,38,-1,-1,-1,-1,-1,-1,-1,-1,-1,-1,-1,-1,-1,-1,-1],"split_conditions":[-8.660254E-1,4.5010674E10,1.3701353E0,-2.8657052E-3,7.547126E-2,4.32448E10,6.8180675E9,7.636303E-3,8.896138E-2,-9.097375E-1,7.189E1,4.220035E-2,-3.5880274E-1,3.7526008E-1,8.051E1,1.6033305E-2,-2.1266074E-1,6.616E-3,2.6255958E-2,3.6985085E6,1.2904336E0,1.7613205E0,4.4408226E10,9.717437E-2,2.8503392E-2,6.1524242E-2,3.074114E-2,-1.6114088E-2,5.41314E-3,-1.2264025E-2,-4.7085998E-3,-1.2789723E-2,7.805061E-4,2.0175703E-2,-1.2118672E-3,2.2491529E-3,6.565303E-2,1.1303167E-2,-6.3626277E-3],"split_indices":[74,54,97,83,79,54,58,0,0,24,26,0,42,24,49,0,90,21,0,8,98,97,54,79,0,0,0,0,0,0,0,0,0,0,0,0,0,0,0],"split_type":[0,0,0,0,0,0,0,0,0,0,0,0,0,0,0,0,0,0,0,0,0,0,0,0,0,0,0,0,0,0,0,0,0,0,0,0,0,0,0],"sum_hessian":[6.67E2,7.9E1,5.88E2,1.2E1,6.7E1,4.14E2,1.74E2,5E0,7E0,2.3E1,4.4E1,5E0,4.09E2,6.2E1,1.12E2,9E0,1.4E1,3.5E1,9E0,2.75E2,1.34E2,4.5E1,1.7E1,1.07E2,5E0,5E0,9E0,2.7E1,8E0,1.72E2,1.03E2,2.6E1,1.08E2,2.6E1,1.9E1,6E0,1.1E1,1.5E1,9.2E1],"tree_param":{"num_deleted":"0","num_feature":"103","num_nodes":"39","size_leaf_vector":"1"}},{"base_weights":[-1.0369109E-2,-3.4754613E-1,3.1355146E-1,-4.143984E-1,1.4269344E0,8.8518643E-1,-1.0279035E-1,1.3882108E-1,-5.090205E-1,-7.453589E-3,6.6972576E-2,2.3419883E0,6.137638E-1,4.115416E-1,-2.519648E-1,2.8212272E-2,-8.00042E-2,1.1414944E-1,-5.8626074E-1,2.9213624E0,6.642953E-3,7.923738E-1,-6.9285434E-1,7.5548947E-1,-7.532477E-2,-5.820672E-1,1.6919592E-2,1.5780598E-2,-4.488816E-3,1.5573814E-2,-7.320885E-3,-3.1380653E-3,-1.3305768E-2,7.994239E-2,3.643134E-2,3.3009563E-2,9.010129E-3,-3.6986736E-3,-1.8635977E-2,2.8398491E-2,5.1980275E-3,-1.0828717E-2,9.95773E-3,-1.4365197E-2,-1.8861184E-3,9.454946E-3,-6.6649537E-3],"categories":[],"categories_nodes":[],"categories_segments":[],"categories_sizes":[],"default_left":[0,0,0,0,0,0,0,0,0,0,0,0,0,0,0,0,0,0,0,0,0,0,0,0,0,0,0,0,0,0,0,0,0,0,0,0,0,0,0,0,0,0,0,0,0,0,0],"id":4,"left_children":[1,3,5,7,9,11,13,15,17,-1,-1,19,21,23,25,-1,27,29,31,33,-1,35,37,39,41,43,45,-1,-1,-1,-1,-1,-1,-1,-1,-1,-1,-1,-1,-1,-1,-1,-1,-1,-1,-1,-1],"loss_changes":[7.149599E1,3.847831E1,7.955481E1,1.6292065E1,4.1955193E1,5.4375854E1,1.4944319E1,1.290297E1,1.2822975E1,0E0,0E0,2.4446068E1,2.8402508E1,7.414135E0,1.3421047E1,0E0,5.1091523E0,9.758094E0,7.876343E0,1.3760529E1,0E0,3.0337372E1,1.6025057E0,8.116358E0,5.2408223E0,4.4091053E0,1.3508827E1,0E0,0E0,0E0,0E0,0E0,0E0,0E0,0E0,0E0,0E0,0E0,0E0,0E0,0E0,0E0,0E0,0E0,0E0,0E0,0E0],"parents":[2147483647,0,0,1,1,2,2,3,3,4,4,5,5,6,6,7,7,8,8,11,11,12,12,13,13,14,14,16,16,17,17,18,18,19,19,21,21,22,22,23,23,24,24,25,25,26,26],"right_children":[2,4,6,8,10,12,14,16,18,-1,-1,20,22,24,26,-1,28,30,32,34,-1,36,38,40,42,44,46,-1,-1,-1,-1,-1,-1,-1,-1,-1,-1,-1,-1,-1,-1,-1,-1,-1,-1,-1,-1],"split_conditions":[3.437099E3,1.9875944E0,6.4150197E-3,5.451061E9,1.314E-4,-8.660254E-1,-2.978E-3,6.86E1,-1.11207944E8,-7.453589E-3,6.6972576E-2,1.171E-3,-2.198925E1,-2.5881904E-1,6.357587E6,2.8212272E-2,-9.668148E-3,-2.866E-4,8.6144763E-1,3.4104523E-1,6.642953E-3,2.9750757E-2,8.6802516E-5,1.2381825E0,1.4670243E-3,6.315721E-1,3.4853705E6,1.5780598E-2,-4.488816E-3,1.5573814E-2,-7.320885E-3,-3.1380653E-3,-1.3305768E-2,7.994239E-2,3.643134E-2,3.3009563E-2,9.010129E-3,-3.6986736E-3,-1.8635977E-2,2.8398491E-2,5.1980275E-3,-1.0828717E-2,9.95773E-3,-1.4365197E-2,-1.8861184E-3,9.454946E-3,-6.6649537E-3],"split_indices":[72,98,78,58,23,74,21,49,0,0,0,25,91,74,36,0,20,23,100,47,0,17,46,100,45,47,40,0,0,0,0,0,0,0,0,0,0,0,0,0,0,0,0,0,0,0,0],"split_type":[0,0,0,0,0,0,0,0,0,0,0,0,0,0,0,0,0,0,0,0,0,0,0,0,0,0,0,0,0,0,0,0,0,0,0,0,0,0,0,0,0,0,0,0,0,0,0],"sum_hessian":[6.53E2,3.2E2,3.33E2,3.09E2,1.1E1,1.4E2,1.93E2,4.5E1,2.64E2,6E0,5E0,2.1E1,1.19E2,4.3E1,1.5E2,6E0,3.9E1,2.9E1,2.35E2,1.6E1,5E0,1.05E2,1.4E1,2.5E1,1.8E1,6.7E1,8.3E1,5E0,3.4E1,1.2E1,1.7E1,3.7E1,1.98E2,7E0,9E0,2.9E1,7.6E1,5E0,9E0,1E1,1.5E1,1E1,8E0,5.2E1,1.5E1,3.6E1,4.7E1],"tree_param":{"num_deleted":"0","num_feature":"103","num_nodes":"47","size_leaf_vector":"1"}},{"base_weights":[-6.606675E-3,6.2500365E-2,-4.35279E-2,8.4777665E-1,-1.636544E-1,2.7880296E-1,2.0756612E0,-4.0992874E-1,1.5862593E-1,1.3076636E0,-2.5151289E-1,1.4849477E0,7.594632E-2,-1.0325683E-2,-5.015415E-1,5.862768E-1,-1.7672609E-1,-1.6574255E-3,4.696915E-2,-1.2308359E-2,2.3163542E-2,3.9366394E-2,6.438676E-3,-1.2267944E-2,9.136308E-3,-7.386097E-3,-1.5083702E-2,2.8122121E-2,4.5607514E-3,-3.414112E-4,-1.0722758E-2],"categories":[],"categories_nodes":[],"categories_segments":[],"categories_sizes":[],"default_left":[0,0,0,0,0,0,0,0,0,0,0,0,0,0,0,0,0,0,0,0,0,0,0,0,0,0,0,0,0,0,0],"id":5,"left_children":[1,-1,3,5,7,9,11,13,15,17,19,21,-1,23,25,27,29,-1,-1,-1,-1,-1,-1,-1,-1,-1,-1,-1,-1,-1,-1],"loss_changes":[7.739932E1,0E0,7.104232E1,5.4471684E1,4.6479797E1,3.0215961E1,2.0446556E1,1.2117058E1,3.6501736E1,2.7477474E1,1.9421228E1,1.0509487E1,0E0,1.792398E1,8.734673E0,3.2496876E1,8.159182E0,0E0,0E0,0E0,0E0,0E0,0E0,0E0,0E0,0E0,0E0,0E0,0E0,0E0,0E0],"parents":[2147483647,0,0,2,2,3,3,4,4,5,5,6,6,7,7,8,8,9,9,10,10,11,11,13,13,14,14,15,15,16,16],"right_children":[2,-1,4,6,8,10,12,14,16,18,20,22,-1,24,26,28,30,-1,-1,-1,-1,-1,-1,-1,-1,-1,-1,-1,-1,-1,-1],"split_conditions":[5.481534E-2,6.2500365E-2,-8.660254E-1,1.7287753E0,4.140059E3,4.73473E10,1E0,4.524681E10,6.484452E-3,5.2792494E9,2.557453E0,1.9715607E0,7.594632E-2,1.8518619E3,5.4534383E0,3.0319478E-2,1.4802396E-1,-1.6574255E-3,4.696915E-2,-1.2308359E-2,2.3163542E-2,3.9366394E-2,6.438676E-3,-1.2267944E-2,9.136308E-3,-7.386097E-3,-1.5083702E-2,2.8122121E-2,4.5607514E-3,-3.414112E-4,-1.0722758E-2],"split_indices":[47,0,74,98,66,54,101,54,78,58,27,98,0,15,99,17,32,0,0,0,0,0,0,0,0,0,0,0,0,0,0],"split_type":[0,0,0,0,0,0,0,0,0,0,0,0,0,0,0,0,0,0,0,0,0,0,0,0,0,0,0,0,0,0,0],"sum_hessian":[6.69E2,7E0,6.62E2,7.8E1,5.84E2,5.4E1,2.4E1,3.31E2,2.53E2,1.8E1,3.6E1,1.9E1,5E0,6.2E1,2.69E2,1.11E2,1.42E2,8E0,1E1,2.9E1,7E0,1.3E1,6E0,2.7E1,3.5E1,1.78E2,9.1E1,3.3E1,7.8E1,9.9E1,4.3E1],"tree_param":{"num_deleted":"0","num_feature":"103","num_nodes":"31","size_leaf_vector":"1"}},{"base_weights":[-4.622883E-2,6.750972E-2,-7.697978E-2,6.13597E-1,-2.1821254E-1,3.1756172E-1,1.6705292E0,-5.358659E-1,-2.8160995E-2,1.0439491E-1,1.8052617E0,2.361793E0,5.4369615E-3,9.43632E-2,-5.948397E-1,3.4489274E-1,-1.9160816E-1,2.1412138E-2,-1.3877305E-3,4.917288E-2,1.7885147E-2,7.796785E-2,2.71401E-2,1.7358674E-2,-1.2057453E-2,-7.532719E-3,-1.669275E-2,1.2250517E-2,-1.0291982E-2,-5.9234193E-3,5.9130806E-3],"categories":[],"categories_nodes":[],"categories_segments":[],"categories_sizes":[],"default_left":[0,0,0,0,0,0,0,0,0,0,0,0,0,0,0,0,0,0,0,0,0,0,0,0,0,0,0,0,0,0,0],"id":6,"left_children":[1,-1,3,5,7,9,11,13,15,17,19,21,-1,23,25,27,29,-1,-1,-1,-1,-1,-1,-1,-1,-1,-1,-1,-1,-1,-1],"loss_changes":[6.852075E1,0E0,6.307355E1,3.383144E1,3.2366615E1,2.7280483E1,2.2365898E1,7.5330696E0,2.0581442E1,1.3004956E1,4.501953E0,1.9899628E1,0E0,1.0032484E1,9.305244E0,2.3903986E1,1.2033021E1,0E0,0E0,0E0,0E0,0E0,0E0,0E0,0E0,0E0,0E0,0E0,0E0,0E0,0E0],"parents":[2147483647,0,0,2,2,3,3,4,4,5,5,6,6,7,7,8,8,9,9,10,10,11,11,13,13,14,14,15,15,16,16],"right_children":[2,-1,4,6,8,10,12,14,16,18,20,22,-1,24,26,28,30,-1,-1,-1,-1,-1,-1,-1,-1,-1,-1,-1,-1,-1,-1],"split_conditions":[5.481534E-2,6.750972E-2,8.7721235E-1,7.327402E-1,2.790608E3,7.699329E6,1.8016088E0,-1.3192925E8,4.9420358E10,-7.794532E-1,1.250768E0,-2.651094E-1,5.4369615E-3,-1.341E-4,1.3195452E-1,8.678079E0,7.858E-4,2.1412138E-2,-1.3877305E-3,4.917288E-2,1.7885147E-2,7.796785E-2,2.71401E-2,1.7358674E-2,-1.2057453E-2,-7.532719E-3,-1.669275E-2,1.2250517E-2,-1.0291982E-2,-5.9234193E-3,5.9130806E-3],"split_indices":[47,0,100,13,66,36,79,0,54,64,41,28,0,23,57,99,23,0,0,0,0,0,0,0,0,0,0,0,0,0,0],"split_type":[0,0,0,0,0,0,0,0,0,0,0,0,0,0,0,0,0,0,0,0,0,0,0,0,0,0,0,0,0,0,0],"sum_hessian":[6.5E2,5E0,6.45E2,1.09E2,5.36E2,8.6E1,2.3E1,2E2,3.36E2,7.6E1,1E1,1.5E1,8E0,1.7E1,1.83E2,1.02E2,2.34E2,1.1E1,6.5E1,5E0,5E0,5E0,1E1,8E0,9E0,9.7E1,8.6E1,7.8E1,2.4E1,1.93E2,4.1E1],"tree_param":{"num_deleted":"0","num_feature":"103","num_nodes":"31","size_leaf_vector":"1"}},{"base_weights":[4.348453E-2,7.1948314E-1,-1.272482E-1,1.7039059E0,2.5428876E-1,-3.675917E-1,1.9971465E-1,2.5306034E0,5.557391E-2,-2.2011058E-1,9.128828E-1,6.1217133E-2,-5.066618E-1,7.14849E-1,-9.8802E-2,9.214058E-2,1.652209E0,-1.3611638E-2,2.018122E-2,1.8263973E-2,-3.5498726E-1,6.144969E-1,4.931541E-2,2.8284447E-2,-1.1971631E-1,-6.3121253E-1,-2.5286773E-1,-5.1352906E-1,1.0252637E0,-1.6532163E-1,2.0749215E-2,1.6704123E-2,4.428971E-2,-1.0215915E-2,1.6702306E-2,3.218121E-3,3.662506E-2,1.602565E-2,-4.4735963E-3,-1.3863751E-2,-2.6835462E-3,-1.8323242E-3,-1.8183097E-2,-1.6044889E-2,2.7213688E-3,3.24828E-2,1.2303657E-2,-1.4279419E-2,-1.0155551E-3],"categories":[],"categories_nodes":[],"categories_segments":[],"categories_sizes":[],"default_left":[0,0,0,0,0,0,0,0,0,0,0,0,0,0,0,0,0,0,0,0,0,0,0,0,0,0,0,0,0,0,0,0,0,0,0,0,0,0,0,0,0,0,0,0,0,0,0,0,0],"id":7,"left_children":[1,3,5,7,9,11,13,15,17,19,21,23,25,27,29,-1,31,-1,-1,-1,33,35,-1,-1,37,39,41,43,45,47,-1,-1,-1,-1,-1,-1,-1,-1,-1,-1,-1,-1,-1,-1,-1,-1,-1,-1,-1],"loss_changes":[7.4868744E1,5.9455063E1,4.0757607E1,5.6717873E1,2.8252193E1,1.786586E1,3.3887306E1,4.4302597E1,1.0954166E1,8.302278E0,1.6148819E1,1.8266697E1,6.9656982E0,3.125636E1,1.0660218E1,0E0,7.9230003E0,0E0,0E0,0E0,9.188508E0,1.7767296E1,0E0,0E0,6.4148726E0,4.529434E0,7.9050364E0,3.2714572E0,1.5002808E1,8.2785E0,0E0,0E0,0E0,0E0,0E0,0E0,0E0,0E0,0E0,0E0,0E0,0E0,0E0,0E0,0E0,0E0,0E0,0E0,0E0],"parents":[2147483647,0,0,1,1,2,2,3,3,4,4,5,5,6,6,7,7,8,8,9,9,10,10,11,11,12,12,13,13,14,14,16,16,20,20,21,21,24,24,25,25,26,26,27,27,28,28,29,29],"right_children":[2,4,6,8,10,12,14,16,18,20,22,24,26,28,30,-1,32,-1,-1,-1,34,36,-1,-1,38,40,42,44,46,48,-1,-1,-1,-1,-1,-1,-1,-1,-1,-1,-1,-1,-1,-1,-1,-1,-1,-1,-1],"split_conditions":[-7.0710677E-1,4.737176E10,4.140059E3,2.6391023E3,7.189E1,4.6167986E10,6.2758527E-3,2.8368002E-1,2.3488582E6,-2.9959892E7,8.754639E-3,-4.3388373E-1,1.6257333E0,-1.5502697E0,2.7156154E7,9.214058E-2,-2.029527E-1,-1.3611638E-2,2.018122E-2,1.8263973E-2,1.2461725E0,9.279555E7,4.931541E-2,2.8284447E-2,-8.766944E-3,6.6829264E-1,2.8599514E-2,1.0640501E0,-7.190176E-4,4.9119355E6,2.0749215E-2,1.6704123E-2,4.428971E-2,-1.0215915E-2,1.6702306E-2,3.218121E-3,3.662506E-2,1.602565E-2,-4.4735963E-3,-1.3863751E-2,-2.6835462E-3,-1.8323242E-3,-1.8183097E-2,-1.6044889E-2,2.7213688E-3,3.24828E-2,1.2303657E-2,-1.4279419E-2,-1.0155551E-3],"split_indices":[74,54,66,15,26,54,78,47,36,1,59,102,98,70,36,0,28,0,0,0,48,1,0,0,84,70,59,28,87,36,0,0,0,0,0,0,0,0,0,0,0,0,0,0,0,0,0,0,0],"split_type":[0,0,0,0,0,0,0,0,0,0,0,0,0,0,0,0,0,0,0,0,0,0,0,0,0,0,0,0,0,0,0,0,0,0,0,0,0,0,0,0,0,0,0,0,0,0,0,0,0],"sum_hessian":[6.47E2,1.3E2,5.17E2,4.1E1,8.9E1,2.98E2,2.19E2,2.7E1,1.4E1,5.2E1,3.7E1,7.3E1,2.25E2,8E1,1.39E2,7E0,2E1,8E0,6E0,5E0,4.7E1,3.2E1,5E0,8E0,6.5E1,1.5E2,7.5E1,1.6E1,6.4E1,1.32E2,7E0,9E0,1.1E1,4.2E1,5E0,2.4E1,8E0,6E0,5.9E1,1.33E2,1.7E1,6.1E1,1.4E1,1.1E1,5E0,2.5E1,3.9E1,2.2E1,1.1E2],"tree_param":{"num_deleted":"0","num_feature":"103","num_nodes":"49","size_leaf_vector":"1"}},{"base_weights":[-1.0170156E-2,5.996263E-2,-4.6739254E-2,8.237063E-1,-1.6296396E-1,1.4579761E0,-4.184185E-2,-4.090221E-1,1.5819441E-1,-2.4206758E-1,2.1071641E0,-3.978334E-1,2.7175065E-2,3.0939102E-2,-4.6819502E-1,8.755922E-1,-8.083541E-2,3.9699874E-3,-1.1025029E-2,5.317901E-2,8.351802E-3,1.13731E-2,-1.2853334E-2,2.246025E-2,-3.1142223E-3,-5.740283E-3,-1.2522712E-2,2.802419E-2,-1.725456E-4,-3.4261788E-3,1.0773008E-2],"categories":[],"categories_nodes":[],"categories_segments":[],"categories_sizes":[],"default_left":[0,0,0,0,0,0,0,0,0,0,0,0,0,0,0,0,0,0,0,0,0,0,0,0,0,0,0,0,0,0,0],"id":8,"left_children":[1,-1,3,5,7,9,11,13,15,17,19,21,-1,23,25,27,29,-1,-1,-1,-1,-1,-1,-1,-1,-1,-1,-1,-1,-1,-1],"loss_changes":[7.144961E1,0E0,6.510467E1,4.1733135E1,4.4933918E1,4.884108E1,1.6738482E1,8.411133E0,4.2417492E1,1.8487432E0,2.8604553E1,6.637711E0,0E0,8.097084E0,7.931736E0,2.8801529E1,1.0469E1,0E0,0E0,0E0,0E0,0E0,0E0,0E0,0E0,0E0,0E0,0E0,0E0,0E0,0E0],"parents":[2147483647,0,0,2,2,3,3,4,4,5,5,6,6,7,7,8,8,9,9,10,10,11,11,13,13,14,14,15,15,16,16],"right_children":[2,-1,4,6,8,10,12,14,16,18,20,22,-1,24,26,28,30,-1,-1,-1,-1,-1,-1,-1,-1,-1,-1,-1,-1,-1,-1],"split_conditions":[5.481534E-2,5.996263E-2,-8.660254E-1,9.676699E2,4.140059E3,2.3733873E5,4.2810822E8,4.4581257E10,9.446283E-1,3.2E-4,1.1206481E0,-6.133E-3,2.7175065E-2,-2.7657836E7,2.706E1,5.90982E-3,7.429469E-1,3.9699874E-3,-1.1025029E-2,5.317901E-2,8.351802E-3,1.13731E-2,-1.2853334E-2,2.246025E-2,-3.1142223E-3,-5.740283E-3,-1.2522712E-2,2.802419E-2,-1.725456E-4,-3.4261788E-3,1.0773008E-2],"split_indices":[47,0,74,93,66,39,0,54,100,22,28,21,0,8,52,78,47,0,0,0,0,0,0,0,0,0,0,0,0,0,0],"split_type":[0,0,0,0,0,0,0,0,0,0,0,0,0,0,0,0,0,0,0,0,0,0,0,0,0,0,0,0,0,0,0],"sum_hessian":[6.49E2,7E0,6.42E2,7.5E1,5.67E2,4.3E1,3.2E1,3.21E2,2.46E2,1.2E1,3.1E1,2.6E1,6E0,3.8E1,2.83E2,6.1E1,1.85E2,5E0,7E0,2.3E1,8E0,5E0,2.1E1,5E0,3.3E1,1.33E2,1.5E2,3.8E1,2.3E1,1.62E2,2.3E1],"tree_param":{"num_deleted":"0","num_feature":"103","num_nodes":"31","size_leaf_vector":"1"}},{"base_weights":[-7.1236524E-3,6.594233E-1,-1.5019597E-1,1.19315155E-1,1.2375782E0,5.49158E-2,-1.8147227E-1,1.0293193E0,-2.8146827E-1,2.1387417E0,3.9223418E-1,4.3159146E-2,-2.1137571E-1,4.9044136E-2,2.0517163E-1,-4.7169724E-1,3.1248406E-1,2.8901436E0,9.833909E-1,1.0656368E0,6.5505933E-3,-4.5220026E-1,2.4497934E-2,1.650226E-2,-8.631091E-3,-1.1837212E-2,-3.888824E-4,1.3813659E-2,-2.003908E-3,3.5462227E-2,6.84839E-2,2.6751598E-2,8.477481E-3,3.3132013E-2,6.3813548E-3,5.6833164E-3,-1.1005254E-2,-2.5747097E-3,-1.2083156E-2,1.0439056E-2,-1.9991167E-3],"categories":[],"categories_nodes":[],"categories_segments":[],"categories_sizes":[],"default_left":[0,0,0,0,0,0,0,0,0,0,0,0,0,0,0,0,0,0,0,0,0,0,0,0,0,0,0,0,0,0,0,0,0,0,0,0,0,0,0,0,0],"id":9,"left_children":[1,3,5,7,9,-1,11,13,15,17,19,-1,21,-1,23,25,27,29,31,33,35,37,39,-1,-1,-1,-1,-1,-1,-1,-1,-1,-1,-1,-1,-1,-1,-1,-1,-1,-1],"loss_changes":[6.2498398E1,3.597444E1,4.916318E1,2.2443819E1,4.171041E1,0E0,3.768059E1,2.1510817E1,4.96172E0,2.0798569E1,7.680471E0,0E0,3.0068289E1,0E0,5.357123E0,1.7427206E0,1.7704959E0,4.3084717E0,1.7968159E0,4.243272E0,3.1724691E0,1.2769367E1,1.6642372E1,0E0,0E0,0E0,0E0,0E0,0E0,0E0,0E0,0E0,0E0,0E0,0E0,0E0,0E0,0E0,0E0,0E0,0E0],"parents":[2147483647,0,0,1,1,2,2,3,3,4,4,6,6,7,7,8,8,9,9,10,10,12,12,14,14,15,15,16,16,17,17,18,18,19,19,20,20,21,21,22,22],"right_children":[2,4,6,8,10,-1,12,14,16,18,20,-1,22,-1,24,26,28,30,32,34,36,38,40,-1,-1,-1,-1,-1,-1,-1,-1,-1,-1,-1,-1,-1,-1,-1,-1,-1,-1],"split_conditions":[8.7721235E-1,4.016667E3,5.481534E-2,4.6229352E10,8.746864E2,5.49158E-2,4.32448E10,1.15888E5,7.076856E6,1.9343401E0,-2.7155685E-1,4.3159146E-2,3.34583E3,4.9044136E-2,4.3851825E10,5.6336126E0,-9.7050995E-1,1.6379133E0,2.2622992E8,7.386642E5,7.4465238E-3,6.874209E2,-2.612E-3,1.650226E-2,-8.631091E-3,-1.1837212E-2,-3.888824E-4,1.3813659E-2,-2.003908E-3,3.5462227E-2,6.84839E-2,2.6751598E-2,8.477481E-3,3.3132013E-2,6.3813548E-3,5.6833164E-3,-1.1005254E-2,-2.5747097E-3,-1.2083156E-2,1.0439056E-2,-1.9991167E-3],"split_indices":[100,72,47,54,93,0,54,43,8,41,3,0,72,0,54,99,24,99,0,43,78,93,21,0,0,0,0,0,0,0,0,0,0,0,0,0,0,0,0,0,0],"split_type":[0,0,0,0,0,0,0,0,0,0,0,0,0,0,0,0,0,0,0,0,0,0,0,0,0,0,0,0,0,0,0,0,0,0,0,0,0,0,0,0,0],"sum_hessian":[6.54E2,1.15E2,5.39E2,6E1,5.5E1,5E0,5.34E2,1.8E1,4.2E1,2.6E1,2.9E1,6E0,5.28E2,6E0,1.2E1,3.2E1,1E1,1.5E1,1.1E1,1E1,1.9E1,2.61E2,2.67E2,6E0,6E0,2.5E1,7E0,5E0,5E0,6E0,9E0,6E0,5E0,5E0,5E0,1.3E1,6E0,8.4E1,1.77E2,5.3E1,2.14E2],"tree_param":{"num_deleted":"0","num_feature":"103","num_nodes":"41","size_leaf_vector":"1"}},{"base_weights":[9.535414E-3,5.439863E-2,-2.6171116E-2,6.1192703E-2,-5.3258967E-2,4.1053244E-1,-2.1818192E-1,1.0900726E0,1.286337E-1,6.680754E-1,-2.963244E-1,1.3158127E-2,5.6786127E-2,-4.6293256E-3,1.0359152E-2,-1.0824722E-4,2.5717849E-2,6.972315E-3,-7.3061003E-3],"categories":[],"categories_nodes":[],"categories_segments":[],"categories_sizes":[],"default_left":[0,0,0,0,0,0,0,0,0,0,0,0,0,0,0,0,0,0,0],"id":10,"left_children":[1,-1,3,-1,5,7,9,11,13,15,17,-1,-1,-1,-1,-1,-1,-1,-1],"loss_changes":[6.549799E1,0E0,5.5716423E1,0E0,5.0683018E1,3.3120285E1,3.3991318E1,3.6733486E1,1.7466446E1,1.6630064E1,2.0113586E1,0E0,0E0,0E0,0E0,0E0,0E0,0E0,0E0],"parents":[2147483647,0,0,2,2,4,4,5,5,6,6,7,7,8,8,9,9,10,10],"right_children":[2,-1,4,-1,6,8,10,12,14,16,18,-1,-1,-1,-1,-1,-1,-1,-1],"split_conditions":[4.32448E10,5.439863E-2,5.481534E-2,6.1192703E-2,9.656463E-1,4.6229352E10,-2.116331E3,3.057776E-3,2.854263E5,1.1049226E-3,-1.155973E-2,1.3158127E-2,5.6786127E-2,-4.6293256E-3,1.0359152E-2,-1.0824722E-4,2.5717849E-2,6.972315E-3,-7.3061003E-3],"split_indices":[54,0,47,0,100,54,68,84,34,45,84,0,0,0,0,0,0,0,0],"split_type":[0,0,0,0,0,0,0,0,0,0,0,0,0,0,0,0,0,0,0],"sum_hessian":[6.74E2,8E0,6.66E2,5E0,6.61E2,1.73E2,4.88E2,5E1,1.23E2,3.9E1,4.49E2,4.1E1,9E0,6.4E1,5.9E1,1.9E1,2E1,4.3E1,4.06E2],"tree_param":{"num_deleted":"0","num_feature":"103","num_nodes":"19","size_leaf_vector":"1"}},{"base_weights":[3.6085233E-2,1.1057765E0,-1.0871912E-1,2.3995948E0,6.067437E-1,5.4000642E-2,-1.4828368E-1,9.3266904E-1,7.929811E-2,-1.4081387E-1,1.2644331E0,-3.5986853E-1,1.3928822E-1,4.221385E-2,-3.4897688E-3,1.9232085E-2,-4.9820775E-1,-5.0796503E-3,1.5807744E0,-4.7046775E-1,-1.3943431E-1,7.798306E-1,-5.060511E-2,1.1792688E-3,-1.7080624E-2,1.8406997E-2,4.276989E-2,9.574096E-3,-1.0004884E-2,-1.3808108E-2,-4.4574536E-4,2.782006E-2,4.971819E-3,-3.2607352E-3,1.7467046E-2],"categories":[],"categories_nodes":[],"categories_segments":[],"categories_sizes":[],"default_left":[0,0,0,0,0,0,0,0,0,0,0,0,0,0,0,0,0,0,0,0,0,0,0,0,0,0,0,0,0,0,0,0,0,0,0],"id":11,"left_children":[1,3,5,7,9,-1,11,13,-1,15,17,19,21,-1,-1,-1,23,-1,25,27,29,31,33,-1,-1,-1,-1,-1,-1,-1,-1,-1,-1,-1,-1],"loss_changes":[9.847398E1,4.76258E1,6.24016E1,4.455761E1,2.7633291E1,0E0,3.368672E1,1.5781682E1,0E0,1.0919226E1,1.4701595E1,7.6893196E0,2.8627865E1,0E0,0E0,0E0,4.203734E0,0E0,7.4071617E0,6.1787605E0,6.9099674E0,1.710912E1,1.8964153E1,0E0,0E0,0E0,0E0,0E0,0E0,0E0,0E0,0E0,0E0,0E0,0E0],"parents":[2147483647,0,0,1,1,2,2,3,3,4,4,6,6,7,7,9,9,10,10,11,11,12,12,16,16,18,18,19,19,20,20,21,21,22,22],"right_children":[2,4,6,8,10,-1,12,14,-1,16,18,20,22,-1,-1,-1,24,-1,26,28,30,32,34,-1,-1,-1,-1,-1,-1,-1,-1,-1,-1,-1,-1],"split_conditions":[-8.660254E-1,1.9559562E0,7.5620085E-2,1.4083025E-4,1.6285383E0,5.4000642E-2,4.179053E3,-2.6190395E-3,7.929811E-2,-1.0457218E0,7.022E1,6.9531095E6,9.446283E-1,4.221385E-2,-3.4897688E-3,1.9232085E-2,9.573066E-1,-5.0796503E-3,-2.8187716E-1,-1.2604438E8,1.1967112E0,8.746864E2,8.0375516E-1,1.1792688E-3,-1.7080624E-2,1.8406997E-2,4.276989E-2,9.574096E-3,-1.0004884E-2,-1.3808108E-2,-4.4574536E-4,2.782006E-2,4.971819E-3,-3.2607352E-3,1.7467046E-2],"split_indices":[74,27,47,82,98,0,72,20,0,77,49,12,100,0,0,0,100,0,79,53,98,93,47,0,0,0,0,0,0,0,0,0,0,0,0],"split_type":[0,0,0,0,0,0,0,0,0,0,0,0,0,0,0,0,0,0,0,0,0,0,0,0,0,0,0,0,0,0,0,0,0,0,0],"sum_hessian":[6.34E2,7.5E1,5.59E2,2E1,5.5E1,7E0,5.52E2,1.1E1,9E0,2.6E1,2.9E1,3.18E2,2.34E2,5E0,6E0,6E0,2E1,5E0,2.4E1,2.11E2,1.07E2,5.3E1,1.81E2,8E0,1.2E1,1.2E1,1.2E1,6E0,2.05E2,1.8E1,8.9E1,2.4E1,2.9E1,1.62E2,1.9E1],"tree_param":{"num_deleted":"0","num_feature":"103","num_nodes":"35","size_leaf_vector":"1"}},{"base_weights":[1.7140412E-3,7.445615E-2,-3.1121751E-2,8.005986E-1,-1.4952785E-1,1.3863915E0,-2.0992735E-2,-4.0782285E-1,1.019243E-1,-1.077664E-2,1.8453625E0,9.354954E-1,-5.594249E-1,-7.8059894E-1,-3.4028324E-1,4.2751604E-1,-1.4727093E-1,4.313619E-2,-4.3106936E-3,7.3106997E-3,2.776089E-2,3.807346E-3,-1.6784983E-2,-5.596255E-3,-1.8116845E-2,-3.0096718E-3,-9.793524E-3,-5.964762E-3,1.3108422E-2,-4.823953E-3,1.6413897E-2],"categories":[],"categories_nodes":[],"categories_segments":[],"categories_sizes":[],"default_left":[0,0,0,0,0,0,0,0,0,0,0,0,0,0,0,0,0,0,0,0,0,0,0,0,0,0,0,0,0,0,0],"id":12,"left_children":[1,-1,3,5,7,9,11,13,15,-1,17,19,21,23,25,27,29,-1,-1,-1,-1,-1,-1,-1,-1,-1,-1,-1,-1,-1,-1],"loss_changes":[8.101715E1,0E0,6.4646904E1,3.946045E1,3.7381138E1,4.309793E1,1.8322004E1,6.876728E0,2.373984E1,0E0,2.5373154E1,2.8079863E0,4.9439254E0,2.4223652E0,6.7652206E0,2.1147343E1,1.5203566E1,0E0,0E0,0E0,0E0,0E0,0E0,0E0,0E0,0E0,0E0,0E0,0E0,0E0,0E0],"parents":[2147483647,0,0,2,2,3,3,4,4,5,5,6,6,7,7,8,8,10,10,11,11,12,12,13,13,14,14,15,15,16,16],"right_children":[2,-1,4,6,8,10,12,14,16,-1,18,20,22,24,26,28,30,-1,-1,-1,-1,-1,-1,-1,-1,-1,-1,-1,-1,-1,-1],"split_conditions":[7.5620085E-2,7.445615E-2,-8.660254E-1,9.676699E2,3.532842E3,1.639363E3,-2.3258601E-1,8.95534E5,6.484452E-3,-1.077664E-2,1.1716528E0,-9.097375E-1,-1.0486112E0,-4.0758304E-2,7.709513E9,6.0472953E-1,8.45963E-1,4.313619E-2,-4.3106936E-3,7.3106997E-3,2.776089E-2,3.807346E-3,-1.6784983E-2,-5.596255E-3,-1.8116845E-2,-3.0096718E-3,-9.793524E-3,-5.964762E-3,1.3108422E-2,-4.823953E-3,1.6413897E-2],"split_indices":[47,0,74,93,72,72,79,36,78,0,44,24,24,76,58,99,47,0,0,0,0,0,0,0,0,0,0,0,0,0,0],"split_type":[0,0,0,0,0,0,0,0,0,0,0,0,0,0,0,0,0,0,0,0,0,0,0,0,0,0,0,0,0,0,0],"sum_hessian":[6.6E2,5E0,6.55E2,8.1E1,5.74E2,4.7E1,3.4E1,2.83E2,2.91E2,9E0,3.8E1,1.2E1,2.2E1,4.2E1,2.41E2,1.26E2,1.65E2,3.3E1,5E0,6E0,6E0,6E0,1.6E1,9E0,3.3E1,1.07E2,1.34E2,3E1,9.6E1,1.51E2,1.4E1],"tree_param":{"num_deleted":"0","num_feature":"103","num_nodes":"31","size_leaf_vector":"1"}},{"base_weights":[-2.7858358E-2,-3.378427E-1,2.4338746E-1,1.0641782E-1,-4.7762465E-1,7.6748216E-1,-1.3526604E-1,1.38749E0,-2.4437931E-1,-5.469747E-1,6.359405E-1,5.6285545E-2,6.6242313E-1,7.108917E-1,-2.0690802E-1,5.013565E-2,-7.6297885E-3,-4.721262E-1,3.8176438E-1,6.4465622E-3,-6.259923E-1,-1.3487709E-4,2.6113473E-2,1.2119005E0,2.8962156E-1,1.221351E0,-6.581041E-3,3.3044273E-1,-3.293341E-1,-1.3115163E-2,1.0103511E-3,-1.351737E-3,1.7119594E-2,8.653926E-3,-8.948826E-3,-7.959344E-3,-1.4781408E-2,4.6052936E-2,8.919347E-3,1.5398764E-2,-4.6093175E-3,1.2849914E-2,3.2462467E-2,1.8047355E-2,3.6897957E-3,-7.5636134E-3,1.4987729E-2],"categories":[],"categories_nodes":[],"categories_segments":[],"categories_sizes":[],"default_left":[0,0,0,0,0,0,0,0,0,0,0,0,0,0,0,0,0,0,0,0,0,0,0,0,0,0,0,0,0,0,0,0,0,0,0,0,0,0,0,0,0,0,0,0,0,0,0],"id":13,"left_children":[1,3,5,7,9,11,13,15,17,19,21,-1,23,25,27,-1,-1,29,31,33,35,-1,-1,37,39,41,-1,43,45,-1,-1,-1,-1,-1,-1,-1,-1,-1,-1,-1,-1,-1,-1,-1,-1,-1,-1],"loss_changes":[5.4370632E1,1.880088E1,6.854033E1,3.3044476E1,1.8020329E1,2.947174E1,1.2265052E1,3.2155403E1,8.391122E0,9.51487E0,6.0118837E0,0E0,2.8076763E1,8.753538E0,1.23099985E1,0E0,0E0,4.1644554E0,3.4525113E0,5.5326023E0,4.6017685E0,0E0,0E0,4.565853E1,2.110273E1,1.5641747E0,0E0,2.7173746E0,8.2067795E0,0E0,0E0,0E0,0E0,0E0,0E0,0E0,0E0,0E0,0E0,0E0,0E0,0E0,0E0,0E0,0E0,0E0,0E0],"parents":[2147483647,0,0,1,1,2,2,3,3,4,4,5,5,6,6,7,7,8,8,9,9,10,10,12,12,13,13,14,14,17,17,18,18,19,19,20,20,23,23,24,24,25,25,27,27,28,28],"right_children":[2,4,6,8,10,12,14,16,18,20,22,-1,24,26,28,-1,-1,30,32,34,36,-1,-1,38,40,42,-1,44,46,-1,-1,-1,-1,-1,-1,-1,-1,-1,-1,-1,-1,-1,-1,-1,-1,-1,-1],"split_conditions":[3.34583E3,4.6167986E10,6.458271E-3,5.4461053E-3,1.9686766E0,1.1938866E6,-1.0062105E3,2.243625E-3,5.602348E-1,-2.7801986E7,5.4E-6,5.6285545E-2,2.0839212E6,1.5905083E-3,-1.5250609E0,5.013565E-2,-7.6297885E-3,2.5401132E6,9.132274E-1,-1.341E-4,7.138757E2,-1.3487709E-4,2.6113473E-2,2.0598295E-1,3.1743902E-1,-8.205E-4,-6.581041E-3,7.61E-4,1.0900691E-2,-1.3115163E-2,1.0103511E-3,-1.351737E-3,1.7119594E-2,8.653926E-3,-8.948826E-3,-7.959344E-3,-1.4781408E-2,4.6052936E-2,8.919347E-3,1.5398764E-2,-4.6093175E-3,1.2849914E-2,3.2462467E-2,1.8047355E-2,3.6897957E-3,-7.5636134E-3,1.4987729E-2],"split_indices":[72,54,78,78,98,36,91,20,11,1,23,0,40,84,24,0,0,36,7,23,93,0,0,77,79,23,0,25,89,0,0,0,0,0,0,0,0,0,0,0,0,0,0,0,0,0,0],"split_type":[0,0,0,0,0,0,0,0,0,0,0,0,0,0,0,0,0,0,0,0,0,0,0,0,0,0,0,0,0,0,0,0,0,0,0,0,0,0,0,0,0,0,0,0,0,0,0],"sum_hessian":[6.45E2,3.01E2,3.44E2,7.2E1,2.29E2,1.44E2,2E2,1.5E1,5.7E1,2.16E2,1.3E1,6E0,1.38E2,1.5E1,1.85E2,9E0,6E0,4.2E1,1.5E1,2.7E1,1.89E2,7E0,6E0,5.5E1,8.3E1,1E1,5E0,3.4E1,1.51E2,3.1E1,1.1E1,8E0,7E0,1.4E1,1.3E1,6.4E1,1.25E2,2.2E1,3.3E1,4.3E1,4E1,5E0,5E0,6E0,2.8E1,1.45E2,6E0],"tree_param":{"num_deleted":"0","num_feature":"103","num_nodes":"47","size_leaf_vector":"1"}},{"base_weights":[3.4428846E-2,6.1263952E-2,1.9646958E-3,8.3488077E-1,-1.06976025E-1,2.7017835E-1,1.759707E0,-4.1739276E-1,8.953862E-2,9.4158506E-1,-5.3204346E-1,1.2522265E0,7.006582E-2,2.0743608E-1,-4.8482126E-1,5.201228E-1,-5.4404184E-2,6.3047674E-3,5.294463E-2,1.8239368E-3,-1.449701E-2,3.294196E-2,2.4397613E-3,-3.7159945E-3,2.2081593E-2,-1.2614759E-2,-2.4358947E-3,6.983734E-3,3.995624E-2,-3.1614997E-3,1.3308096E-2],"categories":[],"categories_nodes":[],"categories_segments":[],"categories_sizes":[],"default_left":[0,0,0,0,0,0,0,0,0,0,0,0,0,0,0,0,0,0,0,0,0,0,0,0,0,0,0,0,0,0,0],"id":14,"left_children":[1,-1,3,5,7,9,11,13,15,17,19,21,-1,23,25,27,29,-1,-1,-1,-1,-1,-1,-1,-1,-1,-1,-1,-1,-1,-1],"loss_changes":[6.3046135E1,0E0,5.7890102E1,3.8060333E1,3.44389E1,2.5628529E1,2.085109E1,9.312641E0,2.1478436E1,2.674708E1,2.7041664E0,9.926422E0,0E0,7.8965387E0,1.0378712E1,2.1249414E1,1.9445885E1,0E0,0E0,0E0,0E0,0E0,0E0,0E0,0E0,0E0,0E0,0E0,0E0,0E0,0E0],"parents":[2147483647,0,0,2,2,3,3,4,4,5,5,6,6,7,7,8,8,9,9,10,10,11,11,13,13,14,14,15,15,16,16],"right_children":[2,-1,4,6,8,10,12,14,16,18,20,22,-1,24,26,28,30,-1,-1,-1,-1,-1,-1,-1,-1,-1,-1,-1,-1,-1,-1],"split_conditions":[5.481534E-2,6.1263952E-2,-8.660254E-1,1.688255E0,4.881284E-5,9.5632776E2,1E0,-1.4649309E8,9.446283E-1,1.9092615E-3,-1.2727554E0,1.9715607E0,7.006582E-2,5.0587393E-2,6.3E-4,5.635008E-1,7.429469E-1,6.3047674E-3,5.294463E-2,1.8239368E-3,-1.449701E-2,3.294196E-2,2.4397613E-3,-3.7159945E-3,2.2081593E-2,-1.2614759E-2,-2.4358947E-3,6.983734E-3,3.995624E-2,-3.1614997E-3,1.3308096E-2],"split_indices":[47,0,74,98,46,93,101,0,100,82,24,98,0,4,22,5,47,0,0,0,0,0,0,0,0,0,0,0,0,0,0],"split_type":[0,0,0,0,0,0,0,0,0,0,0,0,0,0,0,0,0,0,0,0,0,0,0,0,0,0,0,0,0,0,0],"sum_hessian":[6.42E2,6E0,6.36E2,7.3E1,5.63E2,4.6E1,2.7E1,2.18E2,3.45E2,2.5E1,2.1E1,2.2E1,5E0,2.1E1,1.97E2,8.6E1,2.59E2,1.9E1,6E0,5E0,1.6E1,1.6E1,6E0,1.5E1,6E0,1.4E2,5.7E1,7.8E1,8E0,2.27E2,3.2E1],"tree_param":{"num_deleted":"0","num_feature":"103","num_nodes":"31","size_leaf_vector":"1"}},{"base_weights":[-1.3811117E-2,-3.1015715E-1,2.6906094E-1,7.568418E-2,-4.3188787E-1,6.646674E-1,1.1549975E-1,1.0134366E0,-2.0362249E-1,6.776769E-2,-5.2848935E-1,1.4838419E0,2.9161254E-1,-5.150455E-1,2.2498041E-1,4.789506E-2,-5.4620616E-2,-4.568665E-1,4.1164392E-1,4.103721E-1,-3.2973182E-1,-5.6750417E-1,1.3109365E-2,6.090697E-1,6.2500134E-2,-2.7778602E-1,7.6046133E-1,6.419601E-3,-6.6072446E-1,5.6819594E-1,8.027883E-2,8.556987E-3,-1.0763547E-2,-3.0748704E-3,-1.5383206E-2,2.0073693E-2,-8.3607045E-4,1.3536127E-2,-4.992437E-3,8.356859E-3,-1.2568763E-2,-1.5702095E-2,-9.693549E-3,-7.435666E-3,2.6069956E-2,9.8288935E-3,-1.5028798E-2,-9.5163E-3,2.2634307E-2,-7.158367E-3,-1.9307142E-2,8.688376E-3,3.5364635E-2,-4.3628253E-3,7.819393E-3],"categories":[],"categories_nodes":[],"categories_segments":[],"categories_sizes":[],"default_left":[0,0,0,0,0,0,0,0,0,0,0,0,0,0,0,0,0,0,0,0,0,0,0,0,0,0,0,0,0,0,0,0,0,0,0,0,0,0,0,0,0,0,0,0,0,0,0,0,0,0,0,0,0,0,0],"id":15,"left_children":[1,3,5,7,9,11,13,15,17,19,21,23,25,27,29,-1,31,33,35,37,39,41,-1,43,-1,45,47,-1,49,51,53,-1,-1,-1,-1,-1,-1,-1,-1,-1,-1,-1,-1,-1,-1,-1,-1,-1,-1,-1,-1,-1,-1,-1,-1],"loss_changes":[5.454026E1,1.4970625E1,2.011711E1,2.0321072E1,1.1722763E1,2.7924469E1,1.6701225E1,2.6482433E1,9.4703045E0,5.5324492E0,9.660904E0,3.96372E1,1.7492256E1,4.5467806E0,1.0151903E1,0E0,2.7093809E0,3.9108467E0,4.8602357E0,3.9899364E0,4.418741E0,3.1790504E0,0E0,1.3920691E1,0E0,1.1166037E1,1.6894804E1,0E0,2.4985552E0,9.036015E0,1.3594918E1,0E0,0E0,0E0,0E0,0E0,0E0,0E0,0E0,0E0,0E0,0E0,0E0,0E0,0E0,0E0,0E0,0E0,0E0,0E0,0E0,0E0,0E0,0E0,0E0],"parents":[2147483647,0,0,1,1,2,2,3,3,4,4,5,5,6,6,7,7,8,8,9,9,10,10,11,11,12,12,13,13,14,14,16,16,17,17,18,18,19,19,20,20,21,21,23,23,25,25,26,26,28,28,29,29,30,30],"right_children":[2,4,6,8,10,12,14,16,18,20,22,24,26,28,30,-1,32,34,36,38,40,42,-1,44,-1,46,48,-1,50,52,54,-1,-1,-1,-1,-1,-1,-1,-1,-1,-1,-1,-1,-1,-1,-1,-1,-1,-1,-1,-1,-1,-1,-1,-1],"split_conditions":[3.363965E3,4.6167986E10,4.7269057E10,0E0,-9.174211E7,6.712E1,6.755E1,-1.294899E-3,1.1206481E0,1.3466932E-1,1.9686766E0,1.864426E0,5.25018E9,1.1743702E-1,-6.8434834E-2,4.789506E-2,2.8049199E-2,2.5881904E-1,-5.9262633E-1,7.37104E-1,-1.6758897E0,-5.43E-4,1.3109365E-2,8.813474E-1,6.2500134E-2,4.656096E3,6.537E1,6.419601E-3,9.600409E-4,9.110778E9,1.157E-3,8.556987E-3,-1.0763547E-2,-3.0748704E-3,-1.5383206E-2,2.0073693E-2,-8.3607045E-4,1.3536127E-2,-4.992437E-3,8.356859E-3,-1.2568763E-2,-1.5702095E-2,-9.693549E-3,-7.435666E-3,2.6069956E-2,9.8288935E-3,-1.5028798E-2,-9.5163E-3,2.2634307E-2,-7.158367E-3,-1.9307142E-2,8.688376E-3,3.5364635E-2,-4.3628253E-3,7.819393E-3],"split_indices":[72,54,54,102,0,49,26,87,28,57,98,98,58,57,51,0,73,75,42,97,77,22,0,51,0,72,26,0,45,58,25,0,0,0,0,0,0,0,0,0,0,0,0,0,0,0,0,0,0,0,0,0,0,0,0],"split_type":[0,0,0,0,0,0,0,0,0,0,0,0,0,0,0,0,0,0,0,0,0,0,0,0,0,0,0,0,0,0,0,0,0,0,0,0,0,0,0,0,0,0,0,0,0,0,0,0,0,0,0,0,0,0,0],"sum_hessian":[6.49E2,3.17E2,3.32E2,7.6E1,2.41E2,9.2E1,2.4E2,1.7E1,5.9E1,3.9E1,2.02E2,2.8E1,6.4E1,3.5E1,2.05E2,7E0,1E1,4.2E1,1.7E1,2.1E1,1.8E1,1.96E2,6E0,1.9E1,9E0,2.9E1,3.5E1,5E0,3E1,6E1,1.45E2,5E0,5E0,2.2E1,2E1,7E0,1E1,1.5E1,6E0,5E0,1.3E1,5.2E1,1.44E2,8E0,1.1E1,1.1E1,1.8E1,8E0,2.7E1,1.6E1,1.4E1,5.5E1,5E0,7.4E1,7.1E1],"tree_param":{"num_deleted":"0","num_feature":"103","num_nodes":"55","size_leaf_vector":"1"}},{"base_weights":[2.273276E-2,8.9910424E-1,-9.722714E-2,1.935187E0,3.3736598E-1,-3.0133745E-1,2.3244339E-1,2.6627347E0,-1.0211387E-2,-2.4187192E-1,1.5241271E0,9.649537E-2,-3.7838638E-1,7.7680415E-1,-1.8189974E-2,8.2885295E-2,1.4738556E0,-5.1260847E-1,1.8517587E-2,1.2209475E-2,1.9818624E0,2.402098E-2,-2.770554E-2,-4.1111654E-1,1.4043174E-2,1.1590502E0,-4.3580243E-1,1.8430227E-1,-5.3641057E-1,1.4845798E-2,4.4915486E-2,-1.38812205E-2,2.974906E-3,4.8752103E-2,2.4882771E-2,-9.284919E-3,3.89565E-3,-9.709352E-3,4.6288293E-5,9.828531E-3,3.6293462E-2,-1.3507631E-3,-1.3764659E-2,9.960747E-3,-4.507347E-3,3.8253382E-4,-1.5788825E-2],"categories":[],"categories_nodes":[],"categories_segments":[],"categories_sizes":[],"default_left":[0,0,0,0,0,0,0,0,0,0,0,0,0,0,0,0,0,0,0,0,0,0,0,0,0,0,0,0,0,0,0,0,0,0,0,0,0,0,0,0,0,0,0,0,0,0,0],"id":16,"left_children":[1,3,5,7,9,11,13,15,-1,17,19,21,23,25,27,-1,29,31,-1,-1,33,-1,35,37,-1,39,41,43,45,-1,-1,-1,-1,-1,-1,-1,-1,-1,-1,-1,-1,-1,-1,-1,-1,-1,-1],"loss_changes":[6.705645E1,4.406225E1,3.7795235E1,4.8883247E1,3.5279816E1,1.0673628E1,2.9355465E1,3.1468948E1,0E0,1.136115E1,5.9284286E0,7.8774843E0,1.0500931E1,3.186652E1,1.5606183E1,0E0,5.745262E0,3.565981E0,0E0,0E0,1.0208282E0,0E0,5.116891E0,8.718056E0,0E0,2.184462E1,1.4867728E0,1.3830191E1,5.926338E0,0E0,0E0,0E0,0E0,0E0,0E0,0E0,0E0,0E0,0E0,0E0,0E0,0E0,0E0,0E0,0E0,0E0,0E0],"parents":[2147483647,0,0,1,1,2,2,3,3,4,4,5,5,6,6,7,7,9,9,10,10,11,11,12,12,13,13,14,14,16,16,17,17,20,20,22,22,23,23,25,25,26,26,27,27,28,28],"right_children":[2,4,6,8,10,12,14,16,-1,18,20,22,24,26,28,-1,30,32,-1,-1,34,-1,36,38,-1,40,42,44,46,-1,-1,-1,-1,-1,-1,-1,-1,-1,-1,-1,-1,-1,-1,-1,-1,-1,-1],"split_conditions":[-8.660254E-1,4.71783E10,4.894108E3,6.218212E-1,1.7287753E0,5.451061E9,1.8531595E-1,2.8993452E-1,-1.0211387E-2,1.01128725E6,2.818791E3,-4.3388373E-1,1.9875944E0,1.90803E0,1.8598478E-3,8.2885295E-2,3.5353225E-1,1.6093264E6,1.8517587E-2,1.2209475E-2,3.1044332E-5,2.402098E-2,-4.1752812E7,1.2643286E-3,1.4043174E-2,3.795439E-1,-1.2679791E-1,5.257E-3,-4.4971574E-3,1.4845798E-2,4.4915486E-2,-1.38812205E-2,2.974906E-3,4.8752103E-2,2.4882771E-2,-9.284919E-3,3.89565E-3,-9.709352E-3,4.6288293E-5,9.828531E-3,3.6293462E-2,-1.3507631E-3,-1.3764659E-2,9.960747E-3,-4.507347E-3,3.8253382E-4,-1.5788825E-2],"split_indices":[74,54,72,11,98,58,79,47,0,39,15,102,98,98,89,0,73,9,0,0,81,0,0,45,0,51,90,21,84,0,0,0,0,0,0,0,0,0,0,0,0,0,0,0,0,0,0],"split_type":[0,0,0,0,0,0,0,0,0,0,0,0,0,0,0,0,0,0,0,0,0,0,0,0,0,0,0,0,0,0,0,0,0,0,0,0,0,0,0,0,0,0,0,0,0,0,0],"sum_hessian":[6.36E2,7.6E1,5.6E2,2.6E1,5E1,3.46E2,2.14E2,2E1,6E0,3.4E1,1.6E1,5.6E1,2.9E2,6.7E1,1.47E2,8E0,1.2E1,2.8E1,6E0,6E0,1E1,5E0,5.1E1,2.82E2,8E0,5.1E1,1.6E1,1.06E2,4.1E1,7E0,5E0,2.2E1,6E0,5E0,5E0,1.7E1,3.4E1,2.39E2,4.3E1,2.6E1,2.5E1,7E0,9E0,6E1,4.6E1,1.3E1,2.8E1],"tree_param":{"num_deleted":"0","num_feature":"103","num_nodes":"47","size_leaf_vector":"1"}},{"base_weights":[4.8556194E-2,9.4667125E-1,-7.809355E-2,1.5870034E0,3.6171786E-2,4.2509153E-2,-1.0483824E-1,3.479547E-2,2.1200109E0,1.0587819E0,-4.9215E-1,3.621391E-1,-2.0344782E-1,-9.050922E-3,1.3880143E-2,2.6677642E0,8.672533E-1,9.168022E-3,2.8779117E-2,6.2848995E-3,-7.355978E-1,9.8593056E-2,1.0926213E0,-2.5344473E-1,6.4931977E-1,7.945852E-2,3.311907E-2,3.38836E-2,-4.2649517E-3,-1.7148146E-2,-8.606571E-3,2.142323E-2,-3.427008E-4,3.8560245E-2,7.2825453E-3,-8.995664E-4,-8.0566E-3,-9.749605E-4,3.254198E-2],"categories":[],"categories_nodes":[],"categories_segments":[],"categories_sizes":[],"default_left":[0,0,0,0,0,0,0,0,0,0,0,0,0,0,0,0,0,0,0,0,0,0,0,0,0,0,0,0,0,0,0,0,0,0,0,0,0,0,0],"id":17,"left_children":[1,3,5,7,9,-1,11,13,15,17,19,21,23,-1,-1,25,27,-1,-1,-1,29,31,33,35,37,-1,-1,-1,-1,-1,-1,-1,-1,-1,-1,-1,-1,-1,-1],"loss_changes":[7.344602E1,4.639808E1,3.3421684E1,3.8552696E1,1.8706226E1,0E0,2.5828922E1,4.375473E0,2.1852188E1,2.070776E0,4.6819777E0,1.8682297E1,1.9843681E1,0E0,0E0,2.5885101E1,1.0906313E1,0E0,0E0,0E0,3.0232716E-1,8.261279E0,1.5025055E1,1.3596998E1,1.775232E1,0E0,0E0,0E0,0E0,0E0,0E0,0E0,0E0,0E0,0E0,0E0,0E0,0E0,0E0],"parents":[2147483647,0,0,1,1,2,2,3,3,4,4,6,6,7,7,8,8,9,9,10,10,11,11,12,12,15,15,16,16,20,20,21,21,22,22,23,23,24,24],"right_children":[2,4,6,8,10,-1,12,14,16,18,20,22,24,-1,-1,26,28,-1,-1,-1,30,32,34,36,38,-1,-1,-1,-1,-1,-1,-1,-1,-1,-1,-1,-1,-1,-1],"split_conditions":[-8.660254E-1,9.676699E2,5.481534E-2,-3.6366367E-1,-2.3258601E-1,4.2509153E-2,8.7721235E-1,2.3478405E0,1.8016088E0,-9.097375E-1,-1.4199194E0,5.799664E-1,8.0375516E-1,-9.050922E-3,1.3880143E-2,3.4104523E-1,6.234898E-1,9.168022E-3,2.8779117E-2,6.2848995E-3,1.2040727E-3,-7.851787E-3,1.0356327E-1,2.083E-3,1.6504195E0,7.945852E-2,3.311907E-2,3.38836E-2,-4.2649517E-3,-1.7148146E-2,-8.606571E-3,2.142323E-2,-3.427008E-4,3.8560245E-2,7.2825453E-3,-8.995664E-4,-8.0566E-3,-9.749605E-4,3.254198E-2],"split_indices":[74,93,47,16,79,0,100,50,79,24,24,65,47,0,0,47,101,0,0,0,80,85,79,21,98,0,0,0,0,0,0,0,0,0,0,0,0,0,0],"split_type":[0,0,0,0,0,0,0,0,0,0,0,0,0,0,0,0,0,0,0,0,0,0,0,0,0,0,0,0,0,0,0,0,0,0,0,0,0,0,0],"sum_hessian":[6.44E2,7.9E1,5.65E2,4.6E1,3.3E1,6E0,5.59E2,1.2E1,3.4E1,1.1E1,2.2E1,9.7E1,4.62E2,7E0,5E0,2.3E1,1.1E1,5E0,6E0,5E0,1.7E1,7.2E1,2.5E1,4.37E2,2.5E1,9E0,1.4E1,6E0,5E0,1.1E1,6E0,7E0,6.5E1,1.1E1,1.4E1,1.83E2,2.54E2,1.5E1,1E1],"tree_param":{"num_deleted":"0","num_feature":"103","num_nodes":"39","size_leaf_vector":"1"}},{"base_weights":[3.3581278E-3,5.8170833E-2,-2.6739512E-2,7.4498403E-1,-1.2918764E-1,3.523244E-1,1.9387287E0,-3.5872862E-1,9.89581E-2,3.6568012E-2,1.2365155E-1,7.610934E-2,1.0381444E0,-2.2902435E-1,-6.3899535E-1,5.3872615E-1,-3.697192E-2,9.384437E-3,-1.2313087E-2,2.7174342E-3,3.8872328E-2,2.1480596E-2,-5.3466884E-3,5.637054E-4,-1.4086669E-2,1.701156E-2,-6.484049E-3,1.723625E-3,-8.714811E-3],"categories":[],"categories_nodes":[],"categories_segments":[],"categories_sizes":[],"default_left":[0,0,0,0,0,0,0,0,0,0,0,0,0,0,0,0,0,0,0,0,0,0,0,0,0,0,0,0,0],"id":18,"left_children":[1,-1,3,5,7,9,11,13,15,-1,17,-1,19,21,23,25,27,-1,-1,-1,-1,-1,-1,-1,-1,-1,-1,-1,-1],"loss_changes":[5.7986103E1,0E0,5.181576E1,3.5337875E1,3.0352448E1,1.9568798E1,2.8203041E1,1.0337917E1,1.742437E1,0E0,1.3457759E1,0E0,1.0959121E1,1.0113484E1,4.0078735E0,1.8761415E1,1.0989144E1,0E0,0E0,0E0,0E0,0E0,0E0,0E0,0E0,0E0,0E0,0E0,0E0],"parents":[2147483647,0,0,2,2,3,3,4,4,5,5,6,6,7,7,8,8,10,10,12,12,13,13,14,14,15,15,16,16],"right_children":[2,-1,4,6,8,10,12,14,16,-1,18,-1,20,22,24,26,28,-1,-1,-1,-1,-1,-1,-1,-1,-1,-1,-1,-1],"split_conditions":[5.481534E-2,5.8170833E-2,-8.660254E-1,5.144781E-1,3.532842E3,-1.3302379E0,1.3534063E-3,1.3466932E-1,9.446283E-1,3.6568012E-2,7.8536874E-1,7.610934E-2,3.028933E3,5.9334785E-1,5.3806547E10,6.6061066E-3,6.2225842E0,9.384437E-3,-1.2313087E-2,2.7174342E-3,3.8872328E-2,2.1480596E-2,-5.3466884E-3,5.637054E-4,-1.4086669E-2,1.701156E-2,-6.484049E-3,1.723625E-3,-8.714811E-3],"split_indices":[47,0,74,60,72,10,20,57,100,0,28,0,72,100,54,78,99,0,0,0,0,0,0,0,0,0,0,0,0],"split_type":[0,0,0,0,0,0,0,0,0,0,0,0,0,0,0,0,0,0,0,0,0,0,0,0,0,0,0,0,0],"sum_hessian":[6.6E2,6E0,6.54E2,7.6E1,5.78E2,5.8E1,1.8E1,2.88E2,2.9E2,7E0,5.1E1,5E0,1.3E1,1.98E2,9E1,6.8E1,2.22E2,3.5E1,1.6E1,7E0,6E0,5E0,1.93E2,8E0,8.2E1,5E1,1.8E1,1.7E2,5.2E1],"tree_param":{"num_deleted":"0","num_feature":"103","num_nodes":"29","size_leaf_vector":"1"}},{"base_weights":[2.1802856E-2,7.4232034E-2,-1.1911684E-2,3.5854355E-1,-1.5959519E-1,6.9339067E-1,-1.4514059E-1,-3.899394E-1,2.2953235E-2,1.6186024E0,3.8662273E-1,-3.2861218E-1,9.278344E-1,1.8310117E-2,-4.2727152E-1,3.2011318E-1,-1.3057385E-1,4.0947028E-2,2.1871617E-3,-5.2682147E-3,1.7844392E-2,9.032508E-3,-1.2544008E-2,1.0257635E-2,2.4123782E-2,-1.612096E-2,-6.4492193E-3,1.5794579E-2,6.688738E-4,9.182528E-3,-4.6379175E-3],"categories":[],"categories_nodes":[],"categories_segments":[],"categories_sizes":[],"default_left":[0,0,0,0,0,0,0,0,0,0,0,0,0,0,0,0,0,0,0,0,0,0,0,0,0,0,0,0,0,0,0],"id":19,"left_children":[1,-1,3,5,7,9,11,13,15,17,19,21,23,-1,25,27,29,-1,-1,-1,-1,-1,-1,-1,-1,-1,-1,-1,-1,-1,-1],"loss_changes":[7.968698E1,0E0,3.471111E1,3.0601141E1,1.910733E1,3.0279305E1,1.4545398E1,1.0074522E1,1.1621804E1,1.7054985E1,2.7432081E1,1.4865889E1,6.66584E-1,0E0,7.508854E0,1.1623123E1,1.0099801E1,0E0,0E0,0E0,0E0,0E0,0E0,0E0,0E0,0E0,0E0,0E0,0E0,0E0,0E0],"parents":[2147483647,0,0,2,2,3,3,4,4,5,5,6,6,7,7,8,8,9,9,10,10,11,11,12,12,14,14,15,15,16,16],"right_children":[2,-1,4,6,8,10,12,14,16,18,20,22,24,-1,26,28,30,-1,-1,-1,-1,-1,-1,-1,-1,-1,-1,-1,-1,-1,-1],"split_conditions":[5.481534E-2,7.4232034E-2,-5E-1,6.458271E-3,8.0430175E5,5.705319E9,3.1339734E8,-1.9670548E0,6.388295E-3,1.28799E7,6.864E1,-3.061E-3,2.8593185E6,1.8310117E-2,1.1187972E6,-2.6045862E7,-1.3351767E-2,4.0947028E-2,2.1871617E-3,-5.2682147E-3,1.7844392E-2,9.032508E-3,-1.2544008E-2,1.0257635E-2,2.4123782E-2,-1.612096E-2,-6.4492193E-3,1.5794579E-2,6.688738E-4,9.182528E-3,-4.6379175E-3],"split_indices":[47,0,74,78,39,58,0,51,78,63,26,21,39,0,36,61,84,0,0,0,0,0,0,0,0,0,0,0,0,0,0],"split_type":[0,0,0,0,0,0,0,0,0,0,0,0,0,0,0,0,0,0,0,0,0,0,0,0,0,0,0,0,0,0,0],"sum_hessian":[6.38E2,5E0,6.33E2,1.8E2,4.53E2,1.08E2,7.2E1,2E2,2.53E2,2.6E1,8.2E1,6.2E1,1E1,5E0,1.95E2,8.6E1,1.67E2,2E1,6E0,3.6E1,4.6E1,1.7E1,4.5E1,5E0,5E0,4.1E1,1.54E2,3.2E1,5.4E1,2.4E1,1.43E2],"tree_param":{"num_deleted":"0","num_feature":"103","num_nodes":"31","size_leaf_vector":"1"}},{"base_weights":[1.4182367E-2,4.919449E-2,-1.4713464E-2,6.450382E-1,-9.662919E-2,1.6830884E0,1.3757582E-1,3.2502208E-2,-4.8418924E-1,8.750966E-1,8.122651E-2,-3.98835E-1,9.689593E-1,-1.414788E-1,3.3945996E-1,-5.9277767E-1,-5.8199685E-2,-3.327152E-3,3.326993E-2,-1.1887169E-2,7.076392E-3,3.3188563E-2,1.1378669E-2,-5.736688E-3,6.399206E-3,-2.9789736E-3,1.1532503E-2,-3.4837162E-3,-1.539134E-2,-1.1766835E-2,8.172509E-3],"categories":[],"categories_nodes":[],"categories_segments":[],"categories_sizes":[],"default_left":[0,0,0,0,0,0,0,0,0,0,0,0,0,0,0,0,0,0,0,0,0,0,0,0,0,0,0,0,0,0,0],"id":20,"left_children":[1,-1,3,5,7,9,11,13,15,17,-1,19,21,23,25,27,29,-1,-1,-1,-1,-1,-1,-1,-1,-1,-1,-1,-1,-1,-1],"loss_changes":[4.7200607E1,0E0,3.5626656E1,3.8072685E1,2.9402271E1,4.264392E1,2.254663E1,2.3589163E1,6.7304535E0,1.5732593E1,0E0,4.7128434E0,4.602165E0,1.8972866E1,1.8600292E1,8.489075E0,7.823812E0,0E0,0E0,0E0,0E0,0E0,0E0,0E0,0E0,0E0,0E0,0E0,0E0,0E0,0E0],"parents":[2147483647,0,0,2,2,3,3,4,4,5,5,6,6,7,7,8,8,9,9,11,11,12,12,13,13,14,14,15,15,16,16],"right_children":[2,-1,4,6,8,10,12,14,16,18,-1,20,22,24,26,28,30,-1,-1,-1,-1,-1,-1,-1,-1,-1,-1,-1,-1,-1,-1],"split_conditions":[5.481534E-2,4.919449E-2,-8.660254E-1,5.8495805E9,7.065606E0,3.154E1,7.189E1,4.922258E3,9.878945E-2,5.2792494E9,8.122651E-2,1E0,-2.85949E8,2.2399733E0,7.2948366E-1,5.4764426E9,1.324E-3,-3.327152E-3,3.326993E-2,-1.1887169E-2,7.076392E-3,3.3188563E-2,1.1378669E-2,-5.736688E-3,6.399206E-3,-2.9789736E-3,1.1532503E-2,-3.4837162E-3,-1.539134E-2,-1.1766835E-2,8.172509E-3],"split_indices":[47,0,74,58,99,52,26,72,42,58,0,101,55,79,99,58,25,0,0,0,0,0,0,0,0,0,0,0,0,0,0],"split_type":[0,0,0,0,0,0,0,0,0,0,0,0,0,0,0,0,0,0,0,0,0,0,0,0,0,0,0,0,0,0,0],"sum_hessian":[6.65E2,7E0,6.58E2,7.2E1,5.86E2,2.3E1,4.9E1,4.4E2,1.46E2,1.8E1,5E0,3E1,1.9E1,2.81E2,1.59E2,1.16E2,3E1,8E0,1E1,2.4E1,6E0,6E0,1.3E1,2.14E2,6.7E1,5.2E1,1.07E2,3.5E1,8.1E1,1.4E1,1.6E1],"tree_param":{"num_deleted":"0","num_feature":"103","num_nodes":"31","size_leaf_vector":"1"}},{"base_weights":[1.0382351E-3,4.5639014E-1,-1.4030488E-1,7.124285E-1,-3.9264652E-1,2.4164407E-1,-3.134196E-1,1.7803785E-1,1.2029098E0,3.7456094E-4,-5.2816284E-1,5.6493215E-2,1.2433294E-1,-6.436325E-1,-1.721744E-1,-8.951216E-2,1.1490465E0,1.5704086E0,5.008801E-1,-6.8123186E-1,-2.60122E-3,-5.7479423E-2,9.04156E-1,-1.181437E-1,-6.9811404E-1,-1.0137521E-2,-5.0648487E-1,5.4369154E-3,-1.2838646E-2,3.816393E-2,9.205782E-3,3.963003E-2,1.2952074E-2,1.6559029E-2,-1.7809424E-3,-1.555692E-2,-6.6423067E-3,-9.320471E-3,4.857964E-3,4.5018725E-2,-5.296105E-4,9.8409755E-3,-1.44132245E-2,-1.0991051E-2,-1.7921684E-2,1.6392093E-2,-1.9470232E-3,-1.1701555E-2,1.136664E-2],"categories":[],"categories_nodes":[],"categories_segments":[],"categories_sizes":[],"default_left":[0,0,0,0,0,0,0,0,0,0,0,0,0,0,0,0,0,0,0,0,0,0,0,0,0,0,0,0,0,0,0,0,0,0,0,0,0,0,0,0,0,0,0,0,0,0,0,0,0],"id":21,"left_children":[1,3,5,7,9,11,13,15,17,-1,19,-1,21,23,25,27,29,31,33,35,-1,37,39,41,43,45,47,-1,-1,-1,-1,-1,-1,-1,-1,-1,-1,-1,-1,-1,-1,-1,-1,-1,-1,-1,-1,-1,-1],"loss_changes":[4.2596684E1,3.4325893E1,3.344205E1,3.1422348E1,2.08491E0,4.738761E1,1.6092289E1,1.541111E1,1.5469261E1,0E0,1.5826049E0,0E0,2.160634E1,2.8649406E0,1.3231026E1,9.500392E0,5.8716564E0,1.4319786E1,4.4951468E0,4.056797E-1,0E0,1.5294143E1,3.6255753E1,4.2657485E0,2.292492E0,1.2025808E1,7.0077972E0,0E0,0E0,0E0,0E0,0E0,0E0,0E0,0E0,0E0,0E0,0E0,0E0,0E0,0E0,0E0,0E0,0E0,0E0,0E0,0E0,0E0,0E0],"parents":[2147483647,0,0,1,1,2,2,3,3,4,4,5,5,6,6,7,7,8,8,10,10,12,12,13,13,14,14,15,15,16,16,17,17,18,18,19,19,21,21,22,22,23,23,24,24,25,25,26,26],"right_children":[2,4,6,8,10,12,14,16,18,-1,20,-1,22,24,26,28,30,32,34,36,-1,38,40,42,44,46,48,-1,-1,-1,-1,-1,-1,-1,-1,-1,-1,-1,-1,-1,-1,-1,-1,-1,-1,-1,-1,-1,-1],"split_conditions":[9.446283E-1,6.6061066E-3,6.8180675E9,3.19839E3,-3.587668E7,5.859824E2,5.927294E4,1.6523818E6,8.746864E2,3.7456094E-4,1.305519E0,5.6493215E-2,2.31649E-1,-2.9178852E7,2.746E1,3.591681E5,8.9523306E5,8.653134E-1,3.5622127E-2,-2.8933057E-1,-2.60122E-3,2.5401132E6,-2.900832E-3,1.0489614E3,4.419104E-3,-1.1697363E0,1.1723253E4,5.4369154E-3,-1.2838646E-2,3.816393E-2,9.205782E-3,3.963003E-2,1.2952074E-2,1.6559029E-2,-1.7809424E-3,-1.555692E-2,-6.6423067E-3,-9.320471E-3,4.857964E-3,4.5018725E-2,-5.296105E-4,9.8409755E-3,-1.44132245E-2,-1.0991051E-2,-1.7921684E-2,1.6392093E-2,-1.9470232E-3,-1.1701555E-2,1.136664E-2],"split_indices":[100,78,58,72,8,93,34,40,93,0,79,0,3,1,52,39,39,77,17,16,0,36,86,93,59,33,72,0,0,0,0,0,0,0,0,0,0,0,0,0,0,0,0,0,0,0,0,0,0],"split_type":[0,0,0,0,0,0,0,0,0,0,0,0,0,0,0,0,0,0,0,0,0,0,0,0,0,0,0,0,0,0,0,0,0,0,0,0,0,0,0,0,0,0,0,0,0,0,0,0,0],"sum_hessian":[6.6E2,1.56E2,5.04E2,1.2E2,3.6E1,1.57E2,3.47E2,5.8E1,6.2E1,9E0,2.7E1,6E0,1.51E2,1.03E2,2.44E2,4.6E1,1.2E1,4E1,2.2E1,1.9E1,8E0,1.23E2,2.8E1,1E1,9.3E1,1.65E2,7.9E1,2.8E1,1.8E1,5E0,7E0,2.7E1,1.3E1,1.4E1,8E0,1.4E1,5E0,5.2E1,7.1E1,1.1E1,1.7E1,5E0,5E0,5.5E1,3.8E1,1.5E1,1.5E2,7.4E1,5E0],"tree_param":{"num_deleted":"0","num_feature":"103","num_nodes":"49","size_leaf_vector":"1"}},{"base_weights":[1.8098293E-2,5.338007E-2,-1.006488E-2,4.3725723E-1,-1.15367666E-1,2.5090358E-1,1.5119796E0,-2.6775688E-2,-5.605928E-1,1.2962759E-1,2.8217085E-2,2.1849098E0,-3.4607155E-3,-2.1754651E-1,2.0050025E-1,-6.706059E-1,4.8641443E-2,2.2020383E-2,-6.5839145E-4,1.821413E-2,6.3894235E-2,-5.3321505E-3,1.639354E-2,1.4441292E-3,1.4813837E-2,-5.0639594E-3,-1.531387E-2,1.2036647E-2,-8.644123E-3],"categories":[],"categories_nodes":[],"categories_segments":[],"categories_sizes":[],"default_left":[0,0,0,0,0,0,0,0,0,0,0,0,0,0,0,0,0,0,0,0,0,0,0,0,0,0,0,0,0],"id":22,"left_children":[1,-1,3,5,7,9,11,13,15,17,-1,19,-1,21,23,25,27,-1,-1,-1,-1,-1,-1,-1,-1,-1,-1,-1,-1],"loss_changes":[4.8293854E1,0E0,3.0114464E1,2.4002285E1,2.03824E1,1.4519318E1,2.0586422E1,1.8800922E1,5.8078346E0,1.5208926E1,0E0,1.3936832E1,0E0,1.2146384E1,1.3624746E1,2.6834145E0,3.8873806E0,0E0,0E0,0E0,0E0,0E0,0E0,0E0,0E0,0E0,0E0,0E0,0E0],"parents":[2147483647,0,0,2,2,3,3,4,4,5,5,6,6,7,7,8,8,9,9,11,11,13,13,14,14,15,15,16,16],"right_children":[2,-1,4,6,8,10,12,14,16,18,-1,20,-1,22,24,26,28,-1,-1,-1,-1,-1,-1,-1,-1,-1,-1,-1,-1],"split_conditions":[7.5620085E-2,5.338007E-2,8.7721235E-1,9.5598245E-1,8.373794E0,7.590613E6,2.2874113E-4,3.753893E3,1.0723231E7,-1.260466E0,2.8217085E-2,7.157552E-4,-3.4607155E-3,1.9875944E0,-1.18328E2,-4.7771507E-3,8.190082E9,2.2020383E-2,-6.5839145E-4,1.821413E-2,6.3894235E-2,-5.3321505E-3,1.639354E-2,1.4441292E-3,1.4813837E-2,-5.0639594E-3,-1.531387E-2,1.2036647E-2,-8.644123E-3],"split_indices":[47,0,100,13,99,36,46,72,35,51,0,45,0,98,91,85,58,0,0,0,0,0,0,0,0,0,0,0,0],"split_type":[0,0,0,0,0,0,0,0,0,0,0,0,0,0,0,0,0,0,0,0,0,0,0,0,0,0,0,0,0],"sum_hessian":[6.44E2,6E0,6.38E2,1.21E2,5.17E2,1.04E2,1.7E1,4.32E2,8.5E1,9.5E1,9E0,1.2E1,5E0,2.35E2,1.97E2,7.2E1,1.3E1,1.3E1,8.2E1,6E0,6E0,2.25E2,1E1,1.6E2,3.7E1,1.4E1,5.8E1,6E0,7E0],"tree_param":{"num_deleted":"0","num_feature":"103","num_nodes":"29","size_leaf_vector":"1"}},{"base_weights":[4.131641E-3,1.9255592E0,-2.734407E-2,1.577121E-3,6.9960944E-2,5.05305E-2,-5.007778E-2,-2.8708977E-1,1.7976102E-1,2.3899777E-2,-3.1843385E-1,6.075036E-1,2.7922694E-2,-8.22265E-4,-8.274986E-3,2.5826411E-2,-5.222217E-4,8.007651E-3,-1.9837462E-3],"categories":[],"categories_nodes":[],"categories_segments":[],"categories_sizes":[],"default_left":[0,0,0,0,0,0,0,0,0,0,0,0,0,0,0,0,0,0,0],"id":23,"left_children":[1,3,5,-1,-1,-1,7,9,11,-1,13,15,17,-1,-1,-1,-1,-1,-1],"loss_changes":[4.052444E1,3.0962795E1,3.8168552E1,0E0,0E0,0E0,3.560764E1,1.5209618E1,2.150431E1,0E0,8.3111725E0,3.769863E1,1.1683831E1,0E0,0E0,0E0,0E0,0E0,0E0],"parents":[2147483647,0,0,1,1,2,2,6,6,7,7,8,8,10,10,11,11,12,12],"right_children":[2,4,6,-1,-1,-1,8,10,12,-1,14,16,18,-1,-1,-1,-1,-1,-1],"split_conditions":[4.32448E10,-2.3177208E-3,5.481534E-2,1.577121E-3,6.9960944E-2,5.05305E-2,3.427728E3,-1.8625829E0,9.446283E-1,2.3899777E-2,9.615142E-1,8.746864E2,-4.7144275E-3,-8.22265E-4,-8.274986E-3,2.5826411E-2,-5.222217E-4,8.007651E-3,-1.9837462E-3],"split_indices":[54,20,47,0,0,0,72,51,100,0,100,93,20,0,0,0,0,0,0],"split_type":[0,0,0,0,0,0,0,0,0,0,0,0,0,0,0,0,0,0,0],"sum_hessian":[6.67E2,1E1,6.57E2,5E0,5E0,5E0,6.52E2,3.21E2,3.31E2,6E0,3.15E2,8.6E1,2.45E2,8.1E1,2.34E2,4.1E1,4.5E1,6.2E1,1.83E2],"tree_param":{"num_deleted":"0","num_feature":"103","num_nodes":"19","size_leaf_vector":"1"}},{"base_weights":[1.8712383E-2,6.983817E-1,-7.472846E-2,1.2336996E0,5.924287E-2,-3.017158E-1,1.7734866E-1,1.9157314E0,1.8688044E-1,-5.125037E-1,7.672746E-1,-6.489242E-2,-5.0329155E-1,2.6097375E-1,-4.368335E-1,7.541493E-2,1.3223817E0,2.299727E-2,-2.57245E-1,-1.6065161E-3,-6.799906E-1,-8.404806E-4,2.2345683E-2,5.730525E-1,-1.6944039E-1,-2.57744E-1,-6.680637E-1,-2.6336157E-1,3.8343668E-1,-5.9164804E-1,7.1368166E-3,5.0668374E-2,1.6154064E-2,2.61117E-3,-1.0512757E-2,-1.6905822E-2,-5.965546E-3,8.0712285E-4,3.689369E-2,1.9678008E-2,-4.7402303E-3,6.558938E-3,-7.833948E-3,-1.4312111E-2,7.6005195E-4,-1.0515244E-2,1.3968322E-3,2.0514907E-2,3.915127E-3,-1.4086473E-2,-1.1697786E-3],"categories":[],"categories_nodes":[],"categories_segments":[],"categories_sizes":[],"default_left":[0,0,0,0,0,0,0,0,0,0,0,0,0,0,0,0,0,0,0,0,0,0,0,0,0,0,0,0,0,0,0,0,0,0,0,0,0,0,0,0,0,0,0,0,0,0,0,0,0,0,0],"id":24,"left_children":[1,3,5,7,9,11,13,15,17,19,21,23,25,27,29,-1,31,-1,33,-1,35,-1,-1,37,39,41,43,45,47,49,-1,-1,-1,-1,-1,-1,-1,-1,-1,-1,-1,-1,-1,-1,-1,-1,-1,-1,-1,-1,-1],"loss_changes":[4.140451E1,2.6837708E1,3.2823673E1,3.0166122E1,1.5224504E1,1.4352749E1,1.4042336E1,2.4153603E1,7.894066E0,1.4238772E0,4.85013E0,9.381578E0,6.402748E0,1.5484739E1,4.210853E0,0E0,1.1160469E1,0E0,1.4069266E0,0E0,6.7495775E-1,0E0,0E0,1.3258587E1,9.563463E0,5.3467684E0,3.3049927E0,4.056591E0,2.3261179E1,1.5989609E0,0E0,0E0,0E0,0E0,0E0,0E0,0E0,0E0,0E0,0E0,0E0,0E0,0E0,0E0,0E0,0E0,0E0,0E0,0E0,0E0,0E0],"parents":[2147483647,0,0,1,1,2,2,3,3,4,4,5,5,6,6,7,7,8,8,9,9,10,10,11,11,12,12,13,13,14,14,16,16,18,18,20,20,23,23,24,24,25,25,26,26,27,27,28,28,29,29],"right_children":[2,4,6,8,10,12,14,16,18,20,22,24,26,28,30,-1,32,-1,34,-1,36,-1,-1,38,40,42,44,46,48,50,-1,-1,-1,-1,-1,-1,-1,-1,-1,-1,-1,-1,-1,-1,-1,-1,-1,-1,-1,-1,-1],"split_conditions":[-8.660254E-1,9.47203E2,-1.4623633E-1,1.8016088E0,1.01128725E6,5.2935295E-3,1.1059667E0,5.532805E9,5.2E-4,9.7698945E-1,4.698806E6,-1.4525852E7,-1.7855632E-3,1.7390369E-1,4.3339697E-3,7.541493E-2,0E0,2.299727E-2,1.274409E-1,-1.6065161E-3,4.9692678E-1,-8.404806E-4,2.2345683E-2,7.8461856E-2,6.9338685E-1,-4.263473E-1,1.1716737E0,1.307941E-1,6.1466194E9,4.5266203E-3,7.1368166E-3,5.0668374E-2,1.6154064E-2,2.61117E-3,-1.0512757E-2,-1.6905822E-2,-5.965546E-3,8.0712285E-4,3.689369E-2,1.9678008E-2,-4.7402303E-3,6.558938E-3,-7.833948E-3,-1.4312111E-2,7.6005195E-4,-1.0515244E-2,1.3968322E-3,2.0514907E-2,3.915127E-3,-1.4086473E-2,-1.1697786E-3],"split_indices":[74,93,65,79,39,20,33,58,25,100,36,14,84,37,82,0,75,0,57,0,18,0,0,56,100,56,33,57,58,84,0,0,0,0,0,0,0,0,0,0,0,0,0,0,0,0,0,0,0,0,0],"split_type":[0,0,0,0,0,0,0,0,0,0,0,0,0,0,0,0,0,0,0,0,0,0,0,0,0,0,0,0,0,0,0,0,0,0,0,0,0,0,0,0,0,0,0,0,0,0,0,0,0,0,0],"sum_hessian":[6.5E2,7.8E1,5.72E2,4.2E1,3.6E1,3.01E2,2.71E2,2.5E1,1.7E1,2E1,1.6E1,1.39E2,1.62E2,2.39E2,3.2E1,5E0,2E1,5E0,1.2E1,6E0,1.4E1,5E0,1.1E1,1.9E1,1.2E2,6.6E1,9.6E1,4.5E1,1.94E2,2.7E1,5E0,5E0,1.5E1,5E0,7E0,9E0,5E0,1.4E1,5E0,6E0,1.14E2,1.2E1,5.4E1,9E1,6E0,2.5E1,2E1,4.3E1,1.51E2,2.2E1,5E0],"tree_param":{"num_deleted":"0","num_feature":"103","num_nodes":"51","size_leaf_vector":"1"}},{"base_weights":[7.428284E-3,7.508536E-1,-9.3014166E-2,4.9030623E-1,2.0597506E0,-2.4710584E-1,1.6589835E-1,2.4540228E-1,1.7373711E0,1.1800781E-2,6.559571E-2,-4.026989E-1,-1.0709465E-1,1.0724133E-1,4.5730013E-2,9.5524573E-1,-1.3029145E-1,5.3771656E-2,1.0758019E-2,-1.858608E-1,-6.529152E-1,-5.011051E-1,-2.044108E-2,4.6196958E-1,-1.2205004E-1,1.0611487E-2,3.3946883E-2,-8.082435E-3,1.6063208E-2,-6.5765146E-4,-1.2651811E-2,-1.615401E-2,-8.864606E-3,-1.7762208E-2,-4.708748E-3,-3.405916E-3,6.4436826E-3,2.022437E-2,-2.7099613E-3,2.4694225E-4,-1.150113E-2],"categories":[],"categories_nodes":[],"categories_segments":[],"categories_sizes":[],"default_left":[0,0,0,0,0,0,0,0,0,0,0,0,0,0,0,0,0,0,0,0,0,0,0,0,0,0,0,0,0,0,0,0,0,0,0,0,0,0,0,0,0],"id":25,"left_children":[1,3,5,7,9,11,13,15,17,-1,-1,19,21,23,-1,25,27,-1,-1,29,31,33,35,37,39,-1,-1,-1,-1,-1,-1,-1,-1,-1,-1,-1,-1,-1,-1,-1,-1],"loss_changes":[4.9431664E1,2.593771E1,2.3288397E1,1.996124E1,2.1210022E1,7.9088783E0,2.6775896E1,1.5288452E1,1.1003983E1,0E0,0E0,9.236486E0,6.582529E0,1.737043E1,0E0,5.408081E0,9.901667E0,0E0,0E0,6.3603716E0,2.2410622E0,3.3545027E0,8.241071E0,2.7653084E1,7.936402E0,0E0,0E0,0E0,0E0,0E0,0E0,0E0,0E0,0E0,0E0,0E0,0E0,0E0,0E0,0E0,0E0],"parents":[2147483647,0,0,1,1,2,2,3,3,4,4,5,5,6,6,7,7,8,8,11,11,12,12,13,13,15,15,16,16,19,19,20,20,21,21,22,22,23,23,24,24],"right_children":[2,4,6,8,10,12,14,16,18,-1,-1,20,22,24,-1,26,28,-1,-1,30,32,34,36,38,40,-1,-1,-1,-1,-1,-1,-1,-1,-1,-1,-1,-1,-1,-1,-1,-1],"split_conditions":[-8.660254E-1,-8.151813E1,4.894108E3,1.1833585E-2,1.4083025E-4,6.717792E4,1.24252886E-1,2.799E1,-2.1514473E-3,1.1800781E-2,6.559571E-2,1.325998E-1,6.421532E2,7.4822825E5,4.5730013E-2,4.76E-4,3.6644632E-1,5.3771656E-2,1.0758019E-2,2.3158853E8,3.189006E-1,9.267952E-1,8.724973E-1,6.484452E-3,1.736419E0,1.0611487E-2,3.3946883E-2,-8.082435E-3,1.6063208E-2,-6.5765146E-4,-1.2651811E-2,-1.615401E-2,-8.864606E-3,-1.7762208E-2,-4.708748E-3,-3.405916E-3,6.4436826E-3,2.022437E-2,-2.7099613E-3,2.4694225E-4,-1.150113E-2],"split_indices":[74,91,72,59,82,34,4,29,87,0,0,57,93,34,0,22,19,0,0,55,13,51,7,78,98,0,0,0,0,0,0,0,0,0,0,0,0,0,0,0,0],"split_type":[0,0,0,0,0,0,0,0,0,0,0,0,0,0,0,0,0,0,0,0,0,0,0,0,0,0,0,0,0,0,0,0,0,0,0,0,0,0,0,0,0],"sum_hessian":[6.6E2,7.8E1,5.82E2,6.6E1,1.2E1,3.65E2,2.17E2,5.6E1,1E1,6E0,6E0,1.72E2,1.93E2,2.12E2,5E0,1.9E1,3.7E1,5E0,5E0,9.3E1,7.9E1,3.4E1,1.59E2,8.3E1,1.29E2,1.3E1,6E0,2.9E1,8E0,7E1,2.3E1,4.4E1,3.5E1,1.3E1,2.1E1,1.11E2,4.8E1,4.3E1,4E1,1E2,2.9E1],"tree_param":{"num_deleted":"0","num_feature":"103","num_nodes":"41","size_leaf_vector":"1"}},{"base_weights":[-5.143409E-3,1.8576782E0,-3.705914E-2,1.250326E-3,6.775975E-2,5.027284E-1,-1.1279062E-1,1.304285E0,1.6710703E-1,-2.826235E-1,1.4298235E-1,1.8677562E0,-4.678255E-3,-3.635159E-1,1.0763674E0,1.6223144E-2,-3.081908E-1,4.9816647E-1,-1.3083489E-1,5.3983636E-2,2.4025682E-2,-1.0933116E-2,4.8480975E-3,9.742445E-3,3.3857957E-2,-1.3529511E-2,-4.6298313E-3,2.2194194E-2,4.4552106E-3,-4.2175595E-3,2.5747506E-2],"categories":[],"categories_nodes":[],"categories_segments":[],"categories_sizes":[],"default_left":[0,0,0,0,0,0,0,0,0,0,0,0,0,0,0,0,0,0,0,0,0,0,0,0,0,0,0,0,0,0,0],"id":26,"left_children":[1,3,5,-1,-1,7,9,11,13,15,17,19,-1,21,23,-1,25,27,29,-1,-1,-1,-1,-1,-1,-1,-1,-1,-1,-1,-1],"loss_changes":[3.8121178E1,2.9327293E1,2.585316E1,0E0,0E0,2.068179E1,2.4139082E1,2.0192657E1,2.7270737E1,9.509563E0,2.1641785E1,6.5202255E0,0E0,4.093887E0,6.7876606E0,0E0,9.060493E0,1.6038929E1,1.4443911E1,0E0,0E0,0E0,0E0,0E0,0E0,0E0,0E0,0E0,0E0,0E0,0E0],"parents":[2147483647,0,0,1,1,2,2,5,5,6,6,7,7,8,8,9,9,10,10,11,11,13,13,14,14,16,16,17,17,18,18],"right_children":[2,4,6,-1,-1,8,10,12,14,16,18,20,-1,22,24,-1,26,28,30,-1,-1,-1,-1,-1,-1,-1,-1,-1,-1,-1,-1],"split_conditions":[4.32448E10,-2.3177208E-3,-8.660254E-1,1.250326E-3,6.775975E-2,4.71783E10,1.182262E0,1.2381825E0,7.208E1,5.758164E-1,5.410002E10,7.4657575E5,-4.678255E-3,6.327219E6,2.0627926E8,1.6223144E-2,1.1187972E6,5.85659E-3,8.051E1,5.3983636E-2,2.4025682E-2,-1.0933116E-2,4.8480975E-3,9.742445E-3,3.3857957E-2,-1.3529511E-2,-4.6298313E-3,2.2194194E-2,4.4552106E-3,-4.2175595E-3,2.5747506E-2],"split_indices":[54,20,74,0,0,54,94,100,26,100,54,35,0,9,0,0,36,78,49,0,0,0,0,0,0,0,0,0,0,0,0],"split_type":[0,0,0,0,0,0,0,0,0,0,0,0,0,0,0,0,0,0,0,0,0,0,0,0,0,0,0,0,0,0,0],"sum_hessian":[6.41E2,1E1,6.31E2,5E0,5E0,7.7E1,5.54E2,2.2E1,5.5E1,3.33E2,2.21E2,1.6E1,6E0,3.5E1,2E1,7E0,3.26E2,9.6E1,1.25E2,6E0,1E1,2.7E1,8E0,1.1E1,9E0,5.5E1,2.71E2,2.9E1,6.7E1,1.19E2,6E0],"tree_param":{"num_deleted":"0","num_feature":"103","num_nodes":"31","size_leaf_vector":"1"}},{"base_weights":[-1.7663145E-2,6.976098E-2,-5.189155E-1,2.2707042E-1,-1.9426352E-1,-5.796438E-1,7.449467E-3,1.102197E0,1.530494E-1,-3.1241578E-1,7.142329E-1,-6.34781E-1,3.862322E-3,4.058041E-1,2.0147092E0,1.1668817E-1,3.7396424E-2,-3.7332058E-1,6.273904E-1,5.7410207E-2,5.121298E-2,-3.6985263E-1,-7.1810234E-1,-7.3050414E-3,1.731708E-2,1.6793631E-2,6.2116325E-2,4.0976284E-3,-9.074638E-3,1.0693156E-2,-8.598818E-3,-6.0093426E-4,2.6405254E-2,-8.5254125E-3,1.3850023E-2,-1.046011E-2,2.851237E-3,-1.5323505E-2,-5.512896E-3],"categories":[],"categories_nodes":[],"categories_segments":[],"categories_sizes":[],"default_left":[0,0,0,0,0,0,0,0,0,0,0,0,0,0,0,0,0,0,0,0,0,0,0,0,0,0,0,0,0,0,0,0,0,0,0,0,0,0,0],"id":27,"left_children":[1,3,5,7,9,11,-1,13,15,17,19,21,-1,23,25,27,-1,29,31,-1,33,35,37,-1,-1,-1,-1,-1,-1,-1,-1,-1,-1,-1,-1,-1,-1,-1,-1],"loss_changes":[2.944691E1,2.378581E1,5.5855045E0,2.304455E1,2.3107906E1,4.1167717E0,0E0,1.6890896E1,2.0438381E1,1.103858E1,3.5191742E1,1.6712418E0,0E0,6.237403E0,1.2844963E1,1.6452011E1,0E0,9.370777E0,5.4713817E0,0E0,6.3123174E0,1.867964E0,1.1785355E0,0E0,0E0,0E0,0E0,0E0,0E0,0E0,0E0,0E0,0E0,0E0,0E0,0E0,0E0,0E0,0E0],"parents":[2147483647,0,0,1,1,2,2,3,3,4,4,5,5,7,7,8,8,9,9,10,10,11,11,13,13,14,14,15,15,17,17,18,18,20,20,21,21,22,22],"right_children":[2,4,6,8,10,12,-1,14,16,18,20,22,-1,24,26,28,-1,30,32,-1,34,36,38,-1,-1,-1,-1,-1,-1,-1,-1,-1,-1,-1,-1,-1,-1,-1,-1],"split_conditions":[8.678079E0,5E-1,3.3377145E6,-8.8515735E-1,1.3931589E0,1.9059845E1,7.449467E-3,4.629588E-2,2.0616908E0,4.3282056E0,-7.0384717E-1,5.1625683E-3,3.862322E-3,-8.5397256E7,1.0566257E-2,3.984668E1,3.7396424E-2,2.1421252E-2,-1.1199349E0,5.7410207E-2,8.685917E-1,1.398E-3,2.2329562E0,-7.3050414E-3,1.731708E-2,1.6793631E-2,6.2116325E-2,4.0976284E-3,-9.074638E-3,1.0693156E-2,-8.598818E-3,-6.0093426E-4,2.6405254E-2,-8.5254125E-3,1.3850023E-2,-1.046011E-2,2.851237E-3,-1.5323505E-2,-5.512896E-3],"split_indices":[99,75,34,48,97,99,0,32,70,79,48,78,0,62,19,95,0,17,24,0,19,22,41,0,0,0,0,0,0,0,0,0,0,0,0,0,0,0,0],"split_type":[0,0,0,0,0,0,0,0,0,0,0,0,0,0,0,0,0,0,0,0,0,0,0,0,0,0,0,0,0,0,0,0,0,0,0,0,0,0,0],"sum_hessian":[6.7E2,5.71E2,9.9E1,3.58E2,2.13E2,9.3E1,6E0,2.7E1,3.31E2,1.89E2,2.4E1,8.7E1,6E0,1.6E1,1.1E1,3.25E2,6E0,1.78E2,1.1E1,5E0,1.9E1,2.2E1,6.5E1,6E0,1E1,6E0,5E0,2.82E2,4.3E1,1E1,1.68E2,6E0,5E0,1.1E1,8E0,1.7E1,5E0,5.8E1,7E0],"tree_param":{"num_deleted":"0","num_feature":"103","num_nodes":"39","size_leaf_vector":"1"}},{"base_weights":[1.7907644E-2,4.0401995E-2,-1.2656977E-2,4.5107998E-2,-4.0632233E-2,-2.6503608E-1,1.4673138E-1,-4.048447E-1,-5.7280663E-4,4.7990316E-1,-1.3209221E-1,1.0111695E-2,-9.058889E-3,2.5286503E-2,-3.3467205E-3,5.78927E-3,2.2898354E-2,-4.2250645E-3,1.4844055E-2],"categories":[],"categories_nodes":[],"categories_segments":[],"categories_sizes":[],"default_left":[0,0,0,0,0,0,0,0,0,0,0,0,0,0,0,0,0,0,0],"id":28,"left_children":[1,-1,3,-1,5,7,9,11,13,15,17,-1,-1,-1,-1,-1,-1,-1,-1],"loss_changes":[3.9886147E1,0E0,4.0620995E1,0E0,2.6685219E1,1.0657703E1,3.2191593E1,8.448389E0,2.1377003E1,1.9647755E1,1.31657505E1,0E0,0E0,0E0,0E0,0E0,0E0,0E0,0E0],"parents":[2147483647,0,0,2,2,4,4,5,5,6,6,7,7,8,8,9,9,10,10],"right_children":[2,-1,4,-1,6,8,10,12,14,16,18,-1,-1,-1,-1,-1,-1,-1,-1],"split_conditions":[4.32448E10,4.0401995E-2,5.481534E-2,4.5107998E-2,3.19839E3,2.7926972E6,6.484452E-3,5.758164E-1,-4.716041E-1,7.308E1,8.45963E-1,1.0111695E-2,-9.058889E-3,2.5286503E-2,-3.3467205E-3,5.78927E-3,2.2898354E-2,-4.2250645E-3,1.4844055E-2],"split_indices":[54,0,47,0,72,8,78,100,28,26,47,0,0,0,0,0,0,0,0],"split_type":[0,0,0,0,0,0,0,0,0,0,0,0,0,0,0,0,0,0,0],"sum_hessian":[6.49E2,9E0,6.4E2,7E0,6.33E2,2.88E2,3.45E2,1.88E2,1E2,1.57E2,1.88E2,9E0,1.79E2,1.1E1,8.9E1,1.23E2,3.4E1,1.73E2,1.5E1],"tree_param":{"num_deleted":"0","num_feature":"103","num_nodes":"19","size_leaf_vector":"1"}},{"base_weights":[-8.434544E-3,5.0774258E-2,-3.53219E-2,6.5937346E-1,-1.3879953E-1,1.7042525E0,2.4085994E-1,-2.8244734E-1,8.449534E-2,7.431865E-2,8.5634094E-1,-2.3144726E-1,1.0966003E0,1.7095001E-2,-3.0488494E-1,4.1921708E-1,-1.9495454E-1,3.0507201E-2,-3.0282575E-3,-9.332826E-3,1.0430515E-2,-6.61265E-5,3.476084E-2,-4.2780396E-3,-1.12078665E-2,3.7490919E-3,2.4066366E-2,-8.3874154E-4,-1.4570801E-2],"categories":[],"categories_nodes":[],"categories_segments":[],"categories_sizes":[],"default_left":[0,0,0,0,0,0,0,0,0,0,0,0,0,0,0,0,0,0,0,0,0,0,0,0,0,0,0,0,0],"id":29,"left_children":[1,-1,3,5,7,9,11,13,15,-1,17,19,21,-1,23,25,27,-1,-1,-1,-1,-1,-1,-1,-1,-1,-1,-1,-1],"loss_changes":[4.458578E1,0E0,4.64708E1,3.6219757E1,1.808126E1,3.7822E1,2.481998E1,8.927868E0,2.0729774E1,0E0,1.2254343E1,7.24032E0,1.5471802E1,0E0,7.694948E0,1.8067917E1,9.8001E0,0E0,0E0,0E0,0E0,0E0,0E0,0E0,0E0,0E0,0E0,0E0,0E0],"parents":[2147483647,0,0,2,2,3,3,4,4,5,5,6,6,7,7,8,8,10,10,11,11,12,12,14,14,15,15,16,16],"right_children":[2,-1,4,6,8,10,12,14,16,-1,18,20,22,-1,24,26,28,-1,-1,-1,-1,-1,-1,-1,-1,-1,-1,-1,-1],"split_conditions":[5.481534E-2,5.0774258E-2,-8.660254E-1,4.71783E10,9.530117E-5,-1.0230179E0,1.5917312E-2,-1.8625829E0,6.874401E-1,7.431865E-2,1.797569E5,5.571646E6,7.44E1,1.7095001E-2,1.1594954E3,1.7215393E0,2.941E1,3.0507201E-2,-3.0282575E-3,-9.332826E-3,1.0430515E-2,-6.61265E-5,3.476084E-2,-4.2780396E-3,-1.12078665E-2,3.7490919E-3,2.4066366E-2,-8.3874154E-4,-1.4570801E-2],"split_indices":[47,0,74,54,46,51,20,51,79,0,38,8,49,0,93,97,52,0,0,0,0,0,0,0,0,0,0,0,0],"split_type":[0,0,0,0,0,0,0,0,0,0,0,0,0,0,0,0,0,0,0,0,0,0,0,0,0,0,0,0,0],"sum_hessian":[6.51E2,6E0,6.45E2,8.3E1,5.62E2,2.3E1,6E1,3.42E2,2.2E2,6E0,1.7E1,3.9E1,2.1E1,6E0,3.36E2,1E2,1.2E2,1E1,7E0,3E1,9E0,8E0,1.3E1,2.49E2,8.7E1,7.8E1,2.2E1,9.4E1,2.6E1],"tree_param":{"num_deleted":"0","num_feature":"103","num_nodes":"29","size_leaf_vector":"1"}},{"base_weights":[-2.3423191E-2,4.338703E-2,-4.9511656E-2,6.067163E-1,-1.37585E-1,1.5109712E0,3.331783E-1,-2.2253938E-1,2.2316982E-1,6.1129525E-2,7.1232206E-1,-1.2090574E-1,9.147299E-1,-1.4253092E-1,-4.549178E-1,3.8390987E-2,1.280135E-1,-1.3091972E-3,3.337348E-2,1.6046416E-2,-6.7453478E-3,-3.111455E-3,2.3364296E-2,-4.6023107E-3,4.2397445E-3,-1.0076163E-2,5.8472143E-3,-9.399388E-3,6.563661E-3],"categories":[],"categories_nodes":[],"categories_segments":[],"categories_sizes":[],"default_left":[0,0,0,0,0,0,0,0,0,0,0,0,0,0,0,0,0,0,0,0,0,0,0,0,0,0,0,0,0],"id":30,"left_children":[1,-1,3,5,7,9,11,13,15,-1,17,19,21,23,25,-1,27,-1,-1,-1,-1,-1,-1,-1,-1,-1,-1,-1,-1],"loss_changes":[3.7953358E1,0E0,3.8003864E1,1.8748737E1,1.7809237E1,2.004063E1,1.6183825E1,8.652889E0,1.7586512E1,0E0,9.688612E0,7.1445527E0,7.467018E0,1.0932387E1,4.50527E0,0E0,1.2780346E1,0E0,0E0,0E0,0E0,0E0,0E0,0E0,0E0,0E0,0E0,0E0,0E0],"parents":[2147483647,0,0,2,2,3,3,4,4,5,5,6,6,7,7,8,8,10,10,11,11,12,12,13,13,14,14,16,16],"right_children":[2,-1,4,6,8,10,12,14,16,-1,18,20,22,24,26,-1,28,-1,-1,-1,-1,-1,-1,-1,-1,-1,-1,-1,-1],"split_conditions":[5.481534E-2,4.338703E-2,-8.660254E-1,6.606E1,8.120719E3,3.587908E-2,1.6722214E0,7.065606E0,7.874866E3,6.1129525E-2,3.5094833E0,-1.0457218E0,7.052E1,2.337833E0,1.9059845E1,3.8390987E-2,3.5948792E-1,-1.3091972E-3,3.337348E-2,1.6046416E-2,-6.7453478E-3,-3.111455E-3,2.3364296E-2,-4.6023107E-3,4.2397445E-3,-1.0076163E-2,5.8472143E-3,-9.399388E-3,6.563661E-3],"split_indices":[47,0,74,26,66,73,98,99,72,0,99,77,49,79,99,0,65,0,0,0,0,0,0,0,0,0,0,0,0],"split_type":[0,0,0,0,0,0,0,0,0,0,0,0,0,0,0,0,0,0,0,0,0,0,0,0,0,0,0,0,0],"sum_hessian":[6.63E2,7E0,6.56E2,7.7E1,5.79E2,1.7E1,6E1,4.69E2,1.1E2,5E0,1.2E1,3.4E1,2.6E1,3.5E2,1.19E2,5E0,1.05E2,7E0,5E0,6E0,2.8E1,5E0,2.1E1,2.81E2,6.9E1,1.12E2,7E0,2.6E1,7.9E1],"tree_param":{"num_deleted":"0","num_feature":"103","num_nodes":"29","size_leaf_vector":"1"}},{"base_weights":[1.669631E-2,4.9950566E-2,-8.777381E-3,5.4223263E-1,-8.014907E-2,1.8543406E0,1.9330019E-1,-2.1612757E-1,1.6233121E-1,7.835927E-2,6.041105E-1,-1.0246017E-1,1.4326414E0,5.4608065E-1,-2.4260741E-1,9.196297E-1,1.735621E-2,2.678454E-2,-4.1142176E-3,3.9669084E-3,-1.2191383E-2,1.3624445E-2,4.2147778E-2,-8.785234E-4,2.5456745E-2,-7.537627E-3,-1.6734594E-3,3.333779E-2,4.9964134E-3,3.0059714E-3,-8.907291E-3],"categories":[],"categories_nodes":[],"categories_segments":[],"categories_sizes":[],"default_left":[0,0,0,0,0,0,0,0,0,0,0,0,0,0,0,0,0,0,0,0,0,0,0,0,0,0,0,0,0,0,0],"id":31,"left_children":[1,-1,3,5,7,9,11,13,15,-1,17,19,21,23,25,27,29,-1,-1,-1,-1,-1,-1,-1,-1,-1,-1,-1,-1,-1,-1],"loss_changes":[4.2281033E1,0E0,2.5998625E1,3.431491E1,1.9345816E1,3.8644444E1,2.2470057E1,7.67564E0,2.3083977E1,0E0,6.7064505E0,7.713839E0,4.694906E0,5.5947037E0,7.7155094E0,1.6488646E1,1.0976198E1,0E0,0E0,0E0,0E0,0E0,0E0,0E0,0E0,0E0,0E0,0E0,0E0,0E0,0E0],"parents":[2147483647,0,0,2,2,3,3,4,4,5,5,6,6,7,7,8,8,10,10,11,11,12,12,13,13,14,14,15,15,16,16],"right_children":[2,-1,4,6,8,10,12,14,16,-1,18,20,22,24,26,28,30,-1,-1,-1,-1,-1,-1,-1,-1,-1,-1,-1,-1,-1,-1],"split_conditions":[5.481534E-2,4.9950566E-2,-8.660254E-1,-1.0230179E0,4.894108E3,5.8036475E9,3.8230038E-1,5.1735895E9,2.8982487E-2,7.835927E-2,-1.260466E0,6.4416677E-1,2.8914788E7,4.0111673E-1,2.6954916E0,-4.5198664E-2,6.8547215E0,2.678454E-2,-4.1142176E-3,3.9669084E-3,-1.2191383E-2,1.3624445E-2,4.2147778E-2,-8.785234E-4,2.5456745E-2,-7.537627E-3,-1.6734594E-3,3.333779E-2,4.9964134E-3,3.0059714E-3,-8.907291E-3],"split_indices":[47,0,74,51,72,58,73,58,17,0,51,11,62,10,50,48,99,0,0,0,0,0,0,0,0,0,0,0,0,0,0],"split_type":[0,0,0,0,0,0,0,0,0,0,0,0,0,0,0,0,0,0,0,0,0,0,0,0,0,0,0,0,0,0,0],"sum_hessian":[6.66E2,6E0,6.6E2,7.5E1,5.85E2,1.5E1,6E1,3.75E2,2.1E2,5E0,1E1,4.9E1,1.1E1,1.2E1,3.63E2,3.3E1,1.77E2,5E0,5E0,3.1E1,1.8E1,6E0,5E0,7E0,5E0,1.96E2,1.67E2,1.5E1,1.8E1,1.38E2,3.9E1],"tree_param":{"num_deleted":"0","num_feature":"103","num_nodes":"31","size_leaf_vector":"1"}},{"base_weights":[-3.2372598E-2,-3.9477065E-1,6.317821E-2,-1.828968E-1,-5.701076E-1,2.93208E-1,-1.4802675E-1,-2.8592664E-1,1.1330227E-2,2.5060536E-2,-6.64492E-1,4.282767E-2,6.373325E-1,4.762317E-1,-2.4332201E-1,8.845861E-2,-4.0246347E-1,1.1233156E-2,-1.0127453E-2,-3.8278007E-3,-7.100889E-1,6.620246E-1,-8.522196E-2,1.3652513E0,3.5337567E-1,6.605909E-1,-1.1196911E-2,-3.7733942E-1,3.3925463E-2,-4.692057E-3,7.3487908E-3,4.9533956E-3,-9.900487E-3,-8.046686E-3,-1.5333861E-2,2.6489394E-3,3.214341E-2,1.1129555E-2,-4.532552E-3,1.1323024E-2,7.753232E-2,1.3336887E-2,-6.215049E-3,1.7083097E-2,4.684773E-3,1.4606438E-2,-8.505975E-3,1.2993197E-2,-2.7167138E-3],"categories":[],"categories_nodes":[],"categories_segments":[],"categories_sizes":[],"default_left":[0,0,0,0,0,0,0,0,0,0,0,0,0,0,0,0,0,0,0,0,0,0,0,0,0,0,0,0,0,0,0,0,0,0,0,0,0,0,0,0,0,0,0,0,0,0,0,0,0],"id":32,"left_children":[1,3,5,7,9,11,13,15,-1,17,19,21,23,25,27,29,31,-1,-1,-1,33,35,37,39,41,43,-1,45,47,-1,-1,-1,-1,-1,-1,-1,-1,-1,-1,-1,-1,-1,-1,-1,-1,-1,-1,-1,-1],"loss_changes":[2.2537434E1,4.923809E0,2.505273E1,4.964433E0,4.190983E0,2.1208939E1,1.6071667E1,2.4787164E0,0E0,3.3100793E0,1.222496E0,1.147558E1,2.0983315E1,7.1390715E0,8.714482E0,1.31937E0,2.6860228E0,0E0,0E0,0E0,7.0166016E-1,1.2155823E1,1.0955046E1,5.5818825E1,1.5963882E1,2.3273335E0,0E0,8.615995E0,8.1240225E0,0E0,0E0,0E0,0E0,0E0,0E0,0E0,0E0,0E0,0E0,0E0,0E0,0E0,0E0,0E0,0E0,0E0,0E0,0E0,0E0],"parents":[2147483647,0,0,1,1,2,2,3,3,4,4,5,5,6,6,7,7,9,9,10,10,11,11,12,12,13,13,14,14,15,15,16,16,20,20,21,21,22,22,23,23,24,24,25,25,27,27,28,28],"right_children":[2,4,6,8,10,12,14,16,-1,18,20,22,24,26,28,30,32,-1,-1,-1,34,36,38,40,42,44,-1,46,48,-1,-1,-1,-1,-1,-1,-1,-1,-1,-1,-1,-1,-1,-1,-1,-1,-1,-1,-1,-1],"split_conditions":[1.865237E3,7.287798E2,6.496176E-3,7.308E1,-1.8915027E-2,1.1601711E-3,-9.841224E-3,4.625827E-3,1.1330227E-2,-1.461714E7,6.7737347E-1,-1.540307E3,6.608957E2,1.8790152E0,1.489683E0,6.205875E-1,1.2175809E3,1.1233156E-2,-1.0127453E-2,-3.8278007E-3,-1.0266393E0,-2.0940754E0,-6.300114E-1,1.0801406E-2,2.5881904E-1,1.8446772E-1,-1.1196911E-2,-1.1003977E3,5.038323E10,-4.692057E-3,7.3487908E-3,4.9533956E-3,-9.900487E-3,-8.046686E-3,-1.5333861E-2,2.6489394E-3,3.214341E-2,1.1129555E-2,-4.532552E-3,1.1323024E-2,7.753232E-2,1.3336887E-2,-6.215049E-3,1.7083097E-2,4.684773E-3,1.4606438E-2,-8.505975E-3,1.2993197E-2,-2.7167138E-3],"split_indices":[66,93,78,26,59,76,20,78,0,9,100,68,93,19,51,11,34,0,0,0,60,70,44,59,75,51,0,91,54,0,0,0,0,0,0,0,0,0,0,0,0,0,0,0,0,0,0,0,0],"split_type":[0,0,0,0,0,0,0,0,0,0,0,0,0,0,0,0,0,0,0,0,0,0,0,0,0,0,0,0,0,0,0,0,0,0,0,0,0,0,0,0,0,0,0,0,0,0,0,0,0],"sum_hessian":[6.49E2,1.35E2,5.14E2,6.2E1,7.3E1,2.46E2,2.68E2,5.5E1,7E0,1E1,6.3E1,1.43E2,1.03E2,3.5E1,2.33E2,1.3E1,4.2E1,5E0,5E0,6E0,5.7E1,2.4E1,1.19E2,2.8E1,7.5E1,3E1,5E0,1.57E2,7.6E1,6E0,7E0,5E0,3.7E1,1E1,4.7E1,1.6E1,8E0,2.1E1,9.8E1,2.2E1,6E0,5.1E1,2.4E1,2E1,1E1,6E0,1.51E2,1.6E1,6E1],"tree_param":{"num_deleted":"0","num_feature":"103","num_nodes":"49","size_leaf_vector":"1"}},{"base_weights":[-1.2396409E-2,3.7093192E-1,-1.3534135E-1,1.5526453E-1,1.1251185E0,3.5602797E-2,-1.5745324E-1,-1.8642122E-2,1.0446404E0,1.7117155E0,4.5219058E-1,-7.88548E-2,-5.4077005E-1,1.741232E-2,-1.0810854E-1,4.9378328E-2,4.6574724E-1,1.053501E0,5.4839525E-2,2.3960842E-2,-1.1534595E-1,-1.3168234E-1,5.198276E-1,4.137911E-3,-6.108109E-1,-4.557314E-3,1.5518181E-2,-0E0,2.1586146E-2,2.8652823E-2,7.7938335E-3,5.345559E-3,-9.813615E-3,3.2080684E-3,-5.2502966E-3,1.9408624E-3,2.2466196E-2,-1.2917157E-2,-1.5608008E-3],"categories":[],"categories_nodes":[],"categories_segments":[],"categories_sizes":[],"default_left":[0,0,0,0,0,0,0,0,0,0,0,0,0,0,0,0,0,0,0,0,0,0,0,0,0,0,0,0,0,0,0,0,0,0,0,0,0,0,0],"id":33,"left_children":[1,3,5,7,9,-1,11,13,15,17,19,21,23,-1,25,-1,27,29,-1,-1,31,33,35,-1,37,-1,-1,-1,-1,-1,-1,-1,-1,-1,-1,-1,-1,-1,-1],"loss_changes":[3.1406391E1,2.611356E1,2.152385E1,1.9678833E1,1.3404194E1,0E0,1.4992928E1,8.534045E0,1.6083033E1,1.0248173E1,7.6993904E0,1.3185828E1,4.562029E0,0E0,1.04678755E1,0E0,4.494006E0,2.6837149E0,0E0,0E0,1.667099E0,1.4667229E1,8.475606E0,0E0,1.3761635E0,0E0,0E0,0E0,0E0,0E0,0E0,0E0,0E0,0E0,0E0,0E0,0E0,0E0,0E0],"parents":[2147483647,0,0,1,1,2,2,3,3,4,4,6,6,7,7,8,8,9,9,10,10,11,11,12,12,14,14,16,16,17,17,20,20,21,21,22,22,24,24],"right_children":[2,4,6,8,10,-1,12,14,16,18,20,22,24,-1,26,-1,28,30,-1,-1,32,34,36,-1,38,-1,-1,-1,-1,-1,-1,-1,-1,-1,-1,-1,-1,-1,-1],"split_conditions":[9.446283E-1,4.691984E-1,5.481534E-2,7.1556413E-1,1.245801E-1,3.5602797E-2,8.678079E0,-8.355095E-1,-9.920809E6,1.21344976E-1,-9.712773E-3,7.429469E-1,-1.6702106E-2,1.741232E-2,1.6004375E0,4.9378328E-2,4.0015373E0,-1.7763998E-2,5.4839525E-2,2.3960842E-2,-1.8728072E7,6.8180675E9,1.62E-3,4.137911E-3,1.8303818E0,-4.557314E-3,1.5518181E-2,-0E0,2.1586146E-2,2.8652823E-2,7.7938335E-3,5.345559E-3,-9.813615E-3,3.2080684E-3,-5.2502966E-3,1.9408624E-3,2.2466196E-2,-1.2917157E-2,-1.5608008E-3],"split_indices":[100,19,47,13,57,0,99,56,14,57,48,47,20,0,94,0,99,76,0,0,9,58,25,0,64,0,0,0,0,0,0,0,0,0,0,0,0,0,0],"split_type":[0,0,0,0,0,0,0,0,0,0,0,0,0,0,0,0,0,0,0,0,0,0,0,0,0,0,0,0,0,0,0,0,0,0,0,0,0,0,0],"sum_hessian":[6.65E2,1.61E2,5.04E2,1.26E2,3.5E1,5E0,4.99E2,1.06E2,2E1,1.8E1,1.7E1,4.15E2,8.4E1,9E0,9.7E1,5E0,1.5E1,1.2E1,6E0,7E0,1E1,3.82E2,3.3E1,7E0,7.7E1,8.6E1,1.1E1,9E0,6E0,7E0,5E0,5E0,5E0,1.18E2,2.64E2,2E1,1.3E1,7.2E1,5E0],"tree_param":{"num_deleted":"0","num_feature":"103","num_nodes":"39","size_leaf_vector":"1"}},{"base_weights":[-5.3548915E-3,4.2843407E-1,-1.2262937E-1,8.8999337E-1,-1.923883E-1,-2.5330263E-1,1.731395E-1,2.5557327E0,6.2134033E-1,2.7955458E-1,-5.635173E-1,-1.15256794E-1,-4.5918223E-1,4.3876477E-2,9.520442E-2,2.3781056E-2,7.122554E-2,-3.163308E-1,9.530227E-1,7.6440424E-1,-9.3538426E-2,-1.6929562E-3,-7.0744115E-1,2.4213145E-2,-1.5171102E-1,-5.786516E-1,-4.2884935E-2,4.0849917E-2,2.9171094E-2,-9.683227E-3,5.889609E-4,2.4371423E-2,-5.588312E-3,7.493878E-3,2.2145003E-2,9.975227E-3,-1.00397635E-2,-4.424751E-4,-1.7378522E-2,-6.801635E-3,7.827631E-4,-1.1651948E-3,-1.3438715E-2,1.7905078E-3,-1.3604936E-2,7.3796045E-3,-3.2397513E-3],"categories":[],"categories_nodes":[],"categories_segments":[],"categories_sizes":[],"default_left":[0,0,0,0,0,0,0,0,0,0,0,0,0,0,0,0,0,0,0,0,0,0,0,0,0,0,0,0,0,0,0,0,0,0,0,0,0,0,0,0,0,0,0,0,0,0,0],"id":34,"left_children":[1,3,5,7,9,11,13,15,17,19,21,23,25,-1,27,-1,-1,29,31,33,35,-1,37,-1,39,41,43,45,-1,-1,-1,-1,-1,-1,-1,-1,-1,-1,-1,-1,-1,-1,-1,-1,-1,-1,-1],"loss_changes":[3.3185352E1,3.994449E1,1.9896994E1,3.4281734E1,1.0614296E1,1.0069487E1,2.4569149E1,1.1216827E1,2.1981441E1,4.9387035E0,2.24201E0,1.0476382E1,7.051197E0,0E0,1.1200491E1,0E0,0E0,1.1251483E0,1.7272041E1,1.1706042E0,4.022869E0,0E0,2.7953157E0,0E0,7.568089E0,5.3108788E0,2.8463554E0,9.8953085E0,0E0,0E0,0E0,0E0,0E0,0E0,0E0,0E0,0E0,0E0,0E0,0E0,0E0,0E0,0E0,0E0,0E0,0E0,0E0],"parents":[2147483647,0,0,1,1,2,2,3,3,4,4,5,5,6,6,7,7,8,8,9,9,10,10,11,11,12,12,14,14,17,17,18,18,19,19,20,20,22,22,24,24,25,25,26,26,27,27],"right_children":[2,4,6,8,10,12,14,16,18,20,22,24,26,-1,28,-1,-1,30,32,34,36,-1,38,-1,40,42,44,46,-1,-1,-1,-1,-1,-1,-1,-1,-1,-1,-1,-1,-1,-1,-1,-1,-1,-1,-1],"split_conditions":[-7.0710677E-1,9.676699E2,1.3701353E0,2.2130537E3,0E0,1.2752983E-3,1.6754638E-1,9.615142E-1,2.033271E3,3.939634E-1,-5.766286E-3,4.3283878E10,5.089678E-1,4.3876477E-2,7.71E1,2.3781056E-2,7.122554E-2,1.258E-3,3.0525995E-4,1.148E-3,-1.0966033E0,-1.6929562E-3,1.00593915E3,2.4213145E-2,7.292E1,-6.7758924E-1,3.101024E7,6.8344166E9,2.9171094E-2,-9.683227E-3,5.889609E-4,2.4371423E-2,-5.588312E-3,7.493878E-3,2.2145003E-2,9.975227E-3,-1.00397635E-2,-4.424751E-4,-1.7378522E-2,-6.801635E-3,7.827631E-4,-1.1651948E-3,-1.3438715E-2,1.7905078E-3,-1.3604936E-2,7.3796045E-3,-3.2397513E-3],"split_indices":[74,93,97,15,102,59,47,100,66,47,80,54,10,0,26,0,0,25,46,25,60,0,93,0,49,64,0,58,0,0,0,0,0,0,0,0,0,0,0,0,0,0,0,0,0,0,0],"split_type":[0,0,0,0,0,0,0,0,0,0,0,0,0,0,0,0,0,0,0,0,0,0,0,0,0,0,0,0,0,0,0,0,0,0,0,0,0,0,0,0,0,0,0,0,0,0,0],"sum_hessian":[6.51E2,1.38E2,5.13E2,7.9E1,5.9E1,3.56E2,1.57E2,1E1,6.9E1,2.6E1,3.3E1,2.14E2,1.42E2,5E0,1.52E2,5E0,5E0,1.8E1,5.1E1,1.1E1,1.5E1,8E0,2.5E1,5E0,2.09E2,1.1E2,3.2E1,1.47E2,5E0,1.2E1,6E0,4.2E1,9E0,6E0,5E0,6E0,9E0,5E0,2E1,1.05E2,1.04E2,1.7E1,9.3E1,2.7E1,5E0,5.6E1,9.1E1],"tree_param":{"num_deleted":"0","num_feature":"103","num_nodes":"47","size_leaf_vector":"1"}},{"base_weights":[3.4789957E-2,-1.8087609E-1,2.3002426E-1,1.5311153E-1,-2.948524E-1,6.0527164E-1,-6.553377E-2,3.660217E-2,2.3814773E-3,1.6015503E-1,-3.6761758E-1,-3.8850072E-3,8.266679E-1,2.0188479E-1,-2.3711485E-1,-2.2448795E-1,5.497735E-1,4.5607334E-1,-3.4993425E-1,-6.00222E-1,-2.767834E-1,4.9512115E-1,-5.5312693E-1,1.3730308E0,4.0870073E-1,-3.0986902E-1,4.3144658E-1,1.4356789E-2,-3.0023187E-1,-8.007008E-3,7.473527E-3,2.4495566E-2,4.948029E-3,1.5535721E-2,-6.708296E-3,-1.1711621E-2,-1.315315E-3,-3.106321E-4,-1.3334833E-2,1.4004495E-2,-6.2843356E-3,3.282696E-2,9.2375434E-5,5.6269807E-3,-1.6692234E-2,6.5597534E-2,2.1015419E-2,2.5212355E-3,2.356554E-2,5.0257696E-3,-1.0893036E-2,1.2288345E-2,-1.1503306E-2,-3.6096333E-3,-1.38131315E-2],"categories":[],"categories_nodes":[],"categories_segments":[],"categories_sizes":[],"default_left":[0,0,0,0,0,0,0,0,0,0,0,0,0,0,0,0,0,0,0,0,0,0,0,0,0,0,0,0,0,0,0,0,0,0,0,0,0,0,0,0,0,0,0,0,0,0,0,0,0,0,0,0,0,0,0],"id":35,"left_children":[1,3,5,7,9,11,13,-1,15,17,19,21,23,25,27,29,31,33,35,37,39,41,43,45,47,49,51,-1,53,-1,-1,-1,-1,-1,-1,-1,-1,-1,-1,-1,-1,-1,-1,-1,-1,-1,-1,-1,-1,-1,-1,-1,-1,-1,-1],"loss_changes":[2.8701107E1,1.2369192E1,3.9741375E1,2.0834564E1,8.063158E0,2.1325405E1,9.253557E0,0E0,9.652523E0,5.234916E0,4.2348614E0,1.1952407E1,2.5906273E1,9.370388E0,7.5531654E0,5.885681E0,4.337521E0,5.764224E0,7.937553E-1,2.2056408E0,5.708455E0,1.27304125E1,5.101276E0,2.762844E1,1.4345775E1,3.391563E0,1.0377764E1,0E0,5.270771E0,0E0,0E0,0E0,0E0,0E0,0E0,0E0,0E0,0E0,0E0,0E0,0E0,0E0,0E0,0E0,0E0,0E0,0E0,0E0,0E0,0E0,0E0,0E0,0E0,0E0,0E0],"parents":[2147483647,0,0,1,1,2,2,3,3,4,4,5,5,6,6,8,8,9,9,10,10,11,11,12,12,13,13,14,14,15,15,16,16,17,17,18,18,19,19,20,20,21,21,22,22,23,23,24,24,25,25,26,26,28,28],"right_children":[2,4,6,8,10,12,14,-1,16,18,20,22,24,26,28,30,32,34,36,38,40,42,44,46,48,50,52,-1,54,-1,-1,-1,-1,-1,-1,-1,-1,-1,-1,-1,-1,-1,-1,-1,-1,-1,-1,-1,-1,-1,-1,-1,-1,-1,-1],"split_conditions":[3.437099E3,4.6167986E10,6.441169E-3,-1.0937572E0,-1.11207944E8,-1.4546324E0,6.8344166E9,3.660217E-2,1.3749482E-1,9.0048426E-1,-5.43E-4,-4.5161876E7,-1.4967759E-3,4.77113E6,-1.1003977E3,1.2362126E0,6.6315656E2,4.4651726E-1,-2.732561E7,-9.8072046E-1,-4.97E-4,-3.0970802E-3,-1.884425E3,2.0226785E6,7.220717E-1,0E0,7.411E1,1.4356789E-2,2.8299725E6,-8.007008E-3,7.473527E-3,2.4495566E-2,4.948029E-3,1.5535721E-2,-6.708296E-3,-1.1711621E-2,-1.315315E-3,-3.106321E-4,-1.3334833E-2,1.4004495E-2,-6.2843356E-3,3.282696E-2,9.2375434E-5,5.6269807E-3,-1.6692234E-2,6.5597534E-2,2.1015419E-2,2.5212355E-3,2.356554E-2,5.0257696E-3,-1.0893036E-2,1.2288345E-2,-1.1503306E-2,-3.6096333E-3,-1.38131315E-2],"split_indices":[72,54,78,51,0,10,58,0,16,48,22,53,88,36,91,51,93,24,9,65,22,86,68,36,24,102,26,0,39,0,0,0,0,0,0,0,0,0,0,0,0,0,0,0,0,0,0,0,0,0,0,0,0,0,0],"split_type":[0,0,0,0,0,0,0,0,0,0,0,0,0,0,0,0,0,0,0,0,0,0,0,0,0,0,0,0,0,0,0,0,0,0,0,0,0,0,0,0,0,0,0,0,0,0,0,0,0,0,0,0,0,0,0],"sum_hessian":[6.8E2,3.23E2,3.57E2,8.2E1,2.41E2,1.57E2,2E2,6E0,7.6E1,3.3E1,2.08E2,4.2E1,1.15E2,7.8E1,1.22E2,5.4E1,2.2E1,2.1E1,1.2E1,5.7E1,1.51E2,2.2E1,2E1,4.9E1,6.6E1,2.4E1,5.4E1,7E0,1.15E2,4.2E1,1.2E1,6E0,1.6E1,1.5E1,6E0,6E0,6E0,6E0,5.1E1,5E0,1.46E2,6E0,1.6E1,5E0,1.5E1,6E0,4.3E1,4.9E1,1.7E1,7E0,1.7E1,4.6E1,8E0,8.9E1,2.6E1],"tree_param":{"num_deleted":"0","num_feature":"103","num_nodes":"55","size_leaf_vector":"1"}},{"base_weights":[3.5744593E-2,6.921822E-1,-5.2850697E-2,1.1985028E0,-1.4735861E-2,3.865538E-2,-7.6855555E-2,2.1597323E0,4.8656565E-1,-4.3668565E-1,6.679473E-1,-1.4777339E-1,4.9916464E-1,7.107842E-2,1.0874901E0,1.3192233E0,-1.5676427E-1,-1.3189923E-3,-1.3207351E-2,-1.962171E-4,2.2196481E-2,-2.7253512E-1,4.482317E-2,3.5512146E-2,2.5373906E-1,3.4762826E-2,3.3207657E-3,3.5680965E-2,1.1673473E-2,-1.0724399E-2,8.023766E-3,8.638148E-3,-5.955448E-3,-1.9396485E-3,9.153553E-3,9.81182E-3,-6.451795E-3],"categories":[],"categories_nodes":[],"categories_segments":[],"categories_sizes":[],"default_left":[0,0,0,0,0,0,0,0,0,0,0,0,0,0,0,0,0,0,0,0,0,0,0,0,0,0,0,0,0,0,0,0,0,0,0,0,0],"id":36,"left_children":[1,3,5,7,9,-1,11,13,15,17,19,21,23,-1,25,27,29,-1,-1,-1,-1,31,33,-1,35,-1,-1,-1,-1,-1,-1,-1,-1,-1,-1,-1,-1],"loss_changes":[3.7561043E1,2.7562138E1,2.7137619E1,2.9685211E1,9.670087E0,0E0,2.3031876E1,2.4780304E1,1.4579618E1,1.6537235E0,3.8971262E0,1.20787525E1,1.8898289E1,0E0,6.7485266E0,3.0830135E0,3.5240004E0,0E0,0E0,0E0,0E0,5.5149803E0,1.16337595E1,0E0,7.342452E0,0E0,0E0,0E0,0E0,0E0,0E0,0E0,0E0,0E0,0E0,0E0,0E0],"parents":[2147483647,0,0,1,1,2,2,3,3,4,4,6,6,7,7,8,8,9,9,10,10,11,11,12,12,14,14,15,15,16,16,21,21,22,22,24,24],"right_children":[2,4,6,8,10,-1,12,14,16,18,20,22,24,-1,26,28,30,-1,-1,-1,-1,32,34,-1,36,-1,-1,-1,-1,-1,-1,-1,-1,-1,-1,-1,-1],"split_conditions":[-8.660254E-1,9.676699E2,5.481534E-2,1.2265175E-1,4.698806E6,3.865538E-2,9.757408E-1,-4.332775E6,2.623E1,-9.097375E-1,1.2024554E-1,4.140059E3,8.4586203E-1,7.107842E-2,6.608957E2,5.6184045E6,7.378764E2,-1.3189923E-3,-1.3207351E-2,-1.962171E-4,2.2196481E-2,-1.793998E0,4.6420145E-1,3.5512146E-2,1.9597893E-3,3.4762826E-2,3.3207657E-3,3.5680965E-2,1.1673473E-2,-1.0724399E-2,8.023766E-3,8.638148E-3,-5.955448E-3,-1.9396485E-3,9.153553E-3,9.81182E-3,-6.451795E-3],"split_indices":[74,93,47,57,36,0,13,14,52,24,57,66,100,0,93,8,93,0,0,0,0,77,90,0,87,0,0,0,0,0,0,0,0,0,0,0,0],"split_type":[0,0,0,0,0,0,0,0,0,0,0,0,0,0,0,0,0,0,0,0,0,0,0,0,0,0,0,0,0,0,0,0,0,0,0,0,0],"sum_hessian":[6.44E2,7.6E1,5.68E2,4.4E1,3.2E1,6E0,5.62E2,1.8E1,2.6E1,2E1,1.2E1,5.01E2,6.1E1,7E0,1.1E1,1.1E1,1.5E1,8E0,1.2E1,5E0,7E0,3.04E2,1.97E2,9E0,5.2E1,6E0,5E0,6E0,5E0,9E0,6E0,1E1,2.94E2,1.47E2,5E1,3.7E1,1.5E1],"tree_param":{"num_deleted":"0","num_feature":"103","num_nodes":"37","size_leaf_vector":"1"}},{"base_weights":[3.956301E-2,1.664561E0,1.2553774E-2,-0E0,6.1875362E-2,-1.1287134E-1,3.484212E-1,4.0652707E-1,-2.0489828E-1,2.7611145E-1,4.2539243E-2,3.6719278E-2,1.7748721E-1,-2.2129612E-1,1.8901236E-2,9.388298E-1,4.1677397E-2,1.7796308E-2,-1.1978603E-3,-1.0364298E-2,-3.2875342E-3,8.463785E-4,3.4526907E-2,-9.4555E-3,3.545529E-3],"categories":[],"categories_nodes":[],"categories_segments":[],"categories_sizes":[],"default_left":[0,0,0,0,0,0,0,0,0,0,0,0,0,0,0,0,0,0,0,0,0,0,0,0,0],"id":37,"left_children":[1,3,5,-1,-1,7,9,11,13,15,-1,-1,17,19,-1,21,23,-1,-1,-1,-1,-1,-1,-1,-1],"loss_changes":[2.8989689E1,2.5589884E1,2.7543228E1,0E0,0E0,2.2799152E1,2.2276144E1,2.3145811E1,7.764374E0,2.6611164E1,0E0,0E0,1.0703148E1,6.654518E0,0E0,3.1482655E1,8.967507E0,0E0,0E0,0E0,0E0,0E0,0E0,0E0,0E0],"parents":[2147483647,0,0,1,1,2,2,5,5,6,6,7,7,8,8,9,9,12,12,13,13,15,15,16,16],"right_children":[2,4,6,-1,-1,8,10,12,14,16,-1,-1,18,20,-1,22,24,-1,-1,-1,-1,-1,-1,-1,-1],"split_conditions":[4.32448E10,-2.3177208E-3,1.3931589E0,-0E0,6.1875362E-2,-8.660254E-1,1.9356005E0,-1.1809331E0,3E0,1.3222899E-1,4.2539243E-2,3.6719278E-2,6.4342297E-3,-4.0862816E7,1.8901236E-2,5.048941E-1,7.038E1,1.7796308E-2,-1.1978603E-3,-1.0364298E-2,-3.2875342E-3,8.463785E-4,3.4526907E-2,-9.4555E-3,3.545529E-3],"split_indices":[54,20,97,0,0,74,98,51,30,79,0,0,79,9,0,77,49,0,0,0,0,0,0,0,0],"split_type":[0,0,0,0,0,0,0,0,0,0,0,0,0,0,0,0,0,0,0,0,0,0,0,0,0],"sum_hessian":[6.62E2,1E1,6.52E2,5E0,5E0,4.75E2,1.77E2,7.1E1,4.04E2,1.71E2,6E0,9E0,6.2E1,3.99E2,5E0,4.4E1,1.27E2,1.5E1,4.7E1,6.3E1,3.36E2,2.1E1,2.3E1,2.6E1,1.01E2],"tree_param":{"num_deleted":"0","num_feature":"103","num_nodes":"25","size_leaf_vector":"1"}},{"base_weights":[1.9368201E-2,5.0559666E-2,-6.911635E-3,3.8122535E-1,-1.0410641E-1,1.1328729E0,8.255146E-2,-3.2628825E-1,7.081962E-2,1.6384615E0,-2.0102267E-1,-2.3906082E-1,6.1033803E-1,2.286793E-2,-3.7019682E-1,4.365102E-2,2.7591148E-2,2.6221047E-3,3.954161E-2,-1.4178047E-2,6.519272E-3,-6.7862826E-3,1.430457E-2,3.1149432E-2,6.7026555E-3,-1.0729374E-2,-4.9916743E-3,-3.225864E-4,1.7877722E-2],"categories":[],"categories_nodes":[],"categories_segments":[],"categories_sizes":[],"default_left":[0,0,0,0,0,0,0,0,0,0,0,0,0,0,0,0,0,0,0,0,0,0,0,0,0,0,0,0,0],"id":38,"left_children":[1,-1,3,5,7,9,11,13,15,17,19,21,23,-1,25,-1,27,-1,-1,-1,-1,-1,-1,-1,-1,-1,-1,-1,-1],"loss_changes":[4.3242447E1,0E0,2.4456076E1,2.9004185E1,2.0194622E1,2.5153381E1,1.605715E1,1.5064825E1,2.638755E1,1.3366478E1,3.094581E0,5.8007903E0,8.819292E0,0E0,4.321739E0,0E0,1.0880048E1,0E0,0E0,0E0,0E0,0E0,0E0,0E0,0E0,0E0,0E0,0E0,0E0],"parents":[2147483647,0,0,2,2,3,3,4,4,5,5,6,6,7,7,8,8,9,9,10,10,11,11,12,12,14,14,16,16],"right_children":[2,-1,4,6,8,10,12,14,16,18,20,22,24,-1,26,-1,28,-1,-1,-1,-1,-1,-1,-1,-1,-1,-1,-1,-1],"split_conditions":[4.32448E10,5.0559666E-2,-7.0710677E-1,4.737176E10,8.199759E5,1.2715486E0,7.189E1,5.758164E-1,1.03351116E-1,2.4251289E5,3.1815988E-1,1.4647628E7,8.0891436E-1,2.286793E-2,8.182221E-1,4.365102E-2,3.85769E0,2.6221047E-3,3.954161E-2,-1.4178047E-2,6.519272E-3,-6.7862826E-3,1.430457E-2,3.1149432E-2,6.7026555E-3,-1.0729374E-2,-4.9916743E-3,-3.225864E-4,1.7877722E-2],"split_indices":[54,0,74,54,39,100,26,100,47,39,47,8,100,0,79,0,41,0,0,0,0,0,0,0,0,0,0,0,0],"split_type":[0,0,0,0,0,0,0,0,0,0,0,0,0,0,0,0,0,0,0,0,0,0,0,0,0,0,0,0,0],"sum_hessian":[6.53E2,6E0,6.47E2,1.29E2,5.18E2,3.6E1,9.3E1,2.28E2,2.9E2,2.6E1,1E1,5.8E1,3.5E1,6E0,2.22E2,5E0,2.85E2,5E0,2.1E1,5E0,5E0,5.3E1,5E0,7E0,2.8E1,9.2E1,1.3E2,2.72E2,1.3E1],"tree_param":{"num_deleted":"0","num_feature":"103","num_nodes":"29","size_leaf_vector":"1"}},{"base_weights":[-9.176057E-3,3.2188174E-1,-1.3978273E-1,6.3997036E-1,-1.1702964E-1,-3.0449418E-2,-4.0269586E-1,1.4197406E0,2.370031E-1,8.702431E-1,-3.2415903E-1,6.1512756E-1,-9.422756E-2,-5.232961E-1,4.437823E-2,5.562826E-2,9.093332E-1,6.2436664E-1,-2.89709E-1,2.0580387E-2,1.0561245E-2,1.913124E-1,-5.4569024E-1,3.4898747E-2,1.6538624E-1,-2.5291395E-1,1.1247819E-1,9.433314E-3,-6.1367357E-1,1.38396E-2,-2.9243028E-1,2.9595988E-2,2.5589268E-3,2.2686217E-3,2.7184514E-2,9.5177675E-3,-1.0201456E-2,1.2486481E-2,-5.044291E-3,-1.42042255E-2,-3.853321E-3,-4.062051E-3,7.3539615E-3,1.3691844E-2,-5.99548E-3,2.303534E-2,8.253089E-4,-5.2092867E-3,-1.4527178E-2,-1.0590402E-2,6.06789E-3],"categories":[],"categories_nodes":[],"categories_segments":[],"categories_sizes":[],"default_left":[0,0,0,0,0,0,0,0,0,0,0,0,0,0,0,0,0,0,0,0,0,0,0,0,0,0,0,0,0,0,0,0,0,0,0,0,0,0,0,0,0,0,0,0,0,0,0,0,0,0,0],"id":39,"left_children":[1,3,5,7,9,11,13,15,17,19,21,23,25,27,29,-1,31,33,35,-1,-1,37,39,-1,41,43,45,-1,47,-1,49,-1,-1,-1,-1,-1,-1,-1,-1,-1,-1,-1,-1,-1,-1,-1,-1,-1,-1,-1,-1],"loss_changes":[2.6263924E1,2.4071526E1,1.2495674E1,3.1007324E1,1.5085478E1,1.2734762E1,6.9331493E0,2.1283325E1,1.3790583E1,1.8286324E-1,7.0441723E0,1.3799408E1,9.273211E0,9.302805E0,6.2455373E0,0E0,1.1268616E1,1.4371091E1,5.054746E0,0E0,0E0,3.7551603E0,2.3312101E0,0E0,1.6186068E0,7.165206E0,8.9908285E0,0E0,3.4928894E0,0E0,2.7955925E0,0E0,0E0,0E0,0E0,0E0,0E0,0E0,0E0,0E0,0E0,0E0,0E0,0E0,0E0,0E0,0E0,0E0,0E0,0E0,0E0],"parents":[2147483647,0,0,1,1,2,2,3,3,4,4,5,5,6,6,7,7,8,8,9,9,10,10,11,11,12,12,13,13,14,14,16,16,17,17,18,18,21,21,22,22,24,24,25,25,26,26,28,28,30,30],"right_children":[2,4,6,8,10,12,14,16,18,20,22,24,26,28,30,-1,32,34,36,-1,-1,38,40,-1,42,44,46,-1,48,-1,50,-1,-1,-1,-1,-1,-1,-1,-1,-1,-1,-1,-1,-1,-1,-1,-1,-1,-1,-1,-1],"split_conditions":[-5E-1,9.676699E2,2.1487619E-3,-2.900832E-3,-1.0227007E-2,4.4556222E10,4.0090346E-1,2.5594962E-1,9.615142E-1,3.8807786E-1,2.589E1,9.446283E-1,1.159265E6,5.867566E2,5.9754723E-1,5.562826E-2,1.730561E6,2.6456633E-1,-3.977967E-3,2.0580387E-2,1.0561245E-2,-1.0966033E0,-7.3940635E-2,3.4898747E-2,-1.162242E7,-4.8786052E7,1.949E1,9.433314E-3,-9.9409944E7,1.38396E-2,1.864426E0,2.9595988E-2,2.5589268E-3,2.2686217E-3,2.7184514E-2,9.5177675E-3,-1.0201456E-2,1.2486481E-2,-5.044291E-3,-1.42042255E-2,-3.853321E-3,-4.062051E-3,7.3539615E-3,1.3691844E-2,-5.99548E-3,2.303534E-2,8.253089E-4,-5.2092867E-3,-1.4527178E-2,-1.0590402E-2,6.06789E-3],"split_indices":[74,93,59,86,20,54,19,47,100,47,29,100,39,93,19,0,61,47,89,0,0,60,3,0,14,1,52,0,55,0,98,0,0,0,0,0,0,0,0,0,0,0,0,0,0,0,0,0,0,0,0],"split_type":[0,0,0,0,0,0,0,0,0,0,0,0,0,0,0,0,0,0,0,0,0,0,0,0,0,0,0,0,0,0,0,0,0,0,0,0,0,0,0,0,0,0,0,0,0,0,0,0,0,0,0],"sum_hessian":[6.06E2,1.71E2,4.35E2,9.9E1,7.2E1,3.08E2,1.27E2,3.3E1,6.6E1,1.2E1,6E1,2.7E1,2.81E2,1E2,2.7E1,8E0,2.5E1,3.8E1,2.8E1,7E0,5E0,1.8E1,4.2E1,7E0,2E1,1.59E2,1.22E2,8E0,9.2E1,9E0,1.8E1,1.4E1,1.1E1,2.3E1,1.5E1,6E0,2.2E1,9E0,9E0,2.8E1,1.4E1,7E0,1.3E1,7E0,1.52E2,7E0,1.15E2,2.3E1,6.9E1,1.3E1,5E0],"tree_param":{"num_deleted":"0","num_feature":"103","num_nodes":"51","size_leaf_vector":"1"}},{"base_weights":[7.7551506E-3,6.1020887E-1,-7.066045E-2,4.248624E-2,4.3072966E-1,2.626844E-2,-9.187585E-2,1.884506E-1,1.713269E0,-3.336042E-1,1.7382676E-2,-4.81412E-3,2.3205385E-2,5.2058604E-2,1.1573483E-2,-1.3353822E-1,-5.346076E-1,-1.744338E-1,1.5110302E-1,1.3185779E-2,-3.3092033E-3,3.8318688E-3,-7.2184023E-3,-7.2053215E-3,-1.3676823E-2,9.825712E-3,-4.6069333E-3,8.433494E-3,-1.20945E-3],"categories":[],"categories_nodes":[],"categories_segments":[],"categories_sizes":[],"default_left":[0,0,0,0,0,0,0,0,0,0,0,0,0,0,0,0,0,0,0,0,0,0,0,0,0,0,0,0,0],"id":40,"left_children":[1,3,5,-1,7,-1,9,11,13,15,17,19,-1,-1,-1,21,23,25,27,-1,-1,-1,-1,-1,-1,-1,-1,-1,-1],"loss_changes":[3.1089869E1,1.9738894E1,1.7119354E1,0E0,2.1025013E1,0E0,1.51750145E1,1.1105953E1,9.537497E0,7.0997334E0,1.0172096E1,5.375517E0,0E0,0E0,0E0,6.776544E0,2.0610676E0,6.137274E0,1.3422655E1,0E0,0E0,0E0,0E0,0E0,0E0,0E0,0E0,0E0,0E0],"parents":[2147483647,0,0,1,1,2,2,4,4,6,6,7,7,8,8,9,9,10,10,11,11,15,15,16,16,17,17,18,18],"right_children":[2,4,6,-1,8,-1,10,12,14,16,18,20,-1,-1,-1,22,24,26,28,-1,-1,-1,-1,-1,-1,-1,-1,-1,-1],"split_conditions":[-8.660254E-1,-1.484196E0,7.5620085E-2,4.248624E-2,1.3284285E-2,2.626844E-2,6.68258E4,4.5269373E-1,2.1435145E6,2.235E-3,1.445138E5,-3.466756E-1,2.3205385E-2,5.2058604E-2,1.1573483E-2,5.9743947E-3,2.1487619E-3,-7.0710677E-1,6.484452E-3,1.3185779E-2,-3.3092033E-3,3.8318688E-3,-7.2184023E-3,-7.2053215E-3,-1.3676823E-2,9.825712E-3,-4.6069333E-3,8.433494E-3,-1.20945E-3],"split_indices":[74,13,47,0,59,0,34,73,40,21,38,79,0,0,0,78,59,74,78,0,0,0,0,0,0,0,0,0,0],"split_type":[0,0,0,0,0,0,0,0,0,0,0,0,0,0,0,0,0,0,0,0,0,0,0,0,0,0,0,0,0],"sum_hessian":[6.56E2,7.5E1,5.81E2,7E0,6.8E1,8E0,5.73E2,5.8E1,1E1,1.78E2,3.95E2,4.9E1,9E0,5E0,5E0,9E1,8.8E1,1.62E2,2.33E2,9E0,4E1,3.7E1,5.3E1,4.2E1,4.6E1,1.2E1,1.5E2,1.02E2,1.31E2],"tree_param":{"num_deleted":"0","num_feature":"103","num_nodes":"29","size_leaf_vector":"1"}},{"base_weights":[-1.591147E-2,3.78705E-2,-3.8924534E-2,5.5279416E-1,