{"learner":{"attributes":{"scikit_learn":"{\"_estimator_type\": \"regressor\"}"},"feature_names":[],"feature_types":[],"gradient_booster":{"model":{"gbtree_model_param":{"num_parallel_tree":"1","num_trees":"500"},"iteration_indptr":[0,1,2,3,4,5,6,7,8,9,10,11,12,13,14,15,16,17,18,19,20,21,22,23,24,25,26,27,28,29,30,31,32,33,34,35,36,37,38,39,40,41,42,43,44,45,46,47,48,49,50,51,52,53,54,55,56,57,58,59,60,61,62,63,64,65,66,67,68,69,70,71,72,73,74,75,76,77,78,79,80,81,82,83,84,85,86,87,88,89,90,91,92,93,94,95,96,97,98,99,100,101,102,103,104,105,106,107,108,109,110,111,112,113,114,115,116,117,118,119,120,121,122,123,124,125,126,127,128,129,130,131,132,133,134,135,136,137,138,139,140,141,142,143,144,145,146,147,148,149,150,151,152,153,154,155,156,157,158,159,160,161,162,163,164,165,166,167,168,169,170,171,172,173,174,175,176,177,178,179,180,181,182,183,184,185,186,187,188,189,190,191,192,193,194,195,196,197,198,199,200,201,202,203,204,205,206,207,208,209,210,211,212,213,214,215,216,217,218,219,220,221,222,223,224,225,226,227,228,229,230,231,232,233,234,235,236,237,238,239,240,241,242,243,244,245,246,247,248,249,250,251,252,253,254,255,256,257,258,259,260,261,262,263,264,265,266,267,268,269,270,271,272,273,274,275,276,277,278,279,280,281,282,283,284,285,286,287,288,289,290,291,292,293,294,295,296,297,298,299,300,301,302,303,304,305,306,307,308,309,310,311,312,313,314,315,316,317,318,319,320,321,322,323,324,325,326,327,328,329,330,331,332,333,334,335,336,337,338,339,340,341,342,343,344,345,346,347,348,349,350,351,352,353,354,355,356,357,358,359,360,361,362,363,364,365,366,367,368,369,370,371,372,373,374,375,376,377,378,379,380,381,382,383,384,385,386,387,388,389,390,391,392,393,394,395,396,397,398,399,400,401,402,403,404,405,406,407,408,409,410,411,412,413,414,415,416,417,418,419,420,421,422,423,424,425,426,427,428,429,430,431,432,433,434,435,436,437,438,439,440,441,442,443,444,445,446,447,448,449,450,451,452,453,454,455,456,457,458,459,460,461,462,463,464,465,466,467,468,469,470,471,472,473,474,475,476,477,478,479,480,481,482,483,484,485,486,487,488,489,490,491,492,493,494,495,496,497,498,499,500],"tree_info":[0,0,0,0,0,0,0,0,0,0,0,0,0,0,0,0,0,0,0,0,0,0,0,0,0,0,0,0,0,0,0,0,0,0,0,0,0,0,0,0,0,0,0,0,0,0,0,0,0,0,0,0,0,0,0,0,0,0,0,0,0,0,0,0,0,0,0,0,0,0,0,0,0,0,0,0,0,0,0,0,0,0,0,0,0,0,0,0,0,0,0,0,0,0,0,0,0,0,0,0,0,0,0,0,0,0,0,0,0,0,0,0,0,0,0,0,0,0,0,0,0,0,0,0,0,0,0,0,0,0,0,0,0,0,0,0,0,0,0,0,0,0,0,0,0,0,0,0,0,0,0,0,0,0,0,0,0,0,0,0,0,0,0,0,0,0,0,0,0,0,0,0,0,0,0,0,0,0,0,0,0,0,0,0,0,0,0,0,0,0,0,0,0,0,0,0,0,0,0,0,0,0,0,0,0,0,0,0,0,0,0,0,0,0,0,0,0,0,0,0,0,0,0,0,0,0,0,0,0,0,0,0,0,0,0,0,0,0,0,0,0,0,0,0,0,0,0,0,0,0,0,0,0,0,0,0,0,0,0,0,0,0,0,0,0,0,0,0,0,0,0,0,0,0,0,0,0,0,0,0,0,0,0,0,0,0,0,0,0,0,0,0,0,0,0,0,0,0,0,0,0,0,0,0,0,0,0,0,0,0,0,0,0,0,0,0,0,0,0,0,0,0,0,0,0,0,0,0,0,0,0,0,0,0,0,0,0,0,0,0,0,0,0,0,0,0,0,0,0,0,0,0,0,0,0,0,0,0,0,0,0,0,0,0,0,0,0,0,0,0,0,0,0,0,0,0,0,0,0,0,0,0,0,0,0,0,0,0,0,0,0,0,0,0,0,0,0,0,0,0,0,0,0,0,0,0,0,0,0,0,0,0,0,0,0,0,0,0,0,0,0,0,0,0,0,0,0,0,0,0,0,0,0,0,0,0,0,0,0,0,0,0,0,0,0,0,0,0,0,0,0,0,0,0,0,0,0,0,0,0,0,0,0,0,0,0,0,0,0,0,0,0,0,0,0,0,0,0,0,0,0,0,0,0,0,0,0,0,0,0,0,0,0,0,0,0,0,0,0,0],"trees":[{"base_weights":[-1.0586152E-2,1.8791649E-1,-1.2753547E0,-4.310724E0,2.1184266E-1,-3.4861488E0,5.1209456E-1,-2.0688644E-1,-4.3486852E-2,7.034455E-1,3.9008018E-2,-1.2726103E1,-2.2578413E0,3.9969966E0,4.6080776E-2,1.569817E-2,1.7281687E-1,-3.1499517E-1,4.95486E-3,-5.7560395E-2,-5.5762905E-1,-3.683562E-2,-1.22390024E-1,5.7979558E-2,2.864071E-1,-6.841692E-2,1.1080861E-2],"categories":[],"categories_nodes":[],"categories_segments":[],"categories_sizes":[],"default_left":[0,0,0,0,0,0,0,0,0,0,0,0,0,0,0,0,0,0,0,0,0,0,0,0,0,0,0],"id":0,"left_children":[1,3,5,7,9,11,13,-1,-1,15,17,19,21,23,25,-1,-1,-1,-1,-1,-1,-1,-1,-1,-1,-1,-1],"loss_changes":[1.7007771E3,6.307075E2,3.6336792E3,2.184917E2,4.9482532E2,4.634414E3,8.260338E2,0E0,0E0,1.3767599E3,5.7322515E3,3.0029922E3,6.774906E2,6.678164E2,3.3912354E2,0E0,0E0,0E0,0E0,0E0,0E0,0E0,0E0,0E0,0E0,0E0,0E0],"parents":[2147483647,0,0,1,1,2,2,3,3,4,4,5,5,6,6,9,9,10,10,11,11,12,12,13,13,14,14],"right_children":[2,4,6,8,10,12,14,-1,-1,16,18,20,22,24,26,-1,-1,-1,-1,-1,-1,-1,-1,-1,-1,-1,-1],"split_conditions":[7.343E-5,4.3E-4,8.484E-5,0E0,-5.28E-6,1.33613E-5,1.0885E-5,-2.0688644E-1,-4.3486852E-2,-6.32E-6,-3.98E-6,-1.7933904E7,8.055E-5,5.1018358E8,9.276E-1,1.569817E-2,1.7281687E-1,-3.1499517E-1,4.95486E-3,-5.7560395E-2,-5.5762905E-1,-3.683562E-2,-1.22390024E-1,5.7979558E-2,2.864071E-1,-6.841692E-2,1.1080861E-2],"split_indices":[12,2,12,15,12,13,13,0,0,12,12,7,12,7,14,0,0,0,0,0,0,0,0,0,0,0,0],"split_type":[0,0,0,0,0,0,0,0,0,0,0,0,0,0,0,0,0,0,0,0,0,0,0,0,0,0,0],"sum_hessian":[6.772E3,5.854E3,9.18E2,3E1,5.824E3,4.1E2,5.08E2,1.5E1,1.5E1,1.514E3,4.31E3,4.7E1,3.63E2,5.9E1,4.49E2,1.463E3,5.1E1,5E1,4.26E3,1.7E1,3E1,2.33E2,1.3E2,4.4E1,1.5E1,5.4E1,3.95E2],"tree_param":{"num_deleted":"0","num_feature":"40","num_nodes":"27","size_leaf_vector":"1"}},{"base_weights":[-1.2525732E-2,2.3513229E-1,-8.76869E-1,-1.5101568E-1,2.6096928E-1,-1.4696416E0,7.1718884E-1,7.501901E-1,6.350063E-2,-6.576717E-1,-3.8120522E0,3.0277882E0,3.2436308E-1,1.7077412E-2,1.6980347E-1,-3.1170025E-1,6.2843338E-3,2.2556303E-2,-3.416404E-2,-3.8223922E-1,-6.923821E-2,1.23944744E-1,1.2702062E-2,2.0179892E-2,-4.6366084E-2],"categories":[],"categories_nodes":[],"categories_segments":[],"categories_sizes":[],"default_left":[0,0,0,0,0,0,0,0,0,0,0,0,0,0,0,0,0,0,0,0,0,0,0,0,0],"id":1,"left_children":[1,3,5,-1,7,9,11,13,15,17,19,21,23,-1,-1,-1,-1,-1,-1,-1,-1,-1,-1,-1,-1],"loss_changes":[1.4657356E3,7.2534607E2,1.4421228E3,0E0,5.115917E2,2.1120332E3,3.744551E2,1.3492135E3,5.761709E3,5.617462E2,3.8102407E3,1.7026343E2,2.3215883E2,0E0,0E0,0E0,0E0,0E0,0E0,0E0,0E0,0E0,0E0,0E0,0E0],"parents":[2147483647,0,0,1,1,2,2,4,4,5,5,6,6,7,7,8,8,9,9,10,10,11,11,12,12],"right_children":[2,4,6,-1,8,10,12,14,16,18,20,22,24,-1,-1,-1,-1,-1,-1,-1,-1,-1,-1,-1,-1],"split_conditions":[6.178E-5,4.3E-4,8.638E-5,-1.5101568E-1,-5.28E-6,7.997E-5,1.1809E-5,-6.32E-6,-3.98E-6,1.51873E-5,1.33613E-5,1.336642E3,7.43574E-1,1.7077412E-2,1.6980347E-1,-3.1170025E-1,6.2843338E-3,2.2556303E-2,-3.416404E-2,-3.8223922E-1,-6.923821E-2,1.23944744E-1,1.2702062E-2,2.0179892E-2,-4.6366084E-2],"split_indices":[12,2,12,0,12,12,13,12,12,13,13,0,8,0,0,0,0,0,0,0,0,0,0,0,0],"split_type":[0,0,0,0,0,0,0,0,0,0,0,0,0,0,0,0,0,0,0,0,0,0,0,0,0],"sum_hessian":[6.845E3,5.321E3,1.524E3,2.5E1,5.296E3,1.111E3,4.13E2,1.522E3,3.774E3,8.26E2,2.85E2,5.9E1,3.54E2,1.469E3,5.3E1,5.1E1,3.723E3,2.1E2,6.16E2,4E1,2.45E2,4.1E1,1.8E1,2.99E2,5.5E1],"tree_param":{"num_deleted":"0","num_feature":"40","num_nodes":"25","size_leaf_vector":"1"}},{"base_weights":[-1.51684545E-2,-5.1157236E-1,1.7365156E-1,-2.1271427E0,-1.8454011E-1,7.2006056E-5,5.033631E-1,-1.6677046E-1,-3.2074132E0,1.539964E-1,-1.9235386E0,-5.4743685E-2,2.1296434E0,9.292659E-1,3.179598E-1,1.7395476E-2,-8.466197E-2,-3.6558805E-3,-1.2254415E-1,1.8816363E-4,1.0340633E-1,-1.3364808E-1,-2.8643234E-2,-2.2655465E-2,2.2713924E-3,4.0251832E-2,1.21616304E-1,8.1324615E-2,2.462524E-2,-1.6723994E-2,1.1821753E-2],"categories":[],"categories_nodes":[],"categories_segments":[],"categories_sizes":[],"default_left":[0,0,0,0,0,0,0,0,0,0,0,0,0,0,0,0,0,0,0,0,0,0,0,0,0,0,0,0,0,0,0],"id":2,"left_children":[1,3,5,7,9,11,13,15,17,19,21,23,25,27,29,-1,-1,-1,-1,-1,-1,-1,-1,-1,-1,-1,-1,-1,-1,-1,-1],"loss_changes":[6.367435E2,9.884354E2,2.8158423E2,6.662135E2,9.176903E2,3.76791E2,1.3358133E2,2.258826E2,5.4865063E2,6.344353E2,6.180966E2,2.875056E2,1.16828064E2,9.67081E1,7.907996E1,0E0,0E0,0E0,0E0,0E0,0E0,0E0,0E0,0E0,0E0,0E0,0E0,0E0,0E0,0E0,0E0],"parents":[2147483647,0,0,1,1,2,2,3,3,4,4,5,5,6,6,7,7,8,8,9,9,10,10,11,11,12,12,13,13,14,14],"right_children":[2,4,6,8,10,12,14,16,18,20,22,24,26,28,30,-1,-1,-1,-1,-1,-1,-1,-1,-1,-1,-1,-1,-1,-1,-1,-1],"split_conditions":[1.545E-3,-1.5315107E8,3.169E-3,-3.515273E8,1.095856E0,7.430129E8,-9.14199E-1,1.47391E0,-1.722945E0,4.0151485E8,1.708908E7,-1.553749E0,2.717802E0,-2.32979E-1,-9.235426E8,1.7395476E-2,-8.466197E-2,-3.6558805E-3,-1.2254415E-1,1.8816363E-4,1.0340633E-1,-1.3364808E-1,-2.8643234E-2,-2.2655465E-2,2.2713924E-3,4.0251832E-2,1.21616304E-1,8.1324615E-2,2.462524E-2,-1.6723994E-2,1.1821753E-2],"split_indices":[2,7,2,7,8,7,15,15,8,7,7,15,15,32,7,0,0,0,0,0,0,0,0,0,0,0,0,0,0,0,0],"split_type":[0,0,0,0,0,0,0,0,0,0,0,0,0,0,0,0,0,0,0,0,0,0,0,0,0,0,0,0,0,0,0],"sum_hessian":[6.791E3,1.871E3,4.92E3,3.14E2,1.557E3,3.224E3,1.696E3,1.12E2,2.02E2,1.304E3,2.53E2,3.144E3,8E1,5.13E2,1.183E3,8.8E1,2.4E1,4.5E1,1.57E2,1.249E3,5.5E1,6.9E1,1.84E2,4.93E2,2.651E3,5.8E1,2.2E1,2.8E1,4.85E2,9.4E1,1.089E3],"tree_param":{"num_deleted":"0","num_feature":"40","num_nodes":"31","size_leaf_vector":"1"}},{"base_weights":[8.037019E-3,1.8611416E-1,-1.1445743E0,7.7055305E-1,-1.1635907E-2,-3.1230736E0,3.8944763E-1,5.7718307E-1,6.108673E0,-9.414749E0,1.0933973E-1,-1.3578578E1,-1.7848793E0,3.3720634E0,1.7180076E-2,3.740255E-3,5.259426E-2,3.118672E-1,1.226123E-1,-5.839974E-1,-9.8606445E-2,-1.22530974E-1,4.211846E-3,-6.387034E-1,-1.12404495E-1,1.5319793E-2,-7.181215E-2,4.273995E-2,2.480094E-1,-5.9369583E-2,8.506202E-3],"categories":[],"categories_nodes":[],"categories_segments":[],"categories_sizes":[],"default_left":[0,0,0,0,0,0,0,0,0,0,0,0,0,0,0,0,0,0,0,0,0,0,0,0,0,0,0,0,0,0,0],"id":3,"left_children":[1,3,5,7,9,11,13,15,17,19,21,23,25,27,29,-1,-1,-1,-1,-1,-1,-1,-1,-1,-1,-1,-1,-1,-1,-1,-1],"loss_changes":[1.3972793E3,6.8161786E2,2.7664307E3,1.5348636E3,5.015132E3,5.542842E3,5.7031335E2,7.658618E2,4.0671606E2,3.3831323E3,5.6696655E2,3.3295361E3,4.9618225E2,5.305973E2,2.4390962E2,0E0,0E0,0E0,0E0,0E0,0E0,0E0,0E0,0E0,0E0,0E0,0E0,0E0,0E0,0E0,0E0],"parents":[2147483647,0,0,1,1,2,2,3,3,4,4,5,5,6,6,7,7,8,8,9,9,10,10,11,11,12,12,13,13,14,14],"right_children":[2,4,6,8,10,12,14,16,18,20,22,24,26,28,30,-1,-1,-1,-1,-1,-1,-1,-1,-1,-1,-1,-1,-1,-1,-1,-1],"split_conditions":[7.343E-5,-5.28E-6,8.484E-5,-6.32E-6,-3.98E-6,1.33613E-5,1.0885E-5,-1.36142E-5,-1.6185E-5,1.084E-3,4.3E-4,1.2224833E7,1.91557E-5,5.274485E8,9.276E-1,3.740255E-3,5.259426E-2,3.118672E-1,1.226123E-1,-5.839974E-1,-9.8606445E-2,-1.22530974E-1,4.211846E-3,-6.387034E-1,-1.12404495E-1,1.5319793E-2,-7.181215E-2,4.273995E-2,2.480094E-1,-5.9369583E-2,8.506202E-3],"split_indices":[12,12,12,12,12,13,13,13,13,2,2,10,13,7,14,0,0,0,0,0,0,0,0,0,0,0,0,0,0,0,0],"split_type":[0,0,0,0,0,0,0,0,0,0,0,0,0,0,0,0,0,0,0,0,0,0,0,0,0,0,0,0,0,0,0],"sum_hessian":[6.806E3,5.896E3,9.1E2,1.49E3,4.406E3,3.97E2,5.13E2,1.439E3,5.1E1,5.5E1,4.351E3,4.4E1,3.53E2,5.6E1,4.57E2,1.04E3,3.99E2,1.5E1,3.6E1,2E1,3.5E1,3.1E1,4.32E3,2.4E1,2E1,7.4E1,2.79E2,4.1E1,1.5E1,5.3E1,4.04E2],"tree_param":{"num_deleted":"0","num_feature":"40","num_nodes":"31","size_leaf_vector":"1"}},{"base_weights":[-1.9961867E-2,1.4674167E-1,-1.1423719E0,7.1530515E-1,-4.8318844E-2,-3.2886546E0,5.576132E-1,5.2726454E-1,5.8976483E0,-1.0318594E1,8.575215E-2,-1.29239235E1,-2.0883522E0,3.3288713E0,1.4361751E-1,-1.9622898E-2,2.7088834E-2,2.9975694E-1,1.2047763E-1,-7.6232105E-2,-5.169099E-1,-1.1535503E-1,3.5254485E-3,-6.17267E-1,-6.511505E-2,-8.258991E-2,1.4889012E-2,1.4454918E-1,-2.2187708E-2,-5.568556E-2,1.217833E-2],"categories":[],"categories_nodes":[],"categories_segments":[],"categories_sizes":[],"default_left":[0,0,0,0,0,0,0,0,0,0,0,0,0,0,0,0,0,0,0,0,0,0,0,0,0,0,0,0,0,0,0],"id":4,"left_children":[1,3,5,7,9,11,13,15,17,19,21,23,25,27,29,-1,-1,-1,-1,-1,-1,-1,-1,-1,-1,-1,-1,-1,-1,-1,-1],"loss_changes":[1.2761683E3,6.5865094E2,3.2202148E3,1.4745508E3,6.090763E3,4.48195E3,5.647881E2,6.508313E2,3.6679858E2,3.0183418E3,5.4520483E2,3.4911646E3,5.9941296E2,3.9179285E2,2.2618735E2,0E0,0E0,0E0,0E0,0E0,0E0,0E0,0E0,0E0,0E0,0E0,0E0,0E0,0E0,0E0,0E0],"parents":[2147483647,0,0,1,1,2,2,3,3,4,4,5,5,6,6,7,7,8,8,9,9,10,10,11,11,12,12,13,13,14,14],"right_children":[2,4,6,8,10,12,14,16,18,20,22,24,26,28,30,-1,-1,-1,-1,-1,-1,-1,-1,-1,-1,-1,-1,-1,-1,-1,-1],"split_conditions":[7.343E-5,-5.28E-6,8.484E-5,-6.32E-6,-3.98E-6,1.33613E-5,1.1809E-5,-4.476E-5,-1.6185E-5,-9.80309E-1,4.3E-4,1.2224833E7,2.0982E0,1.671E-3,9.276E-1,-1.9622898E-2,2.7088834E-2,2.9975694E-1,1.2047763E-1,-7.6232105E-2,-5.169099E-1,-1.1535503E-1,3.5254485E-3,-6.17267E-1,-6.511505E-2,-8.258991E-2,1.4889012E-2,1.4454918E-1,-2.2187708E-2,-5.568556E-2,1.217833E-2],"split_indices":[12,12,12,12,12,13,13,12,13,8,2,10,14,2,14,0,0,0,0,0,0,0,0,0,0,0,0,0,0,0,0],"split_type":[0,0,0,0,0,0,0,0,0,0,0,0,0,0,0,0,0,0,0,0,0,0,0,0,0,0,0,0,0,0,0],"sum_hessian":[6.818E3,5.937E3,8.81E2,1.516E3,4.421E3,3.89E2,4.92E2,1.464E3,5.2E1,5.6E1,4.365E3,4.2E1,3.47E2,6.3E1,4.29E2,3.53E2,1.111E3,1.5E1,3.7E1,2.7E1,2.9E1,3.4E1,4.331E3,2.4E1,1.8E1,2.76E2,7.1E1,4.6E1,1.7E1,4.9E1,3.8E2],"tree_param":{"num_deleted":"0","num_feature":"40","num_nodes":"31","size_leaf_vector":"1"}},{"base_weights":[3.077255E-2,2.8714082E-1,-8.2841647E-1,-1.4133368E-1,3.118726E-1,-1.393003E0,7.9760695E-1,7.645844E-1,1.2546569E-1,-5.614648E-1,-3.8627408E0,3.5249448E0,3.3263415E-1,1.799211E-2,1.577236E-1,-2.654682E-1,7.4327756E-3,1.9499162E-2,-2.9838383E-2,-6.784061E-1,-8.319668E-2,1.6013288E-1,3.5250627E-2,9.6888416E-2,2.9430382E-3],"categories":[],"categories_nodes":[],"categories_segments":[],"categories_sizes":[],"default_left":[0,0,0,0,0,0,0,0,0,0,0,0,0,0,0,0,0,0,0,0,0,0,0,0,0],"id":5,"left_children":[1,3,5,-1,7,9,11,13,15,17,19,21,23,-1,-1,-1,-1,-1,-1,-1,-1,-1,-1,-1,-1],"loss_changes":[1.5077034E3,6.527331E2,1.4452333E3,0E0,4.4260208E2,2.3960889E3,5.133058E2,1.1294365E3,4.0818804E3,4.5982095E2,5.940973E3,2.4441577E2,2.3579448E2,0E0,0E0,0E0,0E0,0E0,0E0,0E0,0E0,0E0,0E0,0E0,0E0],"parents":[2147483647,0,0,1,1,2,2,4,4,5,5,6,6,7,7,8,8,9,9,10,10,11,11,12,12],"right_children":[2,4,6,-1,8,10,12,14,16,18,20,22,24,-1,-1,-1,-1,-1,-1,-1,-1,-1,-1,-1,-1],"split_conditions":[5.992E-5,4.3E-4,8.638E-5,-1.4133368E-1,-5.28E-6,7.997E-5,1.1809E-5,-6.32E-6,-3.98E-6,1.51873E-5,1.03672E-5,1.297E-3,8.747E-5,1.799211E-2,1.577236E-1,-2.654682E-1,7.4327756E-3,1.9499162E-2,-2.9838383E-2,-6.784061E-1,-8.319668E-2,1.6013288E-1,3.5250627E-2,9.6888416E-2,2.9430382E-3],"split_indices":[12,2,12,0,12,12,13,12,12,13,13,2,12,0,0,0,0,0,0,0,0,0,0,0,0],"split_type":[0,0,0,0,0,0,0,0,0,0,0,0,0,0,0,0,0,0,0,0,0,0,0,0,0],"sum_hessian":[6.843E3,5.271E3,1.572E3,2.5E1,5.246E3,1.167E3,4.05E2,1.529E3,3.717E3,8.74E2,2.93E2,5.8E1,3.47E2,1.476E3,5.3E1,4.9E1,3.668E3,2.3E2,6.44E2,1.5E1,2.78E2,3.2E1,2.6E1,2.5E1,3.22E2],"tree_param":{"num_deleted":"0","num_feature":"40","num_nodes":"25","size_leaf_vector":"1"}},{"base_weights":[-1.6948933E-2,1.3535647E-1,-1.0179783E0,6.3258994E-1,-3.660063E-2,-3.0003383E0,5.83318E-1,4.871129E-1,5.0665E0,-8.782814E0,6.6376396E-2,-5.411605E-1,-2.287342E0,3.4718347E0,2.5941363E-1,-3.5851583E-2,2.2010576E-2,2.5372034E-1,9.797681E-2,-5.496591E-1,-9.064189E-2,-1.10292E-1,2.8534357E-3,-3.3839542E-2,-1.5831576E-1,6.251003E-2,1.7455116E-1,-3.7251275E-2,1.9216161E-2],"categories":[],"categories_nodes":[],"categories_segments":[],"categories_sizes":[],"default_left":[0,0,0,0,0,0,0,0,0,0,0,0,0,0,0,0,0,0,0,0,0,0,0,0,0,0,0,0,0],"id":6,"left_children":[1,3,5,7,9,11,13,15,17,19,21,-1,23,25,27,-1,-1,-1,-1,-1,-1,-1,-1,-1,-1,-1,-1,-1,-1],"loss_changes":[1.0355968E3,5.041219E2,2.84938E3,9.742003E2,3.9472415E3,4.2563433E3,4.63721E2,6.097228E2,2.6427454E2,2.74542E3,4.6583575E2,0E0,1.3244677E3,1.499555E2,2.57043E2,0E0,0E0,0E0,0E0,0E0,0E0,0E0,0E0,0E0,0E0,0E0,0E0,0E0,0E0],"parents":[2147483647,0,0,1,1,2,2,3,3,4,4,5,5,6,6,7,7,8,8,9,9,10,10,12,12,13,13,14,14],"right_children":[2,4,6,8,10,12,14,16,18,20,22,-1,24,26,28,-1,-1,-1,-1,-1,-1,-1,-1,-1,-1,-1,-1,-1,-1],"split_conditions":[7.343E-5,-5.28E-6,8.484E-5,-6.32E-6,-3.98E-6,9.87E-6,1.03672E-5,-5.511E-5,-1.30837E-5,1.143E-3,4.3E-4,-5.411605E-1,8.095E-5,9.116E-5,9.916E-1,-3.5851583E-2,2.2010576E-2,2.5372034E-1,9.797681E-2,-5.496591E-1,-9.064189E-2,-1.10292E-1,2.8534357E-3,-3.3839542E-2,-1.5831576E-1,6.251003E-2,1.7455116E-1,-3.7251275E-2,1.9216161E-2],"split_indices":[12,12,12,12,12,13,13,12,13,2,2,0,12,12,14,0,0,0,0,0,0,0,0,0,0,0,0,0,0],"split_type":[0,0,0,0,0,0,0,0,0,0,0,0,0,0,0,0,0,0,0,0,0,0,0,0,0,0,0,0,0],"sum_hessian":[6.79E3,5.894E3,8.96E2,1.514E3,4.38E3,4E2,4.96E2,1.467E3,4.7E1,5E1,4.33E3,1.7E1,3.83E2,4.9E1,4.47E2,1.87E2,1.28E3,1.5E1,3.2E1,1.8E1,3.2E1,3.2E1,4.298E3,2.77E2,1.06E2,3.2E1,1.7E1,9E1,3.57E2],"tree_param":{"num_deleted":"0","num_feature":"40","num_nodes":"29","size_leaf_vector":"1"}},{"base_weights":[-3.8083497E-2,1.8625061E-1,-8.308215E-1,-1.3511221E-1,2.0927225E-1,-1.4822892E0,4.3536934E-1,3.7529796E-2,6.9662714E-1,-6.174055E-1,-5.1864324E0,1.3861611E0,-7.082852E-2,-1.4362592E-2,8.044052E-3,3.35685E-2,1.0286497E-2,-4.9658947E-2,-2.7687356E-3,-2.8748995E-1,-3.1498913E-2,2.4251895E-2,1.9414136E-1,2.2251405E-2,-3.163872E-2],"categories":[],"categories_nodes":[],"categories_segments":[],"categories_sizes":[],"default_left":[0,0,0,0,0,0,0,0,0,0,0,0,0,0,0,0,0,0,0,0,0,0,0,0,0],"id":7,"left_children":[1,3,5,-1,7,9,11,13,15,17,19,21,23,-1,-1,-1,-1,-1,-1,-1,-1,-1,-1,-1,-1],"loss_changes":[1.2134313E3,5.747042E2,1.2421982E3,0E0,4.42922E2,3.1806487E3,2.4664954E2,4.6621765E2,2.0548474E2,4.3949738E2,3.4078901E3,5.17015E2,2.686042E2,0E0,0E0,0E0,0E0,0E0,0E0,0E0,0E0,0E0,0E0,0E0,0E0],"parents":[2147483647,0,0,1,1,2,2,4,4,5,5,6,6,7,7,8,8,9,9,10,10,11,11,12,12],"right_children":[2,4,6,-1,8,10,12,14,16,18,20,22,24,-1,-1,-1,-1,-1,-1,-1,-1,-1,-1,-1,-1],"split_conditions":[6.178E-5,4.3E-4,8.484E-5,-1.3511221E-1,3.188E-3,7.997E-5,1.428E-3,-1.2046729E8,1.089E-5,-1.4374667E8,1.5E-3,5.274485E8,6.0343925E6,-1.4362592E-2,8.044052E-3,3.35685E-2,1.0286497E-2,-4.9658947E-2,-2.7687356E-3,-2.8748995E-1,-3.1498913E-2,2.4251895E-2,1.9414136E-1,2.2251405E-2,-3.163872E-2],"split_indices":[12,2,12,0,2,12,2,7,12,7,2,7,7,0,0,0,0,0,0,0,0,0,0,0,0],"split_type":[0,0,0,0,0,0,0,0,0,0,0,0,0,0,0,0,0,0,0,0,0,0,0,0,0],"sum_hessian":[6.821E3,5.317E3,1.504E3,2.5E1,5.292E3,9.93E2,5.11E2,3.914E3,1.378E3,8.06E2,1.87E2,1.77E2,3.34E2,1.208E3,2.706E3,6.27E2,7.51E2,2.7E2,5.36E2,9E1,9.7E1,1.6E2,1.7E1,1.83E2,1.51E2],"tree_param":{"num_deleted":"0","num_feature":"40","num_nodes":"25","size_leaf_vector":"1"}},{"base_weights":[-1.5733866E-2,1.9792947E-1,-7.375865E-1,-1.2571561E-1,2.2050579E-1,-1.2450433E0,6.885606E-1,6.8387824E-1,2.9053627E-2,-5.1721716E-1,-3.4441772E0,1.9872568E0,-2.1172544E-1,1.5854994E-2,1.5291266E-1,-2.6326215E-1,4.477619E-3,-2.9251546E-2,2.5181279E-2,-3.7267426E-1,-7.147009E-2,9.868392E-2,9.819801E-3,2.2143373E-2,-4.4678375E-2],"categories":[],"categories_nodes":[],"categories_segments":[],"categories_sizes":[],"default_left":[0,0,0,0,0,0,0,0,0,0,0,0,0,0,0,0,0,0,0,0,0,0,0,0,0],"id":8,"left_children":[1,3,5,-1,7,9,11,13,15,17,19,21,23,-1,-1,-1,-1,-1,-1,-1,-1,-1,-1,-1,-1],"loss_changes":[1.0534601E3,5.226526E2,1.1298975E3,0E0,4.651233E2,1.8400984E3,4.7996948E2,1.047949E3,3.928853E3,5.387003E2,2.6955132E3,3.61706E2,2.9604733E2,0E0,0E0,0E0,0E0,0E0,0E0,0E0,0E0,0E0,0E0,0E0,0E0],"parents":[2147483647,0,0,1,1,2,2,4,4,5,5,6,6,7,7,8,8,9,9,10,10,11,11,12,12],"right_children":[2,4,6,-1,8,10,12,14,16,18,20,22,24,-1,-1,-1,-1,-1,-1,-1,-1,-1,-1,-1,-1],"split_conditions":[5.992E-5,4.3E-4,8.638E-5,-1.2571561E-1,-5.28E-6,7.997E-5,1.47E-3,-6.32E-6,-3.98E-6,1.4828E0,1.9347252E7,2.5265E-2,-3.335899E7,1.5854994E-2,1.5291266E-1,-2.6326215E-1,4.477619E-3,-2.9251546E-2,2.5181279E-2,-3.7267426E-1,-7.147009E-2,9.868392E-2,9.819801E-3,2.2143373E-2,-4.4678375E-2],"split_indices":[12,2,12,0,12,12,2,12,12,14,3,8,7,0,0,0,0,0,0,0,0,0,0,0,0],"split_type":[0,0,0,0,0,0,0,0,0,0,0,0,0,0,0,0,0,0,0,0,0,0,0,0,0],"sum_hessian":[6.828E3,5.269E3,1.559E3,2.6E1,5.243E3,1.15E3,4.09E2,1.532E3,3.711E3,8.65E2,2.85E2,1.67E2,2.42E2,1.481E3,5.1E1,4.9E1,3.662E3,6.47E2,2.18E2,2.9E1,2.56E2,9.3E1,7.4E1,1.39E2,1.03E2],"tree_param":{"num_deleted":"0","num_feature":"40","num_nodes":"25","size_leaf_vector":"1"}},{"base_weights":[1.09178405E-2,1.7307705E-1,-1.016111E0,7.3291E-1,-2.0599833E-2,-2.860723E0,4.4923964E-1,5.909353E-1,4.7837353E0,-8.258232E0,7.8607365E-2,-5.462341E-1,-2.2331624E0,3.194275E0,1.4240651E-1,-1.7693046E-2,2.9457161E-2,2.2245346E-1,1.04357205E-1,-5.513319E-1,-8.445336E-2,-1.146077E-1,3.0395137E-3,-3.1069998E-2,-1.6623361E-1,5.034755E-2,1.9482559E-1,-4.4937566E-2,1.6637022E-2],"categories":[],"categories_nodes":[],"categories_segments":[],"categories_sizes":[],"default_left":[0,0,0,0,0,0,0,0,0,0,0,0,0,0,0,0,0,0,0,0,0,0,0,0,0,0,0,0,0],"id":9,"left_children":[1,3,5,7,9,11,13,15,17,19,21,-1,23,25,27,-1,-1,-1,-1,-1,-1,-1,-1,-1,-1,-1,-1,-1,-1],"loss_changes":[1.1334113E3,6.3741846E2,2.5099136E3,8.656338E2,3.5711384E3,3.915728E3,4.3550616E2,6.750448E2,1.4826978E2,2.8103914E3,3.8225214E2,0E0,1.5622649E3,2.4842645E2,3.164648E2,0E0,0E0,0E0,0E0,0E0,0E0,0E0,0E0,0E0,0E0,0E0,0E0,0E0,0E0],"parents":[2147483647,0,0,1,1,2,2,3,3,4,4,5,5,6,6,7,7,8,8,9,9,10,10,12,12,13,13,14,14],"right_children":[2,4,6,8,10,12,14,16,18,20,22,-1,24,26,28,-1,-1,-1,-1,-1,-1,-1,-1,-1,-1,-1,-1,-1,-1],"split_conditions":[7.343E-5,-5.28E-6,8.484E-5,-6.32E-6,-3.98E-6,9.87E-6,1.0885E-5,-4.476E-5,-1.16013E-5,1.084E-3,4.3E-4,-5.462341E-1,8.095E-5,4.655484E8,9.781E-1,-1.7693046E-2,2.9457161E-2,2.2245346E-1,1.04357205E-1,-5.513319E-1,-8.445336E-2,-1.146077E-1,3.0395137E-3,-3.1069998E-2,-1.6623361E-1,5.034755E-2,1.9482559E-1,-4.4937566E-2,1.6637022E-2],"split_indices":[12,12,12,12,12,13,13,12,13,2,2,0,12,7,14,0,0,0,0,0,0,0,0,0,0,0,0,0,0],"split_type":[0,0,0,0,0,0,0,0,0,0,0,0,0,0,0,0,0,0,0,0,0,0,0,0,0,0,0,0,0],"sum_hessian":[6.804E3,5.877E3,9.27E2,1.51E3,4.367E3,4.1E2,5.17E2,1.46E3,5E1,5.1E1,4.316E3,1.5E1,3.95E2,5.1E1,4.66E2,3.63E2,1.097E3,1.5E1,3.5E1,1.7E1,3.4E1,2.4E1,4.292E3,2.91E2,1.04E2,3.6E1,1.5E1,9.3E1,3.73E2],"tree_param":{"num_deleted":"0","num_feature":"40","num_nodes":"29","size_leaf_vector":"1"}},{"base_weights":[2.1375947E-2,1.5495913E-1,-8.3160603E-1,6.3137835E-1,-7.459201E-3,-2.3558633E0,3.5206676E-1,4.875197E-1,4.595559E0,-8.202448E0,9.1231294E-2,-5.6516743E0,-1.241801E0,1.3543775E0,-1.00661814E-1,-2.9135766E-2,2.1192744E-2,2.129144E-1,8.421467E-2,-5.087223E-1,-7.9344615E-2,1.5288469E-3,5.3120967E-2,-5.983551E-2,-3.4979212E-1,-4.9963675E-2,3.0714804E-2,2.4129678E-2,1.8848188E-1,-4.1401498E-2,1.2272909E-2],"categories":[],"categories_nodes":[],"categories_segments":[],"categories_sizes":[],"default_left":[0,0,0,0,0,0,0,0,0,0,0,0,0,0,0,0,0,0,0,0,0,0,0,0,0,0,0,0,0,0,0],"id":10,"left_children":[1,3,5,7,9,11,13,15,17,19,21,23,25,27,29,-1,-1,-1,-1,-1,-1,-1,-1,-1,-1,-1,-1,-1,-1,-1,-1],"loss_changes":[7.716902E2,4.5319977E2,1.6555013E3,8.4640094E2,3.534256E3,1.4646599E3,2.3486322E2,4.598411E2,2.117268E2,2.4833452E3,2.9169373E2,2.1945945E3,2.9068246E2,4.3068707E2,2.334897E2,0E0,0E0,0E0,0E0,0E0,0E0,0E0,0E0,0E0,0E0,0E0,0E0,0E0,0E0,0E0,0E0],"parents":[2147483647,0,0,1,1,2,2,3,3,4,4,5,5,6,6,7,7,8,8,9,9,10,10,11,11,12,12,13,13,14,14],"right_children":[2,4,6,8,10,12,14,16,18,20,22,24,26,28,30,-1,-1,-1,-1,-1,-1,-1,-1,-1,-1,-1,-1,-1,-1,-1,-1],"split_conditions":[7.343E-5,-5.28E-6,8.484E-5,-6.32E-6,-3.98E-6,1.297E-3,1.386E-3,-5.511E-5,8.08E-4,1.011E-3,6.755E-5,-1.0548703E7,2.2525E0,5.4848435E8,1.829E-3,-2.9135766E-2,2.1192744E-2,2.129144E-1,8.421467E-2,-5.087223E-1,-7.9344615E-2,1.5288469E-3,5.3120967E-2,-5.983551E-2,-3.4979212E-1,-4.9963675E-2,3.0714804E-2,2.4129678E-2,1.8848188E-1,-4.1401498E-2,1.2272909E-2],"split_indices":[12,12,12,12,12,2,2,12,2,2,12,7,14,7,2,0,0,0,0,0,0,0,0,0,0,0,0,0,0,0,0],"split_type":[0,0,0,0,0,0,0,0,0,0,0,0,0,0,0,0,0,0,0,0,0,0,0,0,0,0,0,0,0,0,0],"sum_hessian":[6.771E3,5.855E3,9.16E2,1.488E3,4.367E3,4E2,5.16E2,1.437E3,5.1E1,5.1E1,4.316E3,1E2,3E2,1.6E2,3.56E2,1.87E2,1.25E3,2E1,3.1E1,1.9E1,3.2E1,4.216E3,1E2,6.3E1,3.7E1,2.53E2,4.7E1,1.45E2,1.5E1,1.01E2,2.55E2],"tree_param":{"num_deleted":"0","num_feature":"40","num_nodes":"31","size_leaf_vector":"1"}},{"base_weights":[-3.6282185E-3,1.9781998E-1,-6.979352E-1,6.0298586E-1,3.413869E-2,-1.1670915E0,7.2472805E-1,4.6010908E-1,4.3803353E0,-7.20403E0,1.3797869E-1,-1.7451152E0,7.556978E-1,3.832556E0,3.9709276E-1,1.15030175E-2,1.50735E-1,2.4532908E-1,8.2482204E-2,-2.5492456E-2,-4.2848507E-1,-1.4017131E-3,1.825152E-2,-2.7214343E-2,-1.23178065E-1,-5.570163E-2,4.198904E-2,1.4682847E-1,8.2003824E-2,-3.202795E-3,2.6716523E-2],"categories":[],"categories_nodes":[],"categories_segments":[],"categories_sizes":[],"default_left":[0,0,0,0,0,0,0,0,0,0,0,0,0,0,0,0,0,0,0,0,0,0,0,0,0,0,0,0,0,0,0],"id":11,"left_children":[1,3,5,7,9,11,13,15,17,19,21,23,25,27,29,-1,-1,-1,-1,-1,-1,-1,-1,-1,-1,-1,-1,-1,-1,-1,-1],"loss_changes":[9.490451E2,3.4868246E2,1.01942084E3,8.1405994E2,2.8165757E3,1.2773251E3,3.8396588E2,5.0814664E2,3.1704553E2,2.3703281E3,3.2112476E2,1.7426108E3,4.5002692E2,2.7868713E1,8.5702225E1,0E0,0E0,0E0,0E0,0E0,0E0,0E0,0E0,0E0,0E0,0E0,0E0,0E0,0E0,0E0,0E0],"parents":[2147483647,0,0,1,1,2,2,3,3,4,4,5,5,6,6,7,7,8,8,9,9,10,10,11,11,12,12,13,13,14,14],"right_children":[2,4,6,8,10,12,14,16,18,20,22,24,26,28,30,-1,-1,-1,-1,-1,-1,-1,-1,-1,-1,-1,-1,-1,-1,-1,-1],"split_conditions":[6.178E-5,-5.28E-6,1.6555E0,-6.32E-6,-3.98E-6,8.781E-5,1.48722E-5,2.35407E-5,-1.25413E-5,-9.80309E-1,4.373E-5,7.951E-5,-1.464741E0,-2.818846E7,2.2525E0,1.15030175E-2,1.50735E-1,2.4532908E-1,8.2482204E-2,-2.5492456E-2,-4.2848507E-1,-1.4017131E-3,1.825152E-2,-2.7214343E-2,-1.23178065E-1,-5.570163E-2,4.198904E-2,1.4682847E-1,8.2003824E-2,-3.202795E-3,2.6716523E-2],"split_indices":[12,12,14,12,12,12,13,13,13,8,12,12,15,7,14,0,0,0,0,0,0,0,0,0,0,0,0,0,0,0,0],"split_type":[0,0,0,0,0,0,0,0,0,0,0,0,0,0,0,0,0,0,0,0,0,0,0,0,0,0,0,0,0,0,0],"sum_hessian":[6.783E3,5.258E3,1.525E3,1.512E3,3.746E3,1.147E3,3.78E2,1.458E3,5.4E1,5.2E1,3.694E3,8.82E2,2.65E2,3.5E1,3.43E2,1.435E3,2.3E1,1.5E1,3.9E1,2.8E1,2.4E1,2.653E3,1.041E3,6.52E2,2.3E2,5.2E1,2.13E2,1.6E1,1.9E1,1.7E2,1.73E2],"tree_param":{"num_deleted":"0","num_feature":"40","num_nodes":"31","size_leaf_vector":"1"}},{"base_weights":[-1.9601904E-2,1.7201965E-1,-7.0134676E-1,5.592186E-1,1.662002E-2,-1.3118943E0,4.335085E-1,4.2571047E-1,4.4049387E0,-6.922154E0,1.16667315E-1,-4.379314E-1,-5.0068994E0,3.05799E0,1.3147978E-1,1.214015E-3,4.347517E-2,2.2563982E-1,8.287654E-2,-5.0111532E-2,-4.3441856E-1,-2.2217766E-3,1.8313732E-2,-2.9975569E-2,3.4563396E-2,-6.2418634E-1,-1.0496208E-1,1.2694266E-1,7.4778064E-3,-4.4050075E-2,1.4940667E-2],"categories":[],"categories_nodes":[],"categories_segments":[],"categories_sizes":[],"default_left":[0,0,0,0,0,0,0,0,0,0,0,0,0,0,0,0,0,0,0,0,0,0,0,0,0,0,0,0,0,0,0],"id":12,"left_children":[1,3,5,7,9,11,13,15,17,19,21,23,25,27,29,-1,-1,-1,-1,-1,-1,-1,-1,-1,-1,-1,-1,-1,-1,-1,-1],"loss_changes":[8.9072614E2,3.201609E2,1.0372097E3,7.8011633E2,2.637414E3,3.1393687E3,4.1463745E2,5.8096387E2,2.3922778E2,2.1177441E3,3.528931E2,7.0436224E2,4.35677E3,1.764733E2,2.768288E2,0E0,0E0,0E0,0E0,0E0,0E0,0E0,0E0,0E0,0E0,0E0,0E0,0E0,0E0,0E0,0E0],"parents":[2147483647,0,0,1,1,2,2,3,3,4,4,5,5,6,6,7,7,8,8,9,9,10,10,11,11,12,12,13,13,14,14],"right_children":[2,4,6,8,10,12,14,16,18,20,22,24,26,28,30,-1,-1,-1,-1,-1,-1,-1,-1,-1,-1,-1,-1,-1,-1,-1,-1],"split_conditions":[6.178E-5,-5.28E-6,8.484E-5,-6.32E-6,-3.98E-6,7.997E-5,1.0885E-5,-1.36142E-5,-1.03668E-5,-8.95447E-1,4.373E-5,1.4419E0,1.011E-5,1.1185428E8,9.591E-1,1.214015E-3,4.347517E-2,2.2563982E-1,8.287654E-2,-5.0111532E-2,-4.3441856E-1,-2.2217766E-3,1.8313732E-2,-2.9975569E-2,3.4563396E-2,-6.2418634E-1,-1.0496208E-1,1.2694266E-1,7.4778064E-3,-4.4050075E-2,1.4940667E-2],"split_indices":[12,12,12,12,12,12,13,13,13,8,12,14,13,3,14,0,0,0,0,0,0,0,0,0,0,0,0,0,0,0,0],"split_type":[0,0,0,0,0,0,0,0,0,0,0,0,0,0,0,0,0,0,0,0,0,0,0,0,0,0,0,0,0,0,0],"sum_hessian":[6.816E3,5.321E3,1.495E3,1.523E3,3.798E3,9.72E2,5.23E2,1.473E3,5E1,5.3E1,3.745E3,7.87E2,1.85E2,5.3E1,4.7E2,1.071E3,4.02E2,1.6E1,3.4E1,3.2E1,2.1E1,2.702E3,1.043E3,5.82E2,2.05E2,1.5E1,1.7E2,3.7E1,1.6E1,8.7E1,3.83E2],"tree_param":{"num_deleted":"0","num_feature":"40","num_nodes":"31","size_leaf_vector":"1"}},{"base_weights":[2.4652626E-2,-2.2021841E-2,1.5953821E0,-1.801961E-1,4.7632188E-1,3.6315956E0,-1.4040893E-2,-5.383561E-1,5.34691E-2,3.5735935E-1,1.4342104E0,2.2812413E-1,2.1685176E0,-1.3642738E0,3.358855E0,-1.2734152E-1,-1.2739896E-2,8.364386E-3,-3.7305858E-2,2.708777E-2,2.8632937E-3,7.304902E-2,2.2482553E-2,1.0888519E-1,2.886321E-2,-2.9847736E-2,-8.0058925E-2,1.3003395E-1,6.318272E-2],"categories":[],"categories_nodes":[],"categories_segments":[],"categories_sizes":[],"default_left":[0,0,0,0,0,0,0,0,0,0,0,0,0,0,0,0,0,0,0,0,0,0,0,0,0,0,0,0,0],"id":13,"left_children":[1,3,5,7,9,11,13,15,17,19,21,-1,23,25,27,-1,-1,-1,-1,-1,-1,-1,-1,-1,-1,-1,-1,-1,-1],"loss_changes":[5.0048013E2,5.2250934E2,6.460071E2,4.212031E2,1.8129099E2,4.881891E2,5.098986E2,8.3502686E2,8.9050574E2,2.0300737E2,1.18471375E2,0E0,1.10614746E2,3.5519623E1,2.933786E1,0E0,0E0,0E0,0E0,0E0,0E0,0E0,0E0,0E0,0E0,0E0,0E0,0E0,0E0],"parents":[2147483647,0,0,1,1,2,2,3,3,4,4,5,5,6,6,7,7,8,8,9,9,10,10,12,12,13,13,14,14],"right_children":[2,4,6,8,10,12,14,16,18,20,22,-1,24,26,28,-1,-1,-1,-1,-1,-1,-1,-1,-1,-1,-1,-1,-1,-1],"split_conditions":[7.430129E8,3.188E-3,1.30833E-5,-2.25359E-1,1.5738E0,1.934E-3,5.11608E-5,2.00737E2,3.28187E-5,-7.76789E-1,3.946E-3,2.2812413E-1,3.395E-3,2.9513165E8,2.738E-3,-1.2734152E-1,-1.2739896E-2,8.364386E-3,-3.7305858E-2,2.708777E-2,2.8632937E-3,7.304902E-2,2.2482553E-2,1.0888519E-1,2.886321E-2,-2.9847736E-2,-8.0058925E-2,1.3003395E-1,6.318272E-2],"split_indices":[7,2,13,15,14,2,13,0,13,15,2,0,2,3,2,0,0,0,0,0,0,0,0,0,0,0,0,0,0],"split_type":[0,0,0,0,0,0,0,0,0,0,0,0,0,0,0,0,0,0,0,0,0,0,0,0,0,0,0,0,0],"sum_hessian":[6.823E3,6.627E3,1.96E2,5.031E3,1.596E3,8.6E1,1.1E2,1.986E3,3.045E3,1.421E3,1.75E2,2.2E1,6.4E1,7.9E1,3.1E1,5.8E1,1.928E3,2.595E3,4.5E2,4.6E2,9.61E2,7E1,1.05E2,2.8E1,3.6E1,6.3E1,1.6E1,1.6E1,1.5E1],"tree_param":{"num_deleted":"0","num_feature":"40","num_nodes":"29","size_leaf_vector":"1"}},{"base_weights":[-8.726567E-3,5.791865E-1,-1.7689137E-1,4.4086003E-1,4.4264627E0,-8.194747E0,-1.0125606E-1,2.604147E-2,1.5148537E0,2.3060344E-1,2.9345794E0,-4.9241707E-1,-3.4602156E0,-1.2647862E0,-2.3537723E-2,-1.7204909E-2,3.062946E-2,-9.1040194E-2,5.488258E-2,4.3164182E-2,1.4685276E-1,-2.1677406E-1,2.9582491E-2,-1.951891E-2,-1.24596044E-1,6.7127035E-3,-1.0944513E-2],"categories":[],"categories_nodes":[],"categories_segments":[],"categories_sizes":[],"default_left":[0,0,0,0,0,0,0,0,0,0,0,0,0,0,0,0,0,0,0,0,0,0,0,0,0,0,0],"id":14,"left_children":[1,3,5,7,9,11,13,15,17,-1,19,-1,21,23,25,-1,-1,-1,-1,-1,-1,-1,-1,-1,-1,-1,-1],"loss_changes":[6.8055884E2,8.123294E2,3.2445764E3,6.587194E2,2.341731E2,1.8869087E3,4.7946954E2,6.376977E2,5.9505475E2,0E0,1.0375784E2,0E0,5.602656E2,5.857646E2,4.1979962E2,0E0,0E0,0E0,0E0,0E0,0E0,0E0,0E0,0E0,0E0,0E0,0E0],"parents":[2147483647,0,0,1,1,2,2,3,3,4,4,5,5,6,6,7,7,8,8,10,10,12,12,13,13,14,14],"right_children":[2,4,6,8,10,12,14,16,18,-1,20,-1,22,24,26,-1,-1,-1,-1,-1,-1,-1,-1,-1,-1,-1,-1],"split_conditions":[-5.28E-6,-6.32E-6,-3.98E-6,-1.36142E-5,-1.424E-5,1.143E-3,1.8776312E7,2.458E-3,-5.511E-5,2.3060344E-1,1.531E-3,-4.9241707E-1,-4.20373E-5,7.997E-5,1.5842E-5,-1.7204909E-2,3.062946E-2,-9.1040194E-2,5.488258E-2,4.3164182E-2,1.4685276E-1,-2.1677406E-1,2.9582491E-2,-1.951891E-2,-1.24596044E-1,6.7127035E-3,-1.0944513E-2],"split_indices":[12,12,12,13,13,2,3,2,12,0,2,0,13,12,13,0,0,0,0,0,0,0,0,0,0,0,0],"split_type":[0,0,0,0,0,0,0,0,0,0,0,0,0,0,0,0,0,0,0,0,0,0,0,0,0,0,0],"sum_hessian":[6.882E3,1.53E3,5.352E3,1.478E3,5.2E1,4.9E1,5.303E3,1.067E3,4.11E2,1.5E1,3.7E1,1.7E1,3.2E1,3.31E2,4.972E3,6.66E2,4.01E2,2.6E1,3.85E2,2.2E1,1.5E1,1.7E1,1.5E1,2.74E2,5.7E1,2.883E3,2.089E3],"tree_param":{"num_deleted":"0","num_feature":"40","num_nodes":"27","size_leaf_vector":"1"}},{"base_weights":[2.8993348E-3,-1.5752901E-1,4.845256E-1,-2.1393427E-1,2.4692802E0,6.554059E-1,1.3498029E-1,-6.014567E-2,-7.410476E-1,5.4725857E0,-6.514775E-2,1.0227742E0,4.3731615E-1,8.477816E-2,2.4298608E-2,-1.912413E-2,5.277388E-3,-1.5126616E-2,-6.901031E-2,2.6611874E-1,1.11288264E-1,-4.820369E-2,1.0590241E-1,-1.1961785E-2,3.5799596E-2,1.4479265E-3,2.6990397E-2,4.481528E-2,-3.2905415E-3],"categories":[],"categories_nodes":[],"categories_segments":[],"categories_sizes":[],"default_left":[0,0,0,0,0,0,0,0,0,0,0,0,0,0,0,0,0,0,0,0,0,0,0,0,0,0,0,0,0],"id":15,"left_children":[1,3,5,7,9,11,13,15,17,19,21,23,25,-1,27,-1,-1,-1,-1,-1,-1,-1,-1,-1,-1,-1,-1,-1,-1],"loss_changes":[5.2413043E2,7.541708E2,1.010755E2,4.0373627E2,8.15345E2,9.058249E1,1.6584093E2,5.2593665E2,4.1400366E2,2.5937805E2,3.3249054E2,1.03103455E2,1.2865837E2,0E0,1.0603456E2,0E0,0E0,0E0,0E0,0E0,0E0,0E0,0E0,0E0,0E0,0E0,0E0,0E0,0E0],"parents":[2147483647,0,0,1,1,2,2,3,3,4,4,5,5,6,6,7,7,8,8,9,9,10,10,11,11,12,12,14,14],"right_children":[2,4,6,8,10,12,14,16,18,20,22,24,26,-1,28,-1,-1,-1,-1,-1,-1,-1,-1,-1,-1,-1,-1,-1,-1],"split_conditions":[3.169E-3,7.430129E8,1.8076915E8,2.47688E-5,1.30833E-5,-8.236988E7,-2.36911E-1,-1.4993742E8,1.18997E0,3.09109E-1,5.0364E-5,4.8088456E7,9.8305E-1,8.477816E-2,-4.4486E-5,-1.912413E-2,5.277388E-3,-1.5126616E-2,-6.901031E-2,2.6611874E-1,1.11288264E-1,-4.820369E-2,1.0590241E-1,-1.1961785E-2,3.5799596E-2,1.4479265E-3,2.6990397E-2,4.481528E-2,-3.2905415E-3],"split_indices":[2,7,3,13,13,7,32,7,8,8,13,3,8,0,13,0,0,0,0,0,0,0,0,0,0,0,0,0,0],"split_type":[0,0,0,0,0,0,0,0,0,0,0,0,0,0,0,0,0,0,0,0,0,0,0,0,0,0,0,0,0],"sum_hessian":[6.781E3,5.087E3,1.694E3,4.981E3,1.06E2,1.137E3,5.57E2,3.857E3,1.124E3,4.8E1,5.8E1,4.22E2,7.15E2,2.1E1,5.36E2,1.119E3,2.738E3,9.77E2,1.47E2,1.5E1,3.3E1,4.1E1,1.7E1,4.5E1,3.77E2,3.89E2,3.26E2,4.4E1,4.92E2],"tree_param":{"num_deleted":"0","num_feature":"40","num_nodes":"29","size_leaf_vector":"1"}},{"base_weights":[-8.316175E-3,1.2431639E-1,-8.52114E-1,-1.043166E-1,1.4220574E-1,-2.4248214E0,3.310818E-1,-2.5507668E-1,2.842937E-1,-6.071759E0,-1.087707E0,-1.0455668E0,7.0116246E-1,-4.4886754E-3,-1.1244792E-1,6.568214E-3,5.2087124E-2,-3.0880544E-1,3.2624544E-3,-4.984274E-2,2.7932614E-2,-1.4034204E-1,-1.5943287E-3,7.455359E-2,3.8531492E-3],"categories":[],"categories_nodes":[],"categories_segments":[],"categories_sizes":[],"default_left":[0,0,0,0,0,0,0,0,0,0,0,0,0,0,0,0,0,0,0,0,0,0,0,0,0],"id":16,"left_children":[1,3,5,-1,7,9,11,13,15,17,19,21,23,-1,-1,-1,-1,-1,-1,-1,-1,-1,-1,-1,-1],"loss_changes":[7.5963434E2,3.780383E2,1.716689E3,0E0,3.2956848E2,1.9237234E3,2.691899E2,5.6560425E2,4.0744803E2,2.7679526E3,3.386614E2,4.0303552E2,4.2445306E2,0E0,0E0,0E0,0E0,0E0,0E0,0E0,0E0,0E0,0E0,0E0,0E0],"parents":[2147483647,0,0,1,1,2,2,4,4,5,5,6,6,7,7,8,8,9,9,10,10,11,11,12,12],"right_children":[2,4,6,-1,8,10,12,14,16,18,20,22,24,-1,-1,-1,-1,-1,-1,-1,-1,-1,-1,-1,-1],"split_conditions":[7.343E-5,4.3E-4,8.484E-5,-1.043166E-1,-1.6819046E8,1.262E-3,-3.515273E8,6.642E-5,6.642E-5,1.391E0,2.602E-3,1.647E-3,-3.335899E7,-4.4886754E-3,-1.1244792E-1,6.568214E-3,5.2087124E-2,-3.0880544E-1,3.2624544E-3,-4.984274E-2,2.7932614E-2,-1.4034204E-1,-1.5943287E-3,7.455359E-2,3.8531492E-3],"split_indices":[12,2,12,0,7,2,7,12,12,14,2,2,7,0,0,0,0,0,0,0,0,0,0,0,0],"split_type":[0,0,0,0,0,0,0,0,0,0,0,0,0,0,0,0,0,0,0,0,0,0,0,0,0],"sum_hessian":[6.785E3,5.864E3,9.21E2,2.8E1,5.836E3,3.95E2,5.26E2,1.537E3,4.299E3,1.05E2,2.9E2,1.11E2,4.15E2,1.493E3,4.4E1,4.115E3,1.84E2,6.2E1,4.3E1,2.26E2,6.4E1,2.3E1,8.8E1,1E2,3.15E2],"tree_param":{"num_deleted":"0","num_feature":"40","num_nodes":"25","size_leaf_vector":"1"}},{"base_weights":[3.937769E-2,-3.697896E-2,7.4588424E-1,1.4578192E-1,-6.1872745E-1,2.582933E0,5.37251E-1,-1.08841255E-1,1.6946563E-1,-2.8263905E0,-3.674618E-1,1.3275434E-1,1.5817374E0,-4.6702442E-1,1.0679541E0,4.186054E-3,6.6917606E-2,-3.4939367E-1,-3.3694584E-2,3.8390175E-2,-2.01591E-2,6.9439724E-2,6.9760885E-3,-6.557388E-2,2.2004664E-2,1.2675558E-1,2.0506576E-2],"categories":[],"categories_nodes":[],"categories_segments":[],"categories_sizes":[],"default_left":[0,0,0,0,0,0,0,0,0,0,0,0,0,0,0,0,0,0,0,0,0,0,0,0,0,0,0],"id":17,"left_children":[1,3,5,7,9,11,13,-1,15,17,19,-1,21,23,25,-1,-1,-1,-1,-1,-1,-1,-1,-1,-1,-1,-1],"loss_changes":[3.6504636E2,6.493327E2,2.5125812E2,4.1560947E2,8.085185E2,1.1597565E2,3.171442E2,0E0,2.843996E2,2.22402E3,6.588535E2,0E0,4.370559E1,4.2681055E2,4.6872885E2,0E0,0E0,0E0,0E0,0E0,0E0,0E0,0E0,0E0,0E0,0E0,0E0],"parents":[2147483647,0,0,1,1,2,2,3,3,4,4,5,5,6,6,8,8,9,9,10,10,12,12,13,13,14,14],"right_children":[2,4,6,8,10,12,14,-1,16,18,20,-1,22,24,26,-1,-1,-1,-1,-1,-1,-1,-1,-1,-1,-1,-1],"split_conditions":[1.6555E0,9.953E-1,1.042E-3,4.3E-4,9.54E-4,-7.467047E7,-6.33926E-1,-1.08841255E-1,8.7841094E8,1.30833E-5,1.27295E-5,1.3275434E-1,4.2776E-5,2.15E-3,1.61413E-5,4.186054E-3,6.6917606E-2,-3.4939367E-1,-3.3694584E-2,3.8390175E-2,-2.01591E-2,6.9439724E-2,6.9760885E-3,-6.557388E-2,2.2004664E-2,1.2675558E-1,2.0506576E-2],"split_indices":[14,14,2,2,2,7,15,0,7,13,13,0,13,2,13,0,0,0,0,0,0,0,0,0,0,0,0],"split_type":[0,0,0,0,0,0,0,0,0,0,0,0,0,0,0,0,0,0,0,0,0,0,0,0,0,0,0],"sum_hessian":[6.764E3,6.105E3,6.59E2,4.646E3,1.459E3,6.6E1,5.93E2,2.8E1,4.618E3,1.48E2,1.311E3,2.2E1,4.4E1,2.05E2,3.88E2,4.553E3,6.5E1,2.3E1,1.25E2,2.04E2,1.107E3,2.8E1,1.6E1,8.4E1,1.21E2,4.1E1,3.47E2],"tree_param":{"num_deleted":"0","num_feature":"40","num_nodes":"27","size_leaf_vector":"1"}},{"base_weights":[8.505707E-3,1.7378514E-1,-5.5489296E-1,1.3345054E-1,1.5882981E0,-1.0487175E0,4.637257E-1,1.5465607E-1,-1.04877934E-1,3.224325E0,2.8673136E-1,-3.7771046E-1,-4.1594777E0,2.7087755E0,2.2925358E-1,1.6463976E-2,-3.7117768E-4,1.2260539E-1,6.2354658E-2,2.2295464E-2,-3.2745384E-2,2.5418201E-2,-2.4238048E-2,-5.038974E-1,-8.8564485E-2,1.16057895E-1,4.232884E-3,-5.304448E-2,1.5449468E-2],"categories":[],"categories_nodes":[],"categories_segments":[],"categories_sizes":[],"default_left":[0,0,0,0,0,0,0,0,0,0,0,0,0,0,0,0,0,0,0,0,0,0,0,0,0,0,0,0,0],"id":18,"left_children":[1,3,5,7,9,11,13,15,-1,17,19,21,23,25,27,-1,-1,-1,-1,-1,-1,-1,-1,-1,-1,-1,-1,-1,-1],"loss_changes":[6.392217E2,3.0245752E2,7.8374536E2,3.9748938E2,3.117459E2,2.1875972E3,2.6702362E2,3.3798224E2,0E0,5.512909E1,5.299171E1,4.5602426E2,2.7862651E3,1.4199951E2,2.644557E2,0E0,0E0,0E0,0E0,0E0,0E0,0E0,0E0,0E0,0E0,0E0,0E0,0E0,0E0],"parents":[2147483647,0,0,1,1,2,2,3,3,4,4,5,5,6,6,7,7,9,9,10,10,11,11,12,12,13,13,14,14],"right_children":[2,4,6,8,10,12,14,16,-1,18,20,22,24,26,28,-1,-1,-1,-1,-1,-1,-1,-1,-1,-1,-1,-1,-1,-1],"split_conditions":[5.992E-5,5.825E-5,8.484E-5,5.723E-5,5.20167E-1,7.997E-5,1.0885E-5,-5.28E-6,-1.04877934E-1,1.902181E3,8.873949E7,1.51873E-5,1.06463E-5,1.336642E3,9.276E-1,1.6463976E-2,-3.7117768E-4,1.2260539E-1,6.2354658E-2,2.2295464E-2,-3.2745384E-2,2.5418201E-2,-2.4238048E-2,-5.038974E-1,-8.8564485E-2,1.16057895E-1,4.232884E-3,-5.304448E-2,1.5449468E-2],"split_indices":[12,12,12,12,15,12,13,12,0,0,7,13,13,0,14,0,0,0,0,0,0,0,0,0,0,0,0,0,0],"split_type":[0,0,0,0,0,0,0,0,0,0,0,0,0,0,0,0,0,0,0,0,0,0,0,0,0,0,0,0,0],"sum_hessian":[6.863E3,5.307E3,1.556E3,5.161E3,1.46E2,1.048E3,5.08E2,5.132E3,2.9E1,6.4E1,8.2E1,8.63E2,1.85E2,4.7E1,4.61E2,1.527E3,3.605E3,3.5E1,2.9E1,6.2E1,2E1,2.24E2,6.39E2,1.5E1,1.7E2,3.2E1,1.5E1,5.7E1,4.04E2],"tree_param":{"num_deleted":"0","num_feature":"40","num_nodes":"29","size_leaf_vector":"1"}},{"base_weights":[-1.9123802E-2,1.5590978E-1,-6.073112E-1,1.0589894E-1,1.768961E0,-1.0856131E0,7.352798E-1,-6.444256E-2,6.0711694E-1,3.246419E0,4.1139102E-1,-3.985943E-1,-3.2111373E0,2.834878E0,4.346815E-1,-1.4338706E-2,4.8338063E-3,1.4171354E-2,6.496585E-2,1.5412873E-1,7.0877016E-2,5.3056408E-2,-5.068585E-3,2.7440269E-2,-2.595753E-2,-3.6389652E-1,-4.624095E-2,2.8987184E-2,2.0567653E-1,-4.5675214E-2,2.4516137E-2],"categories":[],"categories_nodes":[],"categories_segments":[],"categories_sizes":[],"default_left":[0,0,0,0,0,0,0,0,0,0,0,0,0,0,0,0,0,0,0,0,0,0,0,0,0,0,0,0,0,0,0],"id":19,"left_children":[1,3,5,7,9,11,13,15,17,19,21,23,25,27,29,-1,-1,-1,-1,-1,-1,-1,-1,-1,-1,-1,-1,-1,-1,-1,-1],"loss_changes":[6.980551E2,4.2112613E2,9.993982E2,4.3287564E2,3.1320178E2,1.6732947E3,2.565752E2,3.530658E2,2.687449E2,1.1247797E2,6.583098E1,5.3273706E2,4.1497734E3,3.757976E2,2.6994617E2,0E0,0E0,0E0,0E0,0E0,0E0,0E0,0E0,0E0,0E0,0E0,0E0,0E0,0E0,0E0,0E0],"parents":[2147483647,0,0,1,1,2,2,3,3,4,4,5,5,6,6,7,7,8,8,9,9,10,10,11,11,12,12,13,13,14,14],"right_children":[2,4,6,8,10,12,14,16,18,20,22,24,26,28,30,-1,-1,-1,-1,-1,-1,-1,-1,-1,-1,-1,-1,-1,-1,-1,-1],"split_conditions":[5.992E-5,5.825E-5,8.638E-5,3.188E-3,5.20167E-1,7.997E-5,1.0885E-5,-2.50993E-1,1.503E0,1.858E-3,1.411E-3,1.51873E-5,1.33613E-5,5.274485E8,9.591E-1,-1.4338706E-2,4.8338063E-3,1.4171354E-2,6.496585E-2,1.5412873E-1,7.0877016E-2,5.3056408E-2,-5.068585E-3,2.7440269E-2,-2.595753E-2,-3.6389652E-1,-4.624095E-2,2.8987184E-2,2.0567653E-1,-4.5675214E-2,2.4516137E-2],"split_indices":[12,12,12,2,15,12,13,15,14,2,2,13,13,7,14,0,0,0,0,0,0,0,0,0,0,0,0,0,0,0,0],"split_type":[0,0,0,0,0,0,0,0,0,0,0,0,0,0,0,0,0,0,0,0,0,0,0,0,0,0,0,0,0,0,0],"sum_hessian":[6.778E3,5.224E3,1.554E3,5.068E3,1.56E2,1.146E3,4.08E2,3.783E3,1.285E3,7.4E1,8.2E1,8.67E2,2.79E2,5E1,3.58E2,1.335E3,2.448E3,1.184E3,1.01E2,2.2E1,5.2E1,2.4E1,5.8E1,2.27E2,6.4E2,4.3E1,2.36E2,3.5E1,1.5E1,5.8E1,3E2],"tree_param":{"num_deleted":"0","num_feature":"40","num_nodes":"31","size_leaf_vector":"1"}},{"base_weights":[-1.5393293E-2,1.6527784E-1,-6.2225187E-1,-1.0792316E-1,1.8407525E-1,-1.1000489E0,6.35271E-1,1.397725E-1,1.5966005E0,-4.950825E-1,-2.8542762E0,1.6921388E0,-9.915418E-2,-6.180452E-4,1.7839301E-2,7.948075E-2,1.5271212E-2,1.9549185E-2,-2.7782964E-2,-3.1949356E-1,-4.5664698E-2,6.97087E-2,-2.7461194E-2,2.462934E-2,-4.438082E-2],"categories":[],"categories_nodes":[],"categories_segments":[],"categories_sizes":[],"default_left":[0,0,0,0,0,0,0,0,0,0,0,0,0,0,0,0,0,0,0,0,0,0,0,0,0],"id":20,"left_children":[1,3,5,-1,7,9,11,13,15,17,19,21,23,-1,-1,-1,-1,-1,-1,-1,-1,-1,-1,-1,-1],"loss_changes":[7.4362964E2,3.699524E2,9.356535E2,0E0,3.250753E2,1.1953405E3,3.3331274E2,3.6802682E2,1.7923569E2,4.158059E2,2.983708E3,2.9206998E2,3.2385336E2,0E0,0E0,0E0,0E0,0E0,0E0,0E0,0E0,0E0,0E0,0E0,0E0],"parents":[2147483647,0,0,1,1,2,2,4,4,5,5,6,6,7,7,8,8,9,9,10,10,11,11,12,12],"right_children":[2,4,6,-1,8,10,12,14,16,18,20,22,24,-1,-1,-1,-1,-1,-1,-1,-1,-1,-1,-1,-1],"split_conditions":[5.992E-5,4.3E-4,8.638E-5,-1.0792316E-1,5.825E-5,7.997E-5,1.47E-3,3.169E-3,2.474E-3,1.51873E-5,1.33613E-5,6.14765E-1,6.0343925E6,-6.180452E-4,1.7839301E-2,7.948075E-2,1.5271212E-2,1.9549185E-2,-2.7782964E-2,-3.1949356E-1,-4.5664698E-2,6.97087E-2,-2.7461194E-2,2.462934E-2,-4.438082E-2],"split_indices":[12,2,12,0,12,12,2,2,2,13,13,8,7,0,0,0,0,0,0,0,0,0,0,0,0],"split_type":[0,0,0,0,0,0,0,0,0,0,0,0,0,0,0,0,0,0,0,0,0,0,0,0,0],"sum_hessian":[6.78E3,5.225E3,1.555E3,2.5E1,5.2E3,1.127E3,4.28E2,5.043E3,1.57E2,8.39E2,2.88E2,1.75E2,2.53E2,3.729E3,1.314E3,7.9E1,7.8E1,2.29E2,6.1E2,4.1E1,2.47E2,1.41E2,3.4E1,1.52E2,1.01E2],"tree_param":{"num_deleted":"0","num_feature":"40","num_nodes":"25","size_leaf_vector":"1"}},{"base_weights":[1.6430622E-2,-2.0635675E-1,3.3260316E-1,-2.757506E-1,2.2467372E0,2.3761348E-1,1.1193076E0,-7.3985577E-1,-2.0805333E-2,3.0683007E0,-8.296403E-2,3.6668935E-1,-6.295175E-1,1.0018988E-1,8.717531E-1,-6.177657E-2,-1.4620047E-2,-2.3542287E-2,8.075868E-3,1.3277397E-1,1.8355567E-2,3.1655133E-2,7.183931E-3,-3.9501697E-2,-2.1349904E-3,3.773238E-2,-1.7570984E-2],"categories":[],"categories_nodes":[],"categories_segments":[],"categories_sizes":[],"default_left":[0,0,0,0,0,0,0,0,0,0,0,0,0,0,0,0,0,0,0,0,0,0,0,0,0,0,0],"id":21,"left_children":[1,3,5,7,9,11,13,15,17,19,-1,21,23,-1,25,-1,-1,-1,-1,-1,-1,-1,-1,-1,-1,-1,-1],"loss_changes":[4.7984296E2,6.8066016E2,2.100347E2,4.5982388E2,4.6147852E2,2.8158575E2,1.632142E2,4.5784564E2,5.563347E2,3.1357758E2,0E0,1.913569E2,1.248544E2,0E0,1.5494711E2,0E0,0E0,0E0,0E0,0E0,0E0,0E0,0E0,0E0,0E0,0E0,0E0],"parents":[2147483647,0,0,1,1,2,2,3,3,4,4,5,5,6,6,7,7,8,8,9,9,11,11,12,12,14,14],"right_children":[2,4,6,8,10,12,14,16,18,20,-1,22,24,-1,26,-1,-1,-1,-1,-1,-1,-1,-1,-1,-1,-1,-1],"split_conditions":[2.44E-3,5.886266E8,1.5482E0,-3.75601E-1,1.2703423E9,1.0649E0,1.27295E-5,9.27E-4,-1.2046729E8,1.96E-3,-8.296403E-2,-3.8987E-5,3.354E-3,1.0018988E-1,2.717802E0,-6.177657E-2,-1.4620047E-2,-2.3542287E-2,8.075868E-3,1.3277397E-1,1.8355567E-2,3.1655133E-2,7.183931E-3,-3.9501697E-2,-2.1349904E-3,3.773238E-2,-1.7570984E-2],"split_indices":[2,7,14,15,7,14,13,2,7,2,0,13,2,0,15,0,0,0,0,0,0,0,0,0,0,0,0],"split_type":[0,0,0,0,0,0,0,0,0,0,0,0,0,0,0,0,0,0,0,0,0,0,0,0,0,0,0],"sum_hessian":[6.81E3,3.995E3,2.815E3,3.886E3,1.09E2,2.513E3,3.02E2,1.377E3,2.509E3,9.4E1,1.5E1,2.188E3,3.25E2,2.9E1,2.73E2,2.2E2,1.157E3,6.9E2,1.819E3,6E1,3.4E1,3.4E2,1.848E3,1.45E2,1.8E2,2.16E2,5.7E1],"tree_param":{"num_deleted":"0","num_feature":"40","num_nodes":"27","size_leaf_vector":"1"}},{"base_weights":[-1.2465497E-2,1.6479817E-1,-6.330639E-1,5.608815E-1,5.495192E-3,-1.142014E0,4.1058952E-1,4.2355102E-1,4.8362064E0,-7.297331E0,9.580009E-2,-4.1053474E-1,-4.4170723E0,2.8551702E0,9.830063E-2,1.0386418E-2,1.517422E-1,2.320478E-1,9.6977696E-2,-3.4625143E-2,-3.2565737E-1,-7.4616834E-3,9.789236E-3,1.9831188E-2,-2.3804484E-2,-3.5935363E-1,-7.3353454E-2,5.0001603E-2,1.7147626E-1,-2.9662343E-2,1.4050913E-2],"categories":[],"categories_nodes":[],"categories_segments":[],"categories_sizes":[],"default_left":[0,0,0,0,0,0,0,0,0,0,0,0,0,0,0,0,0,0,0,0,0,0,0,0,0,0,0,0,0,0,0],"id":22,"left_children":[1,3,5,7,9,11,13,15,17,19,21,23,25,27,29,-1,-1,-1,-1,-1,-1,-1,-1,-1,-1,-1,-1,-1,-1,-1,-1],"loss_changes":[7.4667596E2,3.330307E2,8.0154254E2,8.863441E2,2.483584E3,2.42688E3,3.7731464E2,5.238696E2,1.9237585E2,9.9168506E2,2.9559286E2,3.4113434E2,2.727752E3,1.8012405E2,1.7741228E2,0E0,0E0,0E0,0E0,0E0,0E0,0E0,0E0,0E0,0E0,0E0,0E0,0E0,0E0,0E0,0E0],"parents":[2147483647,0,0,1,1,2,2,3,3,4,4,5,5,6,6,7,7,8,8,9,9,10,10,11,11,12,12,13,13,14,14],"right_children":[2,4,6,8,10,12,14,16,18,20,22,24,26,28,30,-1,-1,-1,-1,-1,-1,-1,-1,-1,-1,-1,-1,-1,-1,-1,-1],"split_conditions":[6.178E-5,-5.28E-6,8.484E-5,-6.32E-6,-3.98E-6,7.997E-5,1.1195E-5,2.35407E-5,-1.6185E-5,-3.3874E-2,2.429E-5,1.51873E-5,1.33613E-5,4.655484E8,2.2236E-5,1.0386418E-2,1.517422E-1,2.320478E-1,9.6977696E-2,-3.4625143E-2,-3.2565737E-1,-7.4616834E-3,9.789236E-3,1.9831188E-2,-2.3804484E-2,-3.5935363E-1,-7.3353454E-2,5.0001603E-2,1.7147626E-1,-2.9662343E-2,1.4050913E-2],"split_indices":[12,12,12,12,12,12,13,13,13,35,12,13,13,7,13,0,0,0,0,0,0,0,0,0,0,0,0,0,0,0,0],"split_type":[0,0,0,0,0,0,0,0,0,0,0,0,0,0,0,0,0,0,0,0,0,0,0,0,0,0,0,0,0,0,0],"sum_hessian":[6.785E3,5.278E3,1.507E3,1.513E3,3.765E3,1.013E3,4.94E2,1.467E3,4.6E1,4.5E1,3.72E3,8.29E2,1.84E2,5.5E1,4.39E2,1.444E3,2.3E1,1.5E1,3.1E1,1.7E1,2.8E1,1.491E3,2.229E3,2.18E2,6.11E2,3.7E1,1.47E2,4E1,1.5E1,1.11E2,3.28E2],"tree_param":{"num_deleted":"0","num_feature":"40","num_nodes":"31","size_leaf_vector":"1"}},{"base_weights":[-2.1789437E-2,1.2744021E-1,-5.1511246E-1,-1.1755276E-1,1.4830987E-1,-8.974981E-1,5.5985355E-1,1.00953594E-1,1.6485438E0,-3.8407773E-1,-2.535047E0,1.464991E0,-3.584876E-2,-7.123029E-3,8.773154E-3,6.226942E-2,-3.361084E-2,-2.1804126E-2,1.8287225E-2,-1.7839712E-1,-4.673046E-3,6.2419303E-2,-3.8399033E-2,2.4535784E-2,-3.9260108E-2],"categories":[],"categories_nodes":[],"categories_segments":[],"categories_sizes":[],"default_left":[0,0,0,0,0,0,0,0,0,0,0,0,0,0,0,0,0,0,0,0,0,0,0,0,0],"id":23,"left_children":[1,3,5,-1,7,9,11,13,15,17,19,21,23,-1,-1,-1,-1,-1,-1,-1,-1,-1,-1,-1,-1],"loss_changes":[5.04317E2,4.4425217E2,6.545192E2,0E0,3.714397E2,9.8577606E2,2.2557788E2,3.2885068E2,1.9163843E2,3.052477E2,2.271214E3,2.8327338E2,2.760338E2,0E0,0E0,0E0,0E0,0E0,0E0,0E0,0E0,0E0,0E0,0E0,0E0],"parents":[2147483647,0,0,1,1,2,2,4,4,5,5,6,6,7,7,8,8,9,9,10,10,11,11,12,12],"right_children":[2,4,6,-1,8,10,12,14,16,18,20,22,24,-1,-1,-1,-1,-1,-1,-1,-1,-1,-1,-1,-1],"split_conditions":[5.992E-5,4.3E-4,8.638E-5,-1.1755276E-1,5.825E-5,7.997E-5,1.48E-3,-1.0253E0,8.873949E7,1.4828E0,1.5E-3,6.45151E-1,-3.335899E7,-7.123029E-3,8.773154E-3,6.226942E-2,-3.361084E-2,-2.1804126E-2,1.8287225E-2,-1.7839712E-1,-4.673046E-3,6.2419303E-2,-3.8399033E-2,2.4535784E-2,-3.9260108E-2],"split_indices":[12,2,12,0,12,12,2,14,7,14,2,8,7,0,0,0,0,0,0,0,0,0,0,0,0],"split_type":[0,0,0,0,0,0,0,0,0,0,0,0,0,0,0,0,0,0,0,0,0,0,0,0,0],"sum_hessian":[6.848E3,5.258E3,1.59E3,2.6E1,5.232E3,1.173E3,4.17E2,5.073E3,1.59E2,8.94E2,2.79E2,1.65E2,2.52E2,1.833E3,3.24E3,1.38E2,2.1E1,6.65E2,2.29E2,1.14E2,1.65E2,1.35E2,3E1,1.51E2,1.01E2],"tree_param":{"num_deleted":"0","num_feature":"40","num_nodes":"25","size_leaf_vector":"1"}},{"base_weights":[-5.317368E-3,5.202491E-1,-1.5602359E-1,3.6605608E-1,4.2465224E0,-7.5610757E0,-8.086115E-2,-1.2952319E0,6.04853E-1,2.4007712E-1,2.814449E0,-5.382063E-3,-3.9633134E-1,5.1814985E-2,-7.093097E-1,4.1340473E-3,-8.239879E-2,6.409607E-3,4.785061E-2,4.802691E-2,1.2739033E-1,-8.560296E-2,2.1853307E-3,-6.314055E-2,1.0882218E-2],"categories":[],"categories_nodes":[],"categories_segments":[],"categories_sizes":[],"default_left":[0,0,0,0,0,0,0,0,0,0,0,0,0,0,0,0,0,0,0,0,0,0,0,0,0],"id":24,"left_children":[1,3,5,7,9,11,13,15,17,-1,19,-1,-1,21,23,-1,-1,-1,-1,-1,-1,-1,-1,-1,-1],"loss_changes":[5.377752E2,8.673016E2,2.9357068E3,5.775314E2,2.991317E2,2.2067212E3,4.3576367E2,3.812605E2,4.9219122E2,0E0,7.081287E1,0E0,0E0,2.6355698E2,1.3637141E3,0E0,0E0,0E0,0E0,0E0,0E0,0E0,0E0,0E0,0E0],"parents":[2147483647,0,0,1,1,2,2,3,3,4,4,5,5,6,6,7,7,8,8,10,10,13,13,14,14],"right_children":[2,4,6,8,10,12,14,16,18,-1,20,-1,-1,22,24,-1,-1,-1,-1,-1,-1,-1,-1,-1,-1],"split_conditions":[-5.28E-6,-6.32E-6,-3.98E-6,-5.511E-5,-1.7222E-5,-9.80309E-1,7.343E-5,-6.48213E-5,-1.30837E-5,2.4007712E-1,1.47E-3,-5.382063E-3,-3.9633134E-1,4.3E-4,8.484E-5,4.1340473E-3,-8.239879E-2,6.409607E-3,4.785061E-2,4.802691E-2,1.2739033E-1,-8.560296E-2,2.1853307E-3,-6.314055E-2,1.0882218E-2],"split_indices":[12,12,12,12,13,8,12,13,13,0,2,0,0,2,12,0,0,0,0,0,0,0,0,0,0],"split_type":[0,0,0,0,0,0,0,0,0,0,0,0,0,0,0,0,0,0,0,0,0,0,0,0,0],"sum_hessian":[6.788E3,1.512E3,5.276E3,1.453E3,5.9E1,5.2E1,5.224E3,1.82E2,1.271E3,1.5E1,4.4E1,2.3E1,2.9E1,4.314E3,9.1E2,9.2E1,9E1,9.12E2,3.59E2,2.5E1,1.9E1,3E1,4.284E3,3.95E2,5.15E2],"tree_param":{"num_deleted":"0","num_feature":"40","num_nodes":"25","size_leaf_vector":"1"}},{"base_weights":[1.3634781E-2,1.19994566E-1,-6.7954755E-1,4.6892738E-1,1.3090308E-3,-2.3361175E0,3.7404844E-1,3.309658E-1,4.147587E0,-7.020348E0,8.359785E-2,-1.0757272E1,-1.2216835E0,1.9141761E0,1.6520903E-1,7.483682E-3,1.5417188E-1,2.1392809E-1,8.444209E-2,-7.7975937E-3,-3.768211E-1,1.3593961E-3,4.677059E-2,-4.4955856E-1,-9.6245065E-2,4.5800492E-2,-5.6475345E-2,2.3895923E-2,1.6052353E-1,2.830957E-2,-1.6397746E-2],"categories":[],"categories_nodes":[],"categories_segments":[],"categories_sizes":[],"default_left":[0,0,0,0,0,0,0,0,0,0,0,0,0,0,0,0,0,0,0,0,0,0,0,0,0,0,0,0,0,0,0],"id":25,"left_children":[1,3,5,7,9,11,13,15,17,19,21,23,25,27,29,-1,-1,-1,-1,-1,-1,-1,-1,-1,-1,-1,-1,-1,-1,-1,-1],"loss_changes":[5.015885E2,2.442493E2,1.5806167E3,7.579275E2,2.5439636E3,3.289117E3,1.7766403E2,5.6409235E2,1.936571E2,1.905667E3,2.4565245E2,1.2587319E3,5.695633E2,2.4862326E2,2.715087E2,0E0,0E0,0E0,0E0,0E0,0E0,0E0,0E0,0E0,0E0,0E0,0E0,0E0,0E0,0E0,0E0],"parents":[2147483647,0,0,1,1,2,2,3,3,4,4,5,5,6,6,7,7,8,8,9,9,10,10,11,11,12,12,13,13,14,14],"right_children":[2,4,6,8,10,12,14,16,18,20,22,24,26,28,30,-1,-1,-1,-1,-1,-1,-1,-1,-1,-1,-1,-1,-1,-1,-1,-1],"split_conditions":[7.343E-5,-5.28E-6,8.189E-5,-6.32E-6,-3.98E-6,1.33613E-5,1.1809E-5,2.35407E-5,-1.424E-5,-1.022145E0,6.755E-5,1.2224833E7,1.91557E-5,5.274485E8,6.0343925E6,7.483682E-3,1.5417188E-1,2.1392809E-1,8.444209E-2,-7.7975937E-3,-3.768211E-1,1.3593961E-3,4.677059E-2,-4.4955856E-1,-9.6245065E-2,4.5800492E-2,-5.6475345E-2,2.3895923E-2,1.6052353E-1,2.830957E-2,-1.6397746E-2],"split_indices":[12,12,12,12,12,13,13,13,13,8,12,10,13,7,7,0,0,0,0,0,0,0,0,0,0,0,0,0,0,0,0],"split_type":[0,0,0,0,0,0,0,0,0,0,0,0,0,0,0,0,0,0,0,0,0,0,0,0,0,0,0,0,0,0,0],"sum_hessian":[6.802E3,5.898E3,9.04E2,1.496E3,4.402E3,3.51E2,5.53E2,1.443E3,5.3E1,5E1,4.352E3,4E1,3.11E2,6.5E1,4.88E2,1.42E3,2.3E1,1.5E1,3.8E1,2.3E1,2.7E1,4.243E3,1.09E2,2.5E1,1.5E1,6E1,2.51E2,5E1,1.5E1,2.33E2,2.55E2],"tree_param":{"num_deleted":"0","num_feature":"40","num_nodes":"31","size_leaf_vector":"1"}},{"base_weights":[-3.8438768E-3,-2.802338E-1,2.1084481E-1,-1.6026415E-1,-3.2667797E0,1.627702E-1,1.2334182E0,-1.2864324E0,1.12521075E-1,-6.9395523E0,-7.162424E-1,6.5119016E-1,8.626575E-2,2.876817E0,-9.6530996E-2,-1.4494912E-1,-3.0989202E-2,-1.1679882E-2,1.17294155E-2,-3.2550582E-1,-9.219044E-4,-9.023976E-2,2.6671956E-3,6.2049493E-2,1.02066295E-2,-1.850476E-2,4.775945E-3,1.3111898E-1,2.8695174E-2,-3.7569184E-2,1.0256421E-1],"categories":[],"categories_nodes":[],"categories_segments":[],"categories_sizes":[],"default_left":[0,0,0,0,0,0,0,0,0,0,0,0,0,0,0,0,0,0,0,0,0,0,0,0,0,0,0,0,0,0,0],"id":26,"left_children":[1,3,5,7,9,11,13,15,17,19,21,23,25,27,29,-1,-1,-1,-1,-1,-1,-1,-1,-1,-1,-1,-1,-1,-1,-1,-1],"loss_changes":[4.0445303E2,1.0668525E3,1.882367E2,8.807032E2,1.0715316E3,1.3681757E2,3.7648535E2,4.9671967E2,3.2268387E2,1.2684209E3,1.2787813E2,2.1763406E2,1.6260414E2,2.1616821E2,3.94107E2,0E0,0E0,0E0,0E0,0E0,0E0,0E0,0E0,0E0,0E0,0E0,0E0,0E0,0E0,0E0,0E0],"parents":[2147483647,0,0,1,1,2,2,3,3,4,4,5,5,6,6,7,7,8,8,9,9,10,10,11,11,12,12,13,13,14,14],"right_children":[2,4,6,8,10,12,14,16,18,20,22,24,26,28,30,-1,-1,-1,-1,-1,-1,-1,-1,-1,-1,-1,-1,-1,-1,-1,-1],"split_conditions":[5.80454E7,1.774874E0,7.430129E8,-1.7598077E8,1.324E-3,-3.79E-5,1.33613E-5,9.54E-4,-2.25359E-1,1.33613E-5,4.745086E6,-7.087472E8,-1.2439E0,3.395E-3,5.11608E-5,-1.4494912E-1,-3.0989202E-2,-1.1679882E-2,1.17294155E-2,-3.2550582E-1,-9.219044E-4,-9.023976E-2,2.6671956E-3,6.2049493E-2,1.02066295E-2,-1.850476E-2,4.775945E-3,1.3111898E-1,2.8695174E-2,-3.7569184E-2,1.0256421E-1],"split_indices":[4,8,7,7,2,13,13,2,15,13,7,7,14,2,13,0,0,0,0,0,0,0,0,0,0,0,0,0,0,0,0],"split_type":[0,0,0,0,0,0,0,0,0,0,0,0,0,0,0,0,0,0,0,0,0,0,0,0,0,0,0,0,0,0,0],"sum_hessian":[6.814E3,2.979E3,3.835E3,2.865E3,1.14E2,3.664E3,1.71E2,5.58E2,2.307E3,4.6E1,6.8E1,4.95E2,3.169E3,7.6E1,9.5E1,3.6E1,5.22E2,8.23E2,1.484E3,2.9E1,1.7E1,1.7E1,5.1E1,8.8E1,4.07E2,2.97E2,2.872E3,4.2E1,3.4E1,7.2E1,2.3E1],"tree_param":{"num_deleted":"0","num_feature":"40","num_nodes":"31","size_leaf_vector":"1"}},{"base_weights":[3.1029595E-2,1.8750922E-1,-5.071149E-1,-1.4859115E-1,3.7615252E-1,-9.415476E-1,3.9883462E-1,-8.394089E-1,2.1137384E-1,-1.1899926E-1,4.0422127E-1,-3.5267195E-1,-3.9802542E0,2.9031458E0,8.468226E-2,1.1643901E-2,-4.019643E-2,2.8021685E-3,4.9228583E-2,1.2674248E-1,1.1306138E-2,2.6182948E-2,-2.2454575E-2,-2.3958594E-1,-7.306173E-3,1.1458299E-1,1.7115578E-2,-3.868655E-2,1.1209381E-2],"categories":[],"categories_nodes":[],"categories_segments":[],"categories_sizes":[],"default_left":[0,0,0,0,0,0,0,0,0,0,0,0,0,0,0,0,0,0,0,0,0,0,0,0,0,0,0,0,0],"id":27,"left_children":[1,3,5,7,9,11,13,15,17,-1,19,21,23,25,27,-1,-1,-1,-1,-1,-1,-1,-1,-1,-1,-1,-1,-1,-1],"loss_changes":[5.794186E2,3.380805E2,6.104696E2,4.76941E2,4.1752475E2,1.8734751E3,3.9518317E2,4.042426E2,2.1233447E2,0E0,3.5259186E2,4.2699536E2,2.5419744E3,1.17073944E2,1.7829279E2,0E0,0E0,0E0,0E0,0E0,0E0,0E0,0E0,0E0,0E0,0E0,0E0,0E0,0E0],"parents":[2147483647,0,0,1,1,2,2,3,3,4,4,5,5,6,6,7,7,8,8,10,10,11,11,12,12,13,13,14,14],"right_children":[2,4,6,8,10,12,14,16,18,-1,20,22,24,26,28,-1,-1,-1,-1,-1,-1,-1,-1,-1,-1,-1,-1,-1,-1],"split_conditions":[5.992E-5,-1.0253E0,8.484E-5,1.845E-3,4.3E-4,7.997E-5,1.0885E-5,-4.8218E-5,-1.7222E-5,-1.1899926E-1,2.343164E6,1.4467E-5,1.5E-3,9.645E-1,9.591E-1,1.1643901E-2,-4.019643E-2,2.8021685E-3,4.9228583E-2,1.2674248E-1,1.1306138E-2,2.6182948E-2,-2.2454575E-2,-2.3958594E-1,-7.306173E-3,1.1458299E-1,1.7115578E-2,-3.868655E-2,1.1209381E-2],"split_indices":[12,14,12,2,2,12,13,13,13,0,9,13,2,14,14,0,0,0,0,0,0,0,0,0,0,0,0,0,0],"split_type":[0,0,0,0,0,0,0,0,0,0,0,0,0,0,0,0,0,0,0,0,0,0,0,0,0,0,0,0,0],"sum_hessian":[6.879E3,5.33E3,1.549E3,1.916E3,3.414E3,1.047E3,5.02E2,6.56E2,1.26E3,2.1E1,3.393E3,8.78E2,1.69E2,5.5E1,4.47E2,1.9E2,4.66E2,1.165E3,9.5E1,2.3E1,3.37E3,2.14E2,6.64E2,8.1E1,8.8E1,3.9E1,1.6E1,7.7E1,3.7E2],"tree_param":{"num_deleted":"0","num_feature":"40","num_nodes":"29","size_leaf_vector":"1"}},{"base_weights":[4.4237792E-2,5.1607513E-1,-8.895745E-2,3.8802844E-1,4.4478946E0,-6.1122236E0,-3.2639943E-2,2.839452E-1,3.4157908E0,2.0515987E-1,3.110389E0,-1.2410304E-3,-3.7290424E-1,-1.035966E-1,9.780902E-1,-1.5261319E-2,1.7069995E-2,1.6282073E-1,3.521753E-2,4.6922926E-2,1.3130626E-1,7.669837E-4,-2.2858093E-2,1.4571595E-1,1.9360252E-2],"categories":[],"categories_nodes":[],"categories_segments":[],"categories_sizes":[],"default_left":[0,0,0,0,0,0,0,0,0,0,0,0,0,0,0,0,0,0,0,0,0,0,0,0,0],"id":28,"left_children":[1,3,5,7,9,11,13,15,17,-1,19,-1,-1,21,23,-1,-1,-1,-1,-1,-1,-1,-1,-1,-1],"loss_changes":[4.26502E2,7.499544E2,1.7943136E3,4.5498184E2,1.2802454E2,1.877642E3,3.761032E2,3.1685175E2,2.094331E2,0E0,5.5227478E1,0E0,0E0,4.1683966E2,4.403392E2,0E0,0E0,0E0,0E0,0E0,0E0,0E0,0E0,0E0,0E0],"parents":[2147483647,0,0,1,1,2,2,3,3,4,4,5,5,6,6,7,7,8,8,10,10,13,13,14,14],"right_children":[2,4,6,8,10,12,14,16,18,-1,20,-1,-1,22,24,-1,-1,-1,-1,-1,-1,-1,-1,-1,-1],"split_conditions":[-5.28E-6,-6.32E-6,-3.98E-6,1.4828E0,-3.671E-1,-9.80309E-1,4.7772704E8,-4.476E-5,9.587712E7,2.0515987E-1,9.844594E7,-1.2410304E-3,-3.7290424E-1,7.343E-5,5.48E-6,-1.5261319E-2,1.7069995E-2,1.6282073E-1,3.521753E-2,4.6922926E-2,1.3130626E-1,7.669837E-4,-2.2858093E-2,1.4571595E-1,1.9360252E-2],"split_indices":[12,12,12,14,14,8,7,12,7,0,7,0,0,12,12,0,0,0,0,0,0,0,0,0,0],"split_type":[0,0,0,0,0,0,0,0,0,0,0,0,0,0,0,0,0,0,0,0,0,0,0,0,0],"sum_hessian":[6.784E3,1.493E3,5.291E3,1.447E3,4.6E1,4.8E1,5.243E3,1.4E3,4.7E1,1.5E1,3.1E1,2.5E1,2.3E1,4.9E3,3.43E2,3.7E2,1.03E3,2.4E1,2.3E1,1.5E1,1.6E1,4.097E3,8.03E2,2.6E1,3.17E2],"tree_param":{"num_deleted":"0","num_feature":"40","num_nodes":"25","size_leaf_vector":"1"}},{"base_weights":[9.047841E-3,1.6522199E-1,-5.123399E-1,-9.226937E-2,1.8204997E-1,-7.9595613E-1,8.7423825E-1,-1.3586864E-1,3.5598636E-1,-1.278876E0,2.8065693E-1,1.1271657E-1,6.113818E-1,-2.682402E-2,7.6645017E-3,-5.7355817E-2,1.1872314E-2,-1.4839031E-2,-1.6653761E-1,4.8704997E-2,-7.4352655E-3,-8.862971E-2,2.5716225E-2],"categories":[],"categories_nodes":[],"categories_segments":[],"categories_sizes":[],"default_left":[0,0,0,0,0,0,0,0,0,0,0,0,0,0,0,0,0,0,0,0,0,0,0],"id":29,"left_children":[1,3,5,-1,7,9,11,13,15,17,19,-1,21,-1,-1,-1,-1,-1,-1,-1,-1,-1,-1],"loss_changes":[5.5253406E2,2.850642E2,6.157405E2,0E0,2.8739685E2,6.7583203E2,1.9884352E2,5.457165E2,3.0346533E2,3.0021162E3,2.8654556E2,0E0,2.1707556E2,0E0,0E0,0E0,0E0,0E0,0E0,0E0,0E0,0E0,0E0],"parents":[2147483647,0,0,1,1,2,2,4,4,5,5,6,6,7,7,8,8,9,9,10,10,12,12],"right_children":[2,4,6,-1,8,10,12,14,16,18,20,-1,22,-1,-1,-1,-1,-1,-1,-1,-1,-1,-1],"split_conditions":[5.992E-5,4.3E-4,1.9881E0,-9.226937E-2,-1.0253E0,8.484E-5,1.4467E-5,1.845E-3,-5.511E-5,7.997E-5,1.334E-3,1.1271657E-1,2.25573E-5,-2.682402E-2,7.6645017E-3,-5.7355817E-2,1.1872314E-2,-1.4839031E-2,-1.6653761E-1,4.8704997E-2,-7.4352655E-3,-8.862971E-2,2.5716225E-2],"split_indices":[12,2,14,0,14,12,13,2,12,12,2,0,13,0,0,0,0,0,0,0,0,0,0],"split_type":[0,0,0,0,0,0,0,0,0,0,0,0,0,0,0,0,0,0,0,0,0,0,0],"sum_hessian":[6.784E3,5.221E3,1.563E3,2.6E1,5.195E3,1.298E3,2.65E2,1.837E3,3.358E3,8.96E2,4.02E2,2.1E1,2.44E2,6.25E2,1.212E3,5.7E1,3.301E3,7.58E2,1.38E2,1.13E2,2.89E2,1.5E1,2.29E2],"tree_param":{"num_deleted":"0","num_feature":"40","num_nodes":"23","size_leaf_vector":"1"}},{"base_weights":[3.088763E-2,-3.6443986E-2,8.8990796E-1,1.2779108E-1,-5.844585E-1,-7.7201314E-2,1.0099202E0,9.9804096E-2,1.9286083E0,-9.7503406E-1,1.357995E-1,3.2293446E0,7.234592E-1,4.4335923E-3,-2.6916984E-2,8.39176E-2,-4.329298E-2,-1.2022374E-2,-6.984317E-2,7.8182004E-2,-1.2532939E-2,4.0700927E-2,1.1685509E-1,6.192868E-3,3.7316687E-2],"categories":[],"categories_nodes":[],"categories_segments":[],"categories_sizes":[],"default_left":[0,0,0,0,0,0,0,0,0,0,0,0,0,0,0,0,0,0,0,0,0,0,0,0,0],"id":30,"left_children":[1,3,5,7,9,-1,11,13,15,17,19,21,23,-1,-1,-1,-1,-1,-1,-1,-1,-1,-1,-1,-1],"loss_changes":[3.9787814E2,5.741607E2,2.1026093E2,2.4696515E2,4.1403098E2,0E0,3.0498532E2,2.313169E2,2.2383347E2,7.4010297E2,7.0964746E2,6.2767273E1,1.153018E2,0E0,0E0,0E0,0E0,0E0,0E0,0E0,0E0,0E0,0E0,0E0,0E0],"parents":[2147483647,0,0,1,1,2,2,3,3,4,4,6,6,7,7,8,8,9,9,10,10,11,11,12,12],"right_children":[2,4,6,8,10,-1,12,14,16,18,20,22,24,-1,-1,-1,-1,-1,-1,-1,-1,-1,-1,-1,-1],"split_conditions":[1.8567E0,1.0461E0,1.0885E-5,8.7841094E8,1.3090998E8,-7.7201314E-2,1.74337E-5,4.4728384E8,1.2399E-5,-1.2188272E7,1.4467E-5,-1.0323744E8,-2.062E-3,4.4335923E-3,-2.6916984E-2,8.39176E-2,-4.329298E-2,-1.2022374E-2,-6.984317E-2,7.8182004E-2,-1.2532939E-2,4.0700927E-2,1.1685509E-1,6.192868E-3,3.7316687E-2],"split_indices":[14,14,13,7,7,0,13,7,13,7,13,7,37,0,0,0,0,0,0,0,0,0,0,0,0],"split_type":[0,0,0,0,0,0,0,0,0,0,0,0,0,0,0,0,0,0,0,0,0,0,0,0,0],"sum_hessian":[6.876E3,6.377E3,4.99E2,4.907E3,1.47E3,1.6E1,4.83E2,4.833E3,7.4E1,9.53E2,5.17E2,5.4E1,4.29E2,4.612E3,2.21E2,5.9E1,1.5E1,6.7E2,2.83E2,9.4E1,4.23E2,1.5E1,3.9E1,2.16E2,2.13E2],"tree_param":{"num_deleted":"0","num_feature":"40","num_nodes":"25","size_leaf_vector":"1"}},{"base_weights":[-3.432165E-2,-3.3794075E-1,1.6684599E-1,-2.4160773E-1,-3.5638208E0,2.9957837E-1,-1.0807171E-1,-1.3214481E0,8.533245E-2,-6.1380444E0,6.1684895E-1,8.4691435E-2,7.4606204E-1,-1.1978334E0,8.841839E-2,-5.1577672E-2,-1.5366978E-3,-1.1720151E-2,1.1030063E-2,-4.1571823E-1,-5.9173185E-2,2.2877431E-3,3.33791E-2,3.3938691E-3,-9.6659794E-2,1.7019141E-2,7.1759515E-2,-6.933095E-2,-8.105286E-3,1.1357009E-2,-1.8478308E-2],"categories":[],"categories_nodes":[],"categories_segments":[],"categories_sizes":[],"default_left":[0,0,0,0,0,0,0,0,0,0,0,0,0,0,0,0,0,0,0,0,0,0,0,0,0,0,0,0,0,0,0],"id":31,"left_children":[1,3,5,7,9,11,13,15,17,19,21,23,25,27,29,-1,-1,-1,-1,-1,-1,-1,-1,-1,-1,-1,-1,-1,-1,-1,-1],"loss_changes":[4.1809363E2,8.465082E2,1.5028284E2,9.358008E2,8.545346E2,2.6628888E2,2.8736166E2,3.1100293E2,2.7363165E2,1.5466921E3,8.104829E0,1.7646135E2,2.6373404E2,2.1081412E2,2.3257771E2,0E0,0E0,0E0,0E0,0E0,0E0,0E0,0E0,0E0,0E0,0E0,0E0,0E0,0E0,0E0,0E0],"parents":[2147483647,0,0,1,1,2,2,3,3,4,4,5,5,6,6,7,7,8,8,9,9,10,10,11,11,12,12,13,13,14,14],"right_children":[2,4,6,8,10,12,14,16,18,20,22,24,26,28,30,-1,-1,-1,-1,-1,-1,-1,-1,-1,-1,-1,-1,-1,-1,-1,-1],"split_conditions":[9.34227E2,1.87571E0,1.64883E-5,-1.4993742E8,1.33613E-5,7.21039E-1,2.06617E-5,2.203E-3,-1.88628E-1,1.229E-3,7.5328536E7,8.308E-3,4.655484E8,2.505E-3,4.975E1,-5.1577672E-2,-1.5366978E-3,-1.1720151E-2,1.1030063E-2,-4.1571823E-1,-5.9173185E-2,2.2877431E-3,3.33791E-2,3.3938691E-3,-9.6659794E-2,1.7019141E-2,7.1759515E-2,-6.933095E-2,-8.105286E-3,1.1357009E-2,-1.8478308E-2],"split_indices":[0,8,13,7,13,15,13,2,15,2,7,2,7,2,39,0,0,0,0,0,0,0,0,0,0,0,0,0,0,0,0],"split_type":[0,0,0,0,0,0,0,0,0,0,0,0,0,0,0,0,0,0,0,0,0,0,0,0,0,0,0,0,0,0,0],"sum_hessian":[6.843E3,2.727E3,4.116E3,2.649E3,7.8E1,2.776E3,1.34E3,6.15E2,2.034E3,4.8E1,3E1,1.875E3,9.01E2,2.04E2,1.136E3,4.68E2,1.47E2,7.57E2,1.277E3,1.6E1,3.2E1,1.5E1,1.5E1,1.86E3,1.5E1,8.14E2,8.7E1,9.2E1,1.12E2,8.05E2,3.31E2],"tree_param":{"num_deleted":"0","num_feature":"40","num_nodes":"31","size_leaf_vector":"1"}},{"base_weights":[-4.6096067E-3,-4.5268714E-2,1.3940327E0,-1.8304352E-1,3.7752372E-1,3.0224395E0,7.125687E-2,-1.0603688E-1,-1.2342577E0,7.3848426E-1,1.3885358E-1,1.8278837E-1,1.8701881E0,-1.0919665E0,1.0187336E-1,-1.5421872E-2,2.9058044E-3,-1.4503135E-1,-1.1447066E-2,8.063134E-2,2.0055898E-2,1.0507207E-1,2.0559253E-3,8.297275E-2,2.655189E-2,-2.0184081E-2,-7.191086E-2],"categories":[],"categories_nodes":[],"categories_segments":[],"categories_sizes":[],"default_left":[0,0,0,0,0,0,0,0,0,0,0,0,0,0,0,0,0,0,0,0,0,0,0,0,0,0,0],"id":32,"left_children":[1,3,5,7,9,11,13,15,17,19,21,-1,23,25,-1,-1,-1,-1,-1,-1,-1,-1,-1,-1,-1,-1,-1],"loss_changes":[3.8651385E2,3.8490836E2,4.1304648E2,4.0319223E2,1.3971814E2,2.9207642E2,4.177247E2,3.8463794E2,1.0413599E3,8.59541E1,2.3096967E2,0E0,5.365097E1,4.184307E1,0E0,0E0,0E0,0E0,0E0,0E0,0E0,0E0,0E0,0E0,0E0,0E0,0E0],"parents":[2147483647,0,0,1,1,2,2,3,3,4,4,5,5,6,6,7,7,8,8,9,9,10,10,12,12,13,13],"right_children":[2,4,6,8,10,12,14,16,18,20,22,-1,24,26,-1,-1,-1,-1,-1,-1,-1,-1,-1,-1,-1,-1,-1],"split_conditions":[7.430129E8,3.188E-3,1.33613E-5,1.733347E0,-3.55869E-1,1.934E-3,5.11608E-5,-1.1876732E8,1.334E-3,-2.62562E-1,-5.92382E-5,1.8278837E-1,1.920838E0,1.0049357E8,1.0187336E-1,-1.5421872E-2,2.9058044E-3,-1.4503135E-1,-1.1447066E-2,8.063134E-2,2.0055898E-2,1.0507207E-1,2.0559253E-3,8.297275E-2,2.655189E-2,-2.0184081E-2,-7.191086E-2],"split_indices":[7,2,13,8,15,2,13,7,2,33,13,0,8,9,0,0,0,0,0,0,0,0,0,0,0,0,0],"split_type":[0,0,0,0,0,0,0,0,0,0,0,0,0,0,0,0,0,0,0,0,0,0,0,0,0,0,0],"sum_hessian":[6.797E3,6.606E3,1.91E2,4.983E3,1.623E3,8.5E1,1.06E2,4.644E3,3.39E2,6.45E2,9.78E2,2.2E1,6.3E1,7.9E1,2.7E1,1.542E3,3.102E3,6.4E1,2.75E2,2.1E1,6.24E2,1.9E1,9.59E2,3.2E1,3.1E1,6.1E1,1.8E1],"tree_param":{"num_deleted":"0","num_feature":"40","num_nodes":"27","size_leaf_vector":"1"}},{"base_weights":[3.5921514E-2,5.271162E-1,-1.0538547E-1,4.1116035E-1,4.0166574E0,-6.212794E0,-4.2622928E-2,-8.93278E-1,5.9368277E-1,1.8847825E-1,2.7246015E0,-1.5179452E-2,-3.8425368E-1,-1.11176625E-1,9.5529234E-1,-1.4225347E-2,-1.4781706E-1,-9.138021E-2,1.9678546E-2,3.8602278E-2,1.24969654E-1,-6.857767E-4,-3.9711557E-2,9.6066386E-2,5.261465E-3],"categories":[],"categories_nodes":[],"categories_segments":[],"categories_sizes":[],"default_left":[0,0,0,0,0,0,0,0,0,0,0,0,0,0,0,0,0,0,0,0,0,0,0,0,0],"id":33,"left_children":[1,3,5,7,9,11,13,15,17,-1,19,-1,-1,21,23,-1,-1,-1,-1,-1,-1,-1,-1,-1,-1],"loss_changes":[4.7471808E2,6.161844E2,2.0349032E3,3.5287247E2,1.25440674E2,2.0247588E3,3.5972568E2,3.0481824E2,2.9616315E2,0E0,6.247168E1,0E0,0E0,5.2681793E2,5.914105E2,0E0,0E0,0E0,0E0,0E0,0E0,0E0,0E0,0E0,0E0],"parents":[2147483647,0,0,1,1,2,2,3,3,4,4,5,5,6,6,7,7,8,8,10,10,13,13,14,14],"right_children":[2,4,6,8,10,12,14,16,18,-1,20,-1,-1,22,24,-1,-1,-1,-1,-1,-1,-1,-1,-1,-1],"split_conditions":[-5.28E-6,-6.32E-6,-3.98E-6,-5.511E-5,7.88E-4,-8.95447E-1,4.7772704E8,-3.671E-1,5.41E-4,1.8847825E-1,1.47E-3,-1.5179452E-2,-3.8425368E-1,1.733347E0,1.924E-3,-1.4225347E-2,-1.4781706E-1,-9.138021E-2,1.9678546E-2,3.8602278E-2,1.24969654E-1,-6.857767E-4,-3.9711557E-2,9.6066386E-2,5.261465E-3],"split_indices":[12,12,12,12,2,8,7,14,2,0,2,0,0,8,2,0,0,0,0,0,0,0,0,0,0],"split_type":[0,0,0,0,0,0,0,0,0,0,0,0,0,0,0,0,0,0,0,0,0,0,0,0,0],"sum_hessian":[6.837E3,1.527E3,5.31E3,1.479E3,4.8E1,5.3E1,5.257E3,1.81E2,1.298E3,1.6E1,3.2E1,2.9E1,2.4E1,4.92E3,3.37E2,1.65E2,1.6E1,2.1E1,1.277E3,1.7E1,1.5E1,4.587E3,3.33E2,8.6E1,2.51E2],"tree_param":{"num_deleted":"0","num_feature":"40","num_nodes":"25","size_leaf_vector":"1"}},{"base_weights":[-3.592695E-2,-3.328352E-1,1.4818631E-1,-6.0777605E-1,-3.5940025E-2,2.8353345E-1,-1.2459348E-1,-4.369857E-1,-2.0396152E0,-4.8817566E-1,3.010915E-1,1.6804758E-1,1.1159418E0,-1.2388804E0,4.5858208E-2,-4.01318E-2,-1.5644142E-3,-2.7551321E-2,-1.470403E-1,-2.7435228E-2,9.949928E-3,2.6775619E-2,-1.5875157E-2,5.705676E-3,-9.033979E-2,6.469044E-2,1.9436907E-2,-7.291354E-2,-1.0732366E-2,-5.868129E-3,1.616028E-2],"categories":[],"categories_nodes":[],"categories_segments":[],"categories_sizes":[],"default_left":[0,0,0,0,0,0,0,0,0,0,0,0,0,0,0,0,0,0,0,0,0,0,0,0,0,0,0,0,0,0,0],"id":34,"left_children":[1,3,5,7,9,11,13,15,17,19,21,23,25,27,29,-1,-1,-1,-1,-1,-1,-1,-1,-1,-1,-1,-1,-1,-1,-1,-1],"loss_changes":[3.7003873E2,2.1141348E2,1.5430286E2,3.2777316E2,1.9023051E2,2.6817908E2,2.6342197E2,4.1679898E2,4.5375763E2,1.8665787E2,3.5160364E2,1.730437E2,1.6388779E2,1.920397E2,1.432931E2,0E0,0E0,0E0,0E0,0E0,0E0,0E0,0E0,0E0,0E0,0E0,0E0,0E0,0E0,0E0,0E0],"parents":[2147483647,0,0,1,1,2,2,3,3,4,4,5,5,6,6,7,7,8,8,9,9,10,10,11,11,12,12,13,13,14,14],"right_children":[2,4,6,8,10,12,14,16,18,20,22,24,26,28,30,-1,-1,-1,-1,-1,-1,-1,-1,-1,-1,-1,-1,-1,-1,-1,-1],"split_conditions":[5.170947E7,1.555E-3,1.64883E-5,1.782645E0,-1.11623E-5,9.87E-6,2.03577E-5,-6.33926E-1,1.04353E-1,8.85975E-1,1.811E-5,8.308E-3,1.924E-3,2.411E-3,3.416E-3,-4.01318E-2,-1.5644142E-3,-2.7551321E-2,-1.470403E-1,-2.7435228E-2,9.949928E-3,2.6775619E-2,-1.5875157E-2,5.705676E-3,-9.033979E-2,6.469044E-2,1.9436907E-2,-7.291354E-2,-1.0732366E-2,-5.868129E-3,1.616028E-2],"split_indices":[4,2,13,15,13,13,13,15,32,15,13,2,2,2,2,0,0,0,0,0,0,0,0,0,0,0,0,0,0,0,0],"split_type":[0,0,0,0,0,0,0,0,0,0,0,0,0,0,0,0,0,0,0,0,0,0,0,0,0,0,0,0,0,0,0],"sum_hessian":[6.767E3,2.59E3,4.177E3,1.344E3,1.246E3,2.792E3,1.385E3,1.202E3,1.42E2,5.32E2,7.14E2,2.453E3,3.39E2,1.83E2,1.202E3,3.59E2,8.43E2,1.03E2,3.9E1,3.5E2,1.82E2,4.17E2,2.97E2,2.437E3,1.6E1,1.04E2,2.35E2,7.7E1,1.06E2,8.07E2,3.95E2],"tree_param":{"num_deleted":"0","num_feature":"40","num_nodes":"31","size_leaf_vector":"1"}},{"base_weights":[-1.5028218E-2,1.24822855E-1,-5.0424206E-1,-1.1681168E-1,1.4447246E-1,-8.622289E-1,9.036037E-1,-1.6938299E-1,3.130469E-1,-1.3749717E0,2.0532075E-1,4.2436934E0,5.302237E-1,-3.6685128E-2,1.5906015E-3,-5.7535898E-2,1.0771501E-2,-1.8250978E-2,-1.6257347E-1,6.49135E-2,-2.7051927E-3,1.6136132E-1,8.5115865E-2,2.2847572E-2,-1.2211149E-2],"categories":[],"categories_nodes":[],"categories_segments":[],"categories_sizes":[],"default_left":[0,0,0,0,0,0,0,0,0,0,0,0,0,0,0,0,0,0,0,0,0,0,0,0,0],"id":35,"left_children":[1,3,5,-1,7,9,11,13,15,17,19,21,23,-1,-1,-1,-1,-1,-1,-1,-1,-1,-1,-1,-1],"loss_changes":[4.6992096E2,4.2192834E2,7.7036804E2,0E0,2.8132635E2,6.6710626E2,3.8388052E2,4.354954E2,3.5552612E2,2.5476182E3,2.2957304E2,3.3406372E1,6.1062553E1,0E0,0E0,0E0,0E0,0E0,0E0,0E0,0E0,0E0,0E0,0E0,0E0],"parents":[2147483647,0,0,1,1,2,2,4,4,5,5,6,6,7,7,8,8,9,9,10,10,11,11,12,12],"right_children":[2,4,6,-1,8,10,12,14,16,18,20,22,24,-1,-1,-1,-1,-1,-1,-1,-1,-1,-1,-1,-1],"split_conditions":[6.178E-5,4.3E-4,1.8567E0,-1.1681168E-1,-1.0253E0,8.484E-5,1.48722E-5,1.375E-3,-5.511E-5,7.997E-5,1.06463E-5,4.208E1,3.721E-3,-3.6685128E-2,1.5906015E-3,-5.7535898E-2,1.0771501E-2,-1.8250978E-2,-1.6257347E-1,6.49135E-2,-2.7051927E-3,1.6136132E-1,8.5115865E-2,2.2847572E-2,-1.2211149E-2],"split_indices":[12,2,14,0,14,12,13,2,12,12,13,39,2,0,0,0,0,0,0,0,0,0,0,0,0],"split_type":[0,0,0,0,0,0,0,0,0,0,0,0,0,0,0,0,0,0,0,0,0,0,0,0,0],"sum_hessian":[6.866E3,5.34E3,1.526E3,2.5E1,5.315E3,1.217E3,3.09E2,1.857E3,3.458E3,8.22E2,3.95E2,3E1,2.79E2,3.23E2,1.534E3,6.9E1,3.389E3,6.92E2,1.3E2,5.1E1,3.44E2,1.5E1,1.5E1,2.24E2,5.5E1],"tree_param":{"num_deleted":"0","num_feature":"40","num_nodes":"25","size_leaf_vector":"1"}},{"base_weights":[1.0028315E-2,-2.6199393E-2,1.3084457E0,-1.5661672E-1,3.8367245E-1,2.984268E0,1.1168646E-1,-6.0819393E-1,4.79268E-2,1.0803492E0,2.5925782E-1,4.547747E0,5.14339E-1,-1.1751161E0,3.1138716E0,-4.913699E-2,-1.0592081E-2,5.2945577E-3,-3.6050256E-2,1.2224783E-1,2.5066108E-2,7.8733966E-2,6.440893E-3,5.884536E-2,1.783369E-1,4.8496813E-2,-1.8413357E-2,-6.6954136E-2,-2.4396433E-2,1.20600596E-1,6.389573E-2],"categories":[],"categories_nodes":[],"categories_segments":[],"categories_sizes":[],"default_left":[0,0,0,0,0,0,0,0,0,0,0,0,0,0,0,0,0,0,0,0,0,0,0,0,0,0,0,0,0,0,0],"id":36,"left_children":[1,3,5,7,9,11,13,15,17,19,21,23,25,27,29,-1,-1,-1,-1,-1,-1,-1,-1,-1,-1,-1,-1,-1,-1,-1,-1],"loss_changes":[3.2059003E2,3.5433307E2,3.7038495E2,4.6459976E2,1.3826878E2,2.9450427E2,4.2494397E2,4.1114117E2,5.562692E2,1.735167E2,1.4238707E2,1.5733636E2,3.963898E1,2.732669E1,2.0247803E1,0E0,0E0,0E0,0E0,0E0,0E0,0E0,0E0,0E0,0E0,0E0,0E0,0E0,0E0,0E0,0E0],"parents":[2147483647,0,0,1,1,2,2,3,3,4,4,5,5,6,6,7,7,8,8,9,9,10,10,11,11,12,12,13,13,14,14],"right_children":[2,4,6,8,10,12,14,16,18,20,22,24,26,28,30,-1,-1,-1,-1,-1,-1,-1,-1,-1,-1,-1,-1,-1,-1,-1,-1],"split_conditions":[7.430129E8,3.188E-3,1.36022E-5,-1.23022936E8,-1.887274E0,3.395E-3,5.11608E-5,3.687944E7,1.774874E0,3.299E-3,-5.92382E-5,4.7593E-6,5.5541E-2,-8.3925E-2,2.5922805E6,-4.913699E-2,-1.0592081E-2,5.2945577E-3,-3.6050256E-2,1.2224783E-1,2.5066108E-2,7.8733966E-2,6.440893E-3,5.884536E-2,1.783369E-1,4.8496813E-2,-1.8413357E-2,-6.6954136E-2,-2.4396433E-2,1.20600596E-1,6.389573E-2],"split_indices":[7,2,13,7,15,2,13,3,8,2,13,13,31,38,11,0,0,0,0,0,0,0,0,0,0,0,0,0,0,0,0],"split_type":[0,0,0,0,0,0,0,0,0,0,0,0,0,0,0,0,0,0,0,0,0,0,0,0,0,0,0,0,0,0,0],"sum_hessian":[6.811E3,6.627E3,1.84E2,5.028E3,1.599E3,7.6E1,1.08E2,1.567E3,3.461E3,2.41E2,1.358E3,4.6E1,3E1,7.6E1,3.2E1,3.1E2,1.257E3,3.139E3,3.22E2,1.7E1,2.24E2,2.4E1,1.334E3,1.7E1,2.9E1,1.5E1,1.5E1,1.8E1,5.8E1,1.5E1,1.7E1],"tree_param":{"num_deleted":"0","num_feature":"40","num_nodes":"31","size_leaf_vector":"1"}},{"base_weights":[2.0443778E-3,-7.0168555E-2,8.2923377E-1,8.97891E-2,-7.390469E-1,-9.814777E-2,9.593938E-1,3.502142E-2,1.5124409E0,-1.2646029E0,2.930215E-1,3.1519804E0,6.5128756E-1,1.7106164E-3,-1.1281951E-1,5.4489538E-2,-5.5275407E-2,-1.731018E-2,-1.5352519E-1,6.59367E-2,6.167918E-4,1.0457628E-2,1.1952079E-1,-3.1144219E-2,2.4247702E-2],"categories":[],"categories_nodes":[],"categories_segments":[],"categories_sizes":[],"default_left":[0,0,0,0,0,0,0,0,0,0,0,0,0,0,0,0,0,0,0,0,0,0,0,0,0],"id":37,"left_children":[1,3,5,7,9,-1,11,13,15,17,19,21,23,-1,-1,-1,-1,-1,-1,-1,-1,-1,-1,-1,-1],"loss_changes":[4.0620428E2,6.691535E2,2.9434247E2,3.9303098E2,6.551564E2,0E0,3.5560812E2,4.0574472E2,1.939892E2,2.1158733E3,2.1148653E2,1.4979382E2,1.2439377E2,0E0,0E0,0E0,0E0,0E0,0E0,0E0,0E0,0E0,0E0,0E0,0E0],"parents":[2147483647,0,0,1,1,2,2,3,3,4,4,6,6,7,7,8,8,9,9,10,10,11,11,12,12],"right_children":[2,4,6,8,10,-1,12,14,16,18,20,22,24,-1,-1,-1,-1,-1,-1,-1,-1,-1,-1,-1,-1],"split_conditions":[1.7861E0,6.178E-5,1.03672E-5,5.825E-5,8.484E-5,-9.814777E-2,1.71107E-5,5.723E-5,1.6598667E8,7.997E-5,1.03672E-5,-1.23022936E8,2.2236E-5,1.7106164E-3,-1.1281951E-1,5.4489538E-2,-5.5275407E-2,-1.731018E-2,-1.5352519E-1,6.59367E-2,6.167918E-4,1.0457628E-2,1.1952079E-1,-3.1144219E-2,2.4247702E-2],"split_indices":[14,12,13,12,12,0,13,12,7,12,13,7,13,0,0,0,0,0,0,0,0,0,0,0,0],"split_type":[0,0,0,0,0,0,0,0,0,0,0,0,0,0,0,0,0,0,0,0,0,0,0,0,0],"sum_hessian":[6.797E3,6.252E3,5.45E2,5.046E3,1.206E3,1.6E1,5.29E2,4.86E3,1.86E2,7.99E2,4.07E2,6.4E1,4.65E2,4.833E3,2.7E1,1.71E2,1.5E1,6.79E2,1.2E2,5E1,3.57E2,1.5E1,4.9E1,3.9E1,4.26E2],"tree_param":{"num_deleted":"0","num_feature":"40","num_nodes":"25","size_leaf_vector":"1"}},{"base_weights":[2.771648E-2,-1.1216862E0,6.8815246E-2,-6.0372484E-1,-3.4060328E0,1.2481548E-2,6.864265E-1,-1.2417972E0,1.0912534E0,-1.799441E-1,-5.3988453E-2,1.318717E-1,-4.100139E-1,2.8574476E0,4.6687338E-1,-1.7079376E-2,-8.898594E-2,8.241189E-2,-5.076793E-3,3.1558862E-3,5.3673215E-2,-1.790946E-2,3.478603E-2,3.904216E-2,1.30723E-1,-1.2044185E-2,2.8799012E-2],"categories":[],"categories_nodes":[],"categories_segments":[],"categories_sizes":[],"default_left":[0,0,0,0,0,0,0,0,0,0,0,0,0,0,0,0,0,0,0,0,0,0,0,0,0,0,0],"id":38,"left_children":[1,3,5,7,9,11,13,15,17,-1,-1,19,21,23,25,-1,-1,-1,-1,-1,-1,-1,-1,-1,-1,-1,-1],"loss_changes":[3.2020532E2,2.744123E2,2.2767212E2,2.0902176E2,1.6747797E2,3.0267703E2,2.590635E2,1.6030643E2,1.11339745E2,0E0,0E0,2.0646956E2,3.8858408E2,1.1046539E2,2.1367291E2,0E0,0E0,0E0,0E0,0E0,0E0,0E0,0E0,0E0,0E0,0E0,0E0],"parents":[2147483647,0,0,1,1,2,2,3,3,4,4,5,5,6,6,7,7,8,8,11,11,12,12,13,13,14,14],"right_children":[2,4,6,8,10,12,14,16,18,-1,-1,20,22,24,26,-1,-1,-1,-1,-1,-1,-1,-1,-1,-1,-1,-1],"split_conditions":[1.4962845E7,1.129214E0,1.7861E0,3.89E-4,1.5413743E7,1.0461E0,1.042E-3,6.111406E6,-2.83E-4,-1.799441E-1,-5.3988453E-2,8.7841094E8,4.655484E8,7.45E-4,-5.72703E-1,-1.7079376E-2,-8.898594E-2,8.241189E-2,-5.076793E-3,3.1558862E-3,5.3673215E-2,-1.790946E-2,3.478603E-2,3.904216E-2,1.30723E-1,-1.2044185E-2,2.8799012E-2],"split_indices":[4,8,14,22,7,14,2,9,24,0,0,7,7,2,15,0,0,0,0,0,0,0,0,0,0,0,0],"split_type":[0,0,0,0,0,0,0,0,0,0,0,0,0,0,0,0,0,0,0,0,0,0,0,0,0,0,0],"sum_hessian":[6.778E3,2.33E2,6.545E3,1.91E2,4.2E1,5.999E3,5.46E2,1.39E2,5.2E1,1.5E1,2.7E1,4.678E3,1.321E3,4.9E1,4.97E2,1.01E2,3.8E1,2.2E1,3E1,4.605E3,7.3E1,1.181E3,1.4E2,2.5E1,2.4E1,1.8E2,3.17E2],"tree_param":{"num_deleted":"0","num_feature":"40","num_nodes":"27","size_leaf_vector":"1"}},{"base_weights":[3.742599E-3,-4.060728E-2,9.65681E-1,9.671009E-2,-3.8210556E-1,2.413305E0,6.7536145E-1,-2.0361502E-1,2.2200924E-1,-6.5022504E-1,3.093055E-1,3.4718E0,6.3221403E-3,-2.549623E-1,1.2075393E0,-2.1948487E-2,2.172639E-3,8.725363E-3,-1.6959313E-2,-8.55105E-2,-1.5031815E-2,7.73281E-2,3.379616E-3,1.2238945E-1,7.9615355E-2,-4.8971687E-2,1.34274615E-2,-1.8783255E-2,4.301301E-2],"categories":[],"categories_nodes":[],"categories_segments":[],"categories_sizes":[],"default_left":[0,0,0,0,0,0,0,0,0,0,0,0,0,0,0,0,0,0,0,0,0,0,0,0,0,0,0,0,0],"id":39,"left_children":[1,3,5,7,9,11,13,15,17,19,21,23,-1,25,27,-1,-1,-1,-1,-1,-1,-1,-1,-1,-1,-1,-1,-1,-1],"loss_changes":[2.8652075E2,3.0102893E2,1.2246228E2,1.723194E2,3.415212E2,1.1313901E2,1.2318736E2,1.9658656E2,1.7524452E2,4.3373248E2,2.2916379E2,4.9072266E0,0E0,8.891014E1,6.6520355E1,0E0,0E0,0E0,0E0,0E0,0E0,0E0,0E0,0E0,0E0,0E0,0E0,0E0,0E0],"parents":[2147483647,0,0,1,1,2,2,3,3,4,4,5,5,6,6,7,7,8,8,9,9,10,10,11,11,13,13,14,14],"right_children":[2,4,6,8,10,12,14,16,18,20,22,24,-1,26,28,-1,-1,-1,-1,-1,-1,-1,-1,-1,-1,-1,-1,-1,-1],"split_conditions":[2.3273E0,9.953E-1,1.811E-5,7.53522E2,1.5261E0,8.24E-4,-5.72703E-1,-1.0601E0,1.2129229E8,1.8315786E7,2.069945E7,4.65E-4,6.3221403E-3,5.7767044E7,2.41427E-5,-2.1948487E-2,2.172639E-3,8.725363E-3,-1.6959313E-2,-8.55105E-2,-1.5031815E-2,7.73281E-2,3.379616E-3,1.2238945E-1,7.9615355E-2,-4.8971687E-2,1.34274615E-2,-1.8783255E-2,4.301301E-2],"split_indices":[14,14,13,0,14,19,15,14,10,3,4,24,0,3,13,0,0,0,0,0,0,0,0,0,0,0,0,0,0],"split_type":[0,0,0,0,0,0,0,0,0,0,0,0,0,0,0,0,0,0,0,0,0,0,0,0,0,0,0,0,0],"sum_hessian":[6.712E3,6.417E3,2.95E2,4.577E3,1.84E3,4.8E1,2.47E2,1.347E3,3.23E3,1.326E3,5.14E2,3.2E1,1.6E1,9E1,1.57E2,4.62E2,8.85E2,2.971E3,2.59E2,8.3E1,1.243E3,4E1,4.74E2,1.6E1,1.6E1,3E1,6E1,1.7E1,1.4E2],"tree_param":{"num_deleted":"0","num_feature":"40","num_nodes":"29","size_leaf_vector":"1"}},{"base_weights":[6.68398E-3,9.8811366E-2,-5.884051E-1,-2.0499788E-1,2.0933886E-1,-3.6063877E-1,-6.4565873E0,-8.089397E-2,-3.9026675E0,1.5019618E-1,1.6345296E0,-1.5633758E0,3.7557882E-1,-4.040226E-1,-6.2293275E-3,-1.39271915E-2,2.7576348E-2,-2.7674714E-2,-1.7864126E-1,5.225392E-3,-1.6078451E-1,7.79061E-2,8.774828E-3,-4.1238162E-1,-2.4768274E-2,5.095468E-2,3.1061582E-3],"categories":[],"categories_nodes":[],"categories_segments":[],"categories_sizes":[],"default_left":[0,0,0,0,0,0,0,0,0,0,0,0,0,0,0,0,0,0,0,0,0,0,0,0,0,0,0],"id":40,"left_children":[1,3,5,7,9,11,13,15,17,19,21,23,25,-1,-1,-1,-1,-1,-1,-1,-1,-1,-1,-1,-1,-1,-1],"loss_changes":[3.7297687E2,1.9789246E2,1.2159456E3,7.206693E2,3.6379138E2,7.7903955E2,1.485386E3,5.838951E2,3.0570685E2,5.4880316E2,2.2108862E2,2.9891775E3,1.9614108E2,0E0,0E0,0E0,0E0,0E0,0E0,0E0,0E0,0E0,0E0,0E0,0E0,0E0,0E0],"parents":[2147483647,0,0,1,1,2,2,3,3,4,4,5,5,6,6,7,7,8,8,9,9,10,10,11,11,12,12],"right_children":[2,4,6,8,10,12,14,16,18,20,22,24,26,-1,-1,-1,-1,-1,-1,-1,-1,-1,-1,-1,-1,-1,-1],"split_conditions":[7.343E-5,-1.6819046E8,1.774874E0,6.642E-5,6.642E-5,8.156E-5,5.7147612E7,4.165E-5,-5.712543E8,6.495E-5,6.832E-5,9.87E-6,1.42375E-5,-4.040226E-1,-6.2293275E-3,-1.39271915E-2,2.7576348E-2,-2.7674714E-2,-1.7864126E-1,5.225392E-3,-1.6078451E-1,7.79061E-2,8.774828E-3,-4.1238162E-1,-2.4768274E-2,5.095468E-2,3.1061582E-3],"split_indices":[12,7,8,12,12,12,4,12,7,12,12,13,13,0,0,0,0,0,0,0,0,0,0,0,0,0,0],"split_type":[0,0,0,0,0,0,0,0,0,0,0,0,0,0,0,0,0,0,0,0,0,0,0,0,0,0,0],"sum_hessian":[6.802E3,5.891E3,9.11E2,1.571E3,4.32E3,8.78E2,3.3E1,1.521E3,5E1,4.149E3,1.71E2,3.33E2,5.45E2,1.5E1,1.8E1,1.1E3,4.21E2,2.1E1,2.9E1,4.132E3,1.7E1,9.9E1,7.2E1,1.8E1,3.15E2,9.2E1,4.53E2],"tree_param":{"num_deleted":"0","num_feature":"40","num_nodes":"27","size_leaf_vector":"1"}},{"base_weights":[2.128691E-2,-1.1225578E0,7.632689E-2,-2.1006904E0,-9.202607E-2,4.419619E-2,1.1770226E0,-9.7655493E-1,-3.8783166E0,-1.4497294E0,1.2832062E0,-6.393408E-2,3.5617262E-1,1.7854615E-1,7.2014445E-1,-8.000179E-2,1.3589413E-2,-7.197908E-2,-2.2064501E-1,-1.5247978E-1,-1.2858233E-2,-2.0637339E-2,5.318393E-2,-2.619299E-5,-3.2542188E-2,2.1169476E-2,3.5667787E-3,-4.104664E-2,3.025144E-2],"categories":[],"categories_nodes":[],"categories_segments":[],"categories_sizes":[],"default_left":[0,0,0,0,0,0,0,0,0,0,0,0,0,0,0,0,0,0,0,0,0,0,0,0,0,0,0,0,0],"id":41,"left_children":[1,3,5,7,9,11,13,15,17,19,21,23,25,-1,27,-1,-1,-1,-1,-1,-1,-1,-1,-1,-1,-1,-1,-1,-1],"loss_changes":[4.3060825E2,3.160983E2,2.3066052E2,3.1745227E2,2.8941922E2,2.1402736E2,3.9860068E2,2.4304535E2,3.0017078E2,2.8662415E2,7.56363E1,3.0315164E2,1.3524821E2,0E0,1.0367422E2,0E0,0E0,0E0,0E0,0E0,0E0,0E0,0E0,0E0,0E0,0E0,0E0,0E0,0E0],"parents":[2147483647,0,0,1,1,2,2,3,3,4,4,5,5,6,6,7,7,8,8,9,9,10,10,11,11,12,12,14,14],"right_children":[2,4,6,8,10,12,14,16,18,20,22,24,26,-1,28,-1,-1,-1,-1,-1,-1,-1,-1,-1,-1,-1,-1,-1,-1],"split_conditions":[1.6709684E7,2.88E-4,7.430129E8,6.3262E-2,3.7345125E6,3.169E-3,-8.1931E-2,7.546E-3,1.1763E-1,-6.33926E-1,-1.0864E0,1.87571E0,-3.55869E-1,1.7854615E-1,2.37532E-1,-8.000179E-2,1.3589413E-2,-7.197908E-2,-2.2064501E-1,-1.5247978E-1,-1.2858233E-2,-2.0637339E-2,5.318393E-2,-2.619299E-5,-3.2542188E-2,2.1169476E-2,3.5667787E-3,-4.104664E-2,3.025144E-2],"split_indices":[4,1,7,38,10,2,8,32,35,15,14,8,15,0,8,0,0,0,0,0,0,0,0,0,0,0,0,0,0],"split_type":[0,0,0,0,0,0,0,0,0,0,0,0,0,0,0,0,0,0,0,0,0,0,0,0,0,0,0,0,0],"sum_hessian":[6.839E3,3.13E2,6.526E3,1.6E2,1.53E2,6.342E3,1.84E2,9.9E1,6.1E1,7.7E1,7.6E1,4.71E3,1.632E3,1.5E1,1.69E2,4.5E1,5.4E1,4.4E1,1.7E1,1.6E1,6.1E1,1.5E1,6.1E1,4.437E3,2.73E2,6.59E2,9.73E2,2E1,1.49E2],"tree_param":{"num_deleted":"0","num_feature":"40","num_nodes":"29","size_leaf_vector":"1"}},{"base_weights":[2.7755694E-2,4.1268012E-1,-8.124288E-2,2.9780748E-1,3.4213758E0,-5.996283E0,-2.2531833E-2,2.2192329E-1,1.4332114E-1,1.9775747E-1,2.0651252E0,-4.1283473E-1,-1.8287389E0,-1.1703968E0,2.5347004E-2,-1.3320172E-2,1.33198025E-2,2.962041E-2,1.08415E-1,6.464865E-2,-1.4787772E-1,-6.4087056E-2,-5.0870212E-6,3.422683E-2,-6.30964E-4],"categories":[],"categories_nodes":[],"categories_segments":[],"categories_sizes":[],"default_left":[0,0,0,0,0,0,0,0,0,0,0,0,0,0,0,0,0,0,0,0,0,0,0,0,0],"id":42,"left_children":[1,3,5,7,9,11,13,15,-1,-1,17,-1,19,21,23,-1,-1,-1,-1,-1,-1,-1,-1,-1,-1],"loss_changes":[2.8499133E2,5.166887E2,1.8374067E3,4.89636E2,2.2202368E2,1.6560193E3,2.882363E2,2.1048666E2,0E0,0E0,6.2738342E1,0E0,4.432028E2,2.3713858E2,2.6053397E2,0E0,0E0,0E0,0E0,0E0,0E0,0E0,0E0,0E0,0E0],"parents":[2147483647,0,0,1,1,2,2,3,3,4,4,5,5,6,6,7,7,10,10,12,12,13,13,14,14],"right_children":[2,4,6,8,10,12,14,16,-1,-1,18,-1,20,22,24,-1,-1,-1,-1,-1,-1,-1,-1,-1,-1],"split_conditions":[-5.28E-6,-6.32E-6,-3.98E-6,2.35407E-5,-1.6185E-5,1.143E-3,1.5444436E7,-4.476E-5,1.4332114E-1,1.9775747E-1,1.531E-3,-4.1283473E-1,1.635E-3,1.33613E-5,-3.8987E-5,-1.3320172E-2,1.33198025E-2,2.962041E-2,1.08415E-1,6.464865E-2,-1.4787772E-1,-6.4087056E-2,-5.0870212E-6,3.422683E-2,-6.30964E-4],"split_indices":[12,12,12,13,13,2,4,12,0,0,2,0,2,13,13,0,0,0,0,0,0,0,0,0,0],"split_type":[0,0,0,0,0,0,0,0,0,0,0,0,0,0,0,0,0,0,0,0,0,0,0,0,0],"sum_hessian":[6.79E3,1.498E3,5.292E3,1.444E3,5.4E1,5.1E1,5.241E3,1.421E3,2.3E1,1.5E1,3.9E1,1.7E1,3.4E1,2.09E2,5.032E3,3.55E2,1.066E3,2.4E1,1.5E1,1.5E1,1.9E1,1.14E2,9.5E1,2E2,4.832E3],"tree_param":{"num_deleted":"0","num_feature":"40","num_nodes":"25","size_leaf_vector":"1"}},{"base_weights":[2.939744E-2,1.5328243E-1,-3.8574606E-1,1.10592864E-1,1.520172E0,-7.0444334E-1,4.6180785E-1,-1.1244026E0,1.5449163E-1,2.5561666E0,3.824094E-1,-2.732369E-1,-2.0089335E0,1.3955457E0,-1.3830577E-1,-2.1792928E-2,-1.4323756E-1,1.876994E-2,-5.643148E-4,1.0621664E-1,3.701818E-2,2.9448535E-2,-2.6976267E-2,2.3958484E-2,-1.9327495E-2,-3.6220306E-1,-3.9598458E-2,5.78414E-2,-3.0502034E-2,-1.6671002E-2,3.4011923E-2],"categories":[],"categories_nodes":[],"categories_segments":[],"categories_sizes":[],"default_left":[0,0,0,0,0,0,0,0,0,0,0,0,0,0,0,0,0,0,0,0,0,0,0,0,0,0,0,0,0,0,0],"id":43,"left_children":[1,3,5,7,9,11,13,15,17,19,21,23,25,27,29,-1,-1,-1,-1,-1,-1,-1,-1,-1,-1,-1,-1,-1,-1,-1,-1],"loss_changes":[3.5089172E2,3.063082E2,4.2388696E2,2.7640945E2,1.8614447E2,6.40478E2,2.4070837E2,2.5019867E2,4.020615E2,1.0318524E2,6.0023567E1,3.4170114E2,1.9451284E3,2.1785443E2,1.396787E2,0E0,0E0,0E0,0E0,0E0,0E0,0E0,0E0,0E0,0E0,0E0,0E0,0E0,0E0,0E0,0E0],"parents":[2147483647,0,0,1,1,2,2,3,3,4,4,5,5,6,6,7,7,8,8,9,9,10,10,11,11,12,12,13,13,14,14],"right_children":[2,4,6,8,10,12,14,16,18,20,22,24,26,28,30,-1,-1,-1,-1,-1,-1,-1,-1,-1,-1,-1,-1,-1,-1,-1,-1],"split_conditions":[5.992E-5,5.825E-5,8.638E-5,-5.511E-5,2.519E-3,7.997E-5,1.48E-3,-8.9107E-6,-5.28E-6,5.086E1,-2.347E-6,1.51873E-5,1.06463E-5,6.14765E-1,8.462346E7,-2.1792928E-2,-1.4323756E-1,1.876994E-2,-5.643148E-4,1.0621664E-1,3.701818E-2,2.9448535E-2,-2.6976267E-2,2.3958484E-2,-1.9327495E-2,-3.6220306E-1,-3.9598458E-2,5.78414E-2,-3.0502034E-2,-1.6671002E-2,3.4011923E-2],"split_indices":[12,12,12,12,2,12,2,13,12,39,13,13,13,8,10,0,0,0,0,0,0,0,0,0,0,0,0,0,0,0,0],"split_type":[0,0,0,0,0,0,0,0,0,0,0,0,0,0,0,0,0,0,0,0,0,0,0,0,0,0,0,0,0,0,0],"sum_hessian":[6.821E3,5.254E3,1.567E3,5.096E3,1.58E2,1.139E3,4.28E2,1.74E2,4.922E3,8.2E1,7.6E1,8.57E2,2.82E2,1.67E2,2.61E2,1.58E2,1.6E1,1.323E3,3.599E3,4.6E1,3.6E1,5.2E1,2.4E1,2.2E2,6.37E2,1.7E1,2.65E2,1.37E2,3E1,1.97E2,6.4E1],"tree_param":{"num_deleted":"0","num_feature":"40","num_nodes":"31","size_leaf_vector":"1"}},{"base_weights":[2.5573958E-2,-5.6875E-2,6.447556E-1,8.2997605E-2,-7.090832E-1,2.9755542E0,2.5293842E-1,-1.4710782E-1,4.1376838E-1,-1.2066972E0,6.1770004E-1,4.350049E0,1.2836915E0,-1.134122E0,5.672308E-1,9.49061E-3,-1.8363824E-2,3.345123E-2,2.0680036E-3,-1.925109E-2,-9.1422446E-2,-1.8733658E-2,3.23441E-2,7.063187E-2,2.0270875E-1,7.711604E-2,-4.429988E-3,1.1035883E-2,-1.5768757E-1,9.9971816E-2,1.0092063E-2],"categories":[],"categories_nodes":[],"categories_segments":[],"categories_sizes":[],"default_left":[0,0,0,0,0,0,0,0,0,0,0,0,0,0,0,0,0,0,0,0,0,0,0,0,0,0,0,0,0,0,0],"id":44,"left_children":[1,3,5,7,9,11,13,15,17,19,21,23,25,27,29,-1,-1,-1,-1,-1,-1,-1,-1,-1,-1,-1,-1,-1,-1,-1,-1],"loss_changes":[3.4754776E2,5.4811646E2,7.295221E2,3.7661435E2,7.013042E2,2.6127997E2,2.996432E2,6.291068E2,4.90706E2,8.0055164E2,1.6657942E2,2.8579187E2,9.8244316E1,7.887273E2,3.559483E2,0E0,0E0,0E0,0E0,0E0,0E0,0E0,0E0,0E0,0E0,0E0,0E0,0E0,0E0,0E0,0E0],"parents":[2147483647,0,0,1,1,2,2,3,3,4,4,5,5,6,6,7,7,8,8,9,9,10,10,11,11,12,12,13,13,14,14],"right_children":[2,4,6,8,10,12,14,16,18,20,22,24,26,28,30,-1,-1,-1,-1,-1,-1,-1,-1,-1,-1,-1,-1,-1,-1,-1,-1],"split_conditions":[1.5261E0,6.178E-5,1.104E-5,2.429E-5,8.638E-5,2.500022E0,4.147E-5,-5.28E-6,3.54E-5,7.951E-5,-1.073059E0,-1.6E-7,1.811E-5,3.293E-5,1.48722E-5,9.49061E-3,-1.8363824E-2,3.345123E-2,2.0680036E-3,-1.925109E-2,-9.1422446E-2,-1.8733658E-2,3.23441E-2,7.063187E-2,2.0270875E-1,7.711604E-2,-4.429988E-3,1.1035883E-2,-1.5768757E-1,9.9971816E-2,1.0092063E-2],"split_indices":[14,12,12,12,12,15,12,12,12,12,15,12,13,12,13,0,0,0,0,0,0,0,0,0,0,0,0,0,0,0,0],"split_type":[0,0,0,0,0,0,0,0,0,0,0,0,0,0,0,0,0,0,0,0,0,0,0,0,0,0,0,0,0,0,0],"sum_hessian":[6.805E3,6.006E3,7.99E2,4.946E3,1.06E3,1.14E2,6.85E2,2.917E3,2.029E3,7.71E2,2.89E2,6.2E1,5.2E1,1.26E2,5.59E2,1.461E3,1.456E3,6.68E2,1.361E3,5.91E2,1.8E2,7.8E1,2.11E2,3.5E1,2.7E1,2.7E1,2.5E1,9.3E1,3.3E1,4.2E1,5.17E2],"tree_param":{"num_deleted":"0","num_feature":"40","num_nodes":"31","size_leaf_vector":"1"}},{"base_weights":[-1.1631373E-2,6.2822916E-2,-6.5187377E-1,-1.2058147E-2,7.580653E-1,-4.2227364E0,1.4328684E-1,9.458317E-2,-7.3468876E-1,2.7101822E0,3.067312E-1,-4.791502E-1,-2.5358438E0,1.9679393E0,-5.527896E-2,-3.1271856E-3,1.12114735E-2,3.435595E-2,-4.1953344E-2,1.2312271E-1,3.6434766E-2,-3.5121314E-2,2.4000034E-2,-1.2996247E-1,4.4206966E-2,8.923318E-2,-1.1175064E-2,1.9018512E-2,-1.9075187E-2],"categories":[],"categories_nodes":[],"categories_segments":[],"categories_sizes":[],"default_left":[0,0,0,0,0,0,0,0,0,0,0,0,0,0,0,0,0,0,0,0,0,0,0,0,0,0,0,0,0],"id":45,"left_children":[1,3,5,7,9,11,13,15,17,19,21,-1,23,25,27,-1,-1,-1,-1,-1,-1,-1,-1,-1,-1,-1,-1,-1,-1],"loss_changes":[3.2396164E2,3.1697592E2,2.0113147E3,4.236678E2,5.2045264E2,2.514324E3,2.1044193E2,2.6590085E2,8.8381195E2,2.2590265E2,3.521703E2,0E0,8.2768134E2,1.356405E2,2.1007635E2,0E0,0E0,0E0,0E0,0E0,0E0,0E0,0E0,0E0,0E0,0E0,0E0,0E0,0E0],"parents":[2147483647,0,0,1,1,2,2,3,3,4,4,5,5,6,6,7,7,8,8,9,9,10,10,12,12,13,13,14,14],"right_children":[2,4,6,8,10,12,14,16,18,20,22,-1,24,26,28,-1,-1,-1,-1,-1,-1,-1,-1,-1,-1,-1,-1,-1,-1],"split_conditions":[7.997E-5,1.4828E0,8.189E-5,2.51E-5,1.104E-5,1.03672E-5,1.0885E-5,2.429E-5,-9.80309E-1,9.8305E-1,4.147E-5,-4.791502E-1,1.9417E0,1.590656E3,-1.5075726E6,-3.1271856E-3,1.12114735E-2,3.435595E-2,-4.1953344E-2,1.2312271E-1,3.6434766E-2,-3.5121314E-2,2.4000034E-2,-1.2996247E-1,4.4206966E-2,8.923318E-2,-1.1175064E-2,1.9018512E-2,-1.9075187E-2],"split_indices":[12,14,12,13,12,13,13,12,8,8,12,0,14,0,7,0,0,0,0,0,0,0,0,0,0,0,0,0,0],"split_type":[0,0,0,0,0,0,0,0,0,0,0,0,0,0,0,0,0,0,0,0,0,0,0,0,0,0,0,0,0],"sum_hessian":[6.793E3,6.086E3,7.07E2,5.495E3,5.91E2,1.28E2,5.79E2,4.789E3,7.06E2,1.1E2,4.81E2,1.5E1,1.13E2,5.6E1,5.23E2,2.797E3,1.992E3,1.84E2,5.22E2,5.6E1,5.4E1,1.2E2,3.61E2,7.8E1,3.5E1,3.9E1,1.7E1,2.39E2,2.84E2],"tree_param":{"num_deleted":"0","num_feature":"40","num_nodes":"29","size_leaf_vector":"1"}},{"base_weights":[1.0217276E-2,-4.5513242E-2,7.4546665E-1,4.9384885E-2,-4.4360068E-1,2.0580142E0,5.009185E-1,-9.153162E-1,1.0106863E-1,-1.2027965E-1,-1.2393367E0,3.0126567E0,1.5668854E-2,-5.33332E-2,6.6820735E-1,-1.0050633E-1,-2.5797398E-3,1.70943E-3,2.6671808E-2,-1.6826918E-2,1.2856571E-2,-4.5415703E-2,2.6324484E-2,1.19004756E-1,4.328069E-2,2.6359104E-3,3.5933238E-2],"categories":[],"categories_nodes":[],"categories_segments":[],"categories_sizes":[],"default_left":[0,0,0,0,0,0,0,0,0,0,0,0,0,0,0,0,0,0,0,0,0,0,0,0,0,0,0],"id":46,"left_children":[1,3,5,7,9,11,13,15,17,19,21,23,-1,-1,25,-1,-1,-1,-1,-1,-1,-1,-1,-1,-1,-1,-1],"loss_changes":[2.7914932E2,2.3923228E2,1.5278412E2,2.5494203E2,3.1333707E2,1.0802771E2,1.5584402E2,5.2439124E2,1.6848602E2,2.1015779E2,2.0594257E2,6.2644714E1,0E0,0E0,1.16244675E2,0E0,0E0,0E0,0E0,0E0,0E0,0E0,0E0,0E0,0E0,0E0,0E0],"parents":[2147483647,0,0,1,1,2,2,3,3,4,4,5,5,6,6,7,7,8,8,9,9,10,10,11,11,14,14],"right_children":[2,4,6,8,10,12,14,16,18,20,22,24,-1,-1,26,-1,-1,-1,-1,-1,-1,-1,-1,-1,-1,-1,-1],"split_conditions":[1.8998E0,2.4419E-5,1.811E-5,1.6709684E7,8.01934E-1,9.24E-4,2.2236E-5,-6.83017E-1,2.06617E-5,4.1075E-5,6.66447E-5,4.46E-4,1.5668854E-2,-5.33332E-2,1.14308E-1,-1.0050633E-1,-2.5797398E-3,1.70943E-3,2.6671808E-2,-1.6826918E-2,1.2856571E-2,-4.5415703E-2,2.6324484E-2,1.19004756E-1,4.328069E-2,2.6359104E-3,3.5933238E-2],"split_indices":[14,13,13,4,15,21,13,15,13,13,13,19,0,0,15,0,0,0,0,0,0,0,0,0,0,0,0],"split_type":[0,0,0,0,0,0,0,0,0,0,0,0,0,0,0,0,0,0,0,0,0,0,0,0,0,0,0],"sum_hessian":[6.809E3,6.33E3,4.79E2,5.112E3,1.218E3,7.4E1,4.05E2,2.59E2,4.853E3,8.67E2,3.51E2,4.5E1,2.9E1,2.7E1,3.78E2,6.5E1,1.94E2,4.597E3,2.56E2,4.81E2,3.86E2,3.11E2,4E1,2.7E1,1.8E1,1.81E2,1.97E2],"tree_param":{"num_deleted":"0","num_feature":"40","num_nodes":"27","size_leaf_vector":"1"}},{"base_weights":[6.4415443E-3,-2.8370008E-1,1.2964456E-1,-1.7681898E-1,-4.1419334E0,-7.771766E-1,1.7431688E-1,-1.1826173E0,1.0459523E-1,-1.8298117E-2,-2.4162486E-1,-5.2881664E-1,-7.136504E-2,5.874937E-1,2.7892292E-2,-2.5866996E-2,-2.7011082E-1,2.762724E-2,-2.7358027E-3,-6.96925E-2,-7.976843E-3,1.270611E-2,1.4352244E-1,-4.8703652E-2,1.8061702E-3],"categories":[],"categories_nodes":[],"categories_segments":[],"categories_sizes":[],"default_left":[0,0,0,0,0,0,0,0,0,0,0,0,0,0,0,0,0,0,0,0,0,0,0,0,0],"id":47,"left_children":[1,3,5,7,9,11,13,15,17,-1,-1,19,-1,21,23,-1,-1,-1,-1,-1,-1,-1,-1,-1,-1],"loss_changes":[2.4502667E2,8.4131226E2,1.9500838E2,5.632099E2,7.5420966E2,8.835132E1,2.7743213E2,1.0812507E3,2.486945E2,0E0,0E0,9.205855E1,0E0,8.2312335E2,1.807272E2,0E0,0E0,0E0,0E0,0E0,0E0,0E0,0E0,0E0,0E0],"parents":[2147483647,0,0,1,1,2,2,3,3,4,4,5,5,6,6,7,7,8,8,11,11,13,13,14,14],"right_children":[2,4,6,8,10,12,14,16,18,-1,-1,20,-1,22,24,-1,-1,-1,-1,-1,-1,-1,-1,-1,-1],"split_conditions":[4.317873E7,1.83728E0,-4.476E-5,-1.3479222E8,3.5791E-2,-5.243E-6,5.95E-6,8.094E-5,-5.28E-6,-1.8298117E-2,-2.4162486E-1,-7.395E-5,-7.136504E-2,5.47E-6,6.6E-6,-2.5866996E-2,-2.7011082E-1,2.762724E-2,-2.7358027E-3,-6.96925E-2,-7.976843E-3,1.270611E-2,1.4352244E-1,-4.8703652E-2,1.8061702E-3],"split_indices":[4,8,12,7,38,13,12,12,12,0,0,12,0,12,12,0,0,0,0,0,0,0,0,0,0],"split_type":[0,0,0,0,0,0,0,0,0,0,0,0,0,0,0,0,0,0,0,0,0,0,0,0,0],"sum_hessian":[6.853E3,2.042E3,4.811E3,1.988E3,5.4E1,2.25E2,4.586E3,4.34E2,1.554E3,2.9E1,2.5E1,1.96E2,2.9E1,1.199E3,3.387E3,4.18E2,1.6E1,3E2,1.254E3,2.4E1,1.72E2,1.155E3,4.4E1,6.4E1,3.323E3],"tree_param":{"num_deleted":"0","num_feature":"40","num_nodes":"25","size_leaf_vector":"1"}},{"base_weights":[-2.698482E-2,-9.414221E-2,4.804005E-1,4.7809046E-2,-6.7713547E-1,-2.6149964E-1,8.4095186E-1,6.678224E-2,-2.1712446E0,-1.137012E0,1.4613585E-1,5.7905555E-1,-1.3858012E0,1.3222955E0,-1.6748902E-1,1.2622303E-3,5.059823E-2,-1.9421306E-2,-1.351673E-1,-1.3762261E-2,-8.835644E-2,1.4583231E-3,7.399567E-2,9.0557516E-2,6.6830087E-3,-7.2201835E-3,-8.886723E-2,5.420402E-2,2.0232905E-2,-2.4200687E-2,3.369289E-2],"categories":[],"categories_nodes":[],"categories_segments":[],"categories_sizes":[],"default_left":[0,0,0,0,0,0,0,0,0,0,0,0,0,0,0,0,0,0,0,0,0,0,0,0,0,0,0,0,0,0,0],"id":48,"left_children":[1,3,5,7,9,11,13,15,17,19,21,23,25,27,29,-1,-1,-1,-1,-1,-1,-1,-1,-1,-1,-1,-1,-1,-1,-1,-1],"loss_changes":[2.3205515E2,4.9787643E2,2.1320238E2,2.0362663E2,4.4625977E2,2.4753793E2,2.6051492E2,1.9178403E2,1.4241365E2,9.255044E2,9.535176E1,1.2937985E2,2.011521E2,1.1247687E2,1.4441441E2,0E0,0E0,0E0,0E0,0E0,0E0,0E0,0E0,0E0,0E0,0E0,0E0,0E0,0E0,0E0,0E0],"parents":[2147483647,0,0,1,1,2,2,3,3,4,4,5,5,6,6,7,7,8,8,9,9,10,10,11,11,12,12,13,13,14,14],"right_children":[2,4,6,8,10,12,14,16,18,20,22,24,26,28,30,-1,-1,-1,-1,-1,-1,-1,-1,-1,-1,-1,-1,-1,-1,-1,-1],"split_conditions":[1.5261E0,1.0277E0,-1.204968E0,3.70243E-1,1.15857336E8,-2.638349E0,1.146373E0,8.7841094E8,7.441E-2,-1.2188272E7,6.166E1,2.7940142E7,-3.916455E7,9.844594E7,5.1018358E8,1.2622303E-3,5.059823E-2,-1.9421306E-2,-1.351673E-1,-1.3762261E-2,-8.835644E-2,1.4583231E-3,7.399567E-2,9.0557516E-2,6.6830087E-3,-7.2201835E-3,-8.886723E-2,5.420402E-2,2.0232905E-2,-2.4200687E-2,3.369289E-2],"split_indices":[14,14,15,33,7,15,8,7,6,7,39,4,7,7,7,0,0,0,0,0,0,0,0,0,0,0,0,0,0,0,0],"split_type":[0,0,0,0,0,0,0,0,0,0,0,0,0,0,0,0,0,0,0,0,0,0,0,0,0,0,0,0,0,0,0],"sum_hessian":[6.809E3,6.014E3,7.95E2,4.837E3,1.177E3,2.6E2,5.35E2,4.797E3,4E1,7.55E2,4.22E2,1.49E2,1.11E2,3.62E2,1.73E2,4.726E3,7.1E1,2.5E1,1.5E1,5.5E2,2.05E2,4.06E2,1.6E1,1.8E1,1.31E2,6.5E1,4.6E1,2.06E2,1.56E2,1.16E2,5.7E1],"tree_param":{"num_deleted":"0","num_feature":"40","num_nodes":"31","size_leaf_vector":"1"}},{"base_weights":[-2.8403047E-2,4.1359487E-1,-1.5285525E-1,3.021224E-1,3.2847922E0,-5.8136606E0,-9.3851805E-2,2.2984524E-1,1.3200162E-1,1.7549145E-1,2.2012908E0,-3.93829E-1,-1.8980085E0,-2.0607123E-2,-9.897414E-1,8.599166E-3,-8.4866926E-2,2.9432101E-2,1.0285407E-1,2.643301E-2,-1.6820721E-1,-2.6699558E-3,2.0520614E-2,-1.9034608E-1,-1.0250204E-2],"categories":[],"categories_nodes":[],"categories_segments":[],"categories_sizes":[],"default_left":[0,0,0,0,0,0,0,0,0,0,0,0,0,0,0,0,0,0,0,0,0,0,0,0,0],"id":49,"left_children":[1,3,5,7,9,11,13,15,-1,-1,17,-1,19,21,23,-1,-1,-1,-1,-1,-1,-1,-1,-1,-1],"loss_changes":[3.7606918E2,4.7937808E2,1.7807908E3,4.2710812E2,1.4194745E2,1.5487245E3,3.464133E2,2.47756E2,0E0,0E0,5.7590042E1,0E0,3.8678787E2,2.3531546E2,1.3818876E3,0E0,0E0,0E0,0E0,0E0,0E0,0E0,0E0,0E0,0E0],"parents":[2147483647,0,0,1,1,2,2,3,3,4,4,5,5,6,6,7,7,10,10,12,12,13,13,14,14],"right_children":[2,4,6,8,10,12,14,16,-1,-1,18,-1,20,22,24,-1,-1,-1,-1,-1,-1,-1,-1,-1,-1],"split_conditions":[-5.28E-6,-6.32E-6,-3.98E-6,2.35407E-5,-1.6185E-5,1.143E-3,1.774874E0,-6.55E-6,1.3200162E-1,1.7549145E-1,1.531E-3,-3.93829E-1,-1.072878E0,1.8567E0,1.229E-3,8.599166E-3,-8.4866926E-2,2.9432101E-2,1.0285407E-1,2.643301E-2,-1.6820721E-1,-2.6699558E-3,2.0520614E-2,-1.9034608E-1,-1.0250204E-2],"split_indices":[12,12,12,13,13,2,8,12,0,0,2,0,8,14,2,0,0,0,0,0,0,0,0,0,0],"split_type":[0,0,0,0,0,0,0,0,0,0,0,0,0,0,0,0,0,0,0,0,0,0,0,0,0],"sum_hessian":[6.835E3,1.501E3,5.334E3,1.446E3,5.5E1,5.4E1,5.28E3,1.422E3,2.4E1,1.5E1,4E1,1.8E1,3.6E1,4.882E3,3.98E2,1.397E3,2.5E1,2.1E1,1.9E1,2.1E1,1.5E1,4.451E3,4.31E2,4.2E1,3.56E2],"tree_param":{"num_deleted":"0","num_feature":"40","num_nodes":"25","size_leaf_vector":"1"}},{"base_weights":[-3.9897945E-2,4.3153584E-2,-5.672728E-1,-1.0006473E-1,5.296984E-2,-1.7094432E0,1.6333042E-1,-9.695865E-1,8.539449E-2,-8.627071E0,-7.217376E-1,1.7372202E0,-6.1945645E-3,1.1235422E-2,-7.0476696E-2,7.859398E-2,1.8445816E-3,-3.7135166E-1,-8.51079E-2,4.775979E-2,-3.8389966E-2,8.95723E-2,-8.002047E-3,-9.6048385E-2,3.7052948E-3],"categories":[],"categories_nodes":[],"categories_segments":[],"categories_sizes":[],"default_left":[0,0,0,0,0,0,0,0,0,0,0,0,0,0,0,0,0,0,0,0,0,0,0,0,0],"id":50,"left_children":[1,3,5,-1,7,9,11,13,15,17,19,21,23,-1,-1,-1,-1,-1,-1,-1,-1,-1,-1,-1,-1],"loss_changes":[2.9778064E2,1.9463023E2,7.7232166E2,0E0,1.9418925E2,2.4594E3,1.5093356E2,3.3486395E2,3.4362155E2,9.4079175E2,4.1121967E2,1.3867746E2,2.124922E2,0E0,0E0,0E0,0E0,0E0,0E0,0E0,0E0,0E0,0E0,0E0,0E0],"parents":[2147483647,0,0,1,1,2,2,4,4,5,5,6,6,7,7,8,8,9,9,10,10,11,11,12,12],"right_children":[2,4,6,-1,8,10,12,14,16,18,20,22,24,-1,-1,-1,-1,-1,-1,-1,-1,-1,-1,-1,-1],"split_conditions":[7.343E-5,3.9E-4,8.189E-5,-1.0006473E-1,-5.511E-5,1.33613E-5,1.0885E-5,-6.70322E-5,-5.36E-5,1.2224833E7,1.91557E-5,1.34785E3,7.241E-1,1.1235422E-2,-7.0476696E-2,7.859398E-2,1.8445816E-3,-3.7135166E-1,-8.51079E-2,4.775979E-2,-3.8389966E-2,8.95723E-2,-8.002047E-3,-9.6048385E-2,3.7052948E-3],"split_indices":[12,2,12,0,12,13,13,13,12,10,13,0,14,0,0,0,0,0,0,0,0,0,0,0,0],"split_type":[0,0,0,0,0,0,0,0,0,0,0,0,0,0,0,0,0,0,0,0,0,0,0,0,0],"sum_hessian":[6.796E3,5.872E3,9.24E2,1.6E1,5.856E3,3.6E2,5.64E2,1.79E2,5.677E3,4.4E1,3.16E2,5.4E1,5.1E2,9.1E1,8.8E1,5.2E1,5.625E3,2.6E1,1.8E1,6.1E1,2.55E2,3.3E1,2.1E1,1.9E1,4.91E2],"tree_param":{"num_deleted":"0","num_feature":"40","num_nodes":"25","size_leaf_vector":"1"}},{"base_weights":[4.383078E-2,2.1353798E0,2.537742E-2,-1.6585156E-2,3.5306928E0,-1.4052612E-1,2.510723E-1,5.863552E-2,1.4776E-1,-7.5419056E-1,3.9638303E-2,7.9844785E-1,1.7617996E-1,-1.2537579E-1,-1.8956143E-2,3.359397E-3,-3.8695015E-2,3.160964E-2,-2.117787E-2,-7.8758836E-2,5.997003E-3],"categories":[],"categories_nodes":[],"categories_segments":[],"categories_sizes":[],"default_left":[0,0,0,0,0,0,0,0,0,0,0,0,0,0,0,0,0,0,0,0,0],"id":51,"left_children":[1,3,5,-1,7,9,11,-1,-1,13,15,17,19,-1,-1,-1,-1,-1,-1,-1,-1],"loss_changes":[2.6036917E2,2.2355316E2,2.5073105E2,0E0,7.541507E1,4.267543E2,1.160625E2,0E0,0E0,3.6387244E2,2.870163E2,1.3169777E2,1.662113E2,0E0,0E0,0E0,0E0,0E0,0E0,0E0,0E0],"parents":[2147483647,0,0,1,1,2,2,4,4,5,5,6,6,9,9,10,10,11,11,12,12],"right_children":[2,4,6,-1,8,10,12,-1,-1,14,16,18,20,-1,-1,-1,-1,-1,-1,-1,-1],"split_conditions":[2.343164E6,-7.971E-2,7.840116E7,-1.6585156E-2,1E-6,-1.4993742E8,-3.84765E-5,5.863552E-2,1.4776E-1,8.08E-4,1.87571E0,-1.0636E0,-3.73995E-5,-1.2537579E-1,-1.8956143E-2,3.359397E-3,-3.8695015E-2,3.160964E-2,-2.117787E-2,-7.8758836E-2,5.997003E-3],"split_indices":[9,32,4,0,24,7,13,0,0,2,8,14,13,0,0,0,0,0,0,0,0],"split_type":[0,0,0,0,0,0,0,0,0,0,0,0,0,0,0,0,0,0,0,0,0],"sum_hessian":[6.752E3,5.8E1,6.694E3,2E1,3.8E1,3.858E3,2.836E3,1.9E1,1.9E1,8.75E2,2.983E3,3.4E2,2.496E3,2.9E1,8.46E2,2.83E3,1.53E2,2.91E2,4.9E1,2E1,2.476E3],"tree_param":{"num_deleted":"0","num_feature":"40","num_nodes":"21","size_leaf_vector":"1"}},{"base_weights":[1.5984666E-2,-9.199536E-2,3.4974438E-1,-2.3483006E-2,-6.325575E-1,7.7084213E-1,9.617002E-2,-6.396543E-2,1.5200773E0,-3.4624414E0,3.713467E-1,6.617055E-1,1.0811243E-1,-1.9407876E0,2.1162899E-1,1.6355175E-3,-2.1361992E-2,2.9161168E-2,1.0797172E-1,-2.893654E-1,-5.5863976E-2,1.6450113E-2,-3.4468025E-2,2.2620773E-2,-8.333134E-2,-4.0200453E-2,-9.387252E-2,2.4140825E-2,-4.199904E-3],"categories":[],"categories_nodes":[],"categories_segments":[],"categories_sizes":[],"default_left":[0,0,0,0,0,0,0,0,0,0,0,0,0,0,0,0,0,0,0,0,0,0,0,0,0,0,0,0,0],"id":52,"left_children":[1,3,5,7,9,11,13,15,17,19,21,23,-1,25,27,-1,-1,-1,-1,-1,-1,-1,-1,-1,-1,-1,-1,-1,-1],"loss_changes":[2.4606276E2,1.90947E2,1.7805432E2,2.8607993E2,1.6493357E3,1.9104086E2,2.4553578E2,3.4281274E2,1.2934967E2,1.4849015E3,1.16003174E2,1.9399646E2,0E0,3.5338226E1,2.0621365E2,0E0,0E0,0E0,0E0,0E0,0E0,0E0,0E0,0E0,0E0,0E0,0E0,0E0,