{"learner":{"attributes":{},"feature_names":["abs_completion","abs_completion_z","cg_bfx_margin_delta","cg_bfx_margin_delta_zscore","cg_conviction","cg_crowding","cg_fcvd_delta","cg_fcvd_delta_zscore","cg_funding_close","cg_funding_close_mom_1h","cg_funding_close_slope_4h","cg_funding_close_zscore","cg_funding_range","cg_gls_ratio","cg_gls_ratio_zscore","cg_liq_agg_imbalance","cg_liq_agg_imbalance_zscore","cg_liq_agg_long","cg_liq_agg_short","cg_liq_agg_total","cg_liq_exchange_vs_agg","cg_liq_imbalance","cg_liq_imbalance_zscore","cg_liq_long","cg_liq_ratio","cg_liq_short","cg_liq_total","cg_liq_total_zscore","cg_liq_x_oi","cg_ls_ratio","cg_ls_ratio_zscore","cg_margin_funding_align","cg_oi_accel","cg_oi_agg_close","cg_oi_agg_delta","cg_oi_agg_delta_zscore","cg_oi_close","cg_oi_close_pctchg_12h","cg_oi_close_pctchg_24h","cg_oi_close_pctchg_4h","cg_oi_close_pctchg_8h","cg_oi_close_zscore","cg_oi_cm_close","cg_oi_cm_delta","cg_oi_cm_delta_zscore","cg_oi_cm_vs_usd","cg_oi_delta","cg_oi_delta_mom_1h","cg_oi_delta_slope_4h","cg_oi_delta_zscore","cg_oi_range_pct","cg_oi_range_zscore","cg_pos_account_divergence","cg_pos_ls_ratio","cg_pos_ls_ratio_zscore","cg_taker_buy","cg_taker_delta","cg_taker_delta_mom_1h","cg_taker_delta_slope_4h","cg_taker_delta_zscore","cg_taker_ratio","cg_taker_sell","flow_trend_score","fragility","fragility_zscore","funding_taker_align","hour_cos","hour_sin","impact_asymmetry","impact_asymmetry_zscore","oi_price_divergence","post_absorb_breakout","post_absorb_breakout_z","price_impact","price_impact_zscore","realized_vol_20b","return_kurtosis","squeeze_proxy","taker_delta_ma_24h","taker_delta_ratio","taker_delta_std_24h","vol_acceleration","vol_entropy","vol_kurtosis","vol_regime","weekday_cos","weekday_sin","tox_pressure","tox_accum_zscore","tox_bv_vpin_zscore","tox_div_taker"],"feature_types":["float","float","float","float","float","float","float","float","float","float","float","float","float","float","float","float","float","float","float","float","float","float","float","float","float","float","float","float","float","float","float","float","float","float","float","float","float","float","float","float","float","float","float","float","float","float","float","float","float","float","float","float","float","float","float","float","float","float","float","float","float","float","float","float","float","float","float","float","float","float","float","float","float","float","float","float","float","float","float","float","float","float","float","float","float","float","float","float","float","float","float"],"gradient_booster":{"model":{"gbtree_model_param":{"num_parallel_tree":"1","num_trees":"300"},"iteration_indptr":[0,1,2,3,4,5,6,7,8,9,10,11,12,13,14,15,16,17,18,19,20,21,22,23,24,25,26,27,28,29,30,31,32,33,34,35,36,37,38,39,40,41,42,43,44,45,46,47,48,49,50,51,52,53,54,55,56,57,58,59,60,61,62,63,64,65,66,67,68,69,70,71,72,73,74,75,76,77,78,79,80,81,82,83,84,85,86,87,88,89,90,91,92,93,94,95,96,97,98,99,100,101,102,103,104,105,106,107,108,109,110,111,112,113,114,115,116,117,118,119,120,121,122,123,124,125,126,127,128,129,130,131,132,133,134,135,136,137,138,139,140,141,142,143,144,145,146,147,148,149,150,151,152,153,154,155,156,157,158,159,160,161,162,163,164,165,166,167,168,169,170,171,172,173,174,175,176,177,178,179,180,181,182,183,184,185,186,187,188,189,190,191,192,193,194,195,196,197,198,199,200,201,202,203,204,205,206,207,208,209,210,211,212,213,214,215,216,217,218,219,220,221,222,223,224,225,226,227,228,229,230,231,232,233,234,235,236,237,238,239,240,241,242,243,244,245,246,247,248,249,250,251,252,253,254,255,256,257,258,259,260,261,262,263,264,265,266,267,268,269,270,271,272,273,274,275,276,277,278,279,280,281,282,283,284,285,286,287,288,289,290,291,292,293,294,295,296,297,298,299,300],"tree_info":[0,0,0,0,0,0,0,0,0,0,0,0,0,0,0,0,0,0,0,0,0,0,0,0,0,0,0,0,0,0,0,0,0,0,0,0,0,0,0,0,0,0,0,0,0,0,0,0,0,0,0,0,0,0,0,0,0,0,0,0,0,0,0,0,0,0,0,0,0,0,0,0,0,0,0,0,0,0,0,0,0,0,0,0,0,0,0,0,0,0,0,0,0,0,0,0,0,0,0,0,0,0,0,0,0,0,0,0,0,0,0,0,0,0,0,0,0,0,0,0,0,0,0,0,0,0,0,0,0,0,0,0,0,0,0,0,0,0,0,0,0,0,0,0,0,0,0,0,0,0,0,0,0,0,0,0,0,0,0,0,0,0,0,0,0,0,0,0,0,0,0,0,0,0,0,0,0,0,0,0,0,0,0,0,0,0,0,0,0,0,0,0,0,0,0,0,0,0,0,0,0,0,0,0,0,0,0,0,0,0,0,0,0,0,0,0,0,0,0,0,0,0,0,0,0,0,0,0,0,0,0,0,0,0,0,0,0,0,0,0,0,0,0,0,0,0,0,0,0,0,0,0,0,0,0,0,0,0,0,0,0,0,0,0,0,0,0,0,0,0,0,0,0,0,0,0,0,0,0,0,0,0,0,0,0,0,0,0,0,0,0,0,0,0,0,0,0,0,0,0],"trees":[{"base_weights":[-1.8342765E-2,1.2108828E0,-2.1003318E-1,6.385212E-1,2.5172305E0,2.0015135E-1,-4.1461757E-1,1.857591E-1,5.0776273E-1,3.655172E-1,1.9213263E0,-6.3926905E-1,4.1999924E-1,-2.1422678E-1,-6.457582E-1,9.413303E-2,7.6214555E-3,3.1977307E-2,1.6287969E-1,4.8447695E-2,-3.720351E-2,1.1109098E-1,1.6124247E-2,-2.3559397E-2,7.28987E-3,-3.81625E-2,-5.2437913E-3],"categories":[],"categories_nodes":[],"categories_segments":[],"categories_sizes":[],"default_left":[0,0,0,0,0,0,0,0,0,0,0,0,0,0,0,0,0,0,0,0,0,0,0,0,0,0,0],"id":0,"left_children":[1,3,5,7,9,11,13,-1,15,-1,17,19,21,23,25,-1,-1,-1,-1,-1,-1,-1,-1,-1,-1,-1,-1],"loss_changes":[7.47575E2,3.1809412E2,2.3045757E2,1.1797884E2,3.5634204E2,1.689205E2,8.46311E1,0E0,1.4021117E2,0E0,1.9792468E2,3.272177E1,1.2641393E2,9.104074E1,5.3849945E1,0E0,0E0,0E0,0E0,0E0,0E0,0E0,0E0,0E0,0E0,0E0,0E0],"parents":[2147483647,0,0,1,1,2,2,3,3,4,4,5,5,6,6,8,8,10,10,11,11,12,12,13,13,14,14],"right_children":[2,4,6,8,10,12,14,-1,16,-1,18,20,22,24,26,-1,-1,-1,-1,-1,-1,-1,-1,-1,-1,-1,-1],"split_conditions":[4.230499E2,9.408614E-1,4.062687E-3,7.7290926E-4,-7.2201043E-1,5.028298E-1,1.1083951E0,1.857591E-1,8.013933E9,3.655172E-1,9.9114233E-1,-1.8256047E0,-9.852974E-1,3.385661E3,1.3442135E0,9.413303E-2,7.6214555E-3,3.1977307E-2,1.6287969E-1,4.8447695E-2,-3.720351E-2,1.1109098E-1,1.6124247E-2,-2.3559397E-2,7.28987E-3,-3.81625E-2,-5.2437913E-3],"split_indices":[80,84,75,75,72,81,84,0,36,0,62,89,72,55,72,0,0,0,0,0,0,0,0,0,0,0,0],"split_type":[0,0,0,0,0,0,0,0,0,0,0,0,0,0,0,0,0,0,0,0,0,0,0,0,0,0,0],"sum_hessian":[3.171E3,4.27E2,2.744E3,2.98E2,1.29E2,9.13E2,1.831E3,1.1E1,2.87E2,1.3E1,1.16E2,1.89E2,7.24E2,9.82E2,8.49E2,5.8E1,2.29E2,6E1,5.6E1,1.1E1,1.78E2,3.6E1,6.88E2,5.73E2,4.09E2,6.97E2,1.52E2],"tree_param":{"num_deleted":"0","num_feature":"91","num_nodes":"27","size_leaf_vector":"1"}},{"base_weights":[1.7329369E-2,1.341224E0,-2.0069346E-1,2.4962464E-1,2.15113E0,5.742917E-1,-4.0646827E-1,7.561661E-2,1.5484414E-1,1.8742963E0,4.081328E-1,4.7431278E-1,3.0431147E0,-5.826031E-1,-2.17119E-1,5.0427593E-2,-1.7853513E-2,1.2377211E-1,1.1041901E-2,-2.7321277E-2,3.2092307E-2,2.642188E-1,3.633492E-2,-3.0594189E-2,8.762451E-2,1.6549535E-2,-1.64765E-2],"categories":[],"categories_nodes":[],"categories_segments":[],"categories_sizes":[],"default_left":[0,0,0,0,0,0,0,0,0,0,0,0,0,0,0,0,0,0,0,0,0,0,0,0,0,0,0],"id":1,"left_children":[1,3,5,7,9,11,13,15,-1,17,-1,19,21,23,25,-1,-1,-1,-1,-1,-1,-1,-1,-1,-1,-1,-1],"loss_changes":[9.145037E2,3.9529657E2,4.3398163E2,9.457414E1,4.1139465E2,1.3914494E2,7.149817E1,7.3893005E1,0E0,2.4469427E2,0E0,9.4414505E1,1.0977603E2,7.7057434E1,6.40638E1,0E0,0E0,0E0,0E0,0E0,0E0,0E0,0E0,0E0,0E0,0E0,0E0],"parents":[2147483647,0,0,1,1,2,2,3,3,4,4,5,5,6,6,7,7,9,9,11,11,12,12,13,13,14,14],"right_children":[2,4,6,8,10,12,14,16,-1,18,-1,20,22,24,26,-1,-1,-1,-1,-1,-1,-1,-1,-1,-1,-1,-1],"split_conditions":[4.3587814E2,6.234898E-1,-7.0710677E-1,1.8179368E0,1.4934832E0,2.0110722E0,-2.7865466E-1,-6.1294526E-1,1.5484414E-1,7.047741E-1,4.081328E-1,-7.818315E-1,-4.1909916E1,3.1719618E-2,5.8154144E2,5.0427593E-2,-1.7853513E-2,1.2377211E-1,1.1041901E-2,-2.7321277E-2,3.2092307E-2,2.642188E-1,3.633492E-2,-3.0594189E-2,8.762451E-2,1.6549535E-2,-1.64765E-2],"split_indices":[80,85,66,31,64,82,51,54,0,31,0,86,78,45,80,0,0,0,0,0,0,0,0,0,0,0,0],"split_type":[0,0,0,0,0,0,0,0,0,0,0,0,0,0,0,0,0,0,0,0,0,0,0,0,0,0,0],"sum_hessian":[3.166E3,4.47E2,2.719E3,1.91E2,2.56E2,5.7E2,2.149E3,1.81E2,1E1,2.46E2,1E1,5.49E2,2.1E1,1.112E3,1.037E3,5.7E1,1.24E2,1.8E2,6.6E1,7.7E1,4.72E2,1E1,1.1E1,1.099E3,1.3E1,1.76E2,8.61E2],"tree_param":{"num_deleted":"0","num_feature":"91","num_nodes":"27","size_leaf_vector":"1"}},{"base_weights":[-1.11632375E-2,5.014382E-1,-3.6975884E-1,-5.936729E-1,6.72377E-1,-4.050751E-1,1.044917E0,4.7196288E-2,-7.6288813E-1,1.5287012E-1,9.8518836E-1,-5.215645E-1,8.2471274E-4,1.6812299E-1,3.0497566E-1,-2.6335109E-2,4.377378E-2,-2.603571E-2,-5.105498E-2,2.6236415E-2,-1.869389E-2,9.863951E-2,2.6877258E-2,-3.0202096E-2,6.480168E-3,1.6442573E-2,-1.6098445E-2,-3.2258835E-2,4.3720864E-2],"categories":[],"categories_nodes":[],"categories_segments":[],"categories_sizes":[],"default_left":[0,0,0,0,0,0,0,0,0,0,0,0,0,0,0,0,0,0,0,0,0,0,0,0,0,0,0,0,0],"id":2,"left_children":[1,3,5,7,9,11,13,15,17,19,21,23,25,-1,27,-1,-1,-1,-1,-1,-1,-1,-1,-1,-1,-1,-1,-1,-1],"loss_changes":[5.872826E2,2.4657104E2,9.428604E1,1.9410767E1,1.8466925E2,8.6816864E1,7.7490685E1,1.8559223E1,8.131142E0,8.424186E1,3.1257477E2,7.6711426E1,4.3519382E1,0E0,2.0065102E1,0E0,0E0,0E0,0E0,0E0,0E0,0E0,0E0,0E0,0E0,0E0,0E0,0E0,0E0],"parents":[2147483647,0,0,1,1,2,2,3,3,4,4,5,5,6,6,7,7,8,8,9,9,10,10,11,11,12,12,14,14],"right_children":[2,4,6,8,10,12,14,16,18,20,22,24,26,-1,28,-1,-1,-1,-1,-1,-1,-1,-1,-1,-1,-1,-1,-1,-1],"split_conditions":[4.062687E-3,4.629629E-1,2.61E0,5.9358513E-1,-7.467461E-1,5.689272E3,9.9107534E-1,1.2920301E0,1.5528886E-1,1.68E-4,2.354815E-3,2.9065613E-2,1.1109579E0,1.6812299E-1,4.0890584E0,-2.6335109E-2,4.377378E-2,-2.603571E-2,-5.105498E-2,2.6236415E-2,-1.869389E-2,9.863951E-2,2.6877258E-2,-3.0202096E-2,6.480168E-3,1.6442573E-2,-1.6098445E-2,-3.2258835E-2,4.3720864E-2],"split_indices":[75,81,53,84,14,61,84,82,54,9,75,45,84,0,29,0,0,0,0,0,0,0,0,0,0,0,0,0,0],"split_type":[0,0,0,0,0,0,0,0,0,0,0,0,0,0,0,0,0,0,0,0,0,0,0,0,0,0,0,0,0],"sum_hessian":[3.193E3,1.314E3,1.879E3,1.77E2,1.137E3,1.834E3,4.5E1,3.7E1,1.4E2,4.28E2,7.09E2,1.425E3,4.09E2,1E1,3.5E1,2.2E1,1.5E1,7.4E1,6.6E1,2.51E2,1.77E2,2.2E2,4.89E2,1.265E3,1.6E2,2.03E2,2.06E2,1.3E1,2.2E1],"tree_param":{"num_deleted":"0","num_feature":"91","num_nodes":"29","size_leaf_vector":"1"}},{"base_weights":[1.8339104E-3,4.82133E-1,-3.4936088E-1,1.0849367E-1,1.0439382E0,2.2548325E-1,-5.481959E-1,2.1833228E-1,4.9830128E-2,-3.48573E-1,1.4268693E0,4.6104196E-1,-3.0257314E-1,-6.2061936E-1,-1.6978326E-1,-4.325004E-3,3.8457543E-2,2.0424647E-2,-2.9067134E-2,4.784647E-3,9.085375E-2,3.509547E-2,-2.0354044E-2,-2.4774244E-2,4.368649E-2,-3.8790703E-2,-2.210809E-2,5.3787418E-2,-1.3285956E-2],"categories":[],"categories_nodes":[],"categories_segments":[],"categories_sizes":[],"default_left":[0,0,0,0,0,0,0,0,0,0,0,0,0,0,0,0,0,0,0,0,0,0,0,0,0,0,0,0,0],"id":3,"left_children":[1,3,5,7,9,11,13,-1,15,17,19,21,23,25,27,-1,-1,-1,-1,-1,-1,-1,-1,-1,-1,-1,-1,-1,-1],"loss_changes":[5.391097E2,2.8315335E2,2.1115205E2,2.0217694E2,2.8801935E2,5.9239777E1,3.7416565E1,0E0,7.878304E1,2.0872736E1,2.1935468E2,6.910995E1,3.3752724E1,3.1412872E1,2.6731876E1,0E0,0E0,0E0,0E0,0E0,0E0,0E0,0E0,0E0,0E0,0E0,0E0,0E0,0E0],"parents":[2147483647,0,0,1,1,2,2,3,3,4,4,5,5,6,6,8,8,9,9,10,10,11,11,12,12,13,13,14,14],"right_children":[2,4,6,8,10,12,14,-1,16,18,20,22,24,26,28,-1,-1,-1,-1,-1,-1,-1,-1,-1,-1,-1,-1,-1,-1],"split_conditions":[4.062687E-3,2.9139528E-3,-5E-1,5.352457E9,-7.818315E-1,5E-1,1.2599725E0,2.1833228E-1,3.0676012E5,-1.3439084E0,1.4354603E0,1.2735126E0,1.9207632E-3,7.463693E4,-8.7775123E-1,-4.325004E-3,3.8457543E-2,2.0424647E-2,-2.9067134E-2,4.784647E-3,9.085375E-2,3.509547E-2,-2.0354044E-2,-2.4774244E-2,4.368649E-2,-3.8790703E-2,-2.210809E-2,5.3787418E-2,-1.3285956E-2],"split_indices":[75,37,66,36,86,67,52,0,23,54,13,84,44,2,72,0,0,0,0,0,0,0,0,0,0,0,0,0,0],"split_type":[0,0,0,0,0,0,0,0,0,0,0,0,0,0,0,0,0,0,0,0,0,0,0,0,0,0,0,0,0],"sum_hessian":[3.194E3,1.349E3,1.845E3,8.11E2,5.38E2,4.74E2,1.371E3,1E1,8.01E2,1.16E2,4.22E2,3.28E2,1.46E2,1.15E3,2.21E2,6.74E2,1.27E2,2.7E1,8.9E1,9.6E1,3.26E2,2.57E2,7.1E1,1.26E2,2E1,6.13E2,5.37E2,1.5E1,2.06E2],"tree_param":{"num_deleted":"0","num_feature":"91","num_nodes":"29","size_leaf_vector":"1"}},{"base_weights":[2.5542914E-3,1.1413496E0,-1.6904923E-1,2.7851222E-2,2.359991E0,5.727617E-1,-3.6620378E-1,-1.3533431E-1,1.1368712E-1,4.937319E0,7.732958E-1,1.0657775E0,7.913253E-2,-1.8679734E-2,-5.259167E-1,4.9396586E-2,-1.6275939E-2,1.114926E-1,4.2936394E-1,1.19066715E-1,-4.8882547E-3,-1.2814313E-3,6.8634406E-2,-3.0174879E-5,5.583472E-2,-1.5377725E-2,2.4701828E-2,-2.8086985E-2,5.897574E-3],"categories":[],"categories_nodes":[],"categories_segments":[],"categories_sizes":[],"default_left":[0,0,0,0,0,0,0,0,0,0,0,0,0,0,0,0,0,0,0,0,0,0,0,0,0,0,0,0,0],"id":4,"left_children":[1,3,5,7,9,11,13,15,-1,17,19,21,23,25,27,-1,-1,-1,-1,-1,-1,-1,-1,-1,-1,-1,-1,-1,-1],"loss_changes":[6.2524744E2,5.682598E2,4.0676804E2,8.115088E1,8.134977E2,1.4192747E2,1.21878204E2,4.426266E1,0E0,7.3081287E2,1.7554861E2,9.79794E1,2.4352486E1,1.0277407E2,3.4823853E1,0E0,0E0,0E0,0E0,0E0,0E0,0E0,0E0,0E0,0E0,0E0,0E0,0E0,0E0],"parents":[2147483647,0,0,1,1,2,2,3,3,4,4,5,5,6,6,7,7,9,9,10,10,11,11,12,12,13,13,14,14],"right_children":[2,4,6,8,10,12,14,16,-1,18,20,22,24,26,28,-1,-1,-1,-1,-1,-1,-1,-1,-1,-1,-1,-1,-1,-1],"split_conditions":[2.354815E-3,6.234898E-1,-7.0710677E-1,1.3906844E0,0E0,-1.17461875E-1,4.076095E-3,-8.088565E-1,1.1368712E-1,5E-1,-3.5878408E-1,-4.3388373E-1,1.918558E0,2.483563E3,1.9875944E0,4.9396586E-2,-1.6275939E-2,1.114926E-1,4.2936394E-1,1.19066715E-1,-4.8882547E-3,-1.2814313E-3,6.8634406E-2,-3.0174879E-5,5.583472E-2,-1.5377725E-2,2.4701828E-2,-2.8086985E-2,5.897574E-3],"split_indices":[75,85,66,54,67,89,75,77,0,66,31,86,82,55,82,0,0,0,0,0,0,0,0,0,0,0,0,0,0],"split_type":[0,0,0,0,0,0,0,0,0,0,0,0,0,0,0,0,0,0,0,0,0,0,0,0,0,0,0,0,0],"sum_hessian":[3.197E3,4.18E2,2.779E3,2.19E2,1.99E2,5.83E2,2.196E3,2.05E2,1.4E1,7.5E1,1.24E2,2.91E2,2.92E2,6.92E2,1.504E3,2.9E1,1.76E2,4.4E1,3.1E1,4.3E1,8.1E1,6.4E1,2.27E2,2.72E2,2E1,4.43E2,2.49E2,1.425E3,7.9E1],"tree_param":{"num_deleted":"0","num_feature":"91","num_nodes":"29","size_leaf_vector":"1"}},{"base_weights":[2.5899649E-2,1.0741501E0,-1.2773232E-1,5.483816E-1,2.3697097E0,6.2809885E-1,-3.270899E-1,3.225845E-1,1.8046914E-1,1.2637529E0,7.133714E0,1.9411123E0,4.0034887E-1,-1.02232754E-1,-4.9040082E-1,1.6917212E-1,8.454848E-3,1.0181222E-1,-1.46543225E-2,1.4223227E-1,5.2312756E-1,1.7821607E-1,3.4955766E-2,-3.6060773E-2,2.9416075E-2,-7.5259083E-3,1.428101E-1,2.1761864E-2,-2.6186574E-2],"categories":[],"categories_nodes":[],"categories_segments":[],"categories_sizes":[],"default_left":[0,0,0,0,0,0,0,0,0,0,0,0,0,0,0,0,0,0,0,0,0,0,0,0,0,0,0,0,0],"id":5,"left_children":[1,3,5,7,9,11,13,15,-1,17,19,21,23,25,27,-1,-1,-1,-1,-1,-1,-1,-1,-1,-1,-1,-1,-1,-1],"loss_changes":[5.165414E2,2.7768613E2,4.216292E2,2.0095389E2,6.118613E2,1.7362738E2,8.1192276E1,1.277988E2,0E0,1.1742769E2,2.8301453E2,1.7045956E2,1.05611885E2,1.334377E2,3.9789185E1,0E0,0E0,0E0,0E0,0E0,0E0,0E0,0E0,0E0,0E0,0E0,0E0,0E0,0E0],"parents":[2147483647,0,0,1,1,2,2,3,3,4,4,5,5,6,6,7,7,9,9,10,10,11,11,12,12,13,13,14,14],"right_children":[2,4,6,8,10,12,14,16,-1,18,20,22,24,26,28,-1,-1,-1,-1,-1,-1,-1,-1,-1,-1,-1,-1,-1,-1],"split_conditions":[4.0908572E2,9.408614E-1,-7.0710677E-1,1.7811053E0,7.0710677E-1,-1.3467866E0,4.5340965E-3,7.7290926E-4,1.8046914E-1,5.34361E-1,-1.0099839E0,3.7813259E-3,-7.818315E-1,1.3857546E9,6.9998E-1,1.6917212E-1,8.454848E-3,1.0181222E-1,-1.46543225E-2,1.4223227E-1,5.2312756E-1,1.7821607E-1,3.4955766E-2,-3.6060773E-2,2.9416075E-2,-7.5259083E-3,1.428101E-1,2.1761864E-2,-2.6186574E-2],"split_indices":[80,84,66,54,66,89,75,75,0,31,54,75,86,42,84,0,0,0,0,0,0,0,0,0,0,0,0,0,0],"split_type":[0,0,0,0,0,0,0,0,0,0,0,0,0,0,0,0,0,0,0,0,0,0,0,0,0,0,0,0,0],"sum_hessian":[3.205E3,4.09E2,2.796E3,2.92E2,1.17E2,5.83E2,2.213E3,2.73E2,1.9E1,9.6E1,2.1E1,8.5E1,4.98E2,9.32E2,1.281E3,1.2E1,2.61E2,6.4E1,3.2E1,1E1,1.1E1,3.6E1,4.9E1,7.1E1,4.27E2,9.18E2,1.4E1,4.4E1,1.237E3],"tree_param":{"num_deleted":"0","num_feature":"91","num_nodes":"29","size_leaf_vector":"1"}},{"base_weights":[3.963864E-3,1.6741431E0,-1.0993074E-1,8.0879587E-1,4.6078544E0,-6.108215E-1,-2.9167159E-2,2.932224E-1,3.8990736E-1,1.5671706E0,4.42054E-1,-7.3480195E-1,4.9945322E-1,4.447125E-1,-1.8708175E-1,5.687153E-2,-1.6104355E-2,2.2408684E-1,-1.4773123E-2,-8.100565E-3,-4.034543E-2,-2.2602098E-2,1.6155627E-1,1.1241513E-2,6.293992E-2,1.3363773E-2,-1.4847535E-2],"categories":[],"categories_nodes":[],"categories_segments":[],"categories_sizes":[],"default_left":[0,0,0,0,0,0,0,0,0,0,0,0,0,0,0,0,0,0,0,0,0,0,0,0,0,0,0],"id":6,"left_children":[1,3,5,7,9,11,13,-1,15,17,-1,19,21,23,25,-1,-1,-1,-1,-1,-1,-1,-1,-1,-1,-1,-1],"loss_changes":[6.0487366E2,5.110832E2,1.203085E2,3.3169318E2,5.772111E2,5.724095E1,1.91928E2,0E0,7.868605E1,1.5374828E2,0E0,1.5136734E1,1.1090376E2,1.14309555E2,9.612794E1,0E0,0E0,0E0,0E0,0E0,0E0,0E0,0E0,0E0,0E0,0E0,0E0],"parents":[2147483647,0,0,1,1,2,2,3,3,4,4,5,5,6,6,8,8,9,9,11,11,12,12,13,13,14,14],"right_children":[2,4,6,8,10,12,14,-1,16,18,-1,20,22,24,26,-1,-1,-1,-1,-1,-1,-1,-1,-1,-1,-1,-1],"split_conditions":[3.1506384E2,1.3957488E-2,-7.818315E-1,5.560968E10,-5.0916016E-1,1.0389932E0,8.726808E-1,2.932224E-1,-3.1882888E-1,8.2785044E9,4.42054E-1,-7.4273073E-3,9.621411E-3,1.0932947E0,5.8154144E2,5.687153E-2,-1.6104355E-2,2.2408684E-1,-1.4773123E-2,-8.100565E-3,-4.034543E-2,-2.2602098E-2,1.6155627E-1,1.1241513E-2,6.293992E-2,1.3363773E-2,-1.4847535E-2],"split_indices":[80,38,86,33,30,72,84,0,31,36,0,5,5,41,80,0,0,0,0,0,0,0,0,0,0,0,0],"split_type":[0,0,0,0,0,0,0,0,0,0,0,0,0,0,0,0,0,0,0,0,0,0,0,0,0,0,0],"sum_hessian":[3.177E3,2.02E2,2.975E3,1.57E2,4.5E1,4.12E2,2.563E3,1.1E1,1.46E2,2.7E1,1.8E1,3.71E2,4.1E1,6.4E2,1.923E3,7.1E1,7.5E1,1E1,1.7E1,4.2E1,3.29E2,3.1E1,1E1,5.05E2,1.35E2,3.74E2,1.549E3],"tree_param":{"num_deleted":"0","num_feature":"91","num_nodes":"27","size_leaf_vector":"1"}},{"base_weights":[2.2794679E-2,1.5374328E0,-7.959477E-2,7.579769E-1,3.9209971E0,5.6939244E-1,-2.556555E-1,2.09253E-1,4.664285E-1,8.795748E-2,4.8305795E-1,-1.8362644E-1,8.422251E-1,4.711062E-1,-3.1841958E-1,7.549912E-2,-2.4291499E-2,6.1412867E-2,-2.9781014E-2,8.290532E-2,-1.9189602E-2,6.275549E-2,1.0175395E-2,3.3214006E-3,1.0645349E-1,-2.145854E-2,-1.272905E-3],"categories":[],"categories_nodes":[],"categories_segments":[],"categories_sizes":[],"default_left":[0,0,0,0,0,0,0,0,0,0,0,0,0,0,0,0,0,0,0,0,0,0,0,0,0,0,0],"id":7,"left_children":[1,3,5,7,9,11,13,-1,15,17,-1,19,21,23,25,-1,-1,-1,-1,-1,-1,-1,-1,-1,-1,-1,-1],"loss_changes":[4.9963528E2,3.7556824E2,3.4484006E2,1.524527E2,1.0982887E3,1.3252914E2,1.0842366E2,0E0,1.4393356E2,2.495883E1,0E0,6.3917004E1,1.2433661E2,1.2644701E2,7.087024E1,0E0,0E0,0E0,0E0,0E0,0E0,0E0,0E0,0E0,0E0,0E0,0E0],"parents":[2147483647,0,0,1,1,2,2,3,3,4,4,5,5,6,6,8,8,9,9,11,11,12,12,13,13,14,14],"right_children":[2,4,6,8,10,12,14,-1,16,18,-1,20,22,24,26,-1,-1,-1,-1,-1,-1,-1,-1,-1,-1,-1,-1],"split_conditions":[3.1506384E2,9.323745E-1,-7.0710677E-1,4.6820024E10,2.5881904E-1,-4.3388373E-1,4.230499E2,2.09253E-1,-5.9072703E-2,5.1532257E-3,4.8305795E-1,-1.1004595E-2,2.5881904E-1,1.0982597E0,3.1879637E-1,7.549912E-2,-2.4291499E-2,6.1412867E-2,-2.9781014E-2,8.290532E-2,-1.9189602E-2,6.275549E-2,1.0175395E-2,3.3214006E-3,1.0645349E-1,-2.145854E-2,-1.272905E-3],"split_indices":[80,84,66,33,66,86,80,0,31,39,0,39,67,84,72,0,0,0,0,0,0,0,0,0,0,0,0],"split_type":[0,0,0,0,0,0,0,0,0,0,0,0,0,0,0,0,0,0,0,0,0,0,0,0,0,0,0],"sum_hessian":[3.219E3,2.03E2,3.016E3,1.54E2,4.9E1,6.43E2,2.373E3,1.1E1,1.43E2,3E1,1.9E1,1.71E2,4.72E2,1.88E2,2.185E3,6.8E1,7.5E1,1.1E1,1.9E1,1.6E1,1.55E2,2.86E2,1.86E2,1.52E2,3.6E1,1.585E3,6E2],"tree_param":{"num_deleted":"0","num_feature":"91","num_nodes":"27","size_leaf_vector":"1"}},{"base_weights":[1.8337436E-2,9.4793195E-1,-1.2313677E-1,4.2699036E-1,2.4912257E0,5.498494E-1,-2.972111E-1,3.2257237E0,1.4626782E-1,8.9496833E-1,5.7465277E0,1.8560198E-1,9.8557293E-1,-3.8023105E-1,7.308953E-2,3.8195303E-1,2.4779802E-2,2.6948832E-4,1.70645E-1,5.358169E-3,1.2992905E-1,1.1083356E-1,5.437918E-1,-2.481433E-2,2.354362E-2,1.344902E-2,9.678012E-2,-2.381493E-2,-4.6119867E-3,2.9018959E-2,-1.25367185E-2],"categories":[],"categories_nodes":[],"categories_segments":[],"categories_sizes":[],"default_left":[0,0,0,0,0,0,0,0,0,0,0,0,0,0,0,0,0,0,0,0,0,0,0,0,0,0,0,0,0,0,0],"id":8,"left_children":[1,3,5,7,9,11,13,15,17,19,21,23,25,27,29,-1,-1,-1,-1,-1,-1,-1,-1,-1,-1,-1,-1,-1,-1,-1,-1],"loss_changes":[4.2314713E2,3.4033E2,3.2721988E2,2.4981895E2,5.5019696E2,9.08002E1,6.827573E1,3.4482086E2,1.3355702E2,9.742529E1,6.0828284E2,6.131126E1,1.7694357E2,5.0058807E1,6.70374E1,0E0,0E0,0E0,0E0,0E0,0E0,0E0,0E0,0E0,0E0,0E0,0E0,0E0,0E0,0E0,0E0],"parents":[2147483647,0,0,1,1,2,2,3,3,4,4,5,5,6,6,7,7,8,8,9,9,10,10,11,11,12,12,13,13,14,14],"right_children":[2,4,6,8,10,12,14,16,18,20,22,24,26,28,30,-1,-1,-1,-1,-1,-1,-1,-1,-1,-1,-1,-1,-1,-1,-1,-1],"split_conditions":[2.329447E-3,9.2521185E-1,-7.0710677E-1,-1.5851315E0,2.5881904E-1,1.3558275E5,1.5658499E0,-4.3542886E-1,2.8227437E-2,3.5854927E-1,2.6808542E-1,-4.3388373E-1,1.95E0,7.822782E4,4.5130663E-3,3.8195303E-1,2.4779802E-2,2.6948832E-4,1.70645E-1,5.358169E-3,1.2992905E-1,1.1083356E-1,5.437918E-1,-2.481433E-2,2.354362E-2,1.344902E-2,9.678012E-2,-2.381493E-2,-4.6119867E-3,2.9018959E-2,-1.25367185E-2],"split_indices":[75,84,66,3,66,23,81,72,45,52,69,86,53,2,75,0,0,0,0,0,0,0,0,0,0,0,0,0,0,0,0],"split_type":[0,0,0,0,0,0,0,0,0,0,0,0,0,0,0,0,0,0,0,0,0,0,0,0,0,0,0,0,0,0,0],"sum_hessian":[3.215E3,4.24E2,2.791E3,3.18E2,1.06E2,5.73E2,2.218E3,2.8E1,2.9E2,7.2E1,3.4E1,3.13E2,2.6E2,1.812E3,4.06E2,1E1,1.8E1,2.79E2,1.1E1,5E1,2.2E1,2.1E1,1.3E1,9.2E1,2.21E2,1.49E2,1.11E2,1.358E3,4.54E2,1.58E2,2.48E2],"tree_param":{"num_deleted":"0","num_feature":"91","num_nodes":"31","size_leaf_vector":"1"}},{"base_weights":[-1.1829817E-2,8.055409E-1,-1.3815847E-1,4.120112E-1,2.2898948E0,4.652488E-1,-3.0058604E-1,7.591491E-2,1.629677E0,8.99991E-1,6.0125513E0,7.597989E-2,9.5453715E-1,-3.8311827E-1,1.7831877E-2,1.0014077E-1,-3.1641186E-3,4.6998426E-2,2.2310112E-1,1.4137468E-2,1.8228413E-1,2.1323364E-2,5.34937E-1,9.88059E-2,4.7446796E-4,2.3800557E-2,9.233513E-2,-1.996058E-2,8.031187E-2,9.365408E-3,-1.9210787E-2],"categories":[],"categories_nodes":[],"categories_segments":[],"categories_sizes":[],"default_left":[0,0,0,0,0,0,0,0,0,0,0,0,0,0,0,0,0,0,0,0,0,0,0,0,0,0,0,0,0,0,0],"id":9,"left_children":[1,3,5,7,9,11,13,15,17,19,21,23,25,27,29,-1,-1,-1,-1,-1,-1,-1,-1,-1,-1,-1,-1,-1,-1,-1,-1],"loss_changes":[3.286094E2,2.4762885E2,2.7033688E2,1.3803323E2,4.543955E2,1.1124629E2,5.714923E1,7.166704E1,1.378706E2,1.1043019E2,6.2258344E2,4.1096252E1,1.0946208E2,5.5779007E1,3.0577888E1,0E0,0E0,0E0,0E0,0E0,0E0,0E0,0E0,0E0,0E0,0E0,0E0,0E0,0E0,0E0,0E0],"parents":[2147483647,0,0,1,1,2,2,3,3,4,4,5,5,6,6,7,7,8,8,9,9,10,10,11,11,12,12,13,13,14,14],"right_children":[2,4,6,8,10,12,14,16,18,20,22,24,26,28,30,-1,-1,-1,-1,-1,-1,-1,-1,-1,-1,-1,-1,-1,-1,-1,-1],"split_conditions":[4.230499E2,1.3957488E-2,-7.0710677E-1,1.111E-3,5E-1,4.3388373E-1,7.624661E-1,-1.6992831E0,8.660254E-1,7.0710677E-1,1.4409205E0,2.0893598E-3,4.664E-3,3.225713E-2,1.3030097E0,1.0014077E-1,-3.1641186E-3,4.6998426E-2,2.2310112E-1,1.4137468E-2,1.8228413E-1,2.1323364E-2,5.34937E-1,9.88059E-2,4.7446796E-4,2.3800557E-2,9.233513E-2,-1.996058E-2,8.031187E-2,9.365408E-3,-1.9210787E-2],"split_indices":[80,38,66,12,66,86,72,69,66,67,83,73,8,45,14,0,0,0,0,0,0,0,0,0,0,0,0,0,0,0,0],"split_type":[0,0,0,0,0,0,0,0,0,0,0,0,0,0,0,0,0,0,0,0,0,0,0,0,0,0,0,0,0,0,0],"sum_hessian":[3.181E3,4.25E2,2.756E3,3.37E2,8.8E1,5.84E2,2.172E3,2.65E2,7.2E1,6.5E1,2.3E1,3.26E2,2.58E2,1.725E3,4.47E2,1.7E1,2.48E2,5.9E1,1.3E1,5.4E1,1.1E1,1.1E1,1.2E1,1E1,3.16E2,1.69E2,8.9E1,1.712E3,1.3E1,3.15E2,1.32E2],"tree_param":{"num_deleted":"0","num_feature":"91","num_nodes":"31","size_leaf_vector":"1"}},{"base_weights":[-1.7333636E-2,6.9821703E-1,-1.4140373E-1,3.146881E-1,1.6286097E0,3.7469897E-1,-2.8291586E-1,1.7410694E-1,1.3759099E-1,7.32362E-1,4.2928715E0,5.2929914E-1,-2.4740265E-1,-3.4600395E-1,9.517521E-2,4.3069795E-2,-5.2096318E-3,1.7965047E-2,1.7615664E-1,3.3256397E-1,6.088543E-2,4.673999E-2,9.418613E-3,1.841999E-2,-2.888362E-2,-7.855657E-3,-2.4120007E-2,9.874703E-2,1.1968841E-3],"categories":[],"categories_nodes":[],"categories_segments":[],"categories_sizes":[],"default_left":[0,0,0,0,0,0,0,0,0,0,0,0,0,0,0,0,0,0,0,0,0,0,0,0,0,0,0,0,0],"id":10,"left_children":[1,3,5,7,9,11,13,15,-1,17,19,21,23,25,27,-1,-1,-1,-1,-1,-1,-1,-1,-1,-1,-1,-1,-1,-1],"loss_changes":[2.8058292E2,1.6593398E2,1.9685258E2,1.1297641E2,3.2109958E2,5.594182E1,5.0507187E1,6.041623E1,0E0,1.0558205E2,2.376983E2,6.3996002E1,2.3825928E1,4.6570374E1,4.0327515E1,0E0,0E0,0E0,0E0,0E0,0E0,0E0,0E0,0E0,0E0,0E0,0E0,0E0,0E0],"parents":[2147483647,0,0,1,1,2,2,3,3,4,4,5,5,6,6,7,7,9,9,10,10,11,11,12,12,13,13,14,14],"right_children":[2,4,6,8,10,12,14,16,-1,18,20,22,24,26,28,-1,-1,-1,-1,-1,-1,-1,-1,-1,-1,-1,-1,-1,-1],"split_conditions":[4.5395203E2,9.408614E-1,-7.0710677E-1,1.9114926E0,5E-1,5E-1,1.6989233E0,1.8580474E-1,1.3759099E-1,1.4424276E0,4.98E-4,-1.09670766E-1,9.0059257E-1,1.31E0,6.672374E-1,4.3069795E-2,-5.2096318E-3,1.7965047E-2,1.7615664E-1,3.3256397E-1,6.088543E-2,4.673999E-2,9.418613E-3,1.841999E-2,-2.888362E-2,-7.855657E-3,-2.4120007E-2,9.874703E-2,1.1968841E-3],"split_indices":[80,84,66,54,66,67,81,3,0,84,12,89,84,53,84,0,0,0,0,0,0,0,0,0,0,0,0,0,0],"split_type":[0,0,0,0,0,0,0,0,0,0,0,0,0,0,0,0,0,0,0,0,0,0,0,0,0,0,0,0,0],"sum_hessian":[3.159E3,4.66E2,2.693E3,3.31E2,1.35E2,5.79E2,2.114E3,3.14E2,1.7E1,1.02E2,3.3E1,4.64E2,1.15E2,1.812E3,3.02E2,9E1,2.24E2,9.1E1,1.1E1,1.8E1,1.5E1,2.11E2,2.53E2,4E1,7.5E1,7.61E2,1.051E3,1E1,2.92E2],"tree_param":{"num_deleted":"0","num_feature":"91","num_nodes":"29","size_leaf_vector":"1"}},{"base_weights":[1.31487E-2,4.5996183E-1,-2.346009E-1,4.765344E-2,8.727378E-1,2.1339007E-1,-4.01079E-1,1.2540211E-1,-2.343855E-2,1.5488802E0,1.9555108E-1,5.47707E-1,-1.9493015E-1,-4.4896722E-1,7.7360417E-3,1.1904813E-1,-4.0678405E-3,1.4529379E-1,3.9546352E-2,2.0331524E-3,8.3232306E-2,4.7517393E-2,-4.4388296E-3,-1.4782335E-2,4.8654635E-2,-1.662626E-2,-3.1130115E-2,1.0081595E-1,-8.585375E-3],"categories":[],"categories_nodes":[],"categories_segments":[],"categories_sizes":[],"default_left":[0,0,0,0,0,0,0,0,0,0,0,0,0,0,0,0,0,0,0,0,0,0,0,0,0,0,0,0,0],"id":11,"left_children":[1,3,5,7,9,11,13,-1,15,17,19,21,23,25,27,-1,-1,-1,-1,-1,-1,-1,-1,-1,-1,-1,-1,-1,-1],"loss_changes":[3.5159586E2,1.9269278E2,1.5247272E2,9.9658356E1,2.5867972E2,7.576768E1,2.9217972E1,0E0,7.697382E1,2.8840863E2,6.438462E1,7.8334175E1,2.962976E1,2.6668823E1,5.7117756E1,0E0,0E0,0E0,0E0,0E0,0E0,0E0,0E0,0E0,0E0,0E0,0E0,0E0,0E0],"parents":[2147483647,0,0,1,1,2,2,3,3,4,4,5,5,6,6,8,8,9,9,10,10,11,11,12,12,13,13,14,14],"right_children":[2,4,6,8,10,12,14,-1,16,18,20,22,24,26,28,-1,-1,-1,-1,-1,-1,-1,-1,-1,-1,-1,-1,-1,-1],"split_conditions":[3.7813259E-3,6.234898E-1,-5E-1,-5.13E-3,2.5881904E-1,2.5881904E-1,1.3596296E0,1.2540211E-1,-2.5984676E0,2.354815E-3,1.7179252E0,1.0982597E0,1.5762529E0,2.06E0,-8.7132E-1,1.1904813E-1,-4.0678405E-3,1.4529379E-1,3.9546352E-2,2.0331524E-3,8.3232306E-2,4.7517393E-2,-4.4388296E-3,-1.4782335E-2,4.8654635E-2,-1.662626E-2,-3.1130115E-2,1.0081595E-1,-8.585375E-3],"split_indices":[75,85,66,8,67,67,52,0,89,75,69,84,89,53,72,0,0,0,0,0,0,0,0,0,0,0,0,0,0],"split_type":[0,0,0,0,0,0,0,0,0,0,0,0,0,0,0,0,0,0,0,0,0,0,0,0,0,0,0,0,0],"sum_hessian":[3.174E3,1.132E3,2.042E3,5.67E2,5.65E2,5.53E2,1.489E3,1.5E1,5.52E2,2.82E2,2.83E2,3.04E2,2.49E2,1.333E3,1.56E2,1.2E1,5.4E2,1E2,1.82E2,2.57E2,2.6E1,1.86E2,1.18E2,2.3E2,1.9E1,8E2,5.33E2,1.2E1,1.44E2],"tree_param":{"num_deleted":"0","num_feature":"91","num_nodes":"29","size_leaf_vector":"1"}},{"base_weights":[-6.4286296E-3,5.656401E-1,-1.04842775E-1,2.8810495E-1,4.399299E-1,-1.5552083E-1,4.0544528E-1,2.9961786E-1,2.4377484E0,-4.4957778E-1,-5.525169E-2,1.3624561E0,2.6253145E-2,3.398517E-2,-1.1935661E-2,2.4502932E-1,4.7815025E-2,-2.467497E-2,8.360182E-2,5.2346694E-3,-1.2056527E-2,1.379112E-1,-1.4804404E-3,-1.4622502E-2,4.1379087E-2],"categories":[],"categories_nodes":[],"categories_segments":[],"categories_sizes":[],"default_left":[0,0,0,0,0,0,0,0,0,0,0,0,0,0,0,0,0,0,0,0,0,0,0,0,0],"id":12,"left_children":[1,3,5,-1,7,9,11,13,15,17,19,21,23,-1,-1,-1,-1,-1,-1,-1,-1,-1,-1,-1,-1],"loss_changes":[1.8028473E2,3.0387134E2,7.071455E1,0E0,1.2794215E2,7.325346E1,8.945942E1,8.8394066E1,1.04184845E2,5.960006E1,5.521852E1,1.3636449E2,4.5754242E1,0E0,0E0,0E0,0E0,0E0,0E0,0E0,0E0,0E0,0E0,0E0,0E0],"parents":[2147483647,0,0,1,1,2,2,4,4,5,5,6,6,7,7,8,8,9,9,10,10,11,11,12,12],"right_children":[2,4,6,-1,8,10,12,14,16,18,20,22,24,-1,-1,-1,-1,-1,-1,-1,-1,-1,-1,-1,-1],"split_conditions":[4.42664E2,-1.0111531E0,1.9432442E0,2.8810495E-1,1E0,5.712397E-1,-8.5708964E-1,-3.124157E-1,8.2998195E9,1.3160796E-1,8.1319037E2,3.5943966E-3,6.2465054E-1,3.398517E-2,-1.1935661E-2,2.4502932E-1,4.7815025E-2,-2.467497E-2,8.360182E-2,5.2346694E-3,-1.2056527E-2,1.379112E-1,-1.4804404E-3,-1.4622502E-2,4.1379087E-2],"split_indices":[80,76,82,0,85,81,72,88,36,72,80,38,76,0,0,0,0,0,0,0,0,0,0,0,0],"split_type":[0,0,0,0,0,0,0,0,0,0,0,0,0,0,0,0,0,0,0,0,0,0,0,0,0],"sum_hessian":[3.201E3,4.69E2,2.732E3,1E1,4.59E2,2.486E3,2.46E2,4.3E2,2.9E1,6.31E2,1.855E3,6.9E1,1.77E2,2.52E2,1.78E2,1E1,1.9E1,6.19E2,1.2E1,9.97E2,8.58E2,3.4E1,3.5E1,1.27E2,5E1],"tree_param":{"num_deleted":"0","num_feature":"91","num_nodes":"25","size_leaf_vector":"1"}},{"base_weights":[-1.1988121E-2,4.594398E-1,-1.3461636E-1,1.4722694E0,2.6932544E-1,-3.0009958E-1,8.825209E-2,2.488016E0,2.8341804E-2,-6.340501E-1,4.3583146E-1,1.3981204E-1,-3.6786097E-1,3.0596342E-2,1.9607022E-1,2.0546971E-1,3.361393E-2,-4.199944E-2,7.3137425E-2,-5.563617E-3,-3.7444174E-2,3.5145644E-2,7.4394647E-4,-6.551889E-3,1.26065E-1,-2.4166446E-2,-4.591668E-3,2.0456906E-2,-8.498196E-3],"categories":[],"categories_nodes":[],"categories_segments":[],"categories_sizes":[],"default_left":[0,0,0,0,0,0,0,0,0,0,0,0,0,0,0,0,0,0,0,0,0,0,0,0,0,0,0,0,0],"id":13,"left_children":[1,3,5,7,9,11,13,15,17,19,21,23,25,27,-1,-1,-1,-1,-1,-1,-1,-1,-1,-1,-1,-1,-1,-1,-1],"loss_changes":[1.8484914E2,1.2651459E2,9.365161E1,1.5221097E2,8.403905E1,4.3505997E1,2.3861035E2,1.7634302E2,5.6094692E1,5.053467E0,5.2871635E1,1.2634939E2,4.0152863E1,8.1100555E1,0E0,0E0,0E0,0E0,0E0,0E0,0E0,0E0,0E0,0E0,0E0,0E0,0E0,0E0,0E0],"parents":[2147483647,0,0,1,1,2,2,3,3,4,4,5,5,6,6,7,7,8,8,9,9,10,10,11,11,12,12,13,13],"right_children":[2,4,6,8,10,12,14,16,18,20,22,24,26,28,-1,-1,-1,-1,-1,-1,-1,-1,-1,-1,-1,-1,-1,-1,-1],"split_conditions":[-7.0710677E-1,-1.3308347E0,6.234898E-1,-2.6181791E1,-7.818315E-1,6.5181035E-1,2.2147782E0,6.966529E-1,0E0,8.211916E2,2.5881904E-1,1.8578199E0,8.9834195E-1,-4.3388373E-1,1.9607022E-1,2.0546971E-1,3.361393E-2,-4.199944E-2,7.3137425E-2,-5.563617E-3,-3.7444174E-2,3.5145644E-2,7.4394647E-4,-6.551889E-3,1.26065E-1,-2.4166446E-2,-4.591668E-3,2.0456906E-2,-8.498196E-3],"split_indices":[66,89,85,78,86,84,69,52,86,25,67,31,52,86,0,0,0,0,0,0,0,0,0,0,0,0,0,0,0],"split_type":[0,0,0,0,0,0,0,0,0,0,0,0,0,0,0,0,0,0,0,0,0,0,0,0,0,0,0,0,0],"sum_hessian":[3.196E3,6.59E2,2.537E3,1.03E2,5.56E2,1.456E3,1.081E3,6E1,4.3E1,8.6E1,4.7E2,1.94E2,1.262E3,1.066E3,1.5E1,3.1E1,2.9E1,2.7E1,1.6E1,1.6E1,7E1,2.87E2,1.83E2,1.75E2,1.9E1,8.89E2,3.73E2,3.69E2,6.97E2],"tree_param":{"num_deleted":"0","num_feature":"91","num_nodes":"29","size_leaf_vector":"1"}},{"base_weights":[2.7893528E-2,7.2592497E-1,-1.0080759E-1,3.85368E-1,2.1434038E0,5.347442E-1,-1.922167E-1,1.6382575E0,1.8386208E-2,7.940025E-1,4.692443E0,1.08365074E-1,4.361357E-1,-2.6005393E-1,2.13474E-1,3.0713264E-2,2.0195222E-1,9.9538796E-2,-7.2564236E-3,1.3975011E-1,-1.2295226E-2,8.1818216E-2,4.6302676E-1,3.4868743E-2,-9.1183055E-3,-1.6399795E-2,5.772905E-3,1.212629E-1,5.505455E-3],"categories":[],"categories_nodes":[],"categories_segments":[],"categories_sizes":[],"default_left":[0,0,0,0,0,0,0,0,0,0,0,0,0,0,0,0,0,0,0,0,0,0,0,0,0,0,0,0,0],"id":14,"left_children":[1,3,5,7,9,11,13,15,17,19,21,-1,23,25,27,-1,-1,-1,-1,-1,-1,-1,-1,-1,-1,-1,-1,-1,-1],"loss_changes":[2.8680692E2,2.3883908E2,1.5663516E2,1.8463885E2,3.2593454E2,5.336799E1,6.492702E1,2.2076685E2,1.0109807E2,1.3411685E2,4.4445154E2,0E0,5.204485E1,5.159543E1,7.675326E1,0E0,0E0,0E0,0E0,0E0,0E0,0E0,0E0,0E0,0E0,0E0,0E0,0E0,0E0],"parents":[2147483647,0,0,1,1,2,2,3,3,4,4,5,5,6,6,7,7,8,8,9,9,10,10,12,12,13,13,14,14],"right_children":[2,4,6,8,10,12,14,16,18,20,22,-1,24,26,28,-1,-1,-1,-1,-1,-1,-1,-1,-1,-1,-1,-1,-1,-1],"split_conditions":[4.5395203E2,1.3957488E-2,-8.660254E-1,8.013933E9,-5.0916016E-1,-1.0639899E0,1.2606313E0,1.069E-3,-1.6992831E0,-3.6914036E-1,9.516257E-1,1.08365074E-1,4.0837175E-1,1.8850195E0,6.672374E-1,3.0713264E-2,2.0195222E-1,9.9538796E-2,-7.2564236E-3,1.3975011E-1,-1.2295226E-2,8.1818216E-2,4.6302676E-1,3.4868743E-2,-9.1183055E-3,-1.6399795E-2,5.772905E-3,1.212629E-1,5.505455E-3],"split_indices":[80,38,66,36,30,72,72,12,69,31,84,0,88,82,84,0,0,0,0,0,0,0,0,0,0,0,0,0,0],"split_type":[0,0,0,0,0,0,0,0,0,0,0,0,0,0,0,0,0,0,0,0,0,0,0,0,0,0,0,0,0],"sum_hessian":[3.19E3,4.96E2,2.694E3,4.01E2,9.5E1,3.38E2,2.356E3,9E1,3.11E2,6.3E1,3.2E1,1.8E1,3.2E2,2.019E3,3.37E2,6.4E1,2.6E1,2.3E1,2.88E2,2.1E1,4.2E1,2E1,1.2E1,2.25E2,9.5E1,1.71E3,3.09E2,1.4E1,3.23E2],"tree_param":{"num_deleted":"0","num_feature":"91","num_nodes":"29","size_leaf_vector":"1"}},{"base_weights":[-2.8785337E-3,3.462692E-1,-2.5484273E-1,2.0503817E-2,7.1095663E-1,1.0184292E-1,-3.7662652E-1,-1.8150498E-1,6.037833E-1,1.4971484E0,3.1965658E-1,3.6333573E-1,-2.835962E-1,-4.0282434E-1,8.6059576E-1,-1.4099431E-2,6.908392E-2,1.4136732E-2,2.3863354E-1,1.7239563E-1,2.5867835E-2,1.241866E-2,1.482176E-1,5.900043E-2,4.7017327E-3,-2.0890618E-2,4.4327673E-2,-2.7229741E-2,-1.3241993E-2,7.767477E-2,9.713574E-3],"categories":[],"categories_nodes":[],"categories_segments":[],"categories_sizes":[],"default_left":[0,0,0,0,0,0,0,0,0,0,0,0,0,0,0,0,0,0,0,0,0,0,0,0,0,0,0,0,0,0,0],"id":15,"left_children":[1,3,5,7,9,11,13,15,17,19,21,23,25,27,29,-1,-1,-1,-1,-1,-1,-1,-1,-1,-1,-1,-1,-1,-1,-1,-1],"loss_changes":[2.8167978E2,1.593453E2,8.086151E1,8.38094E1,1.9407388E2,4.7885265E1,4.525705E1,8.321491E1,2.4307516E2,3.9920154E2,7.8876114E1,6.2002064E1,3.047771E1,2.6359772E1,1.2912603E1,0E0,0E0,0E0,0E0,0E0,0E0,0E0,0E0,0E0,0E0,0E0,0E0,0E0,0E0,0E0,0E0],"parents":[2147483647,0,0,1,1,2,2,3,3,4,4,5,5,6,6,7,7,8,8,9,9,10,10,11,11,12,12,13,13,14,14],"right_children":[2,4,6,8,10,12,14,16,18,20,22,24,26,28,30,-1,-1,-1,-1,-1,-1,-1,-1,-1,-1,-1,-1,-1,-1,-1,-1],"split_conditions":[4.062687E-3,6.234898E-1,-5E-1,4.855674E-1,2.329447E-3,1.1015646E0,4.0890584E0,1.3372111E9,3.6569774E0,0E0,1.02282446E3,1.4033387E-2,2.9228311E-2,7.463693E4,1.0205975E-2,-1.4099431E-2,6.908392E-2,1.4136732E-2,2.3863354E-1,1.7239563E-1,2.5867835E-2,1.241866E-2,1.482176E-1,5.900043E-2,4.7017327E-3,-2.0890618E-2,4.4327673E-2,-2.7229741E-2,-1.3241993E-2,7.767477E-2,9.713574E-3],"split_indices":[75,85,66,72,75,84,29,42,76,67,80,63,45,2,50,0,0,0,0,0,0,0,0,0,0,0,0,0,0,0,0],"split_type":[0,0,0,0,0,0,0,0,0,0,0,0,0,0,0,0,0,0,0,0,0,0,0,0,0,0,0,0,0,0,0],"sum_hessian":[3.2E3,1.341E3,1.859E3,7.09E2,6.32E2,4.73E2,1.386E3,5.27E2,1.82E2,2.09E2,4.23E2,2.82E2,1.91E2,1.358E3,2.8E1,4.96E2,3.1E1,1.7E2,1.2E1,6.9E1,1.4E2,4.13E2,1E1,6.9E1,2.13E2,1.72E2,1.9E1,6.68E2,6.9E2,1.3E1,1.5E1],"tree_param":{"num_deleted":"0","num_feature":"91","num_nodes":"31","size_leaf_vector":"1"}},{"base_weights":[1.3993429E-2,3.6470917E-1,-2.3217572E-1,8.3157435E-2,7.571056E-1,-1.4049403E-1,-5.4919624E-1,1.6090806E-1,3.7178393E-2,-3.0942068E-1,1.045102E0,-6.699768E-1,-7.647564E-2,-5.860481E-1,1.4836838E-2,3.8380858E-2,-8.910604E-3,3.021158E-2,-2.5830893E-2,7.286478E-2,-4.295874E-3,-4.173912E-2,2.4372041E-2,2.3810132E-3,-1.6351823E-2,-7.435964E-3,-3.2240517E-2],"categories":[],"categories_nodes":[],"categories_segments":[],"categories_sizes":[],"default_left":[0,0,0,0,0,0,0,0,0,0,0,0,0,0,0,0,0,0,0,0,0,0,0,0,0,0,0],"id":16,"left_children":[1,3,5,7,9,11,13,-1,15,17,19,21,23,25,-1,-1,-1,-1,-1,-1,-1,-1,-1,-1,-1,-1,-1],"loss_changes":[2.7421283E2,1.4458168E2,5.408912E1,1.0968119E2,1.6841113E2,4.8990345E1,1.323365E1,0E0,1.1882222E2,2.2452217E1,2.0119406E2,3.0198479E1,4.0278595E1,1.0129822E1,0E0,0E0,0E0,0E0,0E0,0E0,0E0,0E0,0E0,0E0,0E0,0E0,0E0],"parents":[2147483647,0,0,1,1,2,2,3,3,4,4,5,5,6,6,8,8,9,9,10,10,11,11,12,12,13,13],"right_children":[2,4,6,8,10,12,14,-1,16,18,20,22,24,26,-1,-1,-1,-1,-1,-1,-1,-1,-1,-1,-1,-1,-1],"split_conditions":[4.062687E-3,2.9139528E-3,1.2839916E0,5.3617367E9,-7.818315E-1,-7.818315E-1,2.1002674E8,1.6090806E-1,-3.8239293E-2,-1.5181249E0,6.4937073E-1,1.9875944E0,1.2470348E-2,5.605868E9,1.4836838E-2,3.8380858E-2,-8.910604E-3,3.021158E-2,-2.5830893E-2,7.286478E-2,-4.295874E-3,-4.173912E-2,2.4372041E-2,2.3810132E-3,-1.6351823E-2,-7.435964E-3,-3.2240517E-2],"split_indices":[75,37,84,36,86,86,6,0,68,54,88,82,38,36,0,0,0,0,0,0,0,0,0,0,0,0,0],"split_type":[0,0,0,0,0,0,0,0,0,0,0,0,0,0,0,0,0,0,0,0,0,0,0,0,0,0,0],"sum_hessian":[3.174E3,1.309E3,1.865E3,7.63E2,5.46E2,1.448E3,4.17E2,1E1,7.53E2,1.16E2,4.3E2,1.55E2,1.293E3,4E2,1.7E1,1.71E2,5.82E2,2.1E1,9.5E1,3.15E2,1.15E2,1.36E2,1.9E1,8.65E2,4.28E2,4.8E1,3.52E2],"tree_param":{"num_deleted":"0","num_feature":"91","num_nodes":"27","size_leaf_vector":"1"}},{"base_weights":[-5.3534782E-3,5.7368654E-1,-1.1033444E-1,2.6543033E-1,1.9043187E0,3.411567E-1,-2.2922152E-1,1.2705351E0,-8.384217E-2,6.476655E-1,4.1979084E0,1.6046107E-1,2.82781E-1,2.3837143E-1,-2.6603967E-1,-5.767563E-3,1.358082E-1,9.116073E-2,-1.4590755E-2,1.2761499E-1,3.220991E-3,2.1714268E-2,4.4993445E-1,-1.5616649E-3,3.5235573E-2,7.073029E-2,-3.314441E-3,-2.4302563E-2,-9.271007E-3],"categories":[],"categories_nodes":[],"categories_segments":[],"categories_sizes":[],"default_left":[0,0,0,0,0,0,0,0,0,0,0,0,0,0,0,0,0,0,0,0,0,0,0,0,0,0,0,0,0],"id":17,"left_children":[1,3,5,7,9,11,13,15,17,19,21,-1,23,25,27,-1,-1,-1,-1,-1,-1,-1,-1,-1,-1,-1,-1,-1,-1],"loss_changes":[1.9210764E2,1.9821274E2,1.4370522E2,1.388921E2,2.5908102E2,9.216656E1,3.6546707E1,2.0492809E2,1.1698407E2,6.622609E1,5.7333527E2,0E0,7.2695076E1,5.5773144E1,3.469638E1,0E0,0E0,0E0,0E0,0E0,0E0,0E0,0E0,0E0,0E0,0E0,0E0,0E0,0E0],"parents":[2147483647,0,0,1,1,2,2,3,3,4,4,5,5,6,6,7,7,8,8,9,9,10,10,12,12,13,13,14,14],"right_children":[2,4,6,8,10,12,14,16,18,20,22,-1,24,26,28,-1,-1,-1,-1,-1,-1,-1,-1,-1,-1,-1,-1,-1,-1],"split_conditions":[4.5395203E2,1.3957488E-2,-7.0710677E-1,-7.566583E1,-6.0770845E-1,-2.3558414E0,4.4214903E10,7.146688E4,4.6928683E10,1.1336863E0,9.595569E-1,1.6046107E-1,4.3388373E-1,-1.3599292E0,5.712397E-1,-5.767563E-3,1.358082E-1,9.116073E-2,-1.4590755E-2,1.2761499E-1,3.220991E-3,2.1714268E-2,4.4993445E-1,-1.5616649E-3,3.5235573E-2,7.073029E-2,-3.314441E-3,-2.4302563E-2,-9.271007E-3],"split_indices":[80,38,66,78,30,89,33,2,33,41,84,0,86,90,81,0,0,0,0,0,0,0,0,0,0,0,0,0,0],"split_type":[0,0,0,0,0,0,0,0,0,0,0,0,0,0,0,0,0,0,0,0,0,0,0,0,0,0,0,0,0],"sum_hessian":[3.159E3,4.84E2,2.675E3,3.94E2,9E1,5.57E2,2.118E3,1.01E2,2.93E2,5.9E1,3.1E1,1E1,5.47E2,1.54E2,1.964E3,5.2E1,4.9E1,2.8E1,2.65E2,1.3E1,4.6E1,1.8E1,1.3E1,3.14E2,2.33E2,3.1E1,1.23E2,5.25E2,1.439E3],"tree_param":{"num_deleted":"0","num_feature":"91","num_nodes":"29","size_leaf_vector":"1"}},{"base_weights":[-1.4640372E-3,9.9452627E-1,-6.7210324E-2,5.4468644E-1,3.945594E0,1.6227785E-1,-2.0673999E-1,1.13104224E-1,3.6583717E0,1.6704601E-3,4.2493463E-1,-3.316282E-2,6.921912E-1,-2.663096E-1,2.4697495E-1,1.7479014E-1,-7.3597506E-3,3.1636006E-1,3.2393616E-2,-1.1035323E-2,1.8357495E-2,1.7046455E-1,2.8948987E-2,-1.4847581E-2,3.6975857E-2,1.5462546E-1,4.704339E-3],"categories":[],"categories_nodes":[],"categories_segments":[],"categories_sizes":[],"default_left":[0,0,0,0,0,0,0,0,0,0,0,0,0,0,0,0,0,0,0,0,0,0,0,0,0,0,0],"id":18,"left_children":[1,3,5,7,9,11,13,15,17,-1,-1,19,21,23,25,-1,-1,-1,-1,-1,-1,-1,-1,-1,-1,-1,-1],"loss_changes":[2.0938766E2,2.6024844E2,9.613124E1,2.3168842E2,4.619895E2,1.1763698E2,5.0528275E1,1.3556805E2,1.6392795E2,0E0,0E0,6.2379555E1,9.1754944E1,5.1060127E1,9.37959E1,0E0,0E0,0E0,0E0,0E0,0E0,0E0,0E0,0E0,0E0,0E0,0E0],"parents":[2147483647,0,0,1,1,2,2,3,3,4,4,5,5,6,6,7,7,8,8,11,11,12,12,13,13,14,14],"right_children":[2,4,6,8,10,12,14,16,18,-1,-1,20,22,24,26,-1,-1,-1,-1,-1,-1,-1,-1,-1,-1,-1,-1],"split_conditions":[3.1506384E2,4.492825E1,4.062687E-3,6.1806273E-1,-1.4220072E0,6.898958E-3,2.9065613E-2,5.6191504E10,9.071523E-2,1.6704601E-3,4.2493463E-1,6.321652E-3,-1.0576813E0,2.61E0,7.152572E2,1.7479014E-1,-7.3597506E-3,3.1636006E-1,3.2393616E-2,-1.1035323E-2,1.8357495E-2,1.7046455E-1,2.8948987E-2,-1.4847581E-2,3.6975857E-2,1.5462546E-1,4.704339E-3],"split_indices":[80,78,75,64,30,40,45,33,1,0,0,50,72,53,80,0,0,0,0,0,0,0,0,0,0,0,0],"split_type":[0,0,0,0,0,0,0,0,0,0,0,0,0,0,0,0,0,0,0,0,0,0,0,0,0,0,0],"sum_hessian":[3.197E3,1.97E2,3E3,1.72E2,2.5E1,1.134E3,1.866E3,1.52E2,2E1,1.4E1,1.1E1,8.29E2,3.05E2,1.65E3,2.16E2,1E1,1.42E2,1E1,1E1,5.65E2,2.64E2,1.1E1,2.94E2,1.602E3,4.8E1,1E1,2.06E2],"tree_param":{"num_deleted":"0","num_feature":"91","num_nodes":"27","size_leaf_vector":"1"}},{"base_weights":[-3.1644234E-4,2.78641E-1,-2.2058558E-1,3.8757533E-2,6.056679E-1,4.303931E-2,-3.5352364E-1,1.6190447E-3,1.1539078E-1,-4.1040683E-1,8.591568E-1,4.1873087E-3,1.049894E-1,-3.8694277E-1,1.6520908E-1,2.2935463E-2,-7.140048E-3,1.1582019E-2,-2.9673496E-2,6.001095E-2,-6.2918165E-3,-4.830528E-3,2.9229334E-2,-2.0644719E-2,1.4866481E-2,1.3458303E-1,-1.4204201E-2],"categories":[],"categories_nodes":[],"categories_segments":[],"categories_sizes":[],"default_left":[0,0,0,0,0,0,0,0,0,0,0,0,0,0,0,0,0,0,0,0,0,0,0,0,0,0,0],"id":19,"left_children":[1,3,5,7,9,11,13,15,-1,17,19,21,-1,23,25,-1,-1,-1,-1,-1,-1,-1,-1,-1,-1,-1,-1],"loss_changes":[1.9526869E2,1.0989664E2,6.2287575E1,6.802352E1,1.5313274E2,4.7406452E1,2.0559433E1,5.2775444E1,0E0,1.4160337E1,1.5983188E2,3.4388046E1,0E0,1.9845673E1,8.273385E1,0E0,0E0,0E0,0E0,0E0,0E0,0E0,0E0,0E0,0E0,0E0,0E0],"parents":[2147483647,0,0,1,1,2,2,3,3,4,4,5,5,6,6,7,7,9,9,10,10,11,11,13,13,14,14],"right_children":[2,4,6,8,10,12,14,16,-1,18,20,22,-1,24,26,-1,-1,-1,-1,-1,-1,-1,-1,-1,-1,-1,-1],"split_conditions":[4.1486765E-3,2.718301E-3,-2.5881904E-1,7.2276883E0,-7.818315E-1,1.7062796E0,1.9875944E0,2.190477E-3,1.1539078E-1,-1.3439084E0,6.4937073E-1,2.9065613E-2,1.049894E-1,3.2408822E0,1.3301393E7,2.2935463E-2,-7.140048E-3,1.1582019E-2,-2.9673496E-2,6.001095E-2,-6.2918165E-3,-4.830528E-3,2.9229334E-2,-2.0644719E-2,1.4866481E-2,1.3458303E-1,-1.4204201E-2],"split_indices":[75,37,66,62,86,52,82,75,0,54,88,45,0,13,71,0,0,0,0,0,0,0,0,0,0,0,0],"split_type":[0,0,0,0,0,0,0,0,0,0,0,0,0,0,0,0,0,0,0,0,0,0,0,0,0,0,0],"sum_hessian":[3.176E3,1.401E3,1.775E3,8.09E2,5.92E2,5.95E2,1.18E3,7.97E2,1.2E1,1.18E2,4.74E2,5.85E2,1E1,1.109E3,7.1E1,1.91E2,6.06E2,2.6E1,9.2E1,3.52E2,1.22E2,4.99E2,8.6E1,1.069E3,4E1,1E1,6.1E1],"tree_param":{"num_deleted":"0","num_feature":"91","num_nodes":"27","size_leaf_vector":"1"}},{"base_weights":[7.770311E-4,1.0276377E0,-6.9390655E-2,2.6061603E-1,3.5129454E0,4.9149832E-1,-1.5048182E-1,1.3520761E-1,3.9053403E-2,1.738549E0,4.6571144E-1,1.2176898E0,1.5144224E-1,-2.4000925E-1,6.739541E-2,1.1709823E-1,-7.4069872E-3,2.0629409E-1,-1.9288108E-2,1.1540248E-1,1.1299952E-2,2.0750081E-2,-1.4103653E-2,-1.510175E-2,2.3054744E-3,9.537283E-2,1.8845818E-3],"categories":[],"categories_nodes":[],"categories_segments":[],"categories_sizes":[],"default_left":[0,0,0,0,0,0,0,0,0,0,0,0,0,0,0,0,0,0,0,0,0,0,0,0,0,0,0],"id":20,"left_children":[1,3,5,7,9,11,13,-1,15,17,-1,19,21,23,25,-1,-1,-1,-1,-1,-1,-1,-1,-1,-1,-1,-1],"loss_changes":[2.2979825E2,3.875893E2,1.3576154E2,8.4619286E1,4.768028E2,9.277724E1,5.0905056E1,0E0,6.3074245E1,1.9468024E2,0E0,1.2898096E2,2.9608662E1,3.2853226E1,4.127274E1,0E0,0E0,0E0,0E0,0E0,0E0,0E0,0E0,0E0,0E0,0E0,0E0],"parents":[2147483647,0,0,1,1,2,2,3,3,4,4,5,5,6,6,8,8,9,9,11,11,12,12,13,13,14,14],"right_children":[2,4,6,8,10,12,14,-1,16,18,-1,20,22,24,26,-1,-1,-1,-1,-1,-1,-1,-1,-1,-1,-1,-1],"split_conditions":[3.1506384E2,1.3012245E-2,-8.660254E-1,-1.5670791E-2,6.6782475E-1,-6.6618425E-1,3.0159992E-1,1.3520761E-1,-9.968504E1,2.1828992E2,4.6571144E-1,-4.1909916E1,6.784277E-1,1.8737456E0,-1.9994949E0,1.1709823E-1,-7.4069872E-3,2.0629409E-1,-1.9288108E-2,1.1540248E-1,1.1299952E-2,2.0750081E-2,-1.4103653E-2,-1.510175E-2,2.3054744E-3,9.537283E-2,1.8845818E-3],"split_indices":[80,38,66,38,14,89,72,0,78,80,0,78,62,82,89,0,0,0,0,0,0,0,0,0,0,0,0],"split_type":[0,0,0,0,0,0,0,0,0,0,0,0,0,0,0,0,0,0,0,0,0,0,0,0,0,0,0],"sum_hessian":[3.186E3,2.03E2,2.983E3,1.56E2,4.7E1,3.76E2,2.607E3,1.2E1,1.44E2,3.7E1,1E1,1.19E2,2.57E2,1.848E3,7.59E2,1E1,1.34E2,1.7E1,2E1,5.6E1,6.3E1,1.6E2,9.7E1,1.519E3,3.29E2,1.1E1,7.48E2],"tree_param":{"num_deleted":"0","num_feature":"91","num_nodes":"27","size_leaf_vector":"1"}},{"base_weights":[3.0493438E-2,2.852537E-1,-1.658307E-1,4.9432103E-2,6.1498076E-1,1.1729123E-1,-2.636952E-1,1.5670546E0,-2.1272356E-2,5.244084E-1,1.7782421E-1,1.8975835E-2,8.718894E-1,-3.1423783E-1,3.4195197E-1,2.762168E-2,1.9068496E-1,2.2729509E-2,-1.0179299E-2,8.102432E-3,4.7530334E-2,3.449107E-2,-4.789738E-3,8.225641E-2,5.9585897E-3,-4.707039E-3,-1.9437471E-2,-1.6058492E-2,3.3740576E-2],"categories":[],"categories_nodes":[],"categories_segments":[],"categories_sizes":[],"default_left":[0,0,0,0,0,0,0,0,0,0,0,0,0,0,0,0,0,0,0,0,0,0,0,0,0,0,0,0,0],"id":21,"left_children":[1,3,5,7,9,11,13,15,17,19,-1,21,23,25,27,-1,-1,-1,-1,-1,-1,-1,-1,-1,-1,-1,-1,-1,-1],"loss_changes":[1.5880873E2,1.0736301E2,4.9725273E1,8.678118E1,1.5118422E2,3.409532E1,4.090915E1,7.95183E1,6.704325E1,8.621945E1,0E0,3.1615759E1,3.0475128E1,2.0103233E1,2.2986916E1,0E0,0E0,0E0,0E0,0E0,0E0,0E0,0E0,0E0,0E0,0E0,0E0,0E0,0E0],"parents":[2147483647,0,0,1,1,2,2,3,3,4,4,5,5,6,6,7,7,8,8,9,9,11,11,12,12,13,13,14,14],"right_children":[2,4,6,8,10,12,14,16,18,20,-1,22,24,26,28,-1,-1,-1,-1,-1,-1,-1,-1,-1,-1,-1,-1,-1,-1],"split_conditions":[4.1486765E-3,2.9139528E-3,-5E-1,-3.181201E-2,2.0160973E0,1.1374851E0,1.5035043E0,3.3049293E0,2.329447E-3,1.0615591E-1,1.7782421E-1,-9.0556145E-1,-7.115148E-1,1.588087E-1,-7.6752245E-1,2.762168E-2,1.9068496E-1,2.2729509E-2,-1.0179299E-2,8.102432E-3,4.7530334E-2,3.449107E-2,-4.789738E-3,8.225641E-2,5.9585897E-3,-4.707039E-3,-1.9437471E-2,-1.6058492E-2,3.3740576E-2],"split_indices":[75,37,66,37,69,7,52,76,75,69,0,72,64,76,70,0,0,0,0,0,0,0,0,0,0,0,0,0,0],"split_type":[0,0,0,0,0,0,0,0,0,0,0,0,0,0,0,0,0,0,0,0,0,0,0,0,0,0,0,0,0],"sum_hessian":[3.173E3,1.381E3,1.792E3,8.06E2,5.75E2,4.6E2,1.332E3,3.5E1,7.71E2,5.59E2,1.6E1,4.08E2,5.2E1,1.23E3,1.02E2,2.5E1,1E1,2.13E2,5.58E2,3.03E2,2.56E2,5.9E1,3.49E2,2.5E1,2.7E1,3.12E2,9.18E2,3.4E1,6.8E1],"tree_param":{"num_deleted":"0","num_feature":"91","num_nodes":"29","size_leaf_vector":"1"}},{"base_weights":[-2.357306E-2,1.8172324E-1,-1.8225399E-1,9.543574E-3,5.724458E-1,8.463983E-2,-2.7417573E-1,5.0530726E-1,-1.2782761E-1,1.0062904E-1,1.0455539E0,-4.240022E-2,9.116933E-1,-3.276363E-1,1.0337202E-1,1.7237587E-1,1.6939702E-2,3.658539E-2,-1.0946515E-2,-6.9173696E-3,5.2270245E-2,7.9564676E-2,4.0474115E-3,7.076922E-2,-6.5982305E-3,1.736788E-1,1.696466E-2,-2.3005614E-2,-9.186546E-3,7.733283E-2,-4.5568068E-4],"categories":[],"categories_nodes":[],"categories_segments":[],"categories_sizes":[],"default_left":[0,0,0,0,0,0,0,0,0,0,0,0,0,0,0,0,0,0,0,0,0,0,0,0,0,0,0,0,0,0,0],"id":22,"left_children":[1,3,5,7,9,11,13,15,17,19,21,23,25,27,29,-1,-1,-1,-1,-1,-1,-1,-1,-1,-1,-1,-1,-1,-1,-1,-1],"loss_changes":[1.02910095E2,9.25733E1,4.3760586E1,6.527753E1,9.3755936E1,4.8142075E1,2.6820175E1,1.0035608E2,5.8838398E1,4.8100513E1,1.1025287E2,5.189298E1,8.789189E1,2.2003448E1,2.69554E1,0E0,0E0,0E0,0E0,0E0,0E0,0E0,0E0,0E0,0E0,0E0,0E0,0E0,0E0,0E0,0E0],"parents":[2147483647,0,0,1,1,2,2,3,3,4,4,5,5,6,6,7,7,8,8,9,9,10,10,11,11,12,12,13,13,14,14],"right_children":[2,4,6,8,10,12,14,16,18,20,22,24,26,28,30,-1,-1,-1,-1,-1,-1,-1,-1,-1,-1,-1,-1,-1,-1,-1,-1],"split_conditions":[4.1486765E-3,7.4915397E-3,-5E-1,-3.8239293E-2,8.994338E-2,2.9065613E-2,1.3596296E0,-2.068873E0,-1.5851315E0,1.1539171E0,5E-1,-9.995764E-1,-8.628884E-1,7.463693E4,3.616987E6,1.7237587E-1,1.6939702E-2,3.658539E-2,-1.0946515E-2,-6.9173696E-3,5.2270245E-2,7.9564676E-2,4.0474115E-3,7.076922E-2,-6.5982305E-3,1.736788E-1,1.696466E-2,-2.3005614E-2,-9.186546E-3,7.733283E-2,-4.5568068E-4],"split_indices":[75,37,66,68,69,45,52,59,3,70,67,64,87,2,71,0,0,0,0,0,0,0,0,0,0,0,0,0,0,0,0],"split_type":[0,0,0,0,0,0,0,0,0,0,0,0,0,0,0,0,0,0,0,0,0,0,0,0,0,0,0,0,0,0,0],"sum_hessian":[3.157E3,1.376E3,1.781E3,9.56E2,4.2E2,4.56E2,1.325E3,2.07E2,7.49E2,2.11E2,2.09E2,3.96E2,6E1,1.161E3,1.64E2,1E1,1.97E2,7.1E1,6.78E2,1.69E2,4.2E1,1.33E2,7.6E1,2.2E1,3.74E2,1E1,5E1,6.03E2,5.58E2,1.1E1,1.53E2],"tree_param":{"num_deleted":"0","num_feature":"91","num_nodes":"31","size_leaf_vector":"1"}},{"base_weights":[6.057E-3,9.5252246E-1,-5.807893E-2,6.8838763E-1,2.2404478E-1,5.174837E-1,-1.4175734E-1,6.8332694E-2,1.9455099E0,1.015793E0,2.372075E-2,-2.029687E-1,2.4292174E-1,-1.7724087E-2,7.7099256E-2,2.4585591E-1,2.2334473E-2,2.4249729E-2,1.10686556E-1,3.6146622E-2,-4.4434345E-3,-1.1520804E-2,1.966972E-2,6.568719E-2,2.2916836E-3],"categories":[],"categories_nodes":[],"categories_segments":[],"categories_sizes":[],"default_left":[0,0,0,0,0,0,0,0,0,0,0,0,0,0,0,0,0,0,0,0,0,0,0,0,0],"id":23,"left_children":[1,3,5,7,-1,9,11,13,15,17,19,21,23,-1,-1,-1,-1,-1,-1,-1,-1,-1,-1,-1,-1],"loss_changes":[1.95121E2,1.8651958E2,1.4495573E2,1.4854727E2,0E0,9.386177E1,6.192613E1,8.104287E1,2.7786328E2,1.19470566E2,1.5321357E1,3.7198326E1,7.5991516E1,0E0,0E0,0E0,0E0,0E0,0E0,0E0,0E0,0E0,0E0,0E0,0E0],"parents":[2147483647,0,0,1,1,2,2,3,3,5,5,6,6,7,7,8,8,9,9,10,10,11,11,12,12],"right_children":[2,4,6,8,-1,10,12,14,16,18,20,22,24,-1,-1,-1,-1,-1,-1,-1,-1,-1,-1,-1,-1],"split_conditions":[3.1506384E2,1.4934832E0,-8.660254E-1,4.9036792E-1,2.2404478E-1,-9.467373E-2,1.1724718E6,5.267808E0,8.2785044E9,1.4669152E5,-1.1567283E0,1.2079886E1,-7.0710677E-1,-1.7724087E-2,7.7099256E-2,2.4585591E-1,2.2334473E-2,2.4249729E-2,1.10686556E-1,3.6146622E-2,-4.4434345E-3,-1.1520804E-2,1.966972E-2,6.568719E-2,2.2916836E-3],"split_indices":[80,64,66,62,0,89,26,83,36,23,22,83,66,0,0,0,0,0,0,0,0,0,0,0,0],"split_type":[0,0,0,0,0,0,0,0,0,0,0,0,0,0,0,0,0,0,0,0,0,0,0,0,0],"sum_hessian":[3.211E3,2.03E2,3.008E3,1.9E2,1.3E1,3.81E2,2.627E3,1.28E2,6.2E1,1.89E2,1.92E2,2.267E3,3.6E2,1E2,2.8E1,2E1,4.2E1,1.32E2,5.7E1,2.6E1,1.66E2,2.168E3,9.9E1,5.5E1,3.05E2],"tree_param":{"num_deleted":"0","num_feature":"91","num_nodes":"25","size_leaf_vector":"1"}},{"base_weights":[2.29255E-2,3.4134808E-1,-1.5596439E-1,3.0394658E-1,1.787856E-1,-2.1028128E-1,2.685105E-1,1.0397025E-1,7.5618047E-1,-2.3658329E-1,7.803491E-1,1.4592278E-1,1.2295461E-1,2.4741625E-3,7.897552E-2,1.590271E-1,2.832365E-2,-3.1078473E-2,-9.689185E-3,7.208829E-2,-1.7990455E-2,9.731841E-2,4.234885E-4],"categories":[],"categories_nodes":[],"categories_segments":[],"categories_sizes":[],"default_left":[0,0,0,0,0,0,0,0,0,0,0,0,0,0,0,0,0,0,0,0,0,0,0],"id":24,"left_children":[1,3,5,7,-1,9,11,13,15,17,19,-1,21,-1,-1,-1,-1,-1,-1,-1,-1,-1,-1],"loss_changes":[1.8178241E2,1.373988E2,4.715437E1,1.0257074E2,0E0,4.734294E1,8.882293E1,6.3192783E1,1.578756E2,2.8896828E1,3.6070576E1,0E0,4.592249E1,0E0,0E0,0E0,0E0,0E0,0E0,0E0,0E0,0E0,0E0],"parents":[2147483647,0,0,1,1,2,2,3,3,5,5,6,6,7,7,8,8,9,9,10,10,12,12],"right_children":[2,4,6,8,-1,10,12,14,16,18,20,-1,22,-1,-1,-1,-1,-1,-1,-1,-1,-1,-1],"split_conditions":[3.7813259E-3,3.26744E0,2.9065613E-2,7.468713E-1,1.787856E-1,2.61E0,6.130519E2,1.3372111E9,-7.8922576E-1,-7.818315E-1,4.4913742E-1,1.4592278E-1,3.616987E6,2.4741625E-3,7.897552E-2,1.590271E-1,2.832365E-2,-3.1078473E-2,-9.689185E-3,7.208829E-2,-1.7990455E-2,9.731841E-2,4.234885E-4],"split_indices":[75,64,45,41,0,53,80,42,72,86,72,0,71,0,0,0,0,0,0,0,0,0,0],"split_type":[0,0,0,0,0,0,0,0,0,0,0,0,0,0,0,0,0,0,0,0,0,0,0],"sum_hessian":[3.189E3,1.147E3,2.042E3,1.135E3,1.2E1,1.811E3,2.31E2,7.88E2,3.47E2,1.765E3,4.6E1,1.1E1,2.2E2,7.61E2,2.7E1,2.4E1,3.23E2,1.75E2,1.59E3,2.9E1,1.7E1,1.2E1,2.08E2],"tree_param":{"num_deleted":"0","num_feature":"91","num_nodes":"23","size_leaf_vector":"1"}},{"base_weights":[1.0600666E-2,8.655585E-1,-4.7636356E-2,2.2460727E-1,5.342488E-1,3.626081E-1,-1.5673473E-1,1.8664236E-1,3.1504977E-1,7.5924546E-1,1.6127568E-3,4.761999E-1,-1.842046E-1,6.340571E-2,-2.0326434E-2,5.904396E-3,6.890123E-2,4.852928E-2,-3.8359098E-3,1.4738269E-1,1.6641064E-3,-4.007123E-3,-1.6652664E-2],"categories":[],"categories_nodes":[],"categories_segments":[],"categories_sizes":[],"default_left":[0,0,0,0,0,0,0,0,0,0,0,0,0,0,0,0,0,0,0,0,0,0,0],"id":25,"left_children":[1,3,5,-1,7,9,11,-1,13,15,17,19,21,-1,-1,-1,-1,-1,-1,-1,-1,-1,-1],"loss_changes":[1.6004915E2,2.4340974E2,1.3466533E2,0E0,1.3093268E2,9.041512E1,4.138652E1,0E0,1.2301419E2,1.1910489E2,2.5362835E1,1.07974236E2,3.523259E1,0E0,0E0,0E0,0E0,0E0,0E0,0E0,0E0,0E0,0E0],"parents":[2147483647,0,0,1,1,2,2,4,4,5,5,6,6,8,8,9,9,10,10,11,11,12,12],"right_children":[2,4,6,-1,8,10,12,-1,14,16,18,20,22,-1,-1,-1,-1,-1,-1,-1,-1,-1,-1],"split_conditions":[3.1506384E2,-7.2201043E-1,-7.0710677E-1,2.2460727E-1,5.6191504E10,-1.17461875E-1,2.0139082E-3,1.8664236E-1,-4.3425423E-1,4.3388373E-1,-4.152774E-1,1.4642681E0,2.06E0,6.340571E-2,-2.0326434E-2,5.904396E-3,6.890123E-2,4.852928E-2,-3.8359098E-3,1.4738269E-1,1.6641064E-3,-4.007123E-3,-1.6652664E-2],"split_indices":[80,72,66,0,33,89,75,0,31,86,4,13,53,0,0,0,0,0,0,0,0,0,0],"split_type":[0,0,0,0,0,0,0,0,0,0,0,0,0,0,0,0,0,0,0,0,0,0,0],"sum_hessian":[3.211E3,2.04E2,3.007E3,1.6E1,1.88E2,6.31E2,2.376E3,1.1E1,1.77E2,3E2,3.31E2,9.8E1,2.278E3,7.6E1,1.01E2,1.48E2,1.52E2,2.4E1,3.07E2,1.4E1,8.4E1,1.342E3,9.36E2],"tree_param":{"num_deleted":"0","num_feature":"91","num_nodes":"23","size_leaf_vector":"1"}},{"base_weights":[-2.1161484E-3,2.5236034E-1,-1.3733487E-1,-3.1571847E-1,4.1753778E-1,2.2643451E-1,-1.8278575E-1,-4.357711E-1,1.1506974E-1,7.5534356E-1,2.0824831E-2,9.75132E-1,-8.66812E-2,-3.1166473E-1,-6.108564E-2,-2.9299084E-2,4.25285E-3,3.3066023E-2,2.1010475E-1,2.6397247E-2,-1.387012E-2,1.0306718E-1,3.3239918E-4,-1.11226635E-2,6.835341E-2,-2.3244368E-2,-8.046061E-3,8.932937E-3,-8.625422E-3],"categories":[],"categories_nodes":[],"categories_segments":[],"categories_sizes":[],"default_left":[0,0,0,0,0,0,0,0,0,0,0,0,0,0,0,0,0,0,0,0,0,0,0,0,0,0,0,0,0],"id":26,"left_children":[1,3,5,7,9,11,13,15,-1,17,19,21,23,25,27,-1,-1,-1,-1,-1,-1,-1,-1,-1,-1,-1,-1,-1,-1],"loss_changes":[1.0899957E2,1.0326537E2,3.4245125E1,7.873576E1,1.1408482E2,5.4092033E1,2.8803326E1,1.8719597E1,0E0,1.4580884E2,5.960766E1,7.131404E1,3.236235E1,2.048851E1,2.535412E1,0E0,0E0,0E0,0E0,0E0,0E0,0E0,0E0,0E0,0E0,0E0,0E0,0E0,0E0],"parents":[2147483647,0,0,1,1,2,2,3,3,4,4,5,5,6,6,7,7,9,9,10,10,11,11,12,12,13,13,14,14],"right_children":[2,4,6,8,10,12,14,16,-1,18,20,22,24,26,28,-1,-1,-1,-1,-1,-1,-1,-1,-1,-1,-1,-1,-1,-1],"split_conditions":[3.7120897E-3,-7.818315E-1,-1.3467866E0,1.8179368E0,2.5881904E-1,4.5744005E10,4.5928977E-5,7.0710677E-1,1.1506974E-1,9.303888E9,-3.2823268E-1,4.146229E-1,1.1586237E0,3.5088804E-2,-5E-1,-2.9299084E-2,4.25285E-3,3.3066023E-2,2.1010475E-1,2.6397247E-2,-1.387012E-2,1.0306718E-1,3.3239918E-4,-1.11226635E-2,6.835341E-2,-2.3244368E-2,-8.046061E-3,8.932937E-3,-8.625422E-3],"split_indices":[75,86,89,31,67,33,28,66,0,36,31,62,72,11,66,0,0,0,0,0,0,0,0,0,0,0,0,0,0],"split_type":[0,0,0,0,0,0,0,0,0,0,0,0,0,0,0,0,0,0,0,0,0,0,0,0,0,0,0,0,0],"sum_hessian":[3.166E3,1.098E3,2.068E3,2.47E2,8.51E2,2.29E2,1.839E3,2.37E2,1E1,4.59E2,3.92E2,6.7E1,1.62E2,8.92E2,9.47E2,1.84E2,5.3E1,4.48E2,1.1E1,1.45E2,2.47E2,3.1E1,3.6E1,1.49E2,1.3E1,4.41E2,4.51E2,3E2,6.47E2],"tree_param":{"num_deleted":"0","num_feature":"91","num_nodes":"29","size_leaf_vector":"1"}},{"base_weights":[1.8751945E-2,5.303959E-1,-6.7816E-2,4.3206057E-1,1.969385E-1,2.1814452E-1,-1.4531937E-1,2.9682633E-1,2.2776399E0,1.0437286E0,8.8525645E-2,-1.7454351E-1,4.2183396E-1,3.9220985E-2,-1.0992186E-2,1.0633197E-2,1.7826895E-1,2.2871383E-1,2.3629462E-2,-8.04728E-3,2.1717887E-2,-1.0892677E-2,9.558727E-3,1.14404894E-1,-4.347071E-3],"categories":[],"categories_nodes":[],"categories_segments":[],"categories_sizes":[],"default_left":[0,0,0,0,0,0,0,0,0,0,0,0,0,0,0,0,0,0,0,0,0,0,0,0,0],"id":27,"left_children":[1,3,5,7,-1,9,11,13,15,17,19,21,23,-1,-1,-1,-1,-1,-1,-1,-1,-1,-1,-1,-1],"loss_changes":[1.435439E2,1.5505289E2,6.143783E1,1.1312706E2,0E0,6.3038044E1,3.619803E1,1.07800835E2,8.129765E1,1.5864835E2,4.4270134E1,3.291079E1,1.02016525E2,0E0,0E0,0E0,0E0,0E0,0E0,0E0,0E0,0E0,0E0,0E0,0E0],"parents":[2147483647,0,0,1,1,2,2,3,3,5,5,6,6,7,7,8,8,9,9,10,10,11,11,12,12],"right_children":[2,4,6,8,-1,10,12,14,16,18,20,22,24,-1,-1,-1,-1,-1,-1,-1,-1,-1,-1,-1,-1],"split_conditions":[4.42664E2,9.303888E9,-7.0710677E-1,1E0,1.969385E-1,-1.3467866E0,1.2079886E1,-4.01814E-1,8.884806E-1,-3.8239293E-2,5.904266E-5,1.3047783E0,5.957318E2,3.9220985E-2,-1.0992186E-2,1.0633197E-2,1.7826895E-1,2.2871383E-1,2.3629462E-2,-8.04728E-3,2.1717887E-2,-1.0892677E-2,9.558727E-3,1.14404894E-1,-4.347071E-3],"split_indices":[80,36,66,85,0,89,83,88,20,68,28,52,80,0,0,0,0,0,0,0,0,0,0,0,0],"split_type":[0,0,0,0,0,0,0,0,0,0,0,0,0,0,0,0,0,0,0,0,0,0,0,0,0],"sum_hessian":[3.238E3,4.68E2,2.77E3,4.56E2,1.2E1,5.9E2,2.18E3,4.26E2,3E1,7.9E1,5.11E2,2.074E3,1.06E2,2.19E2,2.07E2,1.2E1,1.8E1,1E1,6.9E1,2.97E2,2.14E2,1.855E3,2.19E2,2.2E1,8.4E1],"tree_param":{"num_deleted":"0","num_feature":"91","num_nodes":"25","size_leaf_vector":"1"}},{"base_weights":[1.1121403E-2,4.5837715E-1,-5.789137E-2,2.0433979E-1,3.6132443E-1,1.3556489E-2,-2.5329685E-1,2.0384315E-1,2.5977102E-1,1.9120133E-1,-7.94751E-2,5.2689057E-2,-2.745731E-1,-9.008588E-3,4.0807214E-2,6.5009496E-3,1.478812E-1,-7.858398E-3,1.1217001E-2,-1.8030463E-3,-1.8499574E-2],"categories":[],"categories_nodes":[],"categories_segments":[],"categories_sizes":[],"default_left":[0,0,0,0,0,0,0,0,0,0,0,0,0,0,0,0,0,0,0,0,0],"id":28,"left_children":[1,3,5,-1,7,9,11,-1,13,15,17,-1,19,-1,-1,-1,-1,-1,-1,-1,-1],"loss_changes":[9.859201E1,1.4844568E2,3.8644375E1,0E0,1.558521E2,3.350922E1,2.0818386E1,0E0,9.9833E1,1.1727827E2,3.1422213E1,0E0,1.6559715E1,0E0,0E0,0E0,0E0,0E0,0E0,0E0,0E0],"parents":[2147483647,0,0,1,1,2,2,4,4,5,5,6,6,8,8,9,9,10,10,12,12],"right_children":[2,4,6,-1,8,10,12,-1,14,16,18,-1,20,-1,-1,-1,-1,-1,-1,-1,-1],"split_conditions":[4.230499E2,4.5137834E10,9.970884E-2,2.0433979E-1,-1.0111531E0,6.903301E2,-7.9473853E-1,2.0384315E-1,3.0458996E-1,1.3431493E9,1.4424007E-2,5.2689057E-2,1.32E0,-9.008588E-3,4.0807214E-2,6.5009496E-3,1.478812E-1,-7.858398E-3,1.1217001E-2,-1.8030463E-3,-1.8499574E-2],"split_indices":[80,33,63,0,76,80,83,0,21,42,5,0,53,0,0,0,0,0,0,0,0],"split_type":[0,0,0,0,0,0,0,0,0,0,0,0,0,0,0,0,0,0,0,0,0],"sum_hessian":[3.191E3,4.26E2,2.765E3,1E1,4.16E2,2.025E3,7.4E2,1E1,4.06E2,6.96E2,1.329E3,1.1E1,7.29E2,2.27E2,1.79E2,6.82E2,1.4E1,1.059E3,2.7E2,2.09E2,5.2E2],"tree_param":{"num_deleted":"0","num_feature":"91","num_nodes":"21","size_leaf_vector":"1"}},{"base_weights":[-9.474565E-3,7.6713E-1,-6.0723856E-2,4.9685788E-1,2.273304E-1,3.8085476E-1,-1.2585652E-1,2.5301151E0,1.17486455E-1,6.4466566E-1,-1.0976436E-1,5.5080724E-1,-1.5061864E-1,3.393405E-1,-3.1094025E-3,-1.1026427E-2,6.31248E-2,6.291538E-2,1.0272939E-2,-1.2673578E-2,7.620798E-2,8.534012E-2,-3.4111366E-4,-2.106562E-3,-1.3156307E-2],"categories":[],"categories_nodes":[],"categories_segments":[],"categories_sizes":[],"default_left":[0,0,0,0,0,0,0,0,0,0,0,0,0,0,0,0,0,0,0,0,0,0,0,0,0],"id":29,"left_children":[1,3,5,7,-1,9,11,13,15,17,19,21,23,-1,-1,-1,-1,-1,-1,-1,-1,-1,-1,-1,-1],"loss_changes":[1.2666073E2,1.9846968E2,8.593213E1,1.4213953E2,0E0,4.9825634E1,4.3674606E1,3.2109918E2,6.114638E1,6.697402E1,3.1958155E1,5.9486404E1,3.0631176E1,0E0,0E0,0E0,0E0,0E0,0E0,0E0,0E0,0E0,0E0,0E0,0E0],"parents":[2147483647,0,0,1,1,2,2,3,3,5,5,6,6,7,7,8,8,9,9,10,10,11,11,12,12],"right_children":[2,4,6,8,-1,10,12,14,16,18,20,22,24,-1,-1,-1,-1,-1,-1,-1,-1,-1,-1,-1,-1],"split_conditions":[3.1506384E2,1.4934832E0,-8.660254E-1,-1.0292011E0,2.273304E-1,3.05543E-1,-1.9384546E8,5.5724816E4,1.5507503E0,3.9730254E-3,1.9497588E0,4.5340965E-3,7.992332E9,3.393405E-1,-3.1094025E-3,-1.1026427E-2,6.31248E-2,6.291538E-2,1.0272939E-2,-1.2673578E-2,7.620798E-2,8.534012E-2,-3.4111366E-4,-2.106562E-3,-1.3156307E-2],"split_indices":[80,64,66,70,0,54,6,26,0,75,82,75,36,0,0,0,0,0,0,0,0,0,0,0,0],"split_type":[0,0,0,0,0,0,0,0,0,0,0,0,0,0,0,0,0,0,0,0,0,0,0,0,0],"sum_hessian":[3.182E3,1.96E2,2.986E3,1.84E2,1.2E1,3.83E2,2.603E3,2.8E1,1.56E2,2.49E2,1.34E2,9.1E1,2.512E3,1E1,1.8E1,1.21E2,3.5E1,1.03E2,1.46E2,1.24E2,1E1,2.9E1,6.2E1,1.28E3,1.232E3],"tree_param":{"num_deleted":"0","num_feature":"91","num_nodes":"25","size_leaf_vector":"1"}},{"base_weights":[1.502491E-2,2.2834973E-1,-1.4686964E-1,1.19712435E-1,1.9818215E-1,4.5701602E-1,-1.7797093E-1,4.649616E-2,5.741461E-1,-3.43362E-1,9.50877E-1,-1.0876447E-1,-3.9665398E-1,9.389506E-2,5.105197E-4,1.4244405E-2,7.613138E-2,-5.13761E-2,-1.2298573E-3,8.128633E-2,8.106138E-3,-1.694253E-2,3.7305593E-4,-2.4081124E-2,-2.2838865E-3],"categories":[],"categories_nodes":[],"categories_segments":[],"categories_sizes":[],"default_left":[0,0,0,0,0,0,0,0,0,0,0,0,0,0,0,0,0,0,0,0,0,0,0,0,0],"id":30,"left_children":[1,3,5,-1,7,9,11,13,15,17,19,21,23,-1,-1,-1,-1,-1,-1,-1,-1,-1,-1,-1,-1],"loss_changes":[1.1148977E2,9.0284805E1,3.4517693E1,0E0,7.8325386E1,3.5962044E1,2.6330776E1,6.498332E1,1.0775604E2,7.5025287E0,2.936591E1,3.554891E1,1.2420647E1,0E0,0E0,0E0,0E0,0E0,0E0,0E0,0E0,0E0,0E0,0E0,0E0],"parents":[2147483647,0,0,1,1,2,2,4,4,5,5,6,6,7,7,8,8,9,9,10,10,11,11,12,12],"right_children":[2,4,6,-1,8,10,12,14,16,18,20,22,24,-1,-1,-1,-1,-1,-1,-1,-1,-1,-1,-1,-1],"split_conditions":[4.1486765E-3,-1.0906303E0,6.9998E-1,1.19712435E-1,1.3558275E5,1.0746735E0,1.2839916E0,-5.76E-3,2.6721349E0,1.6447067E-2,5.0388346E-3,0E0,1.4466345E0,9.389506E-2,5.105197E-4,1.4244405E-2,7.613138E-2,-5.13761E-2,-1.2298573E-3,8.128633E-2,8.106138E-3,-1.694253E-2,3.7305593E-4,-2.4081124E-2,-2.2838865E-3],"split_indices":[75,76,84,0,23,83,84,8,76,73,75,86,72,0,0,0,0,0,0,0,0,0,0,0,0],"split_type":[0,0,0,0,0,0,0,0,0,0,0,0,0,0,0,0,0,0,0,0,0,0,0,0,0],"sum_hessian":[3.226E3,1.392E3,1.834E3,1.8E1,1.374E3,8.9E1,1.745E3,9.8E2,3.94E2,3.4E1,5.5E1,1.327E3,4.18E2,1.8E1,9.62E2,3.03E2,9.1E1,1E1,2.4E1,2.9E1,2.6E1,4.45E2,8.82E2,3.36E2,8.2E1],"tree_param":{"num_deleted":"0","num_feature":"91","num_nodes":"25","size_leaf_vector":"1"}},{"base_weights":[2.9257017E-3,4.189752E-1,-5.8232196E-2,8.1404084E-1,-2.6349671E-2,6.847712E-1,-1.08214475E-1,4.4577945E-2,1.3703086E0,5.3067442E-2,-1.300621E-1,4.3394214E-1,2.210735E-1,-1.6566552E-1,2.0062216E-1,1.1416087E-1,-1.5701285E-2,1.473151E-1,3.1862002E-2,3.269576E-3,-2.5543202E-2,-7.871529E-3,1.1000546E-1,-8.869299E-3,8.4333524E-2,-1.2881842E-2,1.8511968E-2],"categories":[],"categories_nodes":[],"categories_segments":[],"categories_sizes":[],"default_left":[0,0,0,0,0,0,0,0,0,0,0,0,0,0,0,0,0,0,0,0,0,0,0,0,0,0,0],"id":31,"left_children":[1,3,5,7,9,11,13,15,17,-1,19,21,-1,23,25,-1,-1,-1,-1,-1,-1,-1,-1,-1,-1,-1,-1],"loss_changes":[8.199245E1,7.276037E1,1.0429716E2,9.3535446E1,2.2042444E1,1.6349304E2,4.6729286E1,7.557284E1,1.4448871E2,0E0,1.3400766E1,1.7497597E2,0E0,4.834494E1,3.2208557E1,0E0,0E0,0E0,0E0,0E0,0E0,0E0,0E0,0E0,0E0,0E0,0E0],"parents":[2147483647,0,0,1,1,2,2,3,3,4,4,5,5,6,6,7,7,8,8,10,10,11,11,13,13,14,14],"right_children":[2,4,6,8,10,12,14,16,18,-1,20,22,-1,24,26,-1,-1,-1,-1,-1,-1,-1,-1,-1,-1,-1,-1],"split_conditions":[-8.660254E-1,-9.467373E-2,3.1506384E2,0E0,-1.2663933E0,7.260519E4,1.3021286E6,-3.1297266E-2,-1.005537E0,5.3067442E-2,3.794195E3,1.3957488E-2,2.210735E-1,7.957432E4,1.9446408E0,1.1416087E-1,-1.5701285E-2,1.473151E-1,3.1862002E-2,3.269576E-3,-2.5543202E-2,-7.871529E-3,1.1000546E-1,-8.869299E-3,8.4333524E-2,-1.2881842E-2,1.8511968E-2],"split_indices":[66,89,80,86,1,2,19,38,30,0,55,38,0,2,29,0,0,0,0,0,0,0,0,0,0,0,0],"split_type":[0,0,0,0,0,0,0,0,0,0,0,0,0,0,0,0,0,0,0,0,0,0,0,0,0,0,0],"sum_hessian":[3.219E3,4.12E2,2.807E3,2.18E2,1.94E2,1.76E2,2.631E3,9.2E1,1.26E2,1.6E1,1.78E2,1.66E2,1E1,2.219E3,4.12E2,1.2E1,8E1,3.9E1,8.7E1,1.18E2,6E1,1.25E2,4.1E1,2.206E3,1.3E1,1.11E2,3.01E2],"tree_param":{"num_deleted":"0","num_feature":"91","num_nodes":"27","size_leaf_vector":"1"}},{"base_weights":[-6.362747E-3,1.7538308E-1,-1.3666426E-1,1.3979998E-1,2.106153E0,-1.5974274E-1,7.548468E-1,9.1980435E-2,1.2703128E0,2.6921663E-1,-3.064279E-2,-4.9629897E-2,-3.0985814E-1,1.1045752E-1,1.9025278E-1,-1.7899694E-2,1.11231385E-2,-1.1728012E-2,1.1341703E-1,6.628009E-2,-4.78732E-3,-1.7670743E-2,7.0802993E-3,-1.0135503E-2,5.375727E-2],"categories":[],"categories_nodes":[],"categories_segments":[],"categories_sizes":[],"default_left":[0,0,0,0,0,0,0,0,0,0,0,0,0,0,0,0,0,0,0,0,0,0,0,0,0],"id":32,"left_children":[1,3,5,7,9,11,13,15,17,-1,-1,19,21,-1,23,-1,-1,-1,-1,-1,-1,-1,-1,-1,-1],"loss_changes":[7.561226E1,9.106177E1,3.8330044E1,7.056631E1,2.1769852E2,2.9933434E1,3.7931038E1,7.392792E1,8.0336426E1,0E0,0E0,6.646901E1,1.515374E1,0E0,1.2475731E1,0E0,0E0,0E0,0E0,0E0,0E0,0E0,0E0,0E0,0E0],"parents":[2147483647,0,0,1,1,2,2,3,3,4,4,5,5,6,6,7,7,8,8,11,11,12,12,14,14],"right_children":[2,4,6,8,10,12,14,16,18,-1,-1,20,22,-1,24,-1,-1,-1,-1,-1,-1,-1,-1,-1,-1],"split_conditions":[4.062687E-3,9.303888E9,2.61E0,1.3372111E9,1.3799365E0,7.8516316E9,6.2278626E-3,-7.818315E-1,-3.5083725E-3,2.6921663E-1,-3.064279E-2,5.8154144E2,1.1119611E0,1.1045752E-1,3.1017227E-2,-1.7899694E-2,1.11231385E-2,-1.1728012E-2,1.1341703E-1,6.628009E-2,-4.78732E-3,-1.7670743E-2,7.0802993E-3,-1.0135503E-2,5.375727E-2],"split_indices":[75,36,53,42,76,36,75,86,39,0,0,80,35,0,5,0,0,0,0,0,0,0,0,0,0],"split_type":[0,0,0,0,0,0,0,0,0,0,0,0,0,0,0,0,0,0,0,0,0,0,0,0,0],"sum_hessian":[3.191E3,1.332E3,1.859E3,1.309E3,2.3E1,1.813E3,4.6E1,1.257E3,5.2E1,1E1,1.3E1,1.047E3,7.66E2,1.2E1,3.4E1,2.82E2,9.75E2,2.1E1,3.1E1,3.3E1,1.014E3,6.99E2,6.7E1,2.4E1,1E1],"tree_param":{"num_deleted":"0","num_feature":"91","num_nodes":"25","size_leaf_vector":"1"}},{"base_weights":[3.146229E-3,6.817238E-2,-3.2559836E-1,5.461934E-1,4.7944058E-4,-4.6309385E-1,-2.7749533E-2,9.686363E-2,1.067188E0,4.9176374E-1,-7.5054E-2,-1.9213413E-1,-6.279841E-1,-1.5788925E-1,8.39868E-2,1.0249086E-1,-2.7119552E-3,1.0342961E-2,8.9023784E-2,-2.81677E-2,5.4824885E-2,-1.0635768E-2,3.5458442E-3,-2.483568E-2,2.6037246E-2,-7.5932704E-3,-3.5138335E-2,-1.4006868E-2,2.3484169E-2],"categories":[],"categories_nodes":[],"categories_segments":[],"categories_sizes":[],"default_left":[0,0,0,0,0,0,0,0,0,0,0,0,0,0,0,0,0,0,0,0,0,0,0,0,0,0,0,0,0],"id":33,"left_children":[1,3,5,7,9,11,13,15,17,19,21,23,25,27,-1,-1,-1,-1,-1,-1,-1,-1,-1,-1,-1,-1,-1,-1,-1],"loss_changes":[6.8744865E1,8.68604E1,2.1684032E1,7.773498E1,8.743173E1,1.601567E1,3.76668E1,5.3428123E1,9.3936905E1,2.0102359E2,4.1042244E1,3.0437096E1,7.819023E0,1.2234311E1,0E0,0E0,0E0,0E0,0E0,0E0,0E0,0E0,0E0,0E0,0E0,0E0,0E0,0E0,0E0],"parents":[2147483647,0,0,1,1,2,2,3,3,4,4,5,5,6,6,7,7,8,8,9,9,10,10,11,11,12,12,13,13],"right_children":[2,4,6,8,10,12,14,16,18,20,22,24,26,28,-1,-1,-1,-1,-1,-1,-1,-1,-1,-1,-1,-1,-1,-1,-1],"split_conditions":[1.4800287E0,-8.660254E-1,6.520853E-1,2.7604145E-3,2.329447E-3,1.5591486E7,1.9770663E0,-1.7307259E0,7.468328E-3,-9.4030476E-1,-2.624321E-1,5.828E-3,1.7655928E0,8.975104E9,8.39868E-2,1.0249086E-1,-2.7119552E-3,1.0342961E-2,8.9023784E-2,-2.81677E-2,5.4824885E-2,-1.0635768E-2,3.5458442E-3,-2.483568E-2,2.6037246E-2,-7.5932704E-3,-3.5138335E-2,-1.4006868E-2,2.3484169E-2],"split_indices":[88,66,52,39,75,71,82,69,69,30,51,8,88,36,0,0,0,0,0,0,0,0,0,0,0,0,0,0,0],"split_type":[0,0,0,0,0,0,0,0,0,0,0,0,0,0,0,0,0,0,0,0,0,0,0,0,0,0,0,0,0],"sum_hessian":[3.215E3,2.685E3,5.3E2,3.32E2,2.353E3,3.62E2,1.68E2,1.79E2,1.53E2,3.13E2,2.04E3,1.38E2,2.24E2,1.57E2,1.1E1,1.2E1,1.67E2,7E1,8.3E1,1.14E2,1.99E2,1.05E3,9.9E2,9.7E1,4.1E1,3.1E1,1.93E2,1.32E2,2.5E1],"tree_param":{"num_deleted":"0","num_feature":"91","num_nodes":"29","size_leaf_vector":"1"}},{"base_weights":[-2.9198758E-3,1.847888E-1,-1.0934517E-1,1.5183419E-1,1.6458723E-1,-1.24845445E-1,8.914742E-1,-1.535153E-2,7.015923E-1,3.5605937E-1,-1.5091619E-1,1.215748E-1,-1.019407E-2,-2.7063356E-3,1.18302286E-1,8.484481E-2,2.1681843E-2,4.244887E-3,1.0333329E-1,-4.6744104E-3,-1.8666988E-2],"categories":[],"categories_nodes":[],"categories_segments":[],"categories_sizes":[],"default_left":[0,0,0,0,0,0,0,0,0,0,0,0,0,0,0,0,0,0,0,0,0],"id":34,"left_children":[1,3,5,7,-1,9,11,13,15,17,19,-1,-1,-1,-1,-1,-1,-1,-1,-1,-1],"loss_changes":[6.3559338E1,1.17005005E2,3.154149E1,1.04858734E2,0E0,2.5120857E1,5.3011505E1,8.06936E1,6.999257E1,4.738602E1,2.4174976E1,0E0,0E0,0E0,0E0,0E0,0E0,0E0,0E0,0E0,0E0],"parents":[2147483647,0,0,1,1,2,2,3,3,5,5,6,6,7,7,8,8,9,9,10,10],"right_children":[2,4,6,8,-1,10,12,14,16,18,20,-1,-1,-1,-1,-1,-1,-1,-1,-1,-1],"split_conditions":[3.7813259E-3,3.26744E0,3.225713E-2,1.6451392E5,1.6458723E-1,6.9998E-1,-1.458158E0,2.4852083E2,-1.1599995E0,5.5709668E-2,3.7696276E0,1.215748E-1,-1.019407E-2,-2.7063356E-3,1.18302286E-1,8.484481E-2,2.1681843E-2,4.244887E-3,1.0333329E-1,-4.6744104E-3,-1.8666988E-2],"split_indices":[75,64,45,23,0,84,54,78,89,68,76,0,0,0,0,0,0,0,0,0,0],"split_type":[0,0,0,0,0,0,0,0,0,0,0,0,0,0,0,0,0,0,0,0,0],"sum_hessian":[3.18E3,1.15E3,2.03E3,1.139E3,1.1E1,2E3,3E1,8.74E2,2.65E2,1.02E2,1.898E3,1.2E1,1.8E1,8.61E2,1.3E1,5.5E1,2.1E2,8.9E1,1.3E1,1.51E3,3.88E2],"tree_param":{"num_deleted":"0","num_feature":"91","num_nodes":"21","size_leaf_vector":"1"}},{"base_weights":[1.9246306E-2,3.2150248E-1,-5.7485905E-2,-1.9759597E-1,5.169243E-1,4.1196173E-1,-1.339857E-1,9.2914276E-2,-3.300495E-1,4.690879E-2,9.0206337E-1,-1.0705928E-2,1.87962E0,-1.7495583E-1,2.0467159E-1,-2.3409598E-2,4.6744548E-2,-1.2185242E-2,2.9338604E-2,7.7892E-2,2.1933515E-2,-6.236861E-3,1.4004296E-1,9.093819E-3,2.2352408E-1,-1.2984854E-2,9.458677E-5,-1.7322391E-2,2.1483196E-2],"categories":[],"categories_nodes":[],"categories_segments":[],"categories_sizes":[],"default_left":[0,0,0,0,0,0,0,0,0,0,0,0,0,0,0,0,0,0,0,0,0,0,0,0,0,0,0,0,0],"id":35,"left_children":[1,3,5,7,9,11,13,-1,15,17,19,21,23,25,27,-1,-1,-1,-1,-1,-1,-1,-1,-1,-1,-1,-1,-1,-1],"loss_changes":[7.514311E1,6.668079E1,9.278977E1,4.9476074E1,8.6209984E1,2.2476706E2,3.0862717E1,0E0,3.0097176E1,3.4065903E1,7.873413E1,9.049275E1,3.5500977E2,2.974408E1,2.991661E1,0E0,0E0,0E0,0E0,0E0,0E0,0E0,0E0,0E0,0E0,0E0,0E0,0E0,0E0],"parents":[2147483647,0,0,1,1,2,2,3,3,4,4,5,5,6,6,8,8,9,9,10,10,11,11,12,12,13,13,14,14],"right_children":[2,4,6,8,10,12,14,-1,16,18,20,22,24,26,28,-1,-1,-1,-1,-1,-1,-1,-1,-1,-1,-1,-1,-1,-1],"split_conditions":[-7.0710677E-1,-4.3388373E-1,2.354815E-3,-1.7536116E0,-4.5226156E-5,1.4423208E-2,1.3047783E0,9.2914276E-2,2.5612535E0,5.342384E3,-1.38E-4,1.3331629E9,-5.0916016E-1,9.048486E-3,-7.6752245E-1,-2.3409598E-2,4.6744548E-2,-1.2185242E-2,2.9338604E-2,7.7892E-2,2.1933515E-2,-6.236861E-3,1.4004296E-1,9.093819E-3,2.2352408E-1,-1.2984854E-2,9.458677E-5,-1.7322391E-2,2.1483196E-2],"split_indices":[66,86,75,41,39,38,52,0,13,61,10,42,30,50,70,0,0,0,0,0,0,0,0,0,0,0,0,0,0],"split_type":[0,0,0,0,0,0,0,0,0,0,0,0,0,0,0,0,0,0,0,0,0,0,0,0,0,0,0,0,0],"sum_hessian":[3.237E3,6.55E2,2.582E3,1.79E2,4.76E2,3.61E2,2.221E3,1E1,1.69E2,2.15E2,2.61E2,2.81E2,8E1,1.982E3,2.39E2,1.53E2,1.6E1,1.4E2,7.5E1,1.07E2,1.54E2,2.71E2,1E1,4.9E1,3.1E1,1.34E3,6.42E2,6.9E1,1.7E2],"tree_param":{"num_deleted":"0","num_feature":"91","num_nodes":"29","size_leaf_vector":"1"}},{"base_weights":[8.102385E-3,4.1015342E-1,-5.142243E-2,-2.290579E-1,6.5496665E-1,1.0350181E0,-7.695666E-2,7.126925E-2,-4.0115136E-1,5.445761E-1,1.7432965E-1,3.149455E0,-3.098804E-1,1.6511397E-1,-1.4267874E-1,-2.6043454E-2,2.8086662E-2,1.0797844E-1,1.8133143E-2,2.6524404E-1,5.349217E-2,6.679653E-2,-4.5317423E-2,1.2922037E-1,1.2064697E-3,-1.861859E-2,-3.4420416E-3],"categories":[],"categories_nodes":[],"categories_segments":[],"categories_sizes":[],"default_left":[0,0,0,0,0,0,0,0,0,0,0,0,0,0,0,0,0,0,0,0,0,0,0,0,0,0,0],"id":36,"left_children":[1,3,5,7,9,11,13,-1,15,17,-1,19,21,23,25,-1,-1,-1,-1,-1,-1,-1,-1,-1,-1,-1,-1],"loss_changes":[7.663941E1,6.482189E1,7.732693E1,3.3212032E1,9.1160995E1,1.8325693E2,4.337439E1,0E0,1.2392305E1,8.386949E1,0E0,1.0574835E2,4.04348E1,1.981871E2,3.6292606E1,0E0,0E0,0E0,0E0,0E0,0E0,0E0,0E0,0E0,0E0,0E0,0E0],"parents":[2147483647,0,0,1,1,2,2,3,3,4,4,5,5,6,6,8,8,9,9,11,11,12,12,13,13,14,14],"right_children":[2,4,6,8,10,12,14,-1,16,18,-1,20,22,24,26,-1,-1,-1,-1,-1,-1,-1,-1,-1,-1,-1,-1],"split_conditions":[-8.660254E-1,-4.3388373E-1,2.1828992E2,-2.0935853E0,2.0110722E0,2.257329E0,-5.948249E-1,7.126925E-2,2.5676062E0,4.6721902E2,1.7432965E-1,9.9E-6,1.676235E0,3.1506384E2,1.269521E3,-2.6043454E-2,2.8086662E-2,1.0797844E-1,1.8133143E-2,2.6524404E-1,5.349217E-2,6.679653E-2,-4.5317423E-2,1.2922037E-1,1.2064697E-3,-1.861859E-2,-3.4420416E-3],"split_indices":[66,86,80,87,82,13,49,0,13,80,0,10,82,80,61,0,0,0,0,0,0,0,0,0,0,0,0],"split_type":[0,0,0,0,0,0,0,0,0,0,0,0,0,0,0,0,0,0,0,0,0,0,0,0,0,0,0],"sum_hessian":[3.199E3,4.12E2,2.787E3,1.14E2,2.98E2,6.3E1,2.724E3,1E1,1.04E2,2.88E2,1E1,2.4E1,3.9E1,5.81E2,2.143E3,9.3E1,1.1E1,2.8E1,2.6E2,1.1E1,1.3E1,1E1,2.9E1,3.1E1,5.5E2,5.2E2,1.623E3],"tree_param":{"num_deleted":"0","num_feature":"91","num_nodes":"27","size_leaf_vector":"1"}},{"base_weights":[1.18129574E-4,2.3601733E-1,-8.261838E-2,1.8685326E-1,1.544057E-1,-9.5351756E-2,1.1120962E0,-1.5620697E-1,4.8732287E-1,-2.0132244E-1,2.162963E-2,1.2026137E-1,-2.4044909E-2,-2.9389411E-2,8.809532E-3,4.5544755E-2,-2.3706965E-3,2.7370842E-3,-1.2826315E-2,8.940529E-2,-4.4332174E-4],"categories":[],"categories_nodes":[],"categories_segments":[],"categories_sizes":[],"default_left":[0,0,0,0,0,0,0,0,0,0,0,0,0,0,0,0,0,0,0,0,0],"id":37,"left_children":[1,3,5,7,-1,9,11,13,15,17,19,-1,-1,-1,-1,-1,-1,-1,-1,-1,-1],"loss_changes":[6.2529793E1,1.15759056E2,3.6073814E1,8.4531075E1,0E0,2.9117136E1,5.2847862E1,5.5088593E1,9.910988E1,1.7449444E1,6.0313335E1,0E0,0E0,0E0,0E0,0E0,0E0,0E0,0E0,0E0,0E0],"parents":[2147483647,0,0,1,1,2,2,3,3,5,5,6,6,7,7,8,8,9,9,10,10],"right_children":[2,4,6,8,-1,10,12,14,16,18,20,-1,-1,-1,-1,-1,-1,-1,-1,-1,-1],"split_conditions":[5.6863586E2,1.3374085E9,3.228565E-2,2.6802072E4,1.544057E-1,1.6504195E0,1.0440882E0,8.362453E-1,2.5881904E-1,5.605868E9,1.6533036E0,1.2026137E-1,-2.4044909E-2,-2.9389411E-2,8.809532E-3,4.5544755E-2,-2.3706965E-3,2.7370842E-3,-1.2826315E-2,8.940529E-2,-4.4332174E-4],"split_indices":[80,42,45,18,0,82,84,24,67,36,82,0,0,0,0,0,0,0,0,0,0],"split_type":[0,0,0,0,0,0,0,0,0,0,0,0,0,0,0,0,0,0,0,0,0],"sum_hessian":[3.201E3,8.31E2,2.37E3,8.18E2,1.3E1,2.346E3,2.4E1,3.82E2,4.36E2,1.231E3,1.115E3,1.3E1,1.1E1,1.66E2,2.16E2,2.43E2,1.93E2,2.18E2,1.013E3,1.8E1,1.097E3],"tree_param":{"num_deleted":"0","num_feature":"91","num_nodes":"21","size_leaf_vector":"1"}},{"base_weights":[-1.00240195E-2,1.201673E-1,-1.6216613E-1,6.169753E-1,2.5728121E-2,-2.8094873E-1,3.223928E-2,3.3881858E-2,1.5453613E0,2.8452462E-1,-9.216279E-2,-3.29801E-1,2.2548862E-1,5.7945544E-1,-8.343981E-2,1.2069329E-1,-8.076058E-3,2.5719306E-1,1.849871E-2,-2.3121056E-3,4.351544E-2,-6.5962444E-3,3.303873E-2,4.70058E-2,-1.7399698E-2,1.0309791E-1,-3.040114E-3,6.545174E-2,-6.462735E-4,-8.956867E-3,4.6527E-2],"categories":[],"categories_nodes":[],"categories_segments":[],"categories_sizes":[],"default_left":[0,0,0,0,0,0,0,0,0,0,0,0,0,0,0,0,0,0,0,0,0,0,0,0,0,0,0,0,0,0,0],"id":38,"left_children":[1,3,5,7,9,11,13,15,17,19,21,23,25,27,29,-1,-1,-1,-1,-1,-1,-1,-1,-1,-1,-1,-1,-1,-1,-1,-1],"loss_changes":[6.334853E1,8.075981E1,3.4094597E1,1.4865707E2,4.4254093E1,2.2747185E1,3.5546772E1,7.967465E1,4.4588635E2,8.8088745E1,2.9852901E1,1.9582527E1,4.291241E1,4.2501038E1,4.501893E1,0E0,0E0,0E0,0E0,0E0,0E0,0E0,0E0,0E0,0E0,0E0,0E0,0E0,0E0,0E0,0E0],"parents":[2147483647,0,0,1,1,2,2,3,3,4,4,5,5,6,6,7,7,8,8,9,9,10,10,11,11,12,12,13,13,14,14],"right_children":[2,4,6,8,10,12,14,16,18,20,22,24,26,28,30,-1,-1,-1,-1,-1,-1,-1,-1,-1,-1,-1,-1,-1,-1,-1,-1],"split_conditions":[2.5881904E-1,4.5395203E2,7.619088E4,5E-1,-5E-1,1.9094728E0,-8.7154734E-1,-1.2692355E0,-3.1250474E-1,4.286E-3,1.2079886E1,-2.9848545E0,4.6083875E2,2.4881746E-1,1.9545183E0,1.2069329E-1,-8.076058E-3,2.5719306E-1,1.849871E-2,-2.3121056E-3,4.351544E-2,-6.5962444E-3,3.303873E-2,4.70058E-2,-1.7399698E-2,1.0309791E-1,-3.040114E-3,6.545174E-2,-6.462735E-4,-8.956867E-3,4.6527E-2],"split_indices":[67,80,2,66,66,3,88,49,3,8,83,89,80,62,82,0,0,0,0,0,0,0,0,0,0,0,0,0,0,0,0],"split_type":[0,0,0,0,0,0,0,0,0,0,0,0,0,0,0,0,0,0,0,0,0,0,0,0,0,0,0,0,0,0,0],"sum_hessian":[3.196E3,1.722E3,1.474E3,2.74E2,1.448E3,9.15E2,5.59E2,1.69E2,1.05E2,4.53E2,9.95E2,8.35E2,8E1,9.7E1,4.62E2,1.2E1,1.57E2,2.5E1,8E1,2.9E2,1.63E2,9.46E2,4.9E1,1.1E1,8.24E2,1E1,7E1,4.3E1,5.4E1,4.23E2,3.9E1],"tree_param":{"num_deleted":"0","num_feature":"91","num_nodes":"31","size_leaf_vector":"1"}},{"base_weights":[-5.9494935E-3,-1.11988E-1,1.3047265E-1,-1.3116516E-1,9.5118433E-1,3.1996658E-1,-1.9206668E-1,-2.548201E-1,4.209893E-2,1.0940152E-1,-1.6943034E-2,-5.5581696E-2,6.704339E-1,-7.849798E-2,-1.578659E-1,5.3694665E-2,-1.36726815E-2,7.473789E-2,4.369977E-4,4.2147543E-2,-1.2695903E-2,2.6420413E-2,1.3765071E-1,4.5276206E-2,-9.902048E-3],"categories":[],"categories_nodes":[],"categories_segments":[],"categories_sizes":[],"default_left":[0,0,0,0,0,0,0,0,0,0,0,0,0,0,0,0,0,0,0,0,0,0,0,0,0],"id":39,"left_children":[1,3,5,7,9,11,13,15,17,-1,-1,19,21,-1,23,-1,-1,-1,-1,-1,-1,-1,-1,-1,-1],"loss_changes":[4.492969E1,3.568207E1,8.307417E1,3.6840088E1,5.038955E1,1.1276324E2,2.3283253E1,2.5046478E1,3.453338E1,0E0,0E0,7.393478E1,1.292476E2,0E0,2.1127686E1,0E0,0E0,0E0,0E0,0E0,0E0,0E0,0E0,0E0,0E0],"parents":[2147483647,0,0,1,1,2,2,3,3,4,4,5,5,6,6,7,7,8,8,11,11,12,12,14,14],"right_children":[2,4,6,8,10,12,14,16,18,-1,-1,20,22,-1,24,-1,-1,-1,-1,-1,-1,-1,-1,-1,-1],"split_conditions":[2.1509947E-3,2.6E0,2.3741165E-2,7.365223E4,1.0279982E-2,7.468328E-3,1.642479E-3,-7.000182E-1,-1.3250593E0,1.0940152E-1,-1.6943034E-2,-1.0563419E0,2.1320688E-2,-7.849798E-2,8.25912E2,5.3694665E-2,-1.36726815E-2,7.473789E-2,4.369977E-4,4.2147543E-2,-1.2695903E-2,2.6420413E-2,1.3765071E-1,4.5276206E-2,-9.902048E-3],"split_indices":[37,53,38,2,50,69,75,52,1,0,0,87,38,0,61,0,0,0,0,0,0,0,0,0,0],"split_type":[0,0,0,0,0,0,0,0,0,0,0,0,0,0,0,0,0,0,0,0,0,0,0,0,0],"sum_hessian":[3.104E3,1.747E3,1.357E3,1.717E3,3E1,8.55E2,5.02E2,1.002E3,7.15E2,1.5E1,1.5E1,4.13E2,4.42E2,1.1E1,4.91E2,1.3E1,9.89E2,1.5E1,7E2,7.4E1,3.39E2,4.15E2,2.7E1,1.7E1,4.74E2],"tree_param":{"num_deleted":"0","num_feature":"91","num_nodes":"25","size_leaf_vector":"1"}},{"base_weights":[1.1235261E-3,8.079671E-2,-2.1273813E-1,6.29058E-1,6.5455283E-3,-6.4454186E-1,-1.17358945E-1,2.1552303E-1,4.4431543E-1,4.8699287E-1,-6.288695E-2,1.4548043E-2,-7.781118E-1,5.758562E-1,-1.782155E-1,-3.064116E-3,6.929105E-2,6.3499175E-3,4.988369E-2,2.5515988E-2,-4.6556713E-3,5.845087E-3,-4.538968E-2,1.0689173E-1,-6.946524E-3,-1.0484496E-2,4.3559156E-2],"categories":[],"categories_nodes":[],"categories_segments":[],"categories_sizes":[],"default_left":[0,0,0,0,0,0,0,0,0,0,0,0,0,0,0,0,0,0,0,0,0,0,0,0,0,0,0],"id":40,"left_children":[1,3,5,7,9,11,13,-1,15,17,19,-1,21,23,25,-1,-1,-1,-1,-1,-1,-1,-1,-1,-1,-1,-1],"loss_changes":[5.3932552E1,9.384809E1,3.5226154E1,1.8464006E2,6.7891174E1,1.964315E1,2.9804476E1,0E0,1.2541144E2,4.700831E1,3.0794127E1,0E0,1.5970314E1,6.413634E1,2.1552486E1,0E0,0E0,0E0,0E0,0E0,0E0,0E0,0E0,0E0,0E0,0E0,0E0],"parents":[2147483647,0,0,1,1,2,2,3,3,4,4,5,5,6,6,8,8,9,9,10,10,12,12,13,13,14,14],"right_children":[2,4,6,8,10,12,14,-1,16,18,20,-1,22,24,26,-1,-1,-1,-1,-1,-1,-1,-1,-1,-1,-1,-1],"split_conditions":[6.16558E-1,4.0285773E2,2.7659312E-3,1.6184865E0,-8.660254E-1,-9.380552E-1,3.3400485E-3,2.1552303E-1,4.9036792E-1,2.7604145E-3,4.4168086E10,1.4548043E-2,1.2737608E0,-4.7026998E-1,1.7062796E0,-3.064116E-3,6.929105E-2,6.3499175E-3,4.988369E-2,2.5515988E-2,-4.6556713E-3,5.845087E-3,-4.538968E-2,1.0689173E-1,-6.946524E-3,-1.0484496E-2,4.3559156E-2],"split_indices":[88,80,75,29,66,51,75,0,62,39,33,0,13,54,52,0,0,0,0,0,0,0,0,0,0,0,0],"split_type":[0,0,0,0,0,0,0,0,0,0,0,0,0,0,0,0,0,0,0,0,0,0,0,0,0,0,0],"sum_hessian":[3.164E3,2.306E3,8.58E2,2.74E2,2.032E3,1.54E2,7.04E2,1.2E1,2.62E2,2.56E2,1.776E3,1.9E1,1.35E2,5.6E1,6.48E2,1.71E2,9.1E1,1.51E2,1.05E2,8.8E1,1.688E3,1.7E1,1.18E2,1.7E1,3.9E1,6.3E2,1.8E1],"tree_param":{"num_deleted":"0","num_feature":"91","num_nodes":"27","size_leaf_vector":"1"}},{"base_weights":[1.6069554E-2,1.7366484E-1,-9.722844E-2,-1.4304186E-1,3.7175754E-1,1.0046244E-1,-1.7852679E-1,-2.6516724E-1,1.486492E0,2.471403E-1,1.2205958E0,6.206695E-2,8.913788E-2,-2.1132714E-1,3.0465135E-1,-1.5743809E-2,7.6852955E-2,1.717413E-1,4.2984597E-3,7.1309984E-2,7.4551054E-3,1.8419474E-1,3.840014E-2,1.0223494E-2,-1.2447291E-2,-1.1264939E-2,3.2185744E-2,7.193198E-2,-4.7296486E-3],"categories":[],"categories_nodes":[],"categories_segments":[],"categories_sizes":[],"default_left":[0,0,0,0,0,0,0,0,0,0,0,0,0,0,0,0,0,0,0,0,0,0,0,0,0,0,0,0,0],"id":41,"left_children":[1,3,5,7,9,11,13,15,17,19,21,23,-1,25,27,-1,-1,-1,-1,-1,-1,-1,-1,-1,-1,-1,-1,-1,-1],"loss_changes":[5.7071987E1,8.395579E1,2.9903482E1,1.02760864E2,8.66084E1,3.4714027E1,2.0943256E1,4.336339E1,9.758535E1,8.274109E1,1.1378714E2,2.3563982E1,0E0,1.4856918E1,3.830051E1,0E0,0E0,0E0,0E0,0E0,0E0,0E0,0E0,0E0,0E0,0E0,0E0,0E0,0E0],"parents":[2147483647,0,0,1,1,2,2,3,3,4,4,5,5,6,6,7,7,8,8,9,9,10,10,11,11,13,13,14,14],"right_children":[2,4,6,8,10,12,14,16,18,20,22,24,-1,26,28,-1,-1,-1,-1,-1,-1,-1,-1,-1,-1,-1,-1,-1,-1],"split_conditions":[4.062687E-3,-7.1115226E-1,1.2960222E-1,4.7635922E0,8.9834195E-1,3.208709E-2,1.9875944E0,9.7706885E2,5.7491382E10,-9.3072456E-1,-6.2729E-1,8.6276865E-1,8.913788E-2,3.605543E3,7.527351E-1,-1.5743809E-2,7.6852955E-2,1.717413E-1,4.2984597E-3,7.1309984E-2,7.4551054E-3,1.8419474E-1,3.840014E-2,1.0223494E-2,-1.2447291E-2,-1.1264939E-2,3.2185744E-2,7.193198E-2,-4.7296486E-3],"split_indices":[75,14,0,76,52,45,82,80,33,72,3,24,0,57,0,0,0,0,0,0,0,0,0,0,0,0,0,0,0],"split_type":[0,0,0,0,0,0,0,0,0,0,0,0,0,0,0,0,0,0,0,0,0,0,0,0,0,0,0,0,0],"sum_hessian":[3.194E3,1.336E3,1.858E3,5.14E2,8.22E2,5.41E2,1.317E3,4.79E2,3.5E1,7.18E2,1.04E2,5.3E2,1.1E1,1.234E3,8.3E1,4.67E2,1.2E1,1.4E1,2.1E1,5.4E1,6.64E2,1.5E1,8.9E1,3.64E2,1.66E2,1.215E3,1.9E1,2.1E1,6.2E1],"tree_param":{"num_deleted":"0","num_feature":"91","num_nodes":"29","size_leaf_vector":"1"}},{"base_weights":[-1.3289753E-2,3.005435E-1,-5.757507E-2,1.4674178E-1,2.1674232E-1,-1.1005309E-2,-3.3120015E-1,1.2229031E-1,1.3131242E-1,-7.9313713E-1,7.083155E-3,-1.8090051E-1,-6.5799075E-1,2.6742758E-3,9.788976E-2,8.804838E-3,-5.237508E-2,5.590632E-3,-6.514106E-3,3.2362673E-2,-1.5530347E-2,-3.917229E-3,-3.6701478E-2],"categories":[],"categories_nodes":[],"categories_segments":[],"categories_sizes":[],"default_left":[0,0,0,0,0,0,0,0,0,0,0,0,0,0,0,0,0,0,0,0,0,0,0],"id":42,"left_children":[1,3,5,-1,7,9,11,-1,13,15,17,19,21,-1,-1,-1,-1,-1,-1,-1,-1,-1,-1],"loss_changes":[4.41754E1,8.580614E1,3.5475914E1,0E0,7.2164894E1,3.3797867E1,1.9689262E1,0E0,5.2147327E1,1.3584686E1,3.3532555E1,3.0136679E1,5.4588547E0,0E0,0E0,0E0,0E0,0E0,0E0,0E0,0E0,0E0,0E0],"parents":[2147483647,0,0,1,1,2,2,4,4,5,5,6,6,8,8,9,9,10,10,11,11,12,12],"right_children":[2,4,6,-1,8,10,12,-1,14,16,18,20,22,-1,-1,-1,-1,-1,-1,-1,-1,-1,-1],"split_conditions":[-8.641535E-1,-7.757993E-1,1.8399317E0,1.4674178E-1,5.2318833E9,-1.6281106E0,4.5835415E1,1.2229031E-1,5.4790623E-2,-9.187379E-1,2.5881904E-1,-8.222293E-1,-2.0432448E0,2.6742758E-3,9.788976E-2,8.804838E-3,-5.237508E-2,5.590632E-3,-6.514106E-3,3.2362673E-2,-1.5530347E-2,-3.917229E-3,-3.6701478E-2],"split_indices":[72,76,88,0,36,88,78,0,27,69,67,35,3,0,0,0,0,0,0,0,0,0,0],"split_type":[0,0,0,0,0,0,0,0,0,0,0,0,0,0,0,0,0,0,0,0,0,0,0],"sum_hessian":[3.178E3,3.92E2,2.786E3,1.1E1,3.81E2,2.382E3,4.04E2,1.3E1,3.68E2,5.3E1,2.329E3,2.78E2,1.26E2,3.54E2,1.4E1,1.1E1,4.2E1,1.322E3,1.007E3,3.7E1,2.41E2,1.5E1,1.11E2],"tree_param":{"num_deleted":"0","num_feature":"91","num_nodes":"23","size_leaf_vector":"1"}},{"base_weights":[3.8008906E-3,8.267441E-2,-2.220649E-1,5.792384E-1,1.4894881E-2,-2.6792443E-1,2.815006E-1,1.5347165E0,-9.303806E-2,9.386718E-4,8.4965035E-2,1.7805563E-1,-3.3565322E-1,-1.6532576E-1,1.1133504E-1,1.1781457E-2,1.4965199E-1,-1.9353861E-2,6.884545E-2,1.3964112E-2,-3.8264287E-3,-1.338236E-2,3.768347E-2,-1.3641462E-2,-3.3466566E-2,2.4288183E-2,-2.1684818E-2],"categories":[],"categories_nodes":[],"categories_segments":[],"categories_sizes":[],"default_left":[0,0,0,0,0,0,0,0,0,0,0,0,0,0,0,0,0,0,0,0,0,0,0,0,0,0,0],"id":43,"left_children":[1,3,5,7,9,11,13,15,17,19,-1,21,23,25,-1,-1,-1,-1,-1,-1,-1,-1,-1,-1,-1,-1,-1],"loss_changes":[5.665558E1,7.929486E1,1.9079834E1,1.8207068E2,4.863082E1,2.2880814E1,6.054678E1,2.2062714E2,7.261506E1,4.446042E1,0E0,2.590559E1,1.3474899E1,1.0165262E1,0E0,0E0,0E0,0E0,0E0,0E0,0E0,0E0,0E0,0E0,0E0,0E0,0E0],"parents":[2147483647,0,0,1,1,2,2,3,3,4,4,5,5,6,6,7,7,8,8,9,9,11,11,12,12,13,13],"right_children":[2,4,6,8,10,12,14,16,18,20,-1,22,24,26,-1,-1,-1,-1,-1,-1,-1,-1,-1,-1,-1,-1,-1],"split_conditions":[6.4937073E-1,4.0285773E2,2.0566094E0,2.194888E0,7.954609E4,-1.391E-3,1.0557933E-2,2.5881904E-1,1.0737349E0,-7.0710677E-1,8.4965035E-2,6.877771E-1,8.5791314E-1,1.148152E0,1.1133504E-1,1.1781457E-2,1.4965199E-1,-1.9353861E-2,6.884545E-2,1.3964112E-2,-3.8264287E-3,-1.338236E-2,3.768347E-2,-1.3641462E-2,-3.3466566E-2,2.4288183E-2,-2.1684818E-2],"split_indices":[88,80,0,13,2,8,39,66,84,66,0,0,72,89,0,0,0,0,0,0,0,0,0,0,0,0,0],"split_type":[0,0,0,0,0,0,0,0,0,0,0,0,0,0,0,0,0,0,0,0,0,0,0,0,0,0,0],"sum_hessian":[3.179E3,2.357E3,8.22E2,2.82E2,2.075E3,7.54E2,6.8E1,1.16E2,1.66E2,2.059E3,1.6E1,9.9E1,6.55E2,5.6E1,1.2E1,6.2E1,5.4E1,1.39E2,2.7E1,4.48E2,1.611E3,5.6E1,4.3E1,5.53E2,1.02E2,1.6E1,4E1],"tree_param":{"num_deleted":"0","num_feature":"91","num_nodes":"27","size_leaf_vector":"1"}},{"base_weights":[1.9851182E-2,2.180022E-1,-5.7142746E-2,1.6094181E-1,1.7253533E-1,1.7236905E-1,-1.20812036E-1,3.0772293E-1,-5.1724184E-1,-6.985942E-2,5.1856536E-1,-2.2351219E-1,-7.0899366E-3,-9.605481E-3,2.625302E-2,3.7529008E-3,-3.7160516E-2,4.7609217E-2,-9.837068E-3,1.6528742E-2,1.05918065E-1,-1.463374E-2,-2.8361307E-4,-7.15084E-3,1.0367807E-2],"categories":[],"categories_nodes":[],"categories_segments":[],"categories_sizes":[],"default_left":[0,0,0,0,0,0,0,0,0,0,0,0,0,0,0,0,0,0,0,0,0,0,0,0,0],"id":44,"left_children":[1,3,5,-1,7,9,11,13,15,17,19,21,23,-1,-1,-1,-1,-1,-1,-1,-1,-1,-1,-1,-1],"loss_changes":[4.7811665E1,1.1876208E2,3.298226E1,0E0,8.079888E1,4.1171814E1,2.0612642E1,7.8784E1,1.9128036E1,3.7588985E1,5.9805614E1,1.3950104E1,2.4508366E1,0E0,0E0,0E0,0E0,0E0,0E0,0E0,0E0,0E0,0E0,0E0,0E0],"parents":[2147483647,0,0,1,1,2,2,4,4,5,5,6,6,7,7,8,8,9,9,10,10,11,11,12,12],"right_children":[2,4,6,-1,8,10,12,14,16,18,20,22,24,-1,-1,-1,-1,-1,-1,-1,-1,-1,-1,-1,-1],"split_conditions":[5.8154144E2,5.352457E9,8.419328E-1,1.6094181E-1,2.33E0,3.358E-3,2.0156815E0,7.048268E4,7.163607E4,2.5324586E-1,1.8095084E0,8.819669E-1,2.447531E5,-9.605481E-3,2.625302E-2,3.7529008E-3,-3.7160516E-2,4.7609217E-2,-9.837068E-3,1.6528742E-2,1.05918065E-1,-1.463374E-2,-2.8361307E-4,-7.15084E-3,1.0367807E-2],"split_indices":[80,36,84,0,53,8,13,2,2,83,41,11,23,0,0,0,0,0,0,0,0,0,0,0,0],"split_type":[0,0,0,0,0,0,0,0,0,0,0,0,0,0,0,0,0,0,0,0,0,0,0,0,0],"sum_hessian":[3.131E3,8.76E2,2.255E3,1.2E1,8.64E2,4.89E2,1.766E3,7.23E2,1.41E2,2.88E2,2.01E2,9.27E2,8.39E2,2.19E2,5.04E2,3.9E1,1.02E2,3.1E1,2.57E2,1.81E2,2E1,7.03E2,2.24E2,5.14E2,3.25E2],"tree_param":{"num_deleted":"0","num_feature":"91","num_nodes":"25","size_leaf_vector":"1"}},{"base_weights":[-1.1711302E-2,2.8801623E-1,-5.6018736E-2,6.514175E-1,-8.168167E-2,7.4711464E-2,-6.336317E-2,2.5436655E-1,1.6346738E0,7.8595495E-1,-1.8666147E-1,-6.8577296E-1,-4.225072E-2,-2.2784276E-2,3.9358895E-2,4.196734E-2,2.0619932E-1,8.1644125E-2,-2.37791E-3,9.856405E-3,-2.4195453E-2,-5.6383897E-2,-8.710495E-3,2.615352E-2,-4.139205E-3],"categories":[],"categories_nodes":[],"categories_segments":[],"categories_sizes":[],"default_left":[0,0,0,0,0,0,0,0,0,0,0,0,0,0,0,0,0,0,0,0,0,0,0,0,0],"id":45,"left_children":[1,3,5,7,9,-1,11,13,15,17,19,21,23,-1,-1,-1,-1,-1,-1,-1,-1,-1,-1,-1,-1],"loss_changes":[4.2077755E1,5.492445E1,3.1398901E1,7.981828E1,1.8576895E1,0E0,3.6034874E1,5.6383778E1,1.12851456E2,1.5766546E1,2.0886726E1,2.0018963E1,6.0974426E1,0E0,0E0,0E0,0E0,0E0,0E0,0E0,0E0,0E0,0E0,0E0,0E0],"parents":[2147483647,0,0,1,1,2,2,3,3,4,4,6,6,7,7,8,8,9,9,10,10,11,11,12,12],"right_children":[2,4,6,8,10,-1,12,14,16,18,20,22,24,-1,-1,-1,-1,-1,-1,-1,-1,-1,-1,-1,-1],"split_conditions":[-8.660254E-1,-1.17461875E-1,7.7290926E-4,1.4669152E5,-1.2562281E0,7.4711464E-2,4.7839853E-1,2.3839779E-3,2.569972E0,1.5556811E5,-3.735087E-1,1.642479E-3,2.0339054E-3,-2.2784276E-2,3.9358895E-2,4.196734E-2,2.0619932E-1,8.1644125E-2,-2.37791E-3,9.856405E-3,-2.4195453E-2,-5.6383897E-2,-8.710495E-3,2.615352E-2,-4.139205E-3],"split_indices":[66,89,75,23,1,0,84,39,76,17,27,75,75,0,0,0,0,0,0,0,0,0,0,0,0],"split_type":[0,0,0,0,0,0,0,0,0,0,0,0,0,0,0,0,0,0,0,0,0,0,0,0,0],"sum_hessian":[3.168E3,4.07E2,2.761E3,2.05E2,2.02E2,1.2E1,2.749E3,1.47E2,5.8E1,2.1E1,1.81E2,8.9E1,2.66E3,6.3E1,8.4E1,4.5E1,1.3E1,1E1,1.1E1,7.9E1,1.02E2,4.7E1,4.2E1,1.77E2,2.483E3],"tree_param":{"num_deleted":"0","num_feature":"91","num_nodes":"25","size_leaf_vector":"1"}},{"base_weights":[-1.899443E-2,-3.1793196E-2,1.0739754E0,7.765499E-2,-3.9357156E-2,1.3454744E-1,8.182527E-2,2.5220844E-1,-8.1500076E-2,-2.7973467E-2,4.4983532E-2,3.1031078E-2,-8.313587E-3,-2.7804872E-2,-2.972453E-3],"categories":[],"categories_nodes":[],"categories_segments":[],"categories_sizes":[],"default_left":[0,0,0,0,0,0,0,0,0,0,0,0,0,0,0],"id":46,"left_children":[1,3,5,-1,7,-1,9,11,13,-1,-1,-1,-1,-1,-1],"loss_changes":[4.4721626E1,3.786397E1,5.8860912E1,0E0,3.873345E1,0E0,1.3124874E1,6.1509716E1,2.873744E1,0E0,0E0,0E0,0E0,0E0,0E0],"parents":[2147483647,0,0,1,1,2,2,4,4,6,6,7,7,8,8],"right_children":[2,4,6,-1,8,-1,10,12,14,-1,-1,-1,-1,-1,-1],"split_conditions":[3.4644547E0,7.7290926E-4,9.4806886E-1,7.765499E-2,-8.660254E-1,1.3454744E-1,1.1778292E-2,-2.1810959E1,1.829541E-3,-2.7973467E-2,4.4983532E-2,3.1031078E-2,-8.313587E-3,-2.7804872E-2,-2.972453E-3],"split_indices":[64,75,84,0,66,0,37,78,50,0,0,0,0,0,0],"split_type":[0,0,0,0,0,0,0,0,0,0,0,0,0,0,0],"sum_hessian":[3.201E3,3.165E3,3.6E1,1.4E1,3.151E3,1.3E1,2.3E1,3.97E2,2.754E3,1.3E1,1E1,2.11E2,1.86E2,1.21E2,2.633E3],"tree_param":{"num_deleted":"0","num_feature":"91","num_nodes":"15","size_leaf_vector":"1"}},{"base_weights":[-1.5467333E-2,-3.3307794E-1,3.618723E-2,6.2683165E-2,-3.9497963E-1,5.84359E-1,-2.5777167E-3,-4.356097E-1,3.7845522E-2,8.0891445E-2,2.3113842E0,2.0950823E-1,-8.9229904E-2,-3.1407442E-2,-1.1885927E-2,7.521939E-2,-6.853542E-3,-1.7924039E-2,1.9346625E-1,4.8646662E-2,5.090327E-3,-3.1894736E-2,-3.052053E-3],"categories":[],"categories_nodes":[],"categories_segments":[],"categories_sizes":[],"default_left":[0,0,0,0,0,0,0,0,0,0,0,0,0,0,0,0,0,0,0,0,0,0,0],"id":47,"left_children":[1,3,5,-1,7,9,11,13,-1,15,17,19,21,-1,-1,-1,-1,-1,-1,-1,-1,-1,-1],"loss_changes":[5.2541065E1,4.4412735E1,5.856052E1,0E0,2.0515778E1,1.5782301E2,4.7274136E1,1.5690643E1,0E0,4.4401073E1,1.722773E2,6.1131218E1,2.814796E1,0E0,0E0,0E0,0E0,0E0,0E0,0E0,0E0,0E0,0E0],"parents":[2147483647,0,0,1,1,2,2,4,4,5,5,6,6,7,7,9,9,10,10,11,11,12,12],"right_children":[2,4,6,-1,8,10,12,14,-1,16,18,20,22,-1,-1,-1,-1,-1,-1,-1,-1,-1,-1],"split_conditions":[-7.818315E-1,-8.875157E-2,2.0339054E-3,6.2683165E-2,3.1668667E-2,1.4423208E-2,-5E-1,6.123234E-17,3.7845522E-2,-1.2988858E-2,-8.5407054E-1,-8.641535E-1,8.91446E2,-3.1407442E-2,-1.1885927E-2,7.521939E-2,-6.853542E-3,-1.7924039E-2,1.9346625E-1,4.8646662E-2,5.090327E-3,-3.1894736E-2,-3.052053E-3],"split_indices":[86,68,75,0,45,38,66,66,0,38,54,72,61,0,0,0,0,0,0,0,0,0,0],"split_type":[0,0,0,0,0,0,0,0,0,0,0,0,0,0,0,0,0,0,0,0,0,0,0],"sum_hessian":[3.199E3,4.47E2,2.752E3,1.6E1,4.31E2,1.81E2,2.571E3,4.17E2,1.4E1,1.41E2,4E1,7.45E2,1.826E3,2.1E2,2.07E2,1.8E1,1.23E2,1.5E1,2.5E1,9.1E1,6.54E2,8.8E1,1.738E3],"tree_param":{"num_deleted":"0","num_feature":"91","num_nodes":"23","size_leaf_vector":"1"}},{"base_weights":[1.1147717E-2,-2.985308E-1,6.359741E-2,8.2979107E-1,-4.0351754E-1,5.499097E-1,1.0148735E-2,-3.246281E-1,1.6300474E-1,-6.66758E-1,-2.4972245E-1,2.2424655E-1,3.8285595E-1,1.7682776E-1,-6.8212174E-2,-3.274266E-2,8.09549E-3,1.7019434E-2,-3.691336E-2,3.0744264E-2,-1.8195195E-2,2.779017E-3,9.4181046E-2,4.4688053E-2,3.1420742E-3,-1.3920831E-2,-4.343028E-4],"categories":[],"categories_nodes":[],"categories_segments":[],"categories_sizes":[],"default_left":[0,0,0,0,0,0,0,0,0,0,0,0,0,0,0,0,0,0,0,0,0,0,0,0,0,0,0],"id":48,"left_children":[1,3,5,7,9,11,13,15,-1,17,19,-1,21,23,25,-1,-1,-1,-1,-1,-1,-1,-1,-1,-1,-1,-1],"loss_changes":[5.237769E1,5.56125E1,7.165241E1,1.1357541E2,1.7069466E1,1.772555E2,3.2505928E1,4.653999E0,0E0,1.1598267E1,2.7051085E1,0E0,1.2887746E2,6.4897736E1,2.114028E1,0E0,0E0,0E0,0E0,0E0,0E0,0E0,0E0,0E0,0E0,0E0,0E0],"parents":[2147483647,0,0,1,1,2,2,3,3,4,4,5,5,6,6,7,7,9,9,10,10,12,12,13,13,14,14],"right_children":[2,4,6,8,10,12,14,16,-1,18,20,-1,22,24,26,-1,-1,-1,-1,-1,-1,-1,-1,-1,-1,-1,-1],"split_conditions":[-7.818315E-1,-1.7536116E0,2.354815E-3,3.5088804E-2,-3.7475255E-1,-9.3072456E-1,-7.8030014E-1,9.990273E-1,1.6300474E-1,5.547398E9,2.9725316E-1,2.2424655E-1,4.3163E1,-8.969684E-1,-1.1360215E0,-3.274266E-2,8.09549E-3,1.7019434E-2,-3.691336E-2,3.0744264E-2,-1.8195195E-2,2.779017E-3,9.4181046E-2,4.4688053E-2,3.1420742E-3,-1.3920831E-2,-4.343028E-4],"split_indices":[86,41,75,11,89,72,1,20,0,36,83,0,78,72,11,0,0,0,0,0,0,0,0,0,0,0,0],"split_type":[0,0,0,0,0,0,0,0,0,0,0,0,0,0,0,0,0,0,0,0,0,0,0,0,0,0,0],"sum_hessian":[3.224E3,4.66E2,2.758E3,3.9E1,4.27E2,2.72E2,2.486E3,2.7E1,1.2E1,1.56E2,2.71E2,1E1,2.62E2,7.95E2,1.691E3,1.6E1,1.1E1,1E1,1.46E2,3.1E1,2.4E2,2.16E2,4.6E1,1.08E2,6.87E2,3.72E2,1.319E3],"tree_param":{"num_deleted":"0","num_feature":"91","num_nodes":"27","size_leaf_vector":"1"}},{"base_weights":[1.6037615E-2,-3.0363423E-1,7.272203E-2,-4.1882733E-1,4.8556426E-1,2.4870075E-1,-6.737196E-2,-2.4034236E-1,-5.9155166E-1,1.347523E-1,-4.187386E-2,1.7417997E-2,5.830059E-1,6.133967E-1,-1.0716139E-1,-1.8994844E-2,4.532329E-2,1.2910227E-2,-3.1748112E-2,4.3641765E-2,-2.6392061E-2,4.763079E-2,-4.7396813E-3,2.1406232E-1,2.4886E-2,-3.391986E-3,1.06976666E-1,-8.626608E-3,7.649465E-3],"categories":[],"categories_nodes":[],"categories_segments":[],"categories_sizes":[],"default_left":[0,0,0,0,0,0,0,0,0,0,0,0,0,0,0,0,0,0,0,0,0,0,0,0,0,0,0,0,0],"id":49,"left_children":[1,3,5,7,9,11,13,15,17,-1,19,21,23,25,27,-1,-1,-1,-1,-1,-1,-1,-1,-1,-1,-1,-1,-1,-1],"loss_changes":[5.8237995E1,4.419723E1,6.736376E1,1.2815178E1,7.263079E1,9.356314E1,4.121504E1,3.3900578E1,8.095757E0,0E0,2.3096676E1,7.5418106E1,1.5351802E2,8.768374E1,2.4483337E1,0E0,0E0,0E0,0E0,0E0,0E0,0E0,0E0,0E0,0E0,0E0,0E0,0E0,0E0],"parents":[2147483647,0,0,1,1,2,2,3,3,4,4,5,5,6,6,7,7,8,8,10,10,11,11,12,12,13,13,14,14],"right_children":[2,4,6,8,10,12,14,16,18,-1,20,22,24,26,28,-1,-1,-1,-1,-1,-1,-1,-1,-1,-1,-1,-1,-1,-1],"split_conditions":[-7.818315E-1,9.465138E-1,6.994132E2,5.8063397E10,-4.904339E-2,2.718301E-3,6.672374E-1,1.4778845E0,-1.2324739E0,1.347523E-1,2.0720646E-1,-1.143885E0,-9.167174E-1,1.1949806E-2,1.1364673E0,-1.8994844E-2,4.532329E-2,1.2910227E-2,-3.1748112E-2,4.3641765E-2,-2.6392061E-2,4.763079E-2,-4.7396813E-3,2.1406232E-1,2.4886E-2,-3.391986E-3,1.06976666E-1,-8.626608E-3,7.649465E-3],"split_indices":[86,52,80,33,68,37,84,1,1,0,62,1,76,40,52,0,0,0,0,0,0,0,0,0,0,0,0,0,0],"split_type":[0,0,0,0,0,0,0,0,0,0,0,0,0,0,0,0,0,0,0,0,0,0,0,0,0,0,0,0,0],"sum_hessian":[3.213E3,4.83E2,2.73E3,4.22E2,6.1E1,1.21E3,1.52E3,2.09E2,2.13E2,1.1E1,5E1,7.16E2,4.94E2,8.3E1,1.437E3,1.87E2,2.2E1,1E1,2.03E2,1.7E1,3.3E1,7.6E1,6.4E2,1E1,4.84E2,5.8E1,2.5E1,1.149E3,2.88E2],"tree_param":{"num_deleted":"0","num_feature":"91","num_nodes":"29","size_leaf_vector":"1"}},{"base_weights":[8.981709E-3,-8.2414544E-1,2.3127092E-2,-5.5132406E-3,-9.852743E-1,3.235014E-1,-2.8086456E-2,-6.9888103E-1,-6.373413E-2,8.878722E-2,1.2253923E0,1.4460413E-1,-1.0079786E-1,-1.658577E-2,-4.881754E-2,2.3315625E-2,-1.9357665E-2,1.6072053E-1,1.4349662E-2,1.0528543E-1,4.154062E-3,-1.0726585E-2,4.39297E-4],"categories":[],"categories_nodes":[],"categories_segments":[],"categories_sizes":[],"default_left":[0,0,0,0,0,0,0,0,0,0,0,0,0,0,0,0,0,0,0,0,0,0,0],"id":50,"left_children":[1,3,5,-1,7,9,11,13,-1,15,17,19,21,-1,-1,-1,-1,-1,-1,-1,-1,-1,-1],"loss_changes":[3.7414948E1,5.878227E0,4.8157383E1,0E0,2.4758263E0,9.628886E1,3.3573925E1,1.9903803E0,0E0,6.541213E1,1.7417767E2,9.5163216E1,2.3478554E1,0E0,0E0,0E0,0E0,0E0,0E0,0E0,0E0,0E0,0E0],"parents":[2147483647,0,0,1,1,2,2,4,4,5,5,6,6,7,7,9,9,10,10,11,11,12,12],"right_children":[2,4,6,-1,8,10,12,14,-1,16,18,20,22,-1,-1,-1,-1,-1,-1,-1,-1,-1,-1],"split_conditions":[-1.6281106E0,-8.472192E-1,4.5395203E2,-5.5132406E-3,1.2246469E-16,1.0762337E0,8.88674E-1,2.2866642E-2,-6.373413E-2,2.194888E0,5.9701285E10,-5.3903484E-1,5.5866784E-1,-1.658577E-2,-4.881754E-2,2.3315625E-2,-1.9357665E-2,1.6072053E-1,1.4349662E-2,1.0528543E-1,4.154062E-3,-1.0726585E-2,4.39297E-4],"split_indices":[88,69,80,0,67,84,84,65,0,13,33,52,52,0,0,0,0,0,0,0,0,0,0],"split_type":[0,0,0,0,0,0,0,0,0,0,0,0,0,0,0,0,0,0,0,0,0,0,0],"sum_hessian":[3.179E3,5.2E1,3.127E3,1E1,4.2E1,4.55E2,2.672E3,2.3E1,1.9E1,3.62E2,9.3E1,7.91E2,1.881E3,1.1E1,1.2E1,2.02E2,1.6E2,2.9E1,6.4E1,2.3E1,7.68E2,9.23E2,9.58E2],"tree_param":{"num_deleted":"0","num_feature":"91","num_nodes":"23","size_leaf_vector":"1"}},{"base_weights":[7.582579E-3,-2.792715E-1,5.5443093E-2,-3.636329E-1,7.3818684E-1,5.36801E-1,6.7385994E-3,1.292465E-1,-4.2635292E-1,-3.46214E-1,1.5723586E-1,2.1015012E-1,3.6611342E-1,2.6841378E-1,-7.511557E-2,-1.647612E-2,7.706734E-2,-2.3209495E-2,1.2983955E-2,4.2936797E-3,-4.1489918E-2,-3.1351342E-3,5.6794267E-2,2.9563844E-2,2.4168115E-4,-4.807404E-4,-1.4435415E-2],"categories":[],"categories_nodes":[],"categories_segments":[],"categories_sizes":[],"default_left":[0,0,0,0,0,0,0,0,0,0,0,0,0,0,0,0,0,0,0,0,0,0,0,0,0,0,0],"id":51,"left_children":[1,3,5,7,9,11,13,15,17,19,-1,-1,21,23,25,-1,-1,-1,-1,-1,-1,-1,-1,-1,-1,-1,-1],"loss_changes":[4.3596355E1,3.9199688E1,6.3780838E1,1.3068455E1,9.2706116E1,1.5444806E2,5.3030605E1,3.1724823E1,9.82309E0,5.3694205E0,0E0,0E0,7.94003E1,5.014671E1,2.6339458E1,0E0,0E0,0E0,0E0,0E0,0E0,0E0,0E0,0E0,0E0,0E0,0E0],"parents":[2147483647,0,0,1,1,2,2,3,3,4,4,5,5,6,6,7,7,8,8,9,9,12,12,13,13,14,14],"right_children":[2,4,6,8,10,12,14,16,18,20,-1,-1,22,24,26,-1,-1,-1,-1,-1,-1,-1,-1,-1,-1,-1,-1],"split_conditions":[-7.818315E-1,1.3985794E0,2.329447E-3,-7.149858E-3,9.975986E-3,-9.2260545E-1,8.726808E-1,7.7228624E-1,2.0132346E7,3.7341633E-1,1.5723586E-1,2.1015012E-1,9.566367E-1,-2.5881904E-1,1.4004775E0,-1.647612E-2,7.706734E-2,-2.3209495E-2,1.2983955E-2,4.2936797E-3,-4.1489918E-2,-3.1351342E-3,5.6794267E-2,2.9563844E-2,2.4168115E-4,-4.807404E-4,-1.4435415E-2],"split_indices":[86,72,75,44,5,72,84,1,48,70,0,0,84,66,14,0,0,0,0,0,0,0,0,0,0,0,0],"split_type":[0,0,0,0,0,0,0,0,0,0,0,0,0,0,0,0,0,0,0,0,0,0,0,0,0,0,0],"sum_hessian":[3.175E3,4.53E2,2.722E3,4.19E2,3.4E1,2.49E2,2.473E3,4.7E1,3.72E2,2.4E1,1E1,1E1,2.39E2,5.89E2,1.884E3,3.6E1,1.1E1,3.53E2,1.9E1,1.3E1,1.1E1,1.54E2,8.5E1,2.64E2,3.25E2,1.443E3,4.41E2],"tree_param":{"num_deleted":"0","num_feature":"91","num_nodes":"27","size_leaf_vector":"1"}},{"base_weights":[1.25621995E-2,-3.8787173E-5,1.0653875E0,2.0525607E-1,-5.4703727E-2,1.565362E-1,2.123844E-1,5.0773644E-1,-7.736399E-2,-2.0330271E-1,1.908017E-2,4.293967E-2,-1.2525759E-2,-1.9041359E-3,4.6153747E-2,-9.613041E-3,1.7978394E-2,2.0996116E-3,-1.4730594E-2,1.35367755E-2,-3.2570888E-3],"categories":[],"categories_nodes":[],"categories_segments":[],"categories_sizes":[],"default_left":[0,0,0,0,0,0,0,0,0,0,0,0,0,0,0,0,0,0,0,0,0],"id":52,"left_children":[1,3,5,7,9,-1,11,13,15,17,19,-1,-1,-1,-1,-1,-1,-1,-1,-1,-1],"loss_changes":[4.2626152E1,3.554884E1,6.594682E1,5.7016666E1,2.7465725E1,0E0,8.654197E0,7.3120964E1,1.7372118E1,1.86501E1,3.549726E1,0E0,0E0,0E0,0E0,0E0,0E0,0E0,0E0,0E0,0E0],"parents":[2147483647,0,0,1,1,2,2,3,3,4,4,6,6,7,7,8,8,9,9,10,10],"right_children":[2,4,6,8,10,-1,12,14,16,18,20,-1,-1,-1,-1,-1,-1,-1,-1,-1,-1],"split_conditions":[3.4644547E0,-7.0710677E-1,-2.1135175E-1,-1.17461875E-1,-8.0251914E-1,1.565362E-1,-7.895254E-1,0E0,1.639925E0,6.16383E9,-4.7026998E-1,4.293967E-2,-1.2525759E-2,-1.9041359E-3,4.6153747E-2,-9.613041E-3,1.7978394E-2,2.0996116E-3,-1.4730594E-2,1.35367755E-2,-3.2570888E-3],"split_indices":[64,66,76,89,30,0,1,86,3,36,54,0,0,0,0,0,0,0,0,0,0],"split_type":[0,0,0,0,0,0,0,0,0,0,0,0,0,0,0,0,0,0,0,0,0],"sum_hessian":[3.204E3,3.167E3,3.7E1,6.65E2,2.502E3,1E1,2.7E1,3.21E2,3.44E2,8.3E2,1.672E3,1.1E1,1.6E1,1.39E2,1.82E2,2.73E2,7.1E1,2.25E2,6.05E2,4.19E2,1.253E3],